  -7.4337021e-02   1.0345184e-01  -5.3469643e-01  -4.8097862e-01   2.4548015e-01  -5.5436151e-03  -4.7707290e-01   8.4634495e-01   4.3108216e-02   9.7090089e-01   9.5716633e-01   4.4524115e-01  -9.1205378e-01   4.9832409e-02  -6.7075650e-01   5.5940078e-01  -5.4531241e-01  -4.8379584e-02  -6.8795975e-01   2.3727939e-01  -1.5383313e-01   9.6342522e-01  -4.7817341e-01  -5.8654555e-01  -5.5814766e-01  -6.8264554e-01  -8.2491888e-01  -2.5386746e-01  -5.7894304e-01  -1.6610443e-01   4.8988527e-01   8.3136374e-01  -4.4618123e-01  -2.5223692e-01   1.6960922e-02  -4.7022520e-02  -1.2599226e-01   5.5092687e-01   8.1440321e-01   4.4849715e-01   7.7412995e-01   4.9776718e-01   8.0292953e-01  -3.2944312e-01   3.8562983e-01   1.8102394e-01  -5.0782146e-01  -3.5573169e-01   6.9599576e-01  -6.4238811e-01  -5.4626463e-01  -9.0042120e-01   2.6246874e-01   8.0234732e-01  -5.7542675e-01   7.2361325e-01   9.5139609e-02  -6.7453643e-01   2.0798531e-01  -6.7262055e-02  -6.6507269e-01   6.7068506e-01  -8.0597031e-01  -7.5005507e-01   2.0103086e-01  -1.2616810e-01  -2.8145142e-01  -4.8012869e-01  -8.5027330e-01   4.9618373e-01  -9.2848792e-01   2.7721127e-01   9.3363533e-01   2.7313147e-01  -6.0910124e-01  -6.6850751e-01   4.9481630e-01  -2.6222095e-01  -1.0880995e-01  -6.7836976e-01  -3.4311384e-01  -6.6478225e-01  -4.9544922e-01   9.1275449e-01   4.4880520e-01   7.1044133e-01  -2.7873163e-02  -7.5468630e-01  -8.7667358e-01  -2.3566126e-01   9.1488570e-01  -1.1195847e-01   1.4349843e-01  -5.6687316e-01  -6.2516655e-02   3.9524846e-01  -7.3220265e-01   7.7023421e-01  -7.6118770e-01   9.9408585e-01   9.7654372e-01   2.5981139e-01  -7.8120017e-02   1.3231231e-01   8.0768401e-02  -9.4691830e-01   6.3301411e-01   4.8843089e-01  -8.4461248e-01   5.6659362e-01   1.6579109e-01  -1.9584452e-01   4.3779643e-01  -6.1544296e-01  -7.3179192e-01  -3.7663952e-01  -7.0140614e-01  -7.2658823e-01  -8.4744376e-03   3.7839168e-01   5.5211291e-02   6.4055488e-02   4.2957100e-01  -9.0758836e-01   5.8740273e-01  -4.4586010e-01   8.1325854e-01  -5.9684225e-01   2.2387652e-01   8.4483428e-01  -7.3289383e-02  -7.6803173e-01   5.2070872e-01  -7.3273783e-01  -9.4782209e-02  -8.9241895e-02   1.0698831e-01  -7.7569830e-01  -2.5658877e-01  -1.4529767e-01   3.6759330e-01  -3.3649570e-01   9.5039344e-01  -9.6405034e-01   2.8092920e-01   6.9431301e-01   1.6436751e-01  -9.7675259e-01  -8.8869345e-02  -7.5033875e-01   1.6040232e-01  -3.1583162e-01   8.1454239e-01   3.8881823e-01  -1.8101882e-01  -2.9284829e-01  -1.5962963e-01   7.0626839e-01   2.0200362e-01  -6.9875266e-01  -2.1531931e-01   4.9520060e-01   8.4574355e-02   5.9352617e-02  -7.2645570e-02  -9.9540046e-01  -5.8186861e-01  -5.4972081e-01  -7.4857970e-01   1.0978394e-01  -3.5229696e-01   6.1470474e-01  -7.8329320e-01   2.5743265e-01  -9.1678088e-01   4.9925636e-01  -9.0821330e-01  -9.0836219e-01  -8.3661793e-01  -1.0902408e-01   4.9161419e-01  -1.2030773e-01   9.0673259e-02   6.7156532e-01   4.0374058e-01   6.6629757e-01  -3.2946025e-01   4.6162375e-03   8.2982456e-01  -3.6638188e-01  -3.7074198e-02   3.8921139e-01   8.9450377e-01  -1.2844712e-01  -8.4967302e-01  -9.6522169e-01  -7.0831324e-01  -9.5180157e-01   1.7206565e-02  -4.9042878e-01  -3.3475453e-01  -4.5934961e-01   9.9171310e-01  -6.0639254e-01   8.3069259e-01  -6.4057934e-01  -7.1862707e-01  -4.8450198e-01   5.3884568e-01  -9.1231083e-01  -2.9058629e-01  -4.1354998e-01  -7.2012752e-01  -2.5849607e-01   6.5386647e-01   4.2430654e-01   6.5380150e-01  -9.7013867e-01  -3.5011962e-01  -1.2734678e-01   8.0975840e-01  -2.8580756e-02  -5.1473481e-01  -1.5794382e-01  -6.8769064e-01   5.3875361e-01  -7.8750315e-01  -9.7821305e-01   8.6176300e-01   1.5079198e-01  -7.0026038e-01   7.0528855e-01   7.3851141e-02   4.3135270e-01   7.7199286e-01   6.4795857e-01   7.3389415e-01   5.6339030e-01  -7.6095797e-01   7.8054993e-01   3.5436316e-01   7.3985925e-01  -7.5147791e-01  -9.4276020e-01  -1.6695699e-01  -6.6183657e-01  -9.2770600e-01  -5.6958714e-01   4.3989176e-01   5.6100598e-01   7.3866092e-01   1.4498658e-01   9.1575173e-01  -5.3968343e-01   9.2620899e-01  -1.5150246e-01  -2.4631938e-01   4.7381173e-01   8.7874979e-01  -5.9170498e-01   5.9522010e-01  -1.6802665e-01  -5.6083757e-01  -3.9456662e-01  -4.0927342e-01  -2.8926198e-01   1.4233917e-01   1.9821041e-01  -1.6100155e-01   5.7686067e-02  -2.3087678e-01   5.9857791e-01   8.8162787e-01  -3.0526340e-01  -8.4557266e-01   7.9088824e-01  -1.1943260e-01  -2.1537169e-01   9.4599712e-01   6.6598388e-01  -8.4164328e-01   4.5286537e-01  -9.3848747e-01  -1.7932785e-02   3.5678496e-01  -1.5107666e-01  -4.7002239e-01   2.3103823e-01  -8.6793338e-01  -1.5069959e-01  -2.9259440e-01  -8.0328313e-01   5.8170064e-01   7.6301717e-01  -1.1530657e-02   8.3101009e-01  -6.7265750e-01  -1.5123175e-01   5.7376898e-01   9.3981781e-01  -8.3784965e-01   9.9786634e-01   1.1471572e-01   8.0679642e-01   3.6157036e-01  -7.3508409e-01  -7.9066138e-01  -4.8688860e-01   2.9288860e-01  -9.9463324e-01   1.1611272e-01  -4.2147830e-01  -7.3542854e-01  -4.2613380e-01  -3.5096279e-01  -4.0548945e-01  -7.0309843e-01  -4.8895129e-01  -3.0156817e-01   8.2489736e-01   6.6766139e-01   2.7079899e-01  -5.3973644e-01  -9.7098347e-01  -1.4295397e-02   8.3107342e-01  -9.1993944e-01   4.1938981e-01  -6.5766904e-01   4.9312820e-01  -8.3350007e-01  -2.0628927e-01  -6.2458737e-01  -6.5148743e-02   5.7179933e-01  -2.0519467e-02   8.5251909e-01  -3.9286382e-01  -1.3870930e-01  -6.4525349e-01  -3.1418545e-01  -4.9736832e-01  -4.1218708e-01  -9.5572715e-01  -1.1348695e-01   4.6397137e-02   1.4473229e-01   1.4333083e-01  -4.5227351e-01   5.9401851e-01   1.2177701e-01  -7.8627095e-01  -5.3705662e-01   8.2401589e-01   4.0706799e-01  -3.1394976e-01  -7.4154513e-01   7.1879855e-01   2.1481756e-01  -5.3558967e-01   2.1464263e-01  -5.4561192e-01  -6.0165241e-01  -9.6025942e-01   2.4844457e-01   3.5710226e-01   7.6071952e-01  -9.7844150e-01  -2.7462047e-01  -8.4865631e-01   7.5889107e-01  -5.0573298e-01   6.5478736e-01  -5.0527157e-01  -8.7494941e-01   9.2925943e-01  -7.1432771e-01  -1.5041703e-01   1.0623344e-01  -2.8217976e-01   4.3339721e-02   1.2382602e-02   8.1628760e-01  -9.7731137e-01  -5.8037719e-02  -2.2166257e-01   1.8309574e-01  -4.9273634e-01   2.7240044e-01  -8.4556473e-02  -2.0213158e-02   8.6825687e-01  -7.7168333e-01  -5.7319239e-01  -1.9095353e-01  -5.0955033e-01  -5.3626528e-01  -8.7959075e-01   7.4093443e-01  -2.9314909e-01  -8.3411194e-01  -7.8480357e-01  -6.8661818e-01  -4.6277573e-01   8.1044587e-01  -2.4038264e-01  -6.7949455e-01  -3.1349487e-01   4.1380839e-01  -8.7028729e-01  -3.1705758e-01  -2.2318403e-01   1.3006070e-01  -1.8243690e-01  -2.9768485e-01   1.5684490e-01   8.4720142e-01  -5.6641848e-01  -6.8658654e-02  -3.8680016e-01   5.9892183e-01   5.9701595e-01  -4.9873010e-01   7.3228940e-01  -9.3567113e-01   5.3232860e-01  -1.1495830e-01   2.6453676e-01   5.5314587e-01  -3.6284853e-01   2.6760035e-01   4.3582347e-01   6.8916760e-01   6.4000553e-01   3.1938974e-01   9.2381006e-02  -8.1526797e-01  -9.0489791e-01  -1.9598077e-01   4.8998638e-01   7.2263232e-01  -8.6279266e-01   5.7817442e-01   5.0819805e-01  -9.0516234e-02   4.2977826e-02  -4.7558093e-01   8.7358596e-01   3.1607146e-01  -7.7789170e-01  -8.1293506e-01  -6.7150485e-01   5.1239934e-01   5.8222421e-01  -5.5111261e-01  -5.8587988e-01   9.0155888e-01   6.2554765e-01   9.0133845e-01   1.6046898e-01   3.0092906e-01  -3.6738710e-01  -6.1574098e-01   7.1512676e-01   7.7595564e-01  -8.3176824e-01   9.4618309e-01   5.4925058e-02  -9.9908956e-01  -3.8486703e-01  -1.2666099e-01   1.6488510e-01  -6.4869926e-02   9.2296402e-01   2.0137457e-01  -4.7549146e-01  -8.5881451e-01  -4.9011715e-03  -1.8967235e-01  -1.2279867e-01  -5.1586330e-01  -6.3314243e-01   5.1362260e-01   3.3557328e-01  -3.3469313e-01   1.8117790e-01  -6.2038725e-01  -6.0891977e-01  -7.6656648e-01  -3.3014871e-01   7.2951838e-01  -8.0844045e-01   5.0555733e-01  -2.2720399e-01  -6.9398551e-01   8.1462076e-01   7.1218087e-01  -9.1431564e-01   3.2199081e-01   7.5376913e-01  -6.3245893e-01  -8.4591768e-01  -9.6917771e-01  -9.2569199e-02  -8.4855864e-01  -5.5036117e-01   8.1018164e-01   3.3331936e-01  -3.8771111e-01  -3.7151568e-01  -3.9691172e-01  -7.7265148e-01  -7.2025765e-01   1.0887818e-01   3.8399997e-01   9.2771967e-01   9.4231419e-01   6.8376347e-02   5.7295411e-01  -6.6989048e-01   7.2883249e-01  -5.7407784e-01   9.7763170e-01   1.2969048e-01   3.7008851e-01  -4.9835169e-01  -2.6588374e-01  -4.8266744e-02  -9.8578451e-01   9.2662146e-01  -9.6779087e-01   9.3858738e-01   8.5007344e-01   4.9139675e-02   4.7710962e-02  -4.1503331e-01   7.3641820e-01   9.1380546e-01   1.3341218e-01  -1.1198500e-01   2.5052877e-01  -4.8579370e-01  -2.1756673e-01  -3.7677272e-01   6.7264451e-01  -5.0931875e-01  -3.9602061e-03   9.7787708e-01   4.7405550e-02   8.4109664e-01   9.4884987e-01  -5.3576573e-01   8.8100940e-01   9.8569451e-01   6.7181328e-01   7.5836315e-01   2.0943769e-01   1.6806343e-01   4.1779107e-02   9.2498330e-01  -7.9409115e-01  -3.8502030e-02   2.5962500e-02   5.3068036e-01  -7.0299154e-01   3.9732282e-01   1.4265122e-01  -1.5238247e-01  -3.8042321e-01  -2.7250531e-01   9.6907598e-01  -4.8285303e-01  -1.5035772e-01  -4.3770471e-01   6.4595645e-01  -4.5357040e-01  -3.9237015e-01  -2.6480323e-01   6.4793491e-01  -4.0009900e-02   4.8683278e-01  -9.4236104e-02   5.4807072e-01  -1.4008228e-01   8.5682397e-01   4.3837446e-01   1.6666607e-01  -1.5047410e-01   2.0217514e-01  -5.0160264e-01   4.0049291e-01  -1.9575533e-03  -2.4969211e-01   8.8267120e-01   7.7838640e-01   1.9794292e-01  -5.3395008e-01  -6.4425195e-01   4.7540315e-01   6.7857578e-01  -8.0072238e-01  -7.4428105e-01   1.5792296e-01  -7.9864809e-01   5.8140583e-01  -4.0966666e-01  -1.1816788e-01   6.7039403e-01   1.7991351e-01  -2.7455999e-01  -8.5875831e-01  -8.0122113e-01   2.2516649e-01  -6.0934600e-01   7.2446354e-01   4.8389258e-01   4.0060842e-01   8.7360425e-01   6.2891082e-01   7.3864222e-01  -4.4217414e-01  -7.4747487e-01  -4.9847387e-01   6.4703444e-01  -9.7279715e-01   5.2042342e-01  -9.3816983e-01  -2.4027499e-01   8.0874420e-01   9.2588270e-01  -7.6956064e-03  -3.6751594e-01  -5.8669512e-01   7.4174886e-01  -2.1971767e-01   7.2887664e-01  -2.9765176e-01  -5.7066951e-01  -4.6657795e-01  -1.5130933e-01  -3.5328510e-01  -1.7592470e-01  -5.5074885e-01  -5.8627466e-01   7.5034588e-01   9.5820161e-01  -7.4419311e-01   8.1069431e-01  -8.2605506e-02  -2.1924957e-02   4.2485509e-01  -3.7336841e-01  -4.0786347e-01   1.3340774e-01   4.0152130e-01   6.2368859e-01   8.1510011e-01  -3.1615003e-01   5.4273381e-01  -5.0645346e-01  -7.5318405e-01  -7.0867980e-01  -9.5732088e-01  -3.1025999e-01   5.1508470e-03   5.8306848e-01   7.6989578e-01  -7.7815753e-01   3.3892350e-01   9.9579573e-01  -1.7785635e-01   5.2066073e-01   7.8468487e-01  -9.3887679e-01  -3.8127921e-01   1.8424180e-01   2.8622927e-01  -7.6290302e-01   2.7810971e-01   4.1273294e-01  -7.0796652e-01  -8.7841356e-01   5.3995205e-01  -7.7297841e-01  -8.7552536e-01  -6.5747859e-02  -3.8876211e-01   2.2359528e-01  -3.5326920e-01   1.6825992e-01  -9.6608226e-01   4.4045512e-01  -1.5972260e-01  -6.0143287e-01  -5.9092344e-01   7.2231211e-01   4.3353097e-01  -2.9234675e-01  -3.9844975e-01  -6.4868652e-01   3.8126707e-01  -5.3730928e-01  -3.4103211e-01  -1.0104429e-01   2.8405975e-01  -6.8726797e-01   9.5824024e-01  -1.2156014e-01  -7.5982449e-01   2.8245845e-01  -9.4603242e-01  -5.9988602e-02  -2.5205211e-01  -5.7107380e-01   9.8837394e-01  -9.5930587e-01   3.8477978e-01   6.1959815e-02   9.9018283e-01   9.8632262e-01   8.5392940e-01  -2.2145353e-01  -7.4593863e-01   8.7857094e-02  -1.8121476e-01   1.7182142e-01  -6.0464960e-01  -5.0566865e-01  -6.5712964e-01   1.5289162e-01   8.9522180e-01   7.8545979e-01   5.6020759e-01   4.2584659e-02  -8.1299198e-01   2.7393837e-01  -2.4597213e-01  -6.0298729e-01   4.8307546e-01  -8.0643939e-01   6.5193008e-02  -7.3834711e-01   5.5701659e-01  -9.6156572e-01  -5.5130597e-01  -6.1732526e-01   3.6723101e-01  -1.2578312e-01  -8.0868936e-01   5.0495587e-01   9.2387711e-01  -5.5203154e-01  -2.1738183e-02  -6.1464557e-01  -6.2158215e-01   6.7637967e-01   4.7444643e-01   2.0869825e-01   2.8631800e-01   8.5768303e-01  -7.7841967e-01   2.7727163e-01   6.2270770e-01   4.2187965e-01  -6.5202830e-01   2.4587893e-01   7.4298757e-01   6.4486242e-01  -1.1245482e-01   1.7883598e-01  -7.6922363e-01  -4.5564375e-01   9.1698390e-01   9.9597408e-01   1.0009608e-01  -3.2588298e-01   3.9983024e-01   2.0149781e-01  -5.0249729e-01   5.7153130e-01  -2.9088449e-01  -1.9754022e-01  -7.8029939e-01   4.0934931e-01   2.3078660e-01  -2.1624042e-01  -8.7190936e-01   8.3226987e-02  -5.3464637e-01   6.3385505e-01  -8.8261336e-01  -5.4382683e-01  -1.8232674e-01  -4.2011387e-01  -1.0130782e-01  -4.2533523e-01   4.7693219e-02  -4.6694227e-02  -2.9205453e-01   3.4870422e-01  -6.4906432e-01   5.8654314e-01  -8.4469608e-01  -3.4347951e-01   8.1137014e-01  -6.2198923e-01  -3.8340593e-01   3.4290175e-01  -9.0878039e-01  -6.0331553e-01   2.8661011e-01  -2.3487269e-01   8.7520567e-01  -8.2779955e-03  -3.4887131e-01  -7.4297900e-01   7.3332257e-01  -8.9500247e-01   9.3390007e-01  -2.4043274e-01  -1.2880003e-01   4.3274975e-01  -3.4166041e-01   7.0531693e-01   3.7030068e-01   7.4818778e-01   7.6707300e-01  -7.5815910e-01  -5.3058119e-01  -2.7775926e-01   3.7012135e-01  -1.2238787e-01  -5.1901210e-01  -1.9157408e-01  -3.9659399e-01   8.8950571e-01   2.6565289e-01  -4.0781110e-01   7.8965118e-01   4.2198605e-01   8.2793714e-01   5.4706280e-01   6.6689876e-01   2.0832593e-01  -7.1305857e-01   1.5818745e-01   7.4781844e-01   6.3919874e-01  -4.4177771e-01   2.1721329e-01  -1.8642045e-01  -3.6966040e-01   1.6571797e-01   9.0227741e-01  -7.6393040e-02   5.0036202e-01  -1.7264555e-02  -1.9776999e-01  -3.4395690e-01   5.9924543e-01   5.8771424e-01   7.7560640e-01   2.5590100e-01  -2.4373700e-01  -1.3369076e-01  -5.7299523e-01  -4.1580594e-01   7.9570648e-01   6.8530627e-01  -2.9861539e-01  -5.4532619e-01   7.0834431e-01   2.5639524e-01  -6.8041954e-01  -6.9080988e-02  -4.3679622e-02   3.0347616e-01  -7.7395387e-01  -1.4069052e-01   3.0279411e-01  -5.1576214e-01   3.5664885e-01   4.2950479e-01  -8.9488818e-01   8.7226339e-01  -7.7191171e-01   9.0215400e-01  -7.1366621e-01  -1.7969007e-01  -5.6883741e-01  -9.2051473e-01  -1.5917235e-01   9.4277179e-01   5.1821447e-01  -1.9293199e-02   5.1294625e-03   7.0389354e-01  -6.9427306e-01   6.4679342e-02  -4.8039322e-01  -7.2315648e-01   5.2301261e-01   7.3249397e-01   9.7840846e-01  -3.7745914e-01  -8.8754856e-01  -9.5660050e-01  -7.5658936e-01   8.6643869e-01   5.2892877e-01  -5.4853876e-01  -8.2328992e-01   4.8997859e-01  -2.5902367e-01   1.0213740e-01  -9.1633580e-01   6.3821966e-01   3.7082827e-01   5.6533488e-01  -9.6254062e-01   8.5389901e-01  -4.4082532e-01   1.6653724e-01  -2.2082283e-01  -3.2351844e-01  -6.8170548e-01   5.6452906e-01   4.4690718e-02  -6.8945981e-01   1.5916689e-01  -1.9547937e-01   5.8461154e-01  -8.7323348e-01  -8.3609630e-01   5.2421226e-01  -1.5410484e-01   1.3606433e-01   7.1575598e-01   9.2364866e-02  -4.0611589e-01  -2.1276715e-01  -9.6726816e-02   7.4408122e-01  -5.9558931e-01  -5.8914109e-01  -2.1998984e-01  -3.7518237e-01   2.7478829e-02  -7.2086760e-01   7.9247260e-01  -7.8205313e-01  -4.1462064e-02   3.6537754e-02   5.9767253e-01  -7.8658452e-01   4.4685347e-01   5.8667616e-01   3.4613044e-01  -3.4205952e-01   1.7007853e-01   9.0867419e-02   1.9942132e-01   4.8612843e-01  -4.0866566e-01   8.9721671e-01  -2.6486917e-01  -8.3789924e-01   5.1339485e-01  -2.1490967e-01   8.4509602e-02  -8.5698439e-01  -6.1536707e-01   5.0642608e-02  -4.9363583e-01   5.3215553e-01  -8.3203160e-01   6.2016889e-01  -2.1140711e-01  -5.4991013e-01   5.3799711e-01   3.9413494e-01   8.8427224e-01  -3.8210787e-01  -9.1515323e-01  -4.6033756e-01  -2.7209843e-01  -4.8662597e-01   2.5225315e-01  -1.8697558e-01  -7.1097513e-01  -2.1467249e-01   1.9341781e-01   9.0867277e-01  -7.0740133e-01  -6.4524072e-02  -1.4717694e-01   4.3785281e-01  -1.0461676e-01   3.6648169e-02   2.7598924e-02
