   9.6041779e-01  -8.7543702e-01   8.3743028e-01   5.7275554e-01   9.4468996e-01  -1.7890731e-01  -8.3212935e-01  -6.0823340e-01   1.1580184e-01   7.1637567e-01  -2.5153232e-01  -2.2185141e-01   4.9128830e-01  -2.0153036e-01  -6.8320752e-01   3.4109394e-01   4.9820156e-01  -3.3490947e-03   1.0218813e-01   6.0502947e-02  -2.5216419e-01  -6.1101001e-01  -3.6609032e-01   3.7729693e-01  -1.1129054e-01   3.3202377e-01  -7.6034487e-01  -9.4267159e-02  -5.2034510e-01   3.8363575e-01  -3.4604027e-01   6.7123342e-01   6.4284830e-01  -2.1839278e-01   1.8722632e-01  -2.2467344e-01   3.6865883e-01  -9.2688397e-01  -9.3603808e-01   1.2975488e-01   8.0336634e-01   1.6159465e-01   4.5956527e-01  -4.1294712e-01   5.1139519e-01  -4.2854066e-01  -7.0563699e-02  -4.9417890e-01   9.0168574e-01  -7.5767252e-01  -5.1501326e-01   2.2489648e-01  -8.4657232e-01  -1.7945202e-01   9.0956413e-01  -1.3489154e-01  -1.0671812e-01  -7.0388537e-01  -2.9555644e-01   5.0519574e-01  -4.5865281e-01  -2.3278645e-01   3.5230061e-01   6.2822784e-01   2.3913760e-01  -2.0076654e-01  -1.4325119e-01  -3.7305210e-01  -5.3500764e-01  -7.3322352e-01   9.5979826e-01  -1.5992383e-01  -2.8785371e-01  -7.2637411e-01  -4.4457397e-01   4.7320566e-01   4.4805587e-01  -1.6395884e-01   7.3649729e-01   5.3174699e-02   7.4970908e-01  -4.9784764e-01  -3.4760730e-01  -3.0629485e-02  -6.4379759e-01  -7.2171640e-01   5.7764114e-01  -1.3451624e-01  -2.8892109e-01   6.9097962e-02   8.1062279e-01   3.4277998e-01  -4.3006490e-01   1.3914970e-02  -3.0536823e-01   5.8524191e-01  -3.3458191e-01  -4.0656480e-01  -3.1815328e-01   4.2276475e-01   1.2992759e-01   4.5180832e-01   4.6120413e-01  -4.4816941e-01  -9.1791278e-02  -2.6184171e-01   2.2201646e-01  -3.5894797e-01   7.3013419e-01   9.8365187e-01  -1.4024152e-02  -1.5927358e-01  -6.8666871e-01   6.9790527e-01  -3.9367415e-01   9.7877612e-01  -5.9435588e-01   3.9679528e-01   4.3898756e-01  -8.0364088e-01   6.7293465e-01  -5.1208841e-01  -8.0120177e-01  -3.6136953e-01   6.4186217e-01  -4.0934439e-01   2.4047024e-02   7.0698080e-02  -6.7554709e-01  -9.4653056e-01  -8.1482523e-01  -5.6453480e-01  -3.5864638e-01  -1.2935049e-01  -2.6057091e-01  -4.4931277e-01  -8.3242841e-01   7.4317853e-01  -5.8230741e-01   5.5331123e-01   6.9227312e-01  -9.5840264e-01  -3.9628715e-02   4.2190454e-01   9.7612974e-01  -5.5115620e-01   2.3267525e-01   5.2526726e-01  -7.9939725e-01  -3.8572652e-01  -2.5065043e-01   5.9104672e-01  -7.5399782e-01   7.0364450e-02  -4.0778200e-01  -5.5114903e-01  -8.7856655e-01   7.2605990e-01  -3.8413387e-01  -4.0225351e-01   8.1768607e-01   2.4901583e-01   7.3849307e-01   8.5172330e-01   3.7518976e-01  -2.0346252e-02  -7.4069257e-01   3.5625962e-01  -5.4993153e-01   5.6721015e-01  -6.2460496e-01   3.7436539e-01  -4.1972920e-02   1.9099726e-02   5.8201109e-01  -6.6883530e-01   2.2241777e-01   7.8721905e-01   7.8548255e-01  -7.3020163e-01  -1.7347547e-01  -8.3450622e-01  -8.2183839e-01   5.9403201e-02   9.4077569e-01   7.7379744e-01   4.4654006e-01  -4.8173456e-01   8.4150136e-01  -7.3401046e-01  -7.6915438e-01  -2.1387233e-01   2.8620207e-01   1.3643386e-01   8.9595539e-01  -4.7225315e-01   1.4051346e-01  -2.7836021e-02   2.5715168e-01  -8.4540225e-01   6.7032734e-02   6.8453254e-01   9.1821086e-01  -8.9832827e-01   5.7873415e-01   5.9935097e-01  -6.2153639e-01  -4.9721916e-01  -5.3866405e-01  -9.1680231e-01   7.8611091e-01   9.4642644e-01  -3.1646262e-01  -6.7655385e-01  -3.8803751e-01   6.1374599e-02  -5.5545933e-02  -1.8011458e-01  -3.2928988e-01  -6.2744773e-01   3.5094043e-01  -6.3661398e-01   6.4319122e-01  -2.5014834e-02   9.4775876e-02  -1.6018864e-01  -6.6807237e-01   2.5810893e-01  -3.9412321e-01   6.5734093e-01  -6.7149396e-02   9.4463868e-01  -6.4848928e-01  -2.6195643e-01  -8.5902976e-01  -7.3661539e-01   6.5704853e-01   9.3747241e-01   9.3126129e-02  -9.2514486e-01   5.1249561e-02   1.3975142e-01   8.5017704e-01  -5.2443244e-01  -7.4318216e-01   9.8006666e-01  -2.2849555e-01  -6.7586717e-01  -7.1371337e-01   8.9853505e-01  -9.5705045e-01   6.3204737e-01   9.9543076e-01   6.9319541e-01   9.5207133e-01  -8.4679330e-01  -8.4252384e-01  -4.4601524e-02   1.0107911e-01   4.4128434e-01   7.8098715e-01   3.6082636e-01   6.2379018e-01   7.2957705e-01  -5.9399577e-01   3.5644951e-01   7.2761922e-01   2.1905477e-01   1.4258341e-01  -2.2162905e-02   5.7218663e-01  -1.6609365e-01  -7.7563837e-01   9.6657114e-01  -9.0461303e-01   9.9548061e-01  -4.6595604e-01  -5.8470425e-01  -9.2606972e-01   7.1533763e-02  -4.2256914e-01  -2.0360282e-01  -6.7467244e-01   5.1081691e-01  -7.5332307e-01  -9.0205898e-01  -1.4877302e-01  -6.1208777e-01   1.5427803e-01  -6.4796802e-01   4.4204083e-01   9.6069976e-01   7.0903456e-02   3.5653760e-01  -1.7489362e-01   4.7279741e-01  -1.2782913e-01   2.5910528e-01  -5.8969795e-01  -5.8763222e-01   2.0386859e-01   6.4706703e-01  -5.6207412e-01   4.2677548e-01  -9.5870279e-01   4.0681383e-01   4.0368102e-01   5.4397564e-01   4.0277606e-01  -5.3244631e-01  -2.8615542e-01  -6.4616800e-03   6.7379419e-01   4.1155069e-01  -3.8563235e-01  -1.3158641e-01   3.2638104e-02   6.3395930e-01   2.7199279e-01   3.4066785e-01   6.6359786e-01  -6.9150748e-02  -3.6884685e-01   1.6039293e-01   1.5192185e-01   3.1265412e-01  -5.9147678e-01  -5.5513407e-01  -1.4368388e-01  -9.7595947e-02  -5.2192025e-01   5.7741342e-01  -3.5279312e-01  -3.9003732e-01   1.0767293e-01   9.3349771e-01   3.8156381e-01   5.4194828e-01   2.9178980e-01   6.4858336e-02   7.2123288e-01   1.0361548e-01   3.2604246e-01   3.5529288e-01   5.4864555e-01  -6.0132068e-01  -2.5367029e-01  -2.1875343e-01   1.5521275e-02   8.9392161e-01  -9.4390661e-01   2.3724607e-01   6.6487890e-01  -3.9280422e-01   3.1377755e-01  -7.9032501e-01  -3.2225869e-01  -8.8610042e-01   6.3891811e-01  -3.2006666e-01   3.2492153e-01   4.6988196e-01   9.7722965e-01  -1.6900958e-01   9.0449715e-01  -1.9929244e-01   7.1522385e-01   1.6456417e-01   9.4592588e-01  -5.6778622e-01   1.1899049e-01  -9.1361118e-01  -9.2027687e-01  -5.6716790e-01  -6.0457767e-01  -7.3492984e-01  -4.9950864e-01  -3.3766507e-01   7.1089615e-02  -5.7928994e-01  -8.3516772e-01   2.9572809e-01  -3.9301433e-01   9.2670189e-01  -6.4731500e-01  -5.2495678e-01   3.0251061e-01  -1.7829393e-01  -5.1955040e-01  -8.2152691e-01  -9.7495205e-01   1.1959260e-01   9.2090747e-01   8.2106270e-01   1.3506855e-01   1.2764426e-02   1.0039912e-02   9.6332837e-02   5.4650036e-01   4.6316868e-01   5.9965362e-01   5.9325742e-01   1.3389227e-01  -5.2586240e-01   9.9347715e-01   2.4650735e-01   9.3843331e-01  -7.3172182e-02   9.2937789e-01   9.3582608e-01  -7.9112083e-01  -3.7263477e-01  -7.7374237e-01   6.0344060e-01   7.4384242e-01   9.0671882e-01   5.5827280e-01   8.1849006e-01   5.0190390e-01  -4.0290059e-01   2.5684580e-01  -6.3340662e-01   3.1500449e-01   3.0214162e-01  -3.4852976e-01  -4.7823091e-01   5.8920002e-01  -6.2904664e-01  -3.3911180e-01   4.4334936e-01   2.6236787e-01  -6.9008262e-01  -2.6178924e-02   3.1785707e-01  -3.4936739e-01  -9.8573152e-01  -8.6866452e-01   8.0338325e-01   9.9122634e-01   6.2382192e-01  -7.8285657e-01   1.2142734e-01   4.5733953e-01  -8.0461870e-01  -1.5389841e-01  -7.0248281e-02   3.1756988e-01   9.8369892e-01  -7.4904464e-01  -1.7038757e-01  -8.1071901e-01  -4.1814305e-01   5.9390688e-01  -2.8076573e-01  -5.7432317e-01  -4.5903218e-01   2.4125273e-01  -1.2087660e-02  -5.6317754e-01   4.8453906e-02   9.9225666e-01  -3.0325960e-01  -5.8273244e-01   7.3275898e-01  -5.9123575e-01  -7.4894789e-01   2.9411504e-01   4.2511127e-01  -8.9529976e-01  -8.7484630e-01  -5.3592278e-01  -2.6331436e-01   8.3930656e-01  -8.9473465e-01  -6.0412556e-01  -5.3212101e-01  -5.9446978e-01  -7.1231440e-01   9.1694454e-01   6.8559022e-01  -3.9897230e-01   2.7675662e-01  -2.4393535e-01  -1.0506761e-01  -2.8286126e-01   9.3049362e-01  -7.1613671e-01   2.0216720e-01   6.1632047e-01  -9.7563027e-01   1.7710301e-01  -8.7841393e-01   9.3103320e-01  -4.5529425e-01   8.9585948e-01   3.2717959e-01  -6.8900413e-01  -2.2027231e-01  -8.8240723e-01   7.1053611e-01  -4.5967890e-01   8.7978012e-01  -8.3948364e-01   9.8822307e-01  -7.8931242e-01  -5.7536778e-01  -7.5357508e-01   7.3721960e-01  -6.9597017e-01  -2.1094102e-01  -8.1143812e-01   5.6118034e-01   8.4327349e-01  -3.3277409e-01  -8.7410239e-01   9.8943920e-01   7.9599101e-01  -5.6858515e-01  -1.7297724e-01  -8.6036385e-01   6.0611462e-01  -8.3999486e-01   9.7565516e-01   9.2105101e-01   9.2439282e-01  -8.4874210e-02   2.7289289e-01   7.3964658e-01   7.3410547e-01   7.8101091e-01  -4.7111075e-01   6.6987890e-01   6.8159130e-02   9.8192804e-01   9.8105363e-01   1.2645604e-01   4.7435319e-01   2.4558288e-01   2.2452102e-01  -5.5121672e-01  -1.9775391e-01   8.8364826e-01   5.5552329e-01   9.3375936e-01   9.1218769e-01  -1.8724733e-01   1.3082974e-01  -4.3176571e-01   4.0331849e-02  -2.7579834e-01  -2.1940965e-01   2.5535269e-01  -6.8955692e-01  -8.5055394e-01   7.9313297e-01   9.7428547e-01  -4.8015555e-01   2.0873172e-01  -6.5809561e-01  -6.8672338e-01   2.0885854e-01   5.8642863e-01  -7.6040123e-02   4.0873967e-01   7.1404727e-01  -3.8851677e-01   5.4220839e-01  -5.4840642e-01   3.2625351e-01   6.0744278e-01   6.7690282e-01  -9.0839313e-01   3.9423888e-01  -6.7603210e-01   4.0324322e-02   1.7234930e-01  -9.8605613e-01  -7.3086769e-01   2.9056248e-01  -5.0977205e-01  -5.5866693e-01   2.4195636e-01   3.5338938e-01   1.4319449e-01  -4.6109913e-01   6.4472541e-01   6.2139968e-02   3.1841521e-01  -8.5291995e-01   2.6232507e-01   4.8761336e-01   8.9152898e-01  -2.0527738e-01   8.3615614e-01  -3.7457653e-01   8.5713282e-01  -1.7463934e-01  -9.1974383e-01   9.8023409e-01   7.4449801e-01   3.7346739e-01  -5.7648959e-02  -5.8604129e-01   2.9072880e-02  -9.9826749e-01  -7.9786120e-01  -7.2998329e-01  -8.2866485e-01   1.8736237e-01  -2.3982235e-01   9.0109240e-01   9.9576793e-02   8.6272169e-01   9.4436476e-01  -4.6572146e-01  -3.1251992e-01  -4.9195438e-01   2.7563764e-01   3.5399071e-01   9.3010198e-01   3.4175597e-01  -2.3658506e-01   7.7368501e-01   4.5692671e-02  -7.5012581e-01   2.0887158e-01  -4.9530372e-01  -4.7549508e-01   3.7276382e-01  -6.3778250e-01   9.4149440e-01  -9.1165789e-01  -3.5143212e-02  -9.4484371e-01  -8.4891366e-01  -2.4117769e-01   9.4185392e-01  -1.7563225e-01   4.5259886e-01  -6.2248877e-01  -4.6325224e-01   2.1540839e-01   8.4934700e-01   5.9123159e-01  -1.6992502e-01  -2.6865338e-02  -9.7175327e-02   8.3145202e-01  -7.2059114e-01   8.6116832e-01  -1.4250345e-01   6.0669924e-01   2.5449375e-01   5.6749306e-01   4.4613643e-01   3.6565165e-01  -3.9620528e-01   7.2990502e-01  -6.5097132e-01   3.5253433e-01  -5.7328516e-01   3.6104255e-01  -1.6008990e-01   8.7566536e-01  -6.8779913e-01   1.6542866e-01  -9.5795711e-01   2.7429070e-01  -3.5595131e-01  -3.0782150e-01  -9.5220296e-01  -9.0649272e-01  -7.2521249e-01  -5.3639874e-01   1.4631003e-01   7.1395474e-01   1.5772743e-01  -4.4571359e-02   9.0583308e-01  -3.7458579e-01   5.3810569e-01   4.2714428e-02  -6.1853921e-01   3.2630704e-01   4.1095337e-01   4.0489097e-01  -7.6139088e-01   6.1346766e-01   6.1608768e-01  -2.3185118e-01   9.6809518e-03   9.9311054e-01  -9.6408014e-01   8.1946504e-01   7.2890326e-01   3.1207287e-01   8.7147258e-01  -2.0452438e-01  -7.4682082e-01  -9.1341511e-01   1.9259566e-01  -1.2701520e-01  -9.4736648e-01  -4.1063221e-02  -7.7435943e-01   2.3463803e-01  -1.6204583e-01  -3.3272687e-03   5.0275899e-01  -1.8899780e-01  -8.3596948e-01  -8.7848299e-01   7.1685354e-02   5.8642937e-01   5.8200329e-01   1.8234138e-01   4.8944348e-01   8.7400607e-01  -2.5130829e-01   9.1640570e-01  -4.6788714e-01   8.4714599e-02   5.3904165e-02   4.1805407e-01  -6.1751910e-01   1.1908909e-01  -1.6349962e-01  -1.4408967e-01  -8.1578948e-01   2.1339641e-03  -9.6539736e-02  -6.7008709e-01  -1.8807927e-01   8.2179011e-01  -8.6354266e-01   7.9197702e-01  -8.6301878e-02  -8.3032018e-01  -7.0894338e-01  -4.4563283e-01  -8.1777450e-01  -7.0702316e-01  -2.0653461e-01  -6.0838961e-01   8.7375893e-01   5.4135185e-01   6.6955778e-01  -7.8419035e-01   6.7938465e-01   8.4799127e-01  -6.8940894e-01   4.6954275e-01   1.5358470e-01   8.2976629e-01  -5.8655417e-01  -8.4819073e-01  -2.1457621e-01   9.4887119e-03  -4.0022232e-01  -2.2941027e-01  -5.4951041e-01   6.2967047e-01  -2.1050429e-01   5.1484155e-01  -7.7694310e-01   8.2151924e-01   7.3565306e-01  -5.1266273e-01   1.8263258e-01   6.1528674e-01  -6.4371914e-02  -3.8208228e-02  -8.5190591e-01   3.6843865e-01  -8.5134456e-01   9.4414909e-01  -3.5908927e-01   4.8179014e-02  -5.5650371e-01  -8.4209858e-01  -7.6177318e-01  -2.0116749e-01   3.4438343e-01   9.5440071e-01   8.3273678e-01  -8.9633947e-01   5.8514585e-01   1.4043185e-01  -7.0260000e-01  -8.4813751e-01  -3.5037124e-01   6.0995001e-01   9.6861037e-02   7.4928677e-01   7.5628431e-01  -6.1832307e-02   2.4135680e-01   6.2076627e-01  -7.6714628e-01   4.5706004e-01  -4.0522965e-01   2.7631056e-01   7.5858067e-01  -8.9606157e-01  -9.7462413e-01   3.9404401e-01  -7.9426892e-01   6.3073618e-01  -3.8170913e-01   4.6300085e-01   5.9693164e-01  -1.2925119e-01  -5.1251982e-01  -8.8857039e-01  -9.1935476e-01  -8.3691310e-01  -9.9827250e-01   7.2521833e-01   3.9056597e-01   9.6138015e-01  -5.8268092e-01   1.4225300e-01  -1.2741508e-01   5.5644950e-01  -4.1845902e-01  -5.3004995e-01   3.0052231e-01   4.9849550e-01   4.7122770e-01  -5.4494876e-01   5.9475658e-01  -9.7649304e-01   6.5757807e-01   1.9736507e-01  -5.4056730e-01  -9.9716784e-01   3.7957110e-02   6.6665988e-02   6.9109720e-03   8.5998055e-01  -6.5070758e-02  -5.8570798e-01  -8.9087236e-01  -8.6150115e-01   3.2042231e-01  -3.3915230e-01  -5.3317603e-01  -6.2806892e-01   5.7471048e-01  -8.4418898e-01  -4.2011988e-01   2.3487173e-01  -7.8907529e-01  -9.4610369e-01  -9.3348329e-01  -9.2353535e-01   1.1594763e-01   1.6651808e-01  -7.5129255e-01  -9.1306664e-01  -1.3548718e-01   6.9636694e-01  -7.0765971e-01   5.8150289e-01   1.5010318e-01  -3.1300811e-02  -3.2596243e-01  -5.9552853e-01   9.9513918e-01  -6.6466640e-01   5.0113378e-01   6.8786997e-01   9.0439652e-01   3.9493208e-03  -4.0891741e-01   7.4570350e-02   3.2696155e-01   5.4882908e-01  -2.5381767e-01  -6.8360924e-02   9.5007702e-01  -7.3710345e-01  -9.9100170e-01  -9.9337974e-02   8.9748068e-01  -3.4598714e-01  -4.1120530e-01   2.4613728e-02  -8.7579314e-01  -9.4459951e-01  -7.5475007e-01  -4.8371290e-01  -8.8149758e-01  -4.8716168e-01  -3.5019460e-01  -2.4247580e-01  -8.9602165e-01  -2.5366018e-01   1.8251652e-02   6.8404982e-01   1.7455237e-01   6.3068941e-01   8.8642472e-01   3.3226630e-01   3.7279701e-01   6.9626845e-01   9.6766659e-01  -8.9668167e-01  -6.1941926e-01   1.3994622e-01   4.2189424e-01   9.2459948e-01   3.1631326e-01  -8.0869172e-01  -3.8224453e-02   2.1385187e-01   6.4306208e-01   8.3646257e-01  -7.6130082e-01  -5.2735708e-01  -3.4933382e-01   3.4154648e-01  -7.0460026e-01  -7.5452289e-01  -4.9058715e-01  -4.3251741e-01   2.8397062e-01  -2.3548696e-01  -6.4350310e-01  -5.0034021e-01   9.8519048e-01  -6.8692697e-01   7.9614717e-01   2.1519158e-01   6.5100319e-01  -6.6869381e-01   7.9320803e-02  -4.1477900e-01   4.7358689e-01   7.7627542e-01   8.7160968e-01   1.8337018e-01  -3.1889180e-01   1.3634152e-01  -7.8687069e-01  -6.9123625e-01   1.2713341e-01   3.8355043e-01   6.2972592e-02   2.6738774e-01   7.3165193e-01   4.7259287e-01   3.0851414e-01   1.2219875e-02  -7.9449176e-01  -3.9918234e-01   8.7894434e-01   4.6255725e-02   3.7121139e-01   2.9000798e-01  -3.8701089e-01   4.4501662e-01   3.9041419e-02   4.8578362e-01   3.5287958e-01   5.7258879e-01  -4.8603621e-01  -5.5537643e-01  -1.8412023e-02  -7.8957628e-01  -8.1135100e-01  -4.7162272e-01  -7.1818057e-01   8.0433800e-01  -8.4643419e-02   4.6492399e-01  -6.9348181e-01  -5.9214678e-01  -1.5248118e-01  -4.7414233e-01   8.6603577e-01   5.0795415e-01  -5.3162629e-01  -3.1854766e-01  -9.5007000e-01  -8.7371934e-01   2.5297527e-02  -9.6084587e-01   3.5598684e-01  -8.8457023e-02  -3.2711082e-01   8.4255546e-01   5.1174900e-01  -8.7653335e-01  -4.8282811e-01   9.6046630e-01  -7.8145275e-01  -8.2325250e-01   7.2662120e-01   9.7895881e-01
