  -5.0290737e-01  -8.7510091e-01   8.8089242e-01  -4.6164521e-01  -6.8107841e-01   2.9944956e-01  -4.7461933e-01  -9.1412645e-01   8.5363055e-01   8.6882241e-01   7.1211420e-02  -9.6840820e-01   5.3311839e-01   7.5894619e-01  -3.5125069e-01   7.9637424e-01  -1.0026030e-01   1.4194401e-01  -7.1221488e-01   1.4416280e-01   8.6256999e-01   6.9678072e-01   3.0096426e-01  -5.8388068e-01   5.5297620e-01   6.1708157e-01  -5.3258612e-01   1.7911875e-01   3.4086973e-01   4.0452263e-01  -8.1633575e-02  -6.4959686e-01  -7.2257467e-01  -7.8884843e-02   8.8694959e-01   6.7519779e-01   5.3148680e-01  -2.1027142e-02  -7.0857200e-01   5.8676010e-01   3.5211162e-02   5.4005813e-01  -9.0992493e-01   7.9610426e-01   5.3092256e-01   6.7104223e-01   8.4812997e-01   4.9454712e-01  -7.6161896e-01  -2.9839217e-01   1.9700550e-01   5.8837822e-01   1.6410168e-01  -5.7606035e-01   1.9515423e-01  -3.2023453e-01   9.5367331e-01  -4.3008258e-01  -1.6824460e-01   5.9316464e-02   9.0317711e-01   5.4173811e-01  -2.4035956e-01   6.1016691e-01  -7.6061550e-01   3.3349239e-01  -8.5754852e-01  -9.9646025e-01   1.2871897e-01   3.6374288e-01  -7.7639035e-01   5.9477354e-01   8.4347957e-01   9.0079093e-01  -9.4709128e-01   9.8851422e-01   2.5011668e-01   8.6538116e-01  -7.1851875e-01  -3.7580479e-03  -2.8076849e-01  -3.4057140e-01   3.5350060e-01  -5.8677004e-01   1.8916396e-01   9.0004785e-01  -5.4525092e-01  -3.4435664e-01   1.7527536e-01   4.6207368e-01  -8.8683576e-01   2.7541448e-02  -9.2611459e-01   8.1628311e-01  -3.3105932e-01   4.5617311e-01   2.8581107e-01  -7.5338232e-01  -4.5536130e-02  -3.6108653e-01  -1.9054025e-01   5.8238238e-01   3.3537366e-01   5.7204669e-01  -8.1539260e-01  -4.1842903e-01  -9.8547971e-01  -5.1425226e-01   8.4069042e-01  -7.1819913e-01  -5.3831584e-01  -4.7346634e-01   8.9894913e-01   2.0622853e-01   6.5190388e-02  -1.6521471e-01   5.5310445e-01  -9.5007510e-02  -1.2403196e-01  -6.0739185e-01   7.6583444e-02   2.4997009e-01   6.3424543e-01   7.3535356e-01  -3.8441714e-01  -5.0570210e-01  -4.1907780e-01   6.3088399e-01  -2.3744582e-01  -7.8208134e-01   3.0448639e-01  -8.6940627e-02  -5.2863621e-01  -8.0022092e-01   8.9147863e-01  -8.9988724e-01   7.3238185e-01  -5.2727885e-01  -4.5751198e-01  -5.0604123e-01  -5.8282396e-01  -9.7128338e-01  -8.8077802e-01  -5.8215391e-02  -6.0758669e-01  -1.1752556e-01  -4.5102069e-01  -2.8206099e-01   7.7996043e-02  -7.9864561e-01  -8.0889705e-01   7.0710402e-01   2.6603865e-02  -5.7459911e-01  -3.7474833e-01  -5.4326009e-01  -4.3085132e-01  -6.3708644e-02   6.9681625e-02  -9.1760815e-02  -8.8801282e-01  -2.4914712e-01   5.4027441e-01   9.9349503e-01   9.4569336e-01   6.6551419e-01  -5.6464944e-01  -2.8883102e-01   3.8413464e-01  -9.1307207e-01   4.2390714e-01  -7.7884895e-01  -6.3457508e-01   3.9590039e-01   4.1242539e-01   6.7471855e-01  -3.2814275e-01   7.2993475e-01   4.0895471e-01   7.5913557e-02   6.3369989e-01  -4.8713640e-01   2.9497452e-01  -9.3942129e-01   8.2875033e-01  -9.7368015e-01   1.4228231e-01  -8.6579606e-01   8.1343799e-02   5.8587688e-01   2.4140245e-02  -9.0793830e-01   4.8646796e-01   2.5285721e-02   6.9752927e-01   9.5638161e-01  -2.9127362e-01  -7.3062798e-01  -2.7239941e-01  -8.3629269e-01   2.3969223e-01   1.9353748e-01   8.6672571e-01  -9.2894041e-01   1.1729163e-01   3.5696756e-01  -9.9805155e-02  -6.9261797e-01  -4.5155721e-01   2.3266323e-04  -8.0088536e-01  -9.0356984e-02  -7.9886915e-01  -7.3550139e-01   2.4225450e-01  -4.9644049e-01  -3.2768714e-01  -1.8334641e-01   5.9358279e-01   6.5114806e-01   4.3116558e-01   3.8235605e-01  -4.3811432e-01  -6.6615988e-01  -7.5270944e-01   4.3741657e-01   8.9227811e-01  -1.0682642e-01   7.9426584e-01   8.5073367e-01   4.1987914e-01  -3.0115406e-01   6.4725424e-01   7.6150938e-01  -2.1519403e-01   4.8475607e-01   5.4500776e-01  -5.2624701e-01   3.4256167e-01   5.6756203e-01  -9.2526822e-01  -7.1342105e-01  -2.9006854e-01   1.7647307e-02   3.5814313e-01  -7.1349991e-01  -1.1972823e-01  -2.0054173e-01   4.6336827e-01  -8.3252020e-01   8.0309709e-03   3.1727061e-02   8.9678733e-01  -3.8060859e-01   5.7586705e-01   5.0262503e-01   6.5366124e-01  -2.5246531e-01  -8.8750137e-01   4.0930739e-01  -4.1102746e-01  -3.7726677e-01   1.9340896e-01   3.6985033e-01   3.1750531e-01   3.9954883e-01   7.3018506e-01   9.4375363e-01   8.1944714e-01  -5.8675296e-01   7.9313590e-01   3.8765707e-01  -4.3127869e-01   5.3604624e-01   8.1141662e-01   5.8918769e-01  -9.4562611e-01  -6.0962012e-01  -8.6173810e-01   8.6390501e-01  -5.6312752e-01  -9.7499360e-02  -9.2507129e-01  -6.6388503e-01  -4.7613180e-02  -6.6673157e-01  -2.3196856e-01  -8.7535031e-01   2.6423572e-01  -9.6729338e-01   9.2893181e-01  -7.6634018e-01   4.7558697e-01   4.2271109e-01  -2.3831282e-01   4.1246656e-01   5.8860522e-01  -1.3331235e-01  -3.7099115e-02   6.9753993e-01  -4.7620228e-02  -3.7875110e-01   4.4708800e-01   4.6851605e-02  -2.9608350e-01   6.0837067e-02  -9.9858238e-01   9.9815142e-01   5.8496015e-01   8.4989830e-01  -9.4632950e-01  -3.9807219e-01   8.0206072e-01  -4.8360303e-01  -3.3036385e-01   8.2981287e-01   2.3382846e-01   4.5955000e-01   9.6083684e-01  -2.0026828e-01   3.5556538e-01  -6.0911490e-01   5.9370938e-01  -4.4545292e-01  -2.8084556e-01   9.7420300e-01  -7.0923917e-01  -9.0672852e-01  -4.0979629e-01  -4.5737726e-01   8.3214530e-01  -3.0959746e-01   2.4023038e-02   4.0130868e-01   5.5059813e-01  -2.4662586e-01   5.0121091e-01  -7.7368394e-02  -8.7009446e-01  -6.4700282e-02  -5.9290342e-01  -9.7099959e-01  -8.1965000e-01  -9.7906018e-01   3.2634540e-01  -9.4174291e-01   3.4119307e-02  -4.3618886e-01  -3.6890663e-01  -4.7121277e-01  -7.6728507e-02   9.9355542e-01   8.5596125e-01   9.6134167e-01  -3.2182664e-01  -3.0840366e-01   6.6359356e-01  -2.6962651e-01  -6.9581337e-02  -1.4953314e-01   1.0204584e-01   9.0037852e-01  -3.8437723e-02   8.9216071e-02   4.7077235e-01   9.8478121e-01  -7.4211699e-01   2.1998037e-01  -3.5565437e-01   3.9469064e-01   2.4757671e-01  -3.0865704e-01  -4.3812324e-01  -6.1592664e-01   3.0177369e-01   8.2814742e-01  -1.4087360e-01  -4.1450385e-01   2.1146831e-01   5.7106737e-01  -5.0892179e-01   7.1147765e-01  -6.8644612e-01   7.5219381e-02   7.9724358e-01   3.5276896e-01   5.7616342e-01  -9.4992834e-01   7.4420596e-01  -9.6550271e-02   1.9731778e-02  -6.3737297e-01   4.2798996e-01  -6.2496004e-01  -7.4952354e-01   3.4954378e-01   4.4368740e-01  -3.1682734e-02   1.1690172e-01   1.8690373e-01   5.8238568e-01  -9.3306749e-01  -6.6271527e-01  -8.9816877e-01  -8.8090345e-01   1.7419628e-01  -4.5872559e-01   3.7375872e-01   2.8084471e-01   7.0755366e-01  -6.3143482e-01  -2.1013173e-01  -4.7404772e-02   9.7548385e-01   9.4683254e-01  -2.8485356e-02  -9.5728996e-01   1.7628925e-01  -5.8749753e-01  -5.1510309e-01   8.3456810e-01   9.1286515e-01  -2.9875471e-01  -9.2424383e-01   6.9213441e-01  -8.2697378e-01  -1.3270512e-01  -3.0405443e-01  -3.6727443e-01  -4.3367549e-01  -7.2167709e-01   7.5318117e-02   8.9139515e-01   9.6640013e-01   7.4848872e-02  -8.7028488e-01   8.4613804e-01   5.7693941e-01  -5.7456111e-01  -4.7269408e-01   4.1655884e-01  -3.6965687e-01   2.7165713e-01  -4.9956983e-01  -9.6566545e-01   4.6991559e-01  -3.4382574e-01   4.7912289e-01  -4.6537350e-01   2.3342103e-01  -8.3810494e-01   2.1446342e-01   3.1705466e-01   7.4078782e-02  -9.2112290e-01   7.9623711e-01  -8.1934497e-01   9.5449816e-01   2.6870154e-01   6.0623107e-01   9.8399240e-01  -4.1020755e-01  -9.8399917e-01   7.3416068e-01  -3.5365393e-01   1.5375535e-01   1.2424984e-01   9.0221495e-01   6.4067756e-01  -8.4895883e-01   1.3939387e-02  -5.7962207e-01   5.2357714e-01   2.7090942e-02  -1.5970449e-01   3.1975870e-01  -6.6205229e-01  -7.9352944e-01   8.0983551e-01   7.0841285e-01   7.8153415e-01  -5.4199569e-01   6.9259535e-01   3.5741377e-01  -1.2119590e-01  -6.3892301e-01  -1.0047506e-02  -2.0414343e-01  -1.5824361e-01  -5.5965414e-01  -8.1275761e-01   4.0799555e-01  -6.9937917e-02  -1.5645956e-01  -2.1781484e-01   6.8859006e-01   6.8512944e-01   5.0194278e-01   9.8046514e-01   7.2854833e-01   7.0090610e-01  -4.8363592e-01  -1.1682662e-01  -4.6156167e-01  -8.3406694e-01   6.0131558e-02  -9.1049541e-01  -2.3682625e-01   3.4450526e-01  -5.5967235e-01   1.1887110e-01  -5.7493146e-02  -3.3430804e-01  -2.2312992e-01   8.4813968e-01   7.8830726e-01  -1.5226345e-01   7.9751523e-01   7.8141753e-01  -5.7992800e-01   5.0312945e-02   5.2193012e-01  -4.5423721e-01  -4.4751058e-01  -4.0495675e-01   4.0506406e-01  -8.0762620e-01   4.5608255e-01  -7.4260335e-01  -9.8813459e-01  -4.3648455e-01   2.1996186e-01   6.0514603e-01  -7.7347485e-01   5.4661863e-01  -5.1293152e-01   4.2671837e-01  -3.2152427e-01  -4.3239587e-01  -9.9621263e-01  -8.4960960e-01   6.1117285e-01  -8.9902010e-01  -7.4696405e-01   4.4096912e-01   5.9957251e-01  -5.3941747e-01   5.5328572e-01  -2.5027540e-01  -7.8853629e-01   1.1208072e-01  -5.6091037e-01   9.9289698e-01  -9.4752893e-01  -6.6459132e-01  -4.1391443e-01   2.2635118e-01  -6.3190657e-01  -2.0299867e-01   5.4349068e-01   7.0271919e-01   1.3948066e-02   4.3969613e-01   5.3760558e-01  -6.3104736e-01  -2.0103447e-01   5.8615812e-01   8.3900315e-01  -1.7369470e-01  -2.5636036e-01   3.0268223e-02  -7.9139261e-01   3.0328321e-01  -2.4673101e-01  -8.2837465e-01  -2.2558192e-01   1.6607386e-01   7.9381002e-01  -3.1718063e-01  -5.3246746e-01  -2.8177022e-01   2.1968131e-01  -9.7185466e-01  -8.6925272e-01   4.3959617e-01  -7.9729681e-02  -1.9979808e-01   7.1454398e-01  -8.4811387e-01  -2.0804263e-01  -9.6551225e-01   3.4713409e-01   5.5042059e-01   7.1142207e-01  -8.0459271e-01   8.1219068e-01  -8.9378580e-01   9.4329584e-01   9.0465630e-02  -2.2405733e-01  -5.3365388e-01   8.3132469e-01  -4.8590135e-03   4.6419791e-01  -8.1351117e-01   7.5848168e-01  -6.1149829e-01   8.6844302e-01   6.6648710e-01  -1.1127326e-01   7.5593191e-01  -6.1573445e-01  -7.9764432e-01  -3.3565600e-01   4.5907691e-01   5.6104002e-01   4.1370435e-02   5.2736849e-01   9.8568256e-01  -9.5624633e-01   4.2041541e-01   4.0494054e-01   1.5480779e-01   2.4598257e-01  -9.3269482e-01   1.2450870e-02  -8.8811792e-01   7.5712899e-01  -5.4447308e-01   1.5289879e-01   8.6429901e-01  -4.8365219e-01  -6.2323413e-01  -3.5609474e-01  -5.8870919e-01  -8.6444596e-01   1.9144498e-01   4.2143336e-01   3.7377660e-01  -7.0563484e-01   8.0080921e-01   1.4644238e-01  -4.3426920e-02   5.5600224e-01  -6.9144900e-01   1.2028403e-01   8.9447606e-01  -6.8804482e-01   2.4521259e-01  -5.5499517e-01   2.7345609e-01   3.9416340e-01  -1.4150307e-01  -3.6392183e-01  -5.8896175e-01   6.3493893e-01   7.4658132e-01  -1.2354546e-02   3.9899347e-02   4.7955691e-01  -1.1846950e-01  -7.9783233e-01  -6.6578924e-01   8.3517239e-01   7.4690615e-01   2.7608565e-01   4.0635145e-01  -7.7511736e-01  -5.4802822e-01  -4.0816777e-01   4.4142039e-01  -2.4575553e-01   6.8794094e-01   8.6450172e-01  -9.8615376e-01  -2.7154624e-01   8.2808116e-01  -7.7326120e-01  -2.2510390e-01   3.7782424e-01  -1.9715087e-01   9.5457886e-01  -1.8459155e-01  -7.7362996e-01  -5.6264501e-01  -8.3503644e-01  -7.9121657e-01  -2.4095730e-01   7.3453627e-01   7.1543980e-01   9.6345760e-01   4.4731637e-01  -3.7119547e-01   3.5002528e-01   9.9537620e-01   1.1632270e-01   6.3504477e-01  -8.7380819e-01  -6.6871121e-02  -1.4706205e-01   6.9515292e-01  -5.4415422e-01   9.5467044e-01   4.2554020e-01   4.2279898e-01   1.4514247e-01   6.6605088e-01   8.4232177e-01   5.9108524e-01  -2.8851035e-01  -9.7717218e-01   7.5574725e-01  -2.0844822e-01   3.6383036e-01   2.7128040e-01   2.1555493e-01  -8.4201899e-01  -9.9536511e-01   2.5829442e-01   3.7568585e-01  -5.6932115e-01  -3.5133049e-01  -8.1286201e-01   4.2893996e-01  -5.6274473e-02  -1.7730294e-01   9.4947380e-02   7.5321298e-01  -9.1658757e-01  -3.3456452e-01  -6.0157208e-01   9.8498895e-01   9.5311043e-02  -4.9710166e-01   8.4628322e-02   9.6805236e-02  -5.7876300e-01   6.2908755e-01  -5.6066699e-01  -4.5549313e-01  -8.4663307e-01   8.3645801e-02  -2.4037077e-01   6.0785771e-01   3.2664366e-01   2.5033146e-01   8.5607459e-01   1.5372323e-02  -8.9331389e-01   7.5655288e-02  -7.4069013e-01  -5.2838336e-01  -8.7124725e-01   2.2953901e-01  -2.2119837e-01  -3.3440669e-02  -6.6343321e-01   9.5176089e-01   8.0622483e-01   4.0149747e-01   6.0564286e-01  -7.3464994e-01   3.8753291e-01  -7.2340159e-01  -2.1119927e-01  -9.1850642e-01  -3.5420018e-01   4.1912594e-01   5.2593234e-01   5.1635603e-01   1.1983739e-01   4.1932921e-01   9.4289894e-02  -6.2621744e-01   1.7834050e-01  -7.3902008e-01   2.5750565e-01  -3.3878325e-01   3.7680570e-01   7.5920661e-02  -3.4467019e-01   6.8532649e-01  -6.3496121e-01   6.1396594e-01   7.9461367e-01   6.8592637e-01   8.4636355e-01   4.0902606e-01  -6.7909751e-01  -7.8954664e-01   9.7744696e-02   3.2947376e-01   6.4453558e-01  -4.1249949e-01   3.6238421e-01  -7.2808815e-01   1.3007505e-01  -8.6812199e-01   4.0050861e-01  -8.2266141e-01   5.6737694e-01   5.0145094e-01   3.9749597e-01  -7.4014758e-01   4.0595866e-01   1.4693309e-03  -8.8019294e-01   3.1703356e-01   3.2004076e-01  -4.9261993e-01  -9.8642981e-01  -8.7886538e-01   9.3479282e-01  -5.3861511e-02   3.1428068e-01   3.6090233e-01   2.1787471e-01   8.9793685e-01   5.6193842e-01  -9.7086676e-01  -2.0382229e-01  -2.9082206e-01   1.4125378e-01   7.2036198e-01   7.2930078e-02   7.7902520e-01   5.9896710e-01  -8.6510076e-01  -3.8508143e-01   2.0559145e-01   3.3762618e-01   5.1164934e-01   9.0498584e-01   2.9163233e-01   5.5186123e-01  -6.0141093e-01   3.4489200e-01   9.5699710e-01   3.8890892e-01  -3.3048713e-02   8.2648788e-01   2.3963786e-01  -4.5132738e-01  -6.3842477e-03  -3.4050364e-02  -8.1969261e-01  -1.8170312e-01  -7.2800388e-01  -1.9385740e-01   6.1107555e-01   2.4353526e-01   6.4318791e-01  -3.5541779e-01  -8.2273546e-01  -4.8878868e-01  -4.8777838e-02  -4.8901853e-02  -2.2718247e-03  -7.2645768e-01   5.5638276e-01   1.4628572e-01   1.3147880e-01  -1.4716654e-01  -7.6455371e-01   5.0219432e-01   2.2491380e-02   3.8282822e-02  -7.1633450e-02  -8.9184693e-01  -4.1464986e-01   7.2859937e-01   6.6521826e-01   7.0064672e-01  -5.3272220e-01  -5.4236568e-01   8.5020811e-01   2.9796691e-01  -8.7076693e-01   8.5261283e-01  -5.2227209e-01  -2.8738261e-01   8.3251544e-01   1.1818569e-01  -1.4056869e-01   5.3474050e-01   6.0752429e-01   6.2810611e-01   3.1518803e-01  -9.1526097e-01   4.2658128e-01  -5.6506423e-01  -7.8893697e-01   5.6518868e-01  -1.4344159e-01   2.3321230e-01  -5.4730892e-01   2.1628060e-01  -9.9670798e-01   3.7160602e-01   7.6527013e-01  -8.7719834e-01   3.8607536e-01  -4.0191765e-01  -9.4850161e-01   3.1198644e-01   3.7908845e-01   3.6296026e-01   9.3920320e-02  -3.1180831e-01  -8.5000071e-01   8.0316089e-01   5.2879366e-01   4.6509708e-01  -6.0982746e-01   4.2588895e-01  -6.1616860e-01   1.5979840e-01  -1.5585877e-01   9.0155925e-01  -2.8901944e-01  -4.1019531e-01   4.6750475e-01  -3.3811330e-01  -3.3890711e-01  -5.8175393e-05  -1.9225008e-01   9.5742531e-01  -5.9647861e-01  -8.8873274e-01   6.9423356e-01  -2.3877334e-01  -5.9802742e-01   5.5962522e-01  -1.2713700e-01  -7.6688500e-01   9.4223055e-01   1.9106045e-01  -8.6601399e-01  -4.6968114e-02  -4.8450424e-01  -3.6562369e-01   5.2765479e-01   9.3954232e-01   4.2814866e-01   7.0163882e-02  -2.1549137e-01  -7.7333028e-01   7.1957526e-01   6.5690070e-01  -6.5964409e-01   7.8423562e-01  -7.8188870e-01   5.3105894e-01   9.8566102e-02  -9.4429055e-01   7.7884445e-01  -8.5949139e-01  -9.7380779e-01  -9.9143723e-01  -3.4131832e-01  -4.5390774e-01  -2.7366368e-01  -7.6890326e-01  -1.9345922e-01  -5.0144644e-01  -3.0709315e-01   9.5814799e-01  -1.7473207e-01  -8.2968456e-01   8.6474371e-01   5.4881778e-01   5.2890934e-01  -7.0948972e-01  -6.1428538e-01  -3.2455620e-02   9.8534542e-01   2.1642480e-01   1.3352918e-01  -6.7786513e-01   1.2327831e-02  -3.4978375e-01   2.3678834e-01  -2.8783738e-01  -5.3741741e-01   1.4326822e-02  -5.2541343e-01  -4.8144089e-01   1.8567313e-01   4.3048859e-02   4.3114193e-01  -5.1084830e-01  -6.5810355e-01  -8.5871163e-02  -5.6788194e-01   6.7384381e-01  -2.4841253e-01  -9.4014536e-01  -3.3699743e-01   9.2463671e-01  -4.6801266e-01
