  -4.7653929e-01  -1.4982746e-01   2.0811746e-01  -1.0027304e-01   3.5640727e-01  -4.5487923e-01   2.8569765e-01  -1.7655532e-01  -2.2865952e-01   6.9234531e-01   5.0428728e-01  -8.4533957e-01   4.0854316e-01  -3.6778176e-01   2.7883619e-01  -7.3243157e-01   2.0618064e-01   4.1699518e-01  -7.7513484e-01  -7.5482079e-01   6.0890103e-01   1.0718566e-01   2.1045036e-01  -1.5836208e-02  -7.4663937e-01   7.5088263e-01   9.6563783e-01   5.7133320e-01  -6.1145634e-01   5.2160599e-01   7.6099703e-01  -9.6562577e-01  -5.3196398e-01   2.6703799e-01  -7.5934384e-01   2.9602597e-01   4.5990230e-01  -8.3149797e-02  -9.6663126e-01   3.4811277e-01   3.7878978e-01   3.3914563e-01   7.3486753e-01  -4.9240507e-01   6.5792925e-01  -6.9977179e-01  -7.7683290e-01  -5.2812758e-02   7.6414813e-01  -3.4598923e-01   7.7338360e-01  -7.8690231e-01   6.2892293e-01   3.2488918e-01   5.3622172e-01  -4.6601860e-01   9.3478474e-01   4.0717018e-01   9.4839399e-01  -6.6970110e-01   9.4911838e-01   4.6818014e-01   4.0961261e-01  -7.8503213e-01   1.5119023e-01   6.6021216e-01   6.5212197e-01  -6.9087010e-01  -8.4693569e-02   2.2266406e-01   3.4480092e-01  -5.1607290e-01  -9.1065462e-01  -5.2011916e-01  -6.6541073e-01  -3.7484538e-01  -1.8704040e-01   6.4425781e-01  -4.2505216e-01   3.9324447e-01   1.3461057e-01  -5.9696261e-01  -7.4883534e-01  -5.8791953e-01  -7.2976000e-01   5.3012185e-01   9.6291568e-02  -4.6165646e-01  -3.2700771e-01  -6.9746583e-01  -1.0659889e-01   8.5403784e-01  -3.8241506e-01   1.9021873e-01   9.0685432e-01  -4.8625265e-01  -5.8171462e-01   5.3622130e-01   6.2724282e-01   3.8396356e-01   3.9179936e-01  -9.8140504e-01  -8.7602526e-01  -8.8000403e-01  -9.5329125e-02   5.8410429e-01  -8.6406644e-01   3.1837280e-01  -9.6618688e-02   9.8906869e-01  -6.9375827e-01   3.9614491e-01  -8.7016096e-01  -2.3961946e-01  -7.4104533e-01   4.0526309e-02  -7.8861761e-01   2.5703143e-01  -7.6928160e-01  -1.1011998e-01  -2.1672227e-01   5.8995539e-01   2.2829245e-02  -9.9135690e-01  -5.7695198e-01  -1.1137730e-01  -8.8999414e-01  -7.5705910e-01  -5.2693445e-02  -8.9403822e-01   2.0065261e-01   4.9373120e-01  -2.7203833e-01  -8.6760596e-01   4.4939910e-01  -2.7534274e-01  -8.0124011e-01   5.4422524e-01  -2.1403569e-02   2.6676974e-01  -1.6649403e-01   9.1904417e-03   2.4408732e-01   9.1345873e-01   4.9526206e-01  -6.6585324e-02   4.9561984e-01  -4.5024779e-01   6.5810316e-01   1.2514040e-01  -4.4216724e-01   1.5522657e-02   3.9067952e-01   5.4494066e-01  -1.2762951e-01  -1.8848349e-01  -6.1593539e-01   5.1161916e-02  -3.9846861e-01  -7.9989380e-01   1.0902064e-01  -6.8111826e-01   1.5511886e-02  -5.6888882e-01   4.1687046e-01  -5.7295621e-01  -3.7501384e-01  -9.8945032e-01  -6.8160214e-01   9.6131855e-01   2.5550926e-02   7.9219019e-01   3.4746952e-01   7.1246419e-02  -2.1789635e-01  -8.5120142e-02  -9.4035068e-01   9.6696133e-01   7.3411394e-01   5.2560504e-01   5.1684970e-01  -5.3643606e-01  -8.5567149e-01   6.5836936e-01  -8.4213823e-01   3.4362451e-01  -7.5737522e-01  -6.2131106e-01   3.8104885e-01   7.2013117e-01   6.8537759e-01   3.6729030e-01  -2.4805609e-01  -1.0351836e-01  -9.7157106e-01  -1.7275641e-01  -7.7484324e-01  -3.2175788e-02   4.5638176e-01   5.9027188e-01   2.0275336e-01  -6.4798317e-01  -4.1235083e-01  -7.9148985e-01   2.2811807e-01   6.0404272e-02   3.2216262e-01  -7.6696671e-01  -3.6111342e-02   2.0707931e-01   2.9522738e-01  -2.3844634e-01   7.2520933e-01  -7.1232106e-01  -3.9888186e-01  -4.4898178e-01  -5.0512206e-01   2.8449488e-01  -4.5073428e-02  -4.1118986e-02   1.2835245e-01  -9.7236986e-01   4.4954757e-03  -7.2710352e-01   7.1174048e-01  -8.9970236e-01  -7.4360885e-01  -4.5320068e-01   4.1714204e-01   2.3983560e-01   3.3719859e-01  -4.4296816e-01   1.1146504e-01   5.5565887e-01   2.3219706e-01  -7.9959969e-01  -4.2302022e-01  -9.0888931e-01   8.7378449e-01   8.9623851e-01   8.8447574e-01   1.3569928e-02   5.4935186e-01  -2.0370655e-01  -2.3104634e-02   5.9400986e-01  -9.7751674e-01  -9.1213373e-02  -3.5684053e-01   2.6551378e-01  -9.8991731e-01   9.2761247e-01  -3.2842901e-01   7.4649601e-01   2.2168581e-01   4.7651016e-01  -1.8989962e-01  -8.5338862e-02  -9.7153755e-01   6.0755030e-01  -5.4795833e-01  -7.7257512e-01  -8.5912705e-02   1.8410533e-01  -5.8200308e-01   5.6143692e-01   3.7491132e-01   9.0339993e-01  -2.2518798e-01   2.7034828e-01  -6.1055343e-01  -7.8752702e-01  -2.9584505e-01   8.1261368e-01  -4.7607586e-01  -7.0435739e-01  -5.6544562e-01   9.4529589e-01   6.0096157e-01  -1.7308214e-01  -9.8458988e-02   2.5452610e-01   7.2012877e-01  -7.9839365e-01  -8.3068488e-01   3.1318096e-01  -9.9802189e-01   7.3681921e-01   6.0873871e-01   9.4855908e-01   8.7751660e-01   4.6837740e-01  -9.1252791e-01  -2.7667597e-01  -1.4522561e-01   1.5588751e-01  -6.0702720e-01  -5.4660200e-01   1.6406303e-01   8.1050135e-01   9.2377242e-01   6.1070427e-01   1.6609237e-01   8.1247241e-02   8.8215036e-01   8.2926050e-01   9.3059592e-01  -9.3469045e-01   2.4417835e-02   3.3775172e-01   8.5575549e-02  -8.9692980e-01  -2.3621892e-01  -6.3679710e-01   8.5836944e-01  -1.1222324e-01   7.5877004e-02  -7.0191239e-01   4.8265849e-01  -9.9338654e-01  -2.5939260e-01  -7.8444247e-01  -4.1858595e-01  -2.0437512e-01   8.0477918e-01  -8.3689052e-01   1.2286555e-01   9.0388031e-01  -1.8782683e-01  -2.3918113e-01   1.9812194e-01  -3.4357776e-02  -1.2515551e-01  -6.9250441e-01  -5.4779205e-01   8.2281676e-01   2.3623908e-01  -1.4555033e-01   8.4396877e-01  -3.9826619e-01   7.8968092e-01  -5.6796762e-01  -6.6344114e-01   9.1454384e-01  -2.2189684e-01   6.9755671e-01  -9.3722945e-01  -6.0051037e-01   4.0082647e-02  -7.9884526e-01  -1.4285996e-01  -4.7593227e-01   1.0136737e-02  -6.3313304e-01   2.7459006e-01   9.3953760e-01   8.3966836e-01   3.8212161e-02   4.3765760e-01  -7.4866246e-01  -6.8275706e-01   6.1878862e-01  -5.3159229e-01   2.8087333e-01   8.2028025e-01   3.0969789e-03  -3.3997079e-02   9.9717931e-01  -4.4224344e-01   3.7599281e-03  -7.3911561e-01   1.9804321e-01  -7.2669857e-01  -4.8018869e-01   5.0259289e-01   2.8202649e-01   1.7902323e-01  -1.9956758e-01   3.7740559e-01   4.0832245e-01   1.5783828e-01   7.6030739e-01   8.7073736e-01   8.2440984e-01  -3.6723615e-01  -6.8654586e-01  -4.1075383e-01   4.9527460e-01   3.6031799e-01  -6.3239253e-01  -8.4474227e-01  -1.6203858e-01  -3.2597870e-01   1.4004924e-01   7.9969327e-01  -2.4942897e-01  -6.4855941e-01   8.3882522e-01   3.1814375e-01  -6.2564021e-01   7.9693472e-01  -1.2688101e-01  -3.4230837e-01   3.4732107e-01  -8.3810938e-01  -5.2419780e-01  -7.7674028e-01  -9.5356876e-01   2.1110576e-01   7.6729815e-01  -1.5406723e-02  -2.5656678e-01  -9.2442208e-01  -8.0090377e-01   2.9608564e-01  -5.1462304e-01  -6.0864443e-01   4.2424566e-01  -8.1294381e-01  -6.5137336e-01  -6.0818700e-01  -1.9131922e-01  -5.8749523e-01  -5.0550667e-01   9.8380336e-01  -1.5677789e-01   9.5598781e-01  -7.4847949e-01  -7.7365774e-01  -3.2708116e-01  -9.2895798e-01  -6.1289357e-01   8.3355212e-01   6.4312860e-01   6.3778073e-01  -2.8076391e-01  -5.7303390e-02   3.6112709e-02   3.3469321e-01   9.6180046e-01   6.8171819e-01  -5.6414762e-01   1.7091796e-01   3.2246425e-01   8.6359068e-01   6.2114530e-01   3.0011401e-01  -5.8669713e-01  -3.3144161e-01  -6.0803448e-01   2.0771432e-02  -4.2876721e-01  -4.3065394e-01  -4.4672836e-01  -5.7953960e-02   8.4185375e-01   8.0756643e-03   9.1419119e-01  -5.9009452e-01  -8.3725492e-01  -2.8097841e-01   4.4060051e-01  -7.9236118e-01  -9.7846481e-01  -9.9309426e-01  -6.9551801e-02  -5.0093213e-01   2.1652577e-01   8.8428618e-01  -3.2339782e-01  -3.2415090e-01  -8.7928693e-01   3.5450116e-01   8.7241805e-01  -1.9436609e-01   5.2670690e-01   4.1610995e-01   2.3741171e-01  -5.7662922e-01  -6.0676447e-02  -6.4263710e-01   5.2342145e-01  -3.9040252e-01  -4.1738646e-01  -8.6996893e-01   5.6835177e-01   8.4356018e-01   7.9222526e-01  -6.2575759e-01   3.4578894e-01  -1.5425500e-01  -2.3868057e-02  -5.0591795e-01  -8.1724508e-01   6.0526751e-01   3.4467746e-01  -5.9779230e-01   6.3873773e-01  -3.0137363e-01  -6.7026022e-02   3.4146587e-01  -5.8025437e-01   7.2967655e-01   5.3389378e-01   1.7957613e-02   1.8169273e-01   9.0978854e-01  -9.0975537e-01   2.1862656e-01  -8.1920040e-01  -5.4495647e-01  -1.4925742e-01  -2.4825095e-01  -6.3219448e-01   4.1042965e-01  -3.6939695e-01  -2.2189914e-01  -9.5787195e-01  -4.6035513e-01  -2.5317910e-01   8.8547622e-01  -2.0574586e-01   8.4561988e-01   5.3670845e-01   2.4309657e-01   5.7058344e-01   2.1790771e-01  -1.7764356e-02   9.3633295e-01  -9.1025908e-01  -3.2571535e-01   2.0885929e-01   5.6465046e-02  -3.2866415e-01   1.1123382e-01   2.1828023e-01   6.2562194e-01  -9.6127805e-01  -8.9621253e-01   9.5640497e-01   7.1679855e-01  -9.7606576e-01   6.4239907e-01  -6.8196917e-01  -4.7290969e-01   3.1379226e-01   2.7479751e-01  -1.8790568e-01  -4.4703576e-01  -2.5751035e-01   4.5528381e-02  -6.3907283e-01  -6.1778888e-01  -7.4353652e-01   9.5624697e-01  -8.1275769e-01  -7.1710329e-01   8.1410287e-01  -6.4046863e-01   6.9468663e-01  -9.7096205e-02  -6.7923970e-01  -5.3297527e-01  -5.1865460e-02  -1.6934557e-01  -1.8270445e-01   7.1446874e-01  -1.5647689e-01  -1.3524449e-01  -5.8328263e-01  -9.1404512e-01  -7.2351921e-01   2.5173614e-01  -7.1546585e-01   1.5124485e-01   4.6875330e-01   7.7120904e-02  -4.6507008e-01  -5.9868141e-02  -5.5438600e-01   2.4489656e-01  -3.2252777e-01   4.9680569e-01   3.6765059e-02   3.0988916e-01  -7.8955234e-01   8.1240952e-01   8.7588745e-01   7.2101170e-01  -9.5178589e-01  -8.2073709e-01   5.7542423e-01  -6.4052052e-01   6.3135450e-01  -7.2282552e-01   5.0536339e-01   1.1934742e-01   8.4698901e-01   4.8171876e-02   5.0254987e-01   2.5305922e-01  -1.1629122e-01  -3.7766143e-01  -6.1291804e-01  -1.1913611e-01   9.3534766e-01   3.3906109e-01  -6.4332795e-01   9.5579204e-01  -6.2626509e-01   6.9216440e-01   8.6586869e-01  -8.2064106e-01  -8.8378360e-01   4.8536799e-01  -2.2012470e-01   6.8936401e-01  -2.7952061e-01   4.1192304e-01   7.4372524e-02  -7.5857601e-01  -5.1304036e-01  -9.3339465e-02  -6.0600589e-01  -4.9023805e-01  -2.4280573e-01  -1.8475189e-01   3.4672010e-01  -4.4463531e-01  -8.1363487e-01  -4.4756103e-01  -7.4784847e-01  -3.0922857e-01  -7.0274838e-01  -7.9835412e-01   1.2267664e-01  -1.5608978e-01  -5.4297526e-01   6.9299266e-03  -5.5551682e-01   2.7033465e-01  -9.2903809e-01  -1.0789355e-01   5.8237832e-01  -6.4195187e-01   9.6405100e-01  -5.3616217e-02   3.0814634e-01   4.2955266e-01   2.1815866e-01  -6.6594011e-02  -5.6508562e-01   5.1515186e-01   1.8713557e-01  -9.5833326e-01   9.6000052e-01  -7.6812930e-01   7.8447685e-01   7.6347469e-02   8.5375395e-01  -8.0290367e-01   2.7741590e-01   3.3253159e-02  -6.1225636e-01  -3.1321858e-01  -6.2385114e-03   9.5555701e-02   2.3224807e-01  -1.4240345e-01   3.7524475e-01  -3.3877917e-01   9.1049198e-01  -8.2246321e-02   8.3108187e-01   1.0409741e-01   6.2325085e-02  -8.0947526e-01  -4.9371486e-01  -5.0725221e-01   6.2086374e-01   6.0642940e-01  -3.3724957e-01   4.8616262e-01  -2.1334479e-01   1.8157021e-01  -2.2144218e-01   4.5723676e-01   3.0735872e-01   1.4015794e-01   4.9561934e-01  -3.2357619e-01  -9.1948943e-01   4.3627287e-01   1.8905036e-01  -3.1836278e-01  -9.2337563e-01  -9.0743881e-02  -7.5089935e-01  -1.2599096e-01  -9.3926286e-01   9.7376877e-01   1.4936871e-01  -7.4517860e-01   3.5922905e-01   3.6421064e-01  -2.7539468e-01  -1.6070487e-01   1.3051568e-01  -7.6250217e-01  -8.9835119e-01  -4.5582548e-01   7.4090159e-01  -1.9751178e-01  -4.4043693e-01   6.8230936e-01   5.5445333e-02  -2.4316690e-01  -7.2709800e-01   9.6280776e-01  -6.5528020e-02  -3.5248866e-01  -1.6437314e-01  -3.1391391e-01  -5.1580604e-01  -1.7590190e-01  -7.9263172e-01   8.1633036e-01  -1.4318599e-01  -2.1239313e-01   4.5905546e-01  -2.4201754e-01  -4.1973910e-01  -9.7169701e-01   8.8807751e-02   9.9127197e-02  -6.3814029e-01  -9.6799845e-01  -8.1129165e-01   1.8869596e-01  -4.9129650e-01   3.0555553e-01  -8.1790650e-01  -7.5190578e-02  -2.1092942e-01   5.4520902e-01   6.4129397e-01   2.5885694e-01   7.8237388e-01   2.1723641e-01  -4.9870687e-01   1.4720009e-01   7.7510941e-01  -3.3206788e-01  -3.0349057e-01   5.1249679e-01  -6.1370813e-01  -6.5271068e-01  -1.3352887e-01   8.9881347e-01  -6.8651598e-01   2.6199879e-01  -2.5388354e-01  -7.2206510e-01   4.4899491e-01   8.8340226e-02   1.9479618e-01   4.8898064e-01  -5.4499438e-01   6.7100233e-01   3.0646602e-02   1.8583980e-01   2.9481263e-01   1.8354573e-03   3.0591809e-01   2.4234795e-02   2.0135707e-01  -1.3267965e-01  -4.8331867e-01   9.8047717e-01  -9.2249990e-01   7.2893465e-01   9.7188483e-01   8.8670805e-01  -3.1033412e-01  -7.1018393e-01  -2.9683540e-01   3.3103535e-01   8.9779355e-01   4.6058751e-01  -3.0250937e-01   6.5144822e-01  -8.8007075e-02  -2.5935364e-01  -8.5029544e-01   3.0163414e-01   9.0095853e-01  -5.0867118e-01   3.0603184e-01   8.1227709e-01   1.1347987e-01  -7.7426945e-02   3.6431535e-01  -2.1101759e-01  -5.6626912e-01   1.8482785e-01  -8.7799197e-01  -3.7670967e-01  -5.2550961e-01  -3.6687316e-01  -4.6543908e-01  -2.9982209e-01   3.1105580e-01  -5.1921848e-01  -2.8385246e-01   2.2422379e-01   7.8629848e-01   9.8681536e-01   9.1751133e-01  -1.1424327e-01   6.1535421e-01  -3.2510505e-01   4.4959541e-02   2.1746040e-01  -9.4455414e-01  -6.8105611e-01  -5.7115700e-01  -5.1243948e-01  -3.6223741e-01  -7.2658357e-01  -6.1975964e-01   8.6873963e-01   7.4037621e-01   8.5675953e-01   9.7165013e-01   4.8722579e-01  -2.8726444e-01  -3.4767979e-02   7.1447308e-01   7.8839702e-01  -1.3001973e-02  -2.7356130e-01   4.4699897e-01  -2.4073788e-01  -7.1748958e-01   9.9703465e-01   5.8915373e-01   1.8598275e-01   9.9424353e-01   7.0596133e-01  -3.8861412e-01   3.5934138e-01   4.1801356e-01  -6.6058240e-01  -3.0660780e-01  -7.8320280e-01  -5.2911742e-01  -8.5884899e-01  -3.5554617e-01  -9.9104549e-01   7.4319072e-01  -3.8591377e-01   7.7157573e-01  -3.9723156e-01  -8.0078913e-01   1.1284016e-01   8.1820761e-01   2.6078314e-01   9.4628532e-01  -2.2233747e-01   7.7219681e-01  -7.4494948e-01   9.3581929e-01  -2.2826554e-01  -3.9528385e-01   3.8361642e-02   6.3937498e-01   4.8542379e-01   3.1220230e-01  -7.5661199e-01  -7.9005133e-01  -4.1017635e-01  -1.4332891e-01  -6.3650717e-01  -9.7454058e-01  -6.5748463e-01  -6.5082491e-01  -5.4958084e-01   2.9357891e-01  -1.2497059e-01  -6.4632824e-01  -8.1006085e-01  -2.9766086e-01   7.8506627e-01   6.5089379e-01  -5.3203256e-02   2.3972955e-01  -4.6973870e-01   9.8127599e-01   5.0864378e-01   8.5618191e-01  -7.2052405e-01  -9.5295091e-01  -7.0763737e-01  -3.7702409e-01   5.5348347e-01  -4.6468776e-01  -9.5007262e-01  -6.0802280e-01  -8.0011578e-01   3.5384655e-02   8.4277732e-01   5.9863974e-01   4.1587589e-01  -7.5991655e-01  -1.2371758e-01   8.1576984e-01  -4.7728066e-01  -4.8488583e-01   6.5128378e-01  -5.2740099e-01   3.3312974e-01   2.2286374e-01   4.1941413e-01   7.8691658e-01  -1.7553144e-01  -2.4667717e-01   8.7002002e-01  -2.1440611e-01  -3.3859511e-01  -8.1930273e-01  -4.5954797e-01   4.6451530e-01   9.2015430e-02   7.8001383e-01  -3.7238038e-01   3.3885975e-01   4.4606440e-01  -2.7703750e-01  -5.6756477e-01   3.2134430e-01  -4.3800489e-01   9.0547328e-01   9.0694887e-01   2.7420169e-01  -1.9520643e-01   4.1825656e-01  -8.8999079e-01  -4.7283300e-01   5.1962400e-01  -6.8454905e-01  -7.7595245e-01   4.2359734e-01   4.1809961e-01  -3.8302849e-01   1.8079125e-01  -5.2581319e-01   2.4675990e-02   3.1270067e-01  -9.2424880e-02   5.9282150e-01   8.7129110e-01  -9.9843975e-02  -8.9791561e-01  -6.0708793e-01  -8.7520135e-01   2.2450696e-01   9.9683920e-01  -8.3579309e-01   2.0980228e-01   7.7057575e-01   9.7880176e-01   3.1436562e-01  -6.0477143e-02   8.1200612e-02  -7.2244019e-01  -7.7102560e-01  -8.1218547e-01   2.6762736e-01   6.0532332e-01  -3.8258868e-02  -5.8314231e-02   6.5740747e-01   9.2818672e-01  -4.4573425e-01  -4.0191439e-01   3.1557868e-01  -2.7408720e-02  -4.8965754e-01  -5.6313541e-02  -3.5051920e-01   9.9650795e-01   3.6158227e-01   7.0811757e-01   6.8752458e-01  -2.3998924e-01   5.7071848e-01  -2.6373750e-01   8.7719560e-01   4.5298638e-01  -1.8764221e-01
