  -5.6422047e-01   2.1988885e-01   9.9259039e-01  -1.3944277e-01  -3.8314562e-01   8.1498558e-01  -9.9974291e-01  -3.2632226e-01   5.1680871e-01  -8.9454374e-01  -2.1813986e-01   5.8432743e-01  -9.0914569e-01  -3.0946355e-01  -3.1644583e-01   6.0208278e-01  -1.3799979e-01   1.1522156e-01  -3.9594455e-01  -6.4925516e-01   7.0808479e-01  -2.6040770e-01  -1.3790018e-01  -4.2037805e-01  -9.2028243e-01   8.8051751e-01   8.7459806e-01  -6.7713440e-01   3.8869943e-01   5.5130033e-01   5.7002513e-02  -5.0269513e-01   2.2804781e-01   2.3906879e-01   2.5145327e-02   9.1836927e-02   6.5766378e-01   8.6745886e-01   9.1597451e-01  -7.8220800e-01  -3.8515180e-02  -6.6685695e-01   3.5838740e-01   8.9158390e-01   9.6476726e-01  -8.2556632e-01   7.9751763e-01  -8.9770145e-01  -4.1279624e-01   4.0377323e-01   7.0831028e-01   6.6295078e-01   7.3242979e-01  -1.8481773e-01   6.3878151e-01   7.2734860e-01  -2.5891978e-02  -3.9663364e-02   6.1880445e-01  -6.1057476e-01  -6.3227689e-01   8.2827240e-01  -9.2938326e-01  -1.6236122e-02  -8.0567227e-01  -3.9983498e-01  -1.8906362e-01   9.5932388e-01   9.7893660e-01   4.3631883e-02   3.1944090e-01   8.5314257e-01   4.3327246e-01  -3.6666552e-01   7.2457396e-01   6.9101090e-01   7.9061892e-01  -2.2395912e-01  -8.4780474e-01  -3.0575857e-01  -2.3361874e-01  -9.9622717e-01   6.5795040e-01   7.4200519e-01   7.8064001e-01   7.0690054e-01   5.8887231e-01   6.6998451e-01  -4.7429278e-01  -7.5808599e-01   2.8529035e-01  -4.7611763e-02  -6.1581425e-01   4.8179940e-01   1.0981830e-01  -3.6957238e-01   9.9808750e-01   9.4373593e-01  -6.7468449e-01  -3.5082907e-01   7.3639714e-02   9.1302112e-01  -6.3938139e-01  -7.2875903e-01  -9.8207048e-01   7.9948803e-01   5.2160530e-01   4.2046177e-01   4.7571912e-01  -8.7834625e-01   7.5265215e-01  -8.3304496e-02   5.8490553e-01  -6.7404617e-01   4.8493408e-01  -1.5143087e-01  -6.6603254e-01   3.7021134e-01   5.5075190e-01   4.8996886e-01  -1.2835786e-01   5.4258160e-01   1.3255474e-01   5.3887444e-01   6.8347040e-01   3.3610913e-01   8.7651907e-02   9.0121235e-01  -3.9462069e-01   9.2088352e-01   8.6209750e-01   8.2474377e-01  -2.8561795e-03   4.1844791e-01  -9.6352046e-01   3.8481654e-01  -6.0239885e-01  -5.2109355e-01  -2.7530412e-02   3.5290294e-01   9.6148792e-01  -8.6404703e-01  -9.5771228e-01  -5.5203460e-01   3.3265999e-01   8.7087804e-01   9.6266850e-01  -5.4568628e-02   3.1615162e-01   5.5703953e-01   1.2342145e-01  -4.6326429e-02   7.4512171e-01  -7.3875869e-01   4.3815157e-01  -5.5435333e-01   1.8067264e-01   6.6515485e-01  -3.9039214e-02  -2.2115465e-01   2.6811726e-02  -3.2267205e-01   4.4416268e-01  -4.2307828e-01   5.6366754e-01   4.9590451e-01   4.7838479e-01   4.5397744e-01   8.5043255e-01  -2.5595457e-01  -6.1696504e-01   2.9202554e-01   8.2919333e-01  -1.0835067e-01   1.3336246e-01   5.4747853e-01   9.7551607e-01  -9.0582998e-01   4.8699268e-01  -4.2428574e-01  -8.1161249e-01  -6.6420148e-01   7.4413221e-01   8.8768303e-01   9.3782607e-01   1.1087822e-01  -3.9607401e-01  -1.7947985e-01   6.3571706e-01   4.8005357e-01  -1.1674948e-01   2.7557854e-01  -8.4700412e-01   7.3980160e-01   5.5324473e-01   1.0267403e-01  -3.8919373e-02  -1.9970775e-02   4.1616815e-01   1.0991196e-01   5.3520468e-01  -8.0165697e-01   9.7332792e-01   8.9264929e-01   9.5982981e-01   2.2386045e-01   8.1629864e-01   1.5748122e-01   8.3419348e-01  -4.3964371e-01  -9.9210225e-01   7.4234434e-02  -8.5708488e-01  -2.4534717e-01   1.8116471e-02  -3.9391189e-01  -5.0565699e-01  -3.2890801e-01   2.3056135e-01  -4.8933792e-01   2.8829545e-02  -7.5666077e-01   4.1748599e-01   9.3299526e-01  -4.4555625e-01  -1.4885886e-01  -7.7232498e-02  -7.6825582e-01   8.0828964e-01   2.4694798e-01  -6.0289557e-01  -5.7036461e-01   4.8793532e-01  -5.9146078e-01  -7.9567071e-01  -1.1447628e-01  -7.5759869e-01   6.0319931e-01   5.3375989e-01   4.5244303e-01  -7.1820606e-01   4.2505857e-01  -2.7568431e-01   5.1505392e-01   7.0329747e-01   2.7011483e-01  -3.5972642e-02  -8.5195135e-01   3.7576741e-01   9.3808125e-01  -9.2282731e-01   6.0801561e-01  -6.3547089e-01   3.0568316e-01   2.3700381e-03  -5.5765054e-01   6.3716051e-02   5.7661749e-01  -2.7343539e-01  -5.9953600e-02  -5.2908089e-01   4.8138561e-01   2.2837513e-01  -9.2117113e-01   5.7830154e-01   6.3694892e-01  -2.4420857e-01   3.1851463e-01  -2.4218288e-01  -4.4467152e-01   2.6664401e-01   4.7542727e-01   4.2187210e-01   4.4805564e-01  -7.8600676e-01  -5.5299125e-01  -4.9718304e-01   5.4465954e-03   4.5289441e-01   4.9312204e-01  -5.3647562e-01   7.2405174e-02   4.5358914e-01  -5.8766390e-02  -5.3080659e-01  -6.5019998e-01  -1.3412528e-01  -2.1069003e-01  -3.9261103e-01   8.8448469e-01  -6.0899039e-01   8.3759353e-02  -2.5289026e-01   8.0199867e-01  -9.8109136e-01  -2.5998821e-01  -2.3290197e-01  -8.5401342e-01  -5.1206136e-01   1.2461952e-02  -5.9123719e-01  -8.8789944e-01   2.5439283e-01  -7.9276735e-01  -6.6969704e-01  -2.1563282e-01  -7.7192143e-01   3.2789357e-01  -7.8086040e-01  -1.4004417e-01   2.6477062e-01  -9.6140182e-01  -4.2434200e-01  -9.0947340e-01   2.4508838e-01   8.8264670e-01  -9.1999431e-01  -6.8170055e-01   8.3025060e-01  -5.0986531e-01  -7.3684930e-01  -9.4699243e-01   9.0242996e-01  -6.4240351e-02  -2.4402442e-01  -4.7512023e-01   5.7261392e-01  -8.2729920e-01  -2.9100820e-02  -7.9348082e-01   3.8202977e-02   4.0522305e-01  -9.4911046e-01  -5.5107247e-01   3.9172088e-01  -2.1921580e-01   1.0421177e-01   4.7277019e-02  -6.0911228e-01   3.2518743e-01  -2.4612722e-01  -8.0014551e-02  -9.5373083e-01   3.4364796e-02  -7.4326760e-01  -5.2361131e-01   9.6079247e-01   8.6893732e-01   1.8571096e-01  -8.8297765e-01   5.0612374e-01  -5.9213874e-01   6.2322410e-01   6.7996568e-01  -6.5817437e-01   5.4790117e-01   6.1041124e-01   5.5399821e-01   5.1070364e-01   5.4338753e-01   1.2836537e-01   6.7180379e-01   3.6336857e-02   5.8232556e-01  -1.1904805e-01  -6.4856268e-01  -4.0383718e-01   4.6330749e-01  -6.1184492e-01   9.3638585e-01  -3.5505592e-01   1.8943901e-02  -2.2758917e-01  -4.6931279e-01   8.4185194e-01  -9.7011262e-01  -4.4773544e-01  -7.3441602e-01   1.1501814e-01  -2.8812871e-02  -4.6164589e-02  -7.1366869e-01  -9.0819791e-01  -8.6120881e-01  -9.1099170e-02  -5.5624662e-01  -4.1356769e-01  -3.8953050e-01  -5.2204316e-01  -9.2184976e-01  -8.5124869e-02  -6.9022015e-01  -7.0286148e-01  -8.9280228e-01  -1.3716200e-01  -5.7968342e-02  -9.2826056e-01   9.6647044e-01  -4.0368064e-01   7.5031312e-01  -9.4962332e-01   4.2334970e-01  -5.3002267e-01   6.4100332e-01   7.8951259e-01   3.1393209e-01   8.2520298e-01  -1.6330423e-01  -9.0954711e-01   7.9395155e-01  -4.4610506e-01   8.3290217e-01   5.2061344e-01   3.8974744e-01   5.9691016e-01   2.7970317e-02   9.5762116e-01   4.5160117e-02   6.9429517e-01   3.0843579e-01   3.0199503e-01   7.6993974e-01  -9.0450423e-02  -4.1550587e-01   1.9653943e-01   8.1986523e-01  -8.6875144e-01  -1.1075634e-01  -7.8608557e-01  -4.9906823e-01  -5.9243430e-01   4.3857409e-01   2.0821629e-01  -8.9002436e-01  -6.2996186e-01   3.4292276e-01  -2.5887587e-01   8.9961582e-01  -8.5001782e-04   7.3191516e-01  -2.5313548e-01   9.6014920e-01   9.8123168e-01  -4.5934560e-01   2.9779217e-01  -6.9385741e-01  -3.0751538e-01   8.3971394e-01  -2.5357643e-01  -7.7747481e-01   4.3334724e-01   4.3450340e-01   3.8247376e-01   3.2493138e-01  -2.3959122e-01   6.7039334e-01  -2.2264644e-01   3.8164029e-01  -7.1210521e-01  -4.6540602e-01   1.6986075e-01   4.5616174e-01  -4.7835356e-01  -3.2294442e-01   1.2912867e-01  -3.7821175e-01  -4.3393980e-01   5.1419825e-01   6.0558292e-01   4.4375098e-01  -5.9763180e-01   9.5785307e-01   7.3008206e-01   9.1525081e-01  -4.4915955e-01   4.7437595e-01  -8.5314284e-01  -3.4503880e-01  -9.3308913e-01   6.0276851e-01   1.7322396e-01  -3.7533047e-01  -9.5031380e-01   1.8201425e-01  -9.5697375e-01  -4.8615337e-01  -7.8533410e-01  -5.7929234e-02  -7.8920789e-01  -4.0213796e-01  -9.4874684e-01   3.1352963e-01  -1.3307761e-01   6.8775020e-01   3.9057009e-01   3.4211522e-01  -3.4679347e-01  -4.4033807e-01   8.5300239e-01  -2.9502526e-01  -9.8299202e-01  -7.2976980e-01  -4.3346507e-02  -9.1017299e-02  -3.1798142e-01  -6.6446731e-01   5.2458416e-01  -9.1365468e-01  -3.7285729e-01  -9.4574440e-01  -6.0315756e-01  -4.7585354e-01   5.0250593e-01   3.7776235e-01  -4.8427731e-01  -5.7980093e-01  -9.1431843e-01  -3.5459923e-01  -4.1286007e-01   6.5428404e-01  -7.7495738e-01  -8.6721836e-01   9.4681164e-01  -8.0705092e-01  -9.4575470e-01   1.2666343e-01  -6.3720751e-01  -8.6351547e-01   2.8328695e-01  -1.2027257e-01   6.8202129e-01  -5.1823181e-01   9.3368873e-01  -5.7416460e-01  -3.7017168e-01  -5.1183667e-01  -1.1326696e-01   8.8022286e-01   7.2486103e-01   4.3961897e-01   4.7170088e-01   6.9590452e-01  -6.5876593e-01  -8.0165275e-01  -9.9378498e-01  -1.3213657e-01   7.3113339e-01   3.7203099e-01  -4.5827307e-01   4.2938991e-01   9.1868100e-01  -1.4949786e-01   7.3180519e-01   8.0060564e-01   8.4835761e-02   5.0639596e-01   1.6033953e-01  -7.8997066e-03   7.0983137e-01   8.6694878e-01  -5.0558898e-01  -8.6997231e-01   2.1357373e-01  -5.6193735e-01  -6.9317048e-01  -5.9102468e-01   3.6467190e-01  -1.4344164e-01  -3.0854145e-01  -3.2010248e-01   7.3151093e-01   8.6515819e-01   4.2214414e-01  -4.1762769e-01   3.2122911e-01  -4.2506649e-01  -2.0990230e-01   4.0603247e-01  -2.8229056e-01   8.1403865e-01  -9.9747047e-01  -6.2577351e-01  -6.7653762e-01  -2.7248394e-01  -4.2291013e-01  -5.6159998e-01   6.4472888e-01   5.1939347e-02  -7.4193858e-02   1.9503826e-01   6.1774200e-01  -9.0952179e-01   5.0615151e-01  -3.6321823e-01  -3.0047724e-01  -3.2516002e-01   9.1438199e-01  -6.6490769e-02   5.4567392e-01  -2.5251339e-01  -9.5081252e-03  -2.6743411e-01   4.5069172e-01   8.6658696e-01   8.4874993e-01  -7.9888758e-01  -9.8523022e-01  -3.0976477e-01   1.5121149e-01   3.6764926e-01  -6.0270653e-01   9.7076722e-01   7.8615877e-01   4.6825181e-01  -2.5138908e-01   7.8665626e-01   2.9543196e-01   9.1501123e-01  -3.5290077e-01  -4.4242696e-01   9.5342898e-01   1.0846364e-01  -2.5232714e-01   6.8473903e-01  -9.5166352e-01   9.3804943e-02  -2.0165820e-01   1.1656567e-01   1.3590323e-01   5.8417863e-01  -8.0779780e-01  -8.6125503e-01  -8.5965745e-01   3.5441282e-01  -6.0994557e-01   2.5227393e-01  -5.4714320e-02  -6.0016167e-01   1.2732886e-01  -8.9832116e-01   1.0534760e-01   6.5915588e-01  -5.9427671e-01  -7.3123122e-01   3.9472616e-01   9.2163991e-04  -1.6455407e-01   7.0596524e-01   2.7726288e-01  -2.2851671e-01   5.6948571e-01   6.8008649e-02  -5.6927550e-01  -9.0448820e-01  -5.4027466e-01   9.7575425e-01  -3.1112776e-01  -8.7626962e-01   1.0774831e-01  -6.9182930e-01   6.2261505e-02   2.9179940e-01   6.3740606e-01   8.7785011e-01   7.1327521e-01   4.6668107e-01  -4.3595081e-01  -5.9240555e-02   5.0579211e-01   6.7927172e-01   8.7349931e-01  -4.7564301e-01   6.4449103e-01  -5.7135827e-01  -4.9374424e-01   2.1710832e-01   9.3894717e-01   4.2351906e-01   2.7509070e-01   4.4986257e-02   3.2860928e-02  -9.9625760e-01   9.0785562e-01   3.2055843e-01  -7.8737303e-01  -8.9515315e-01   7.4235796e-01  -3.4584279e-01  -3.2256576e-01  -2.4121897e-01  -5.0974192e-01  -8.5283473e-01  -3.3670405e-01  -4.9351678e-01  -8.7010414e-01   9.9766523e-01  -4.7974585e-01   4.5787324e-01   2.3622552e-01  -1.5294239e-01  -7.1985433e-01   7.1275426e-01  -8.3846098e-01   6.4918474e-02  -2.0804669e-01   7.4600307e-01  -5.7930215e-01   9.2146916e-01  -7.2748345e-03   7.8869259e-01   7.9209839e-01   9.0149218e-01  -3.0705583e-01   5.3801012e-01   1.0277903e-01   7.9366030e-01  -6.7291167e-01  -9.5878520e-01  -7.0638616e-01   2.7019293e-01   8.2198939e-01   2.5607373e-01   1.6096182e-01   1.3278943e-01  -2.8867630e-01  -1.5744782e-01  -1.7954054e-01   9.1432225e-01  -7.5310360e-01   3.6988843e-01   8.7375867e-01   5.3391304e-01   7.4684415e-01   9.7898610e-01  -5.5310478e-01  -7.8822461e-01   5.2752300e-01   7.4919981e-01  -8.2220986e-01  -3.6706874e-01   8.5924637e-01   7.6801633e-01   2.3264279e-01  -5.8794727e-01  -3.0820764e-01   3.0952866e-01  -7.7044621e-01  -2.8697081e-01   7.8731940e-01  -5.4634144e-01   2.8110453e-02  -9.2744200e-01  -2.9146500e-01  -4.9659950e-01   2.0649335e-02  -1.2235792e-02   3.8094297e-01  -9.5660162e-01   3.0595476e-01  -9.6394208e-01   5.2034054e-01   7.0486136e-01  -1.2014455e-01   8.3525223e-01   7.4946654e-02   9.6525774e-01  -8.9844859e-01   9.5083897e-01  -5.3893598e-01  -2.7160946e-01  -3.0974383e-01  -4.3258476e-01   3.7536769e-01   5.4308501e-01  -6.7740700e-01  -1.3465222e-02   5.8804605e-02   7.3620026e-01   9.5257729e-01  -3.0735945e-01  -7.7501194e-01  -2.3356948e-01  -9.7556434e-01   6.2399165e-01   2.1720298e-02   7.1923294e-01  -1.4298606e-01   9.0420527e-01   3.3506757e-01  -6.8119841e-01  -5.0739091e-01   3.4707530e-01   9.7560427e-01   1.9101729e-01   7.6024198e-01  -5.7093870e-01  -9.6801463e-01  -4.0989546e-01  -1.6898966e-02  -9.1970893e-02   1.9084676e-01   4.0008490e-01  -7.2249698e-01   5.6707086e-01  -1.5634271e-01  -6.5332544e-01  -4.0886119e-02  -1.4953475e-02   6.3048703e-01   7.2101208e-01   5.8226656e-01   7.7653892e-01   3.0455855e-01  -3.6656572e-01   9.0184620e-02   6.8383711e-01  -8.5239223e-01   7.6770958e-01  -3.0392173e-01  -8.6753825e-01   3.5192267e-01  -1.0416343e-01   5.1018330e-01   8.4625565e-02   2.5246523e-01  -5.2950126e-01   4.1701708e-01  -9.4215879e-01   7.7632907e-01  -7.0037408e-01  -7.6548171e-01   6.8583341e-01   2.2821977e-01   7.1368134e-01   2.3490454e-02  -9.9821210e-01   5.7321101e-01   5.2492716e-01  -3.3930977e-01  -9.2760411e-01   2.0930339e-01   5.8947778e-01  -5.5542488e-01   3.1965933e-01  -6.1466889e-01  -2.6507848e-01  -5.1471645e-01  -4.7872052e-01  -4.3262181e-01  -9.0913533e-01   6.2737051e-01   2.1329852e-01   1.8520942e-01  -6.0313803e-01  -1.8682335e-01  -1.9146125e-02  -6.2191869e-01   8.2025548e-01  -7.7213269e-01   8.4987892e-01   1.3134146e-01   3.5718238e-01  -8.4768492e-01   5.4467999e-01  -3.2733993e-01   7.5785998e-01   9.1662483e-01   9.1357259e-01  -1.4278248e-01  -6.2582688e-01   6.2272637e-01  -3.1744202e-01   3.3294561e-02  -4.0971924e-01  -8.7288697e-01   3.9957156e-01  -2.1892680e-02   4.4557837e-03  -2.8180656e-01  -1.4402533e-01   4.0075645e-01  -7.9009718e-01   9.9976624e-01  -5.6300508e-01  -1.0753789e-01  -8.2065387e-01  -8.0055281e-01   7.9544168e-01   5.9146473e-02   6.3788601e-01   4.8194773e-01  -3.6099595e-01   9.3829273e-01   3.4383114e-01   2.2121591e-01   3.8575555e-01   6.8583786e-01  -2.9845620e-01  -6.2732647e-01  -4.2747449e-01  -3.3049225e-01  -3.4418087e-01  -9.2013106e-01  -7.4391285e-01  -2.5173097e-01  -9.1829396e-01  -8.9350363e-01  -1.4684233e-01   3.1340992e-01  -4.1872715e-03   2.2698411e-02  -7.6978536e-01   5.6802715e-01   1.1907156e-01  -7.3442496e-01   7.1785962e-01   1.3768206e-02   7.4356878e-01   1.4429814e-01   6.6273051e-01   6.2917476e-02   7.4512390e-01  -9.3683256e-01  -2.9612251e-02   8.9676819e-01   8.8070704e-01  -7.4056223e-01   6.4458368e-01   8.2728642e-01  -5.6418686e-01  -9.1709856e-01   2.1429280e-02   7.4069526e-01  -1.5532923e-01  -2.4247192e-02  -9.3563659e-01   6.9940044e-01   9.1123828e-01   5.9182567e-01   2.5785638e-01   9.3301471e-01   3.6498751e-01   6.4790684e-01  -7.8612051e-01   3.1904708e-01  -9.9095053e-01  -5.1892407e-01  -8.6861755e-01   1.6622210e-01   3.4591391e-01  -7.4435063e-01   6.2477222e-01  -1.4750957e-01  -3.2363232e-01   9.5804688e-01  -2.6591760e-01  -4.9440152e-01  -6.7861104e-01  -8.2707601e-01   6.0995969e-01   2.4717699e-01   1.0981031e-01   6.3743392e-01   8.6257794e-02   7.6312322e-01  -7.6972040e-01   8.0193961e-03  -7.5359996e-01   4.6325740e-01  -5.0685591e-01  -4.7523617e-01   3.1191362e-02   3.3150023e-02  -4.8169770e-01   1.6544480e-01  -4.1245396e-01   6.3406735e-01  -3.0376827e-02   6.2567229e-01   3.5208363e-01  -1.4279364e-01  -9.6361903e-01  -3.9346543e-01   6.6714169e-01  -7.7684115e-01   8.6973443e-01   9.3338121e-01  -3.7275124e-01  -8.9896430e-01   9.8748445e-01   1.9982027e-01   7.3172974e-01  -2.0640928e-02  -2.4174890e-01  -9.9883804e-01   8.9300736e-01  -9.8880491e-01  -1.4361733e-02  -9.8386251e-01   7.2232757e-02
