   2.0403529e-01  -5.4178704e-01  -5.3029020e-01  -4.5068753e-01   1.9356044e-01   4.2163651e-01  -5.0186353e-01   9.5499513e-01   3.3711039e-01  -1.3624285e-01   3.1726482e-01  -1.1630133e-01  -4.7035918e-01   7.1737514e-01   3.0186585e-01  -1.6627629e-01  -2.9924477e-01  -2.9622035e-01  -4.1150271e-01  -9.5602869e-01  -3.1727147e-01   8.5280001e-01  -1.4402966e-01  -8.0001691e-01   8.1775028e-01  -6.2240852e-01  -3.8964555e-01   7.2074955e-01  -4.6417995e-02   8.2257490e-02   6.1306962e-01   8.2077953e-01   4.7314654e-01  -9.9704042e-01  -5.3647690e-01  -2.3457880e-01   9.7427772e-01   4.8195567e-01  -8.8508082e-01   2.4538576e-01   7.1240155e-01   7.3568752e-01   3.9135775e-01   3.7488764e-01   1.8075879e-01  -9.9710341e-01   5.0781115e-01  -5.5666403e-01  -2.1360990e-01   5.3940891e-01  -3.9134328e-02  -1.8419673e-01   1.7546052e-01   5.9568447e-01  -7.7164795e-01  -3.1703483e-01   7.3450950e-01   6.7802160e-01  -8.5131928e-01   4.6215834e-01  -3.3301742e-02   2.6731950e-01   7.0834373e-01   4.2784347e-01   1.6877751e-01   1.8639499e-01   5.4454127e-01  -2.4304340e-01   7.5624878e-01  -4.6014901e-01   2.1677214e-01  -1.0691138e-01  -2.2716642e-01   9.8242732e-01  -5.9727646e-01   7.1726716e-01  -4.1704733e-01  -1.6573124e-01   9.5747100e-01  -2.4534699e-01  -8.6954262e-01  -6.6290794e-01  -3.5268537e-01  -1.8799021e-01   7.4410606e-02  -8.8492249e-01  -1.7043825e-01  -8.8164989e-01  -6.0893650e-01  -6.3264142e-01  -9.9615577e-01   2.6931463e-01   1.7241501e-01   6.4559802e-01  -2.7901626e-01  -5.8237485e-01  -1.5253827e-01   1.7199962e-01   4.7969081e-02  -5.6582690e-01  -2.1707135e-01   9.6332519e-02   4.2191215e-01  -2.0313379e-01   9.3296835e-01  -8.6977282e-01  -4.9476889e-02   6.6415107e-01   5.7114931e-01   1.9923842e-01  -9.6588362e-02  -6.9125210e-01  -8.8660157e-01  -3.5225217e-01  -1.5454400e-01  -6.9004063e-01   9.8581525e-01   3.8019898e-01  -2.7337624e-01  -7.2560594e-01  -9.7340088e-01   5.2657740e-01  -7.9700825e-01  -6.2989933e-01  -6.8534013e-01   6.4051783e-01   2.5735593e-01   6.7295003e-01   3.5021915e-01   3.0516427e-01  -1.0905361e-01   1.2228652e-01  -1.9670902e-01   5.7178269e-01  -1.3029313e-01  -3.7200256e-01   6.8691451e-01  -5.1229654e-01  -4.3162423e-01   3.7154106e-01   6.0571821e-01   5.7896175e-01   1.5901195e-01   7.1405981e-01   7.1118604e-01  -9.4620328e-01   4.4581624e-01  -5.7076132e-01  -6.8755412e-01  -9.5575679e-01  -3.9784509e-01  -6.6484353e-02  -3.8589555e-02   8.3133693e-01   9.1870271e-01  -1.8590335e-01  -4.1101187e-01   9.9203841e-01   4.6643931e-01  -2.9108183e-01   7.2708269e-01  -3.8093252e-01   9.8691898e-01   1.6638620e-01   9.1117245e-01   8.7487114e-01   3.8052393e-01  -2.5419444e-01  -8.9263137e-01   1.7349449e-01  -3.3773679e-01   8.3201072e-01   9.3064736e-01   1.6061855e-01  -1.7419199e-01  -6.7410077e-01  -8.0328277e-01   7.3414909e-01  -2.0310636e-01  -7.7536346e-01  -7.9685424e-01  -2.7140577e-01  -8.0886987e-01  -9.5706076e-01   8.5054065e-01   6.2008501e-01  -9.6541533e-01   9.2423617e-01  -7.2510519e-02   8.6580613e-01  -8.3293166e-01   4.0623774e-01   7.8897490e-01  -7.0437931e-01   2.7214325e-02   2.0126544e-01  -8.8256595e-01   7.2662725e-01  -5.5169044e-01  -9.0404829e-01  -5.4035031e-01   6.5940687e-01  -7.2706181e-01  -3.9540196e-01   5.8812677e-01  -5.1400956e-01   3.4421874e-03  -7.6131506e-01   1.6762962e-01  -1.1677863e-01  -7.1944088e-01   7.7514070e-01  -7.1889342e-01   7.9636166e-01  -6.2418726e-02   4.6109736e-01   9.9091014e-01   4.9199888e-01  -5.3004532e-01  -2.0194371e-01  -6.1681240e-01   8.3607680e-01  -3.8606846e-01  -1.2921016e-01  -9.0842829e-01  -1.0627932e-01  -9.4540863e-01   3.6850602e-01   1.4036365e-01   3.2966094e-01   6.6318726e-01   1.7389735e-02  -7.3869681e-01   3.0602406e-01   3.9936296e-01   3.4886139e-01   1.6667115e-01   2.8813494e-01  -1.8821109e-01   7.2773990e-01   1.0793365e-02  -3.9726093e-01   6.4123301e-01   8.1680737e-01  -7.9792184e-01  -7.6025694e-01  -8.5186585e-01   9.4873971e-01   2.1189586e-01  -2.0379961e-01   7.9896482e-01  -1.6144139e-01   5.3267366e-01  -8.8931552e-01   1.5595500e-01   7.3906436e-01  -3.8948937e-01  -1.5540289e-01  -8.2193759e-01   2.8203866e-01   5.1583650e-01   9.0166466e-01  -6.6262481e-01   4.6776518e-01  -1.1342635e-01  -8.4719023e-01  -8.8482918e-01  -3.7107956e-01  -5.4270796e-01   6.6986804e-01  -1.6877890e-01  -4.3200710e-01   4.9770667e-01   6.1835955e-01  -3.5760783e-01   8.3332452e-01  -3.0953969e-01   8.7371052e-01   9.9666908e-01   7.5913853e-01   5.1753761e-01  -8.0058201e-01  -3.4945603e-01  -6.8069615e-02  -7.6730013e-01  -5.5537070e-01   6.7089458e-01  -6.5521704e-01   5.4148474e-01   8.9191996e-01   6.6875865e-01   1.4039103e-01  -3.1603732e-01  -4.9494862e-01   8.8265555e-01   7.4673746e-01   2.4359493e-01   7.3472962e-01  -8.8635598e-01   5.0620757e-01  -4.9430684e-02  -9.1554400e-01  -9.8645252e-01   8.1588660e-02  -2.8065899e-01   2.5693352e-01   8.1613576e-01  -5.1968158e-01  -9.6096414e-01  -8.9596221e-01   9.9770478e-01  -7.3646960e-01  -9.6090975e-01   5.3727810e-01  -8.4105368e-01   3.6600533e-01  -7.2256679e-01   8.8252198e-01  -3.0178874e-01  -9.8354548e-02  -7.2064778e-02   4.1067069e-01  -6.2512394e-02   6.9323242e-01  -5.8559321e-01   6.0180406e-02  -2.3652392e-02   4.9995075e-01  -9.0140351e-01  -8.7890251e-01   5.6530757e-01   5.5729753e-01   8.6640165e-01  -4.7482840e-01   4.5423720e-01   5.5148800e-01   5.6689724e-01  -4.5584176e-01  -2.4244386e-01  -2.9503531e-01   1.3299691e-01  -3.1883837e-01   5.8802705e-02  -2.0989019e-02  -1.8389026e-01   4.2646038e-01   8.6776634e-01  -4.6884391e-01   3.0437973e-01   8.9859861e-01   9.8966274e-01  -3.5426832e-01  -1.6712688e-01  -3.2548606e-01   5.3341267e-01  -1.1621855e-01  -3.6606353e-01  -9.6185456e-01  -8.2375125e-01  -6.3833051e-01   8.1513387e-01  -2.6697721e-01   1.8499730e-01  -8.8240252e-02   6.4585238e-01  -5.6405264e-01   1.8096134e-01  -1.5979579e-01  -2.1315712e-01   4.1881688e-01   3.1187984e-01   4.5958146e-01   2.0470546e-01  -5.6347339e-01   5.4913390e-01   8.4980437e-01   9.0116978e-01  -9.6175904e-02  -7.4043047e-01   2.5090294e-01  -2.3483217e-01   7.6396518e-01   9.0999483e-01  -1.8330152e-01  -5.4419190e-02   7.4474580e-01  -2.3479067e-01  -4.1122971e-01   3.4545114e-01  -5.2420691e-01  -6.6506017e-01   8.0129318e-01  -6.4933659e-02   5.8587771e-01   9.9299052e-01   6.1365033e-01   5.0309922e-01  -2.6635595e-01   8.2921703e-01   4.9112404e-01  -1.2687394e-01   3.0425771e-01  -2.0656412e-03  -2.5059933e-01  -4.1150114e-01  -2.4399641e-01   3.7034376e-01   5.9183115e-01   9.9408836e-01  -7.7905251e-01   6.0141296e-01   9.8815853e-01   7.7141451e-01   5.6212501e-01   4.6737428e-01   9.2023677e-02  -3.0551285e-02   7.4976603e-01  -6.1603758e-01   2.2181204e-01   9.8958125e-01  -7.0317050e-01  -5.3369284e-02   8.4905322e-02  -4.2873924e-01  -7.1614721e-01   1.5869000e-01  -5.6734153e-01  -3.2730471e-01   6.6526097e-01  -5.9334707e-01   3.7800050e-01  -4.2549404e-01   7.2642664e-01   8.6017929e-01   7.7672157e-01  -1.0056423e-02  -5.9575719e-01   5.5122402e-01   8.6073201e-01   4.3084823e-01  -8.8123632e-01   7.5820330e-01  -8.5172146e-02  -5.7802312e-01   6.5268065e-01  -3.6808275e-02   2.5974901e-01  -9.3867350e-01   7.9967785e-02   7.5862941e-01  -2.4764083e-01  -5.3054079e-01   2.3560450e-01  -8.4017224e-01  -5.1224144e-01   9.7984361e-01  -9.1179412e-01  -6.2233633e-01   7.6275309e-01  -5.3493339e-01   5.1298816e-01  -6.8548646e-01  -1.7044706e-01   3.5379854e-01  -7.3988632e-01   7.6218823e-01  -5.1719673e-01   6.6791793e-01   5.6982786e-01   7.4088241e-01  -7.4654148e-01  -6.8399537e-01   8.8181357e-01   4.1808211e-01  -7.2360415e-01  -6.5173701e-01  -9.8836326e-01  -6.4228727e-01  -6.2334968e-01  -3.5605557e-01   4.6287747e-01  -7.2242844e-01   3.3376483e-01  -4.8552751e-01  -3.1792875e-01  -2.3116354e-01   2.5934729e-01  -4.4700086e-01   5.0399785e-01  -3.8023663e-01  -5.1966048e-01  -1.1851544e-01  -3.0323592e-01  -7.0480003e-02  -4.2096574e-01   6.2953865e-01  -7.9907550e-01   9.9304658e-01   8.1216979e-01  -8.7801850e-01   2.4870087e-01   3.2949503e-01   8.4151349e-02   6.7351358e-02   2.3438454e-01   8.8876628e-01  -1.2896807e-01  -7.8842369e-01   8.9056249e-01  -7.8907311e-01  -4.3920548e-01  -8.0204013e-01   3.7066834e-01   6.3419003e-01  -7.1255159e-01  -3.2338445e-01  -3.8699268e-01   1.0620358e-01   4.6935795e-01  -1.5321335e-01  -8.8773435e-01  -4.4040374e-02   2.5886534e-01   5.0130968e-01   2.9431687e-01   7.1889954e-01   1.8502380e-01  -8.5720831e-01  -3.7548195e-01   3.4828267e-01   6.3294773e-01   6.4799275e-01  -8.7750356e-01   6.3078734e-01  -4.1710321e-02   6.1174420e-01   3.6479530e-01  -8.2907578e-01  -2.1524987e-01  -4.9093425e-01   1.1994285e-01  -8.7767180e-01  -3.4377463e-01   8.9328452e-01   9.3344942e-01   3.1384270e-01   3.4584118e-01  -8.6412321e-01  -4.9630285e-01   7.0195051e-01  -7.0203380e-01   1.2772693e-01   7.2457434e-01   9.7179221e-02   5.6262242e-01  -5.1653151e-02  -4.2115393e-01  -1.7199982e-01   6.6639321e-01  -3.4184933e-01   2.0772560e-01  -8.2973526e-01   1.6047968e-01   6.4010570e-02   3.8718888e-03   4.6036338e-01  -7.9028428e-01   5.5486504e-01   9.9107365e-01   9.4073069e-02  -3.7363462e-01   4.1591160e-01   3.0231338e-01  -5.9105815e-01  -3.6466724e-01   9.7985955e-01  -7.0417671e-01   4.7883635e-01  -5.2517207e-02  -1.7831623e-01   2.3709592e-01   5.9900752e-01   8.4942998e-02  -1.4112298e-01  -4.8145160e-01   3.0084750e-01   5.2382687e-01  -7.1234675e-01   8.4765999e-01  -5.3697050e-01   5.2749784e-01   8.7044688e-01  -8.9078757e-01   4.4629203e-01   5.7722664e-01   1.6289729e-02  -2.1195649e-01   5.4959946e-01   9.0473271e-01   3.8861003e-01  -9.6996888e-01   7.8476202e-01  -4.0401581e-01   2.5906196e-01   2.0380590e-01  -2.6915795e-01  -8.6251983e-01  -4.1612196e-01   9.9789189e-02   8.3284056e-01   2.9542681e-01   1.7503153e-01  -9.4105775e-02  -3.4302892e-01   5.6663414e-01   9.0468561e-01   2.3329738e-01  -2.3639562e-01   3.2303170e-01   5.4519355e-01  -9.4285057e-01   1.4715707e-01  -2.1935776e-01  -7.6014373e-02   4.7720601e-01  -8.0687858e-01  -9.0127006e-01   6.3902185e-01   6.9152079e-01   1.8069269e-01   1.0537720e-02  -7.7828784e-01   3.9885445e-01  -3.5253287e-01   8.4480712e-02   2.4847788e-01  -6.9184038e-01   8.3502168e-01   6.3058178e-01   5.9185960e-02  -4.1220251e-01   9.9320598e-01   5.9158142e-01   8.2533059e-01   9.1846479e-01   8.5961504e-01   9.4206484e-01   7.0674981e-01  -3.2151115e-01  -2.4570840e-01  -1.7951396e-01   9.4045943e-01  -1.8843678e-01  -4.1960629e-01  -3.5622546e-01   4.0227878e-02  -8.8057304e-02  -8.2453429e-01   3.5808061e-01   1.2229736e-01   6.1611877e-01  -5.9440259e-01   2.4993569e-01  -1.9468146e-01  -9.0401517e-01  -1.5560554e-01   7.9720444e-01   5.9371127e-01  -9.2973189e-01  -8.7515032e-01  -4.1168736e-01  -6.6139355e-01  -4.0561863e-01   1.6827071e-01   6.4239465e-01   6.3282097e-02  -9.4558420e-01  -3.4135373e-01  -1.7293711e-01   7.3456813e-01   6.4901422e-01   4.0059289e-01   3.2613977e-02  -5.4866570e-02  -2.0055293e-01  -9.2280743e-01  -1.4912698e-01   6.3137699e-02   2.5273551e-01  -4.9799461e-01  -1.3284729e-01   8.4847072e-01  -7.2446402e-01   9.2723833e-01   2.8852088e-01  -5.2882572e-01   6.6616505e-02  -3.9999239e-01  -8.1807679e-02   4.7933320e-01   5.0683412e-01  -4.2649327e-01   6.7196415e-01  -8.0774139e-01  -4.6915284e-01   7.4667647e-01   1.3400045e-01   7.3108488e-01   4.2042661e-01  -2.7356912e-01   7.4958844e-01   2.4531138e-01   2.1838182e-01   1.7501730e-01  -3.6091363e-01  -3.8523784e-01   7.6568706e-01   3.1158859e-02  -5.3617608e-01   3.3025895e-01  -3.0092007e-02  -3.2190466e-02  -9.4907182e-01   7.3134088e-02   4.3412517e-01   7.9502924e-01   1.1630550e-01  -2.2910002e-01  -8.2312128e-01  -4.1374239e-01  -2.5118854e-01   1.2842406e-01   7.9543146e-01  -5.1320780e-01  -9.2527712e-01  -2.2777494e-01  -6.6670723e-01  -1.1530553e-01   6.9760929e-01  -3.4511026e-01   8.6707031e-01   2.2289021e-01  -2.9559587e-01  -5.4628958e-01   4.8730168e-01  -6.6561526e-01  -7.6115534e-01   3.9499011e-01  -4.2550208e-01  -6.4278828e-01   7.1113076e-01   6.3759224e-01  -2.8399172e-02   7.9525280e-01   2.7858658e-02   6.4763164e-01   6.4798574e-01  -6.7959713e-02   2.9097342e-01  -6.3053897e-03   4.0522079e-01  -9.0264857e-01   8.6430014e-01   7.7086171e-01  -3.4814521e-01   1.6765186e-01  -4.3658146e-01   5.5968215e-01   6.1419427e-01   5.7515296e-01  -9.5862429e-01   1.1137913e-01  -4.5255898e-01  -1.1979985e-01  -5.6250848e-01   7.9823447e-01   8.8206333e-02   2.8082764e-01  -5.1463977e-01   6.1361988e-01   9.2071098e-01  -2.7596110e-01  -2.4538735e-01   6.4048377e-02   4.9841440e-01   5.3828746e-01  -2.8169689e-01   1.9579829e-01   8.5958224e-01  -4.5472481e-01   5.2351112e-01  -1.2555111e-01  -8.7315988e-01  -2.4229446e-01   9.4050744e-01  -9.6547968e-01   3.0410984e-01  -7.4834740e-01  -8.4211148e-01  -2.2313120e-01   7.4368978e-01  -5.9614659e-01   7.9969783e-01   3.2845429e-01   5.1907999e-01   9.8285407e-01  -6.8201235e-01  -4.0960068e-01   2.1108517e-01  -6.1067069e-01  -1.8698555e-01  -8.2961519e-01  -9.8510616e-02   4.4144946e-01   4.8004896e-01  -7.1171271e-01  -3.2545071e-01   1.6645307e-01   8.4205998e-01  -9.9679753e-01   3.5997985e-01  -7.7978592e-01   2.9425519e-01   8.3525001e-01   7.8629116e-01   7.3910044e-01   9.8748237e-01  -6.4779154e-01  -3.7235744e-01   7.6716830e-01  -2.0960525e-01   3.6784474e-02  -2.6193605e-01  -7.7368125e-01  -7.7406235e-01   9.9834481e-03   7.9967958e-01   6.4274032e-01  -8.0634260e-01  -1.4650035e-01  -6.7397412e-01  -9.2817817e-01   6.0661119e-01   1.7929875e-01  -8.5681730e-01  -1.5092668e-01  -3.0485581e-01  -2.4370177e-01   7.7503071e-01   5.1660058e-01  -8.3885547e-01  -4.4336754e-01  -2.7932062e-01   1.6679329e-01  -6.5383084e-01  -7.3617949e-01  -2.9089225e-01   7.9516115e-01   4.1273154e-01  -6.6797273e-02   5.9774591e-01   5.8450947e-01  -4.2856528e-01  -5.9488939e-01   2.3857927e-01  -1.5370138e-01  -8.0307493e-02   7.7479344e-01  -9.8088201e-01  -4.7013685e-01   1.5679862e-01  -9.4679080e-01  -6.3408965e-01  -2.1613148e-01   4.3810797e-01  -4.0678978e-01   7.2710488e-01   8.7147517e-01  -3.2135769e-01   5.3901759e-01  -9.7174233e-01   4.6691568e-01   5.6327269e-01  -3.5618725e-01   5.8774821e-01   3.9918174e-01   6.6542701e-01   7.2160765e-01   4.4304008e-01   4.1602260e-01   5.1985024e-01   2.9166499e-01  -6.1061795e-01   3.7191686e-01   2.5286307e-01   4.9600834e-01   5.3520537e-01  -7.4602467e-01   8.0859551e-01   3.4281601e-01   3.8727836e-01   6.7320351e-02   2.3302706e-01   1.6402007e-01   7.4490138e-01   9.3338806e-01  -6.8731921e-01   3.1066239e-01   7.0583584e-01   2.8302036e-01  -4.8526218e-01   5.3650590e-01   4.1973584e-01   9.8191908e-01   9.7325070e-01   4.1989436e-01   6.9046450e-01   1.3426205e-01  -8.2805308e-01   8.7467451e-01  -5.3070264e-01   9.9366273e-01  -5.6152499e-01  -4.6207901e-01   2.6824344e-01  -5.0813764e-01  -2.9239112e-01   7.0266482e-01  -8.5116690e-01   8.7200416e-02   6.8664809e-01   5.0177750e-01   5.3384302e-01   9.5448220e-01   8.3962451e-01  -9.3454505e-01  -1.9029437e-01  -4.4835198e-01  -7.9537594e-01   1.3352173e-01   3.4455276e-01   6.4318787e-01  -4.1004211e-01   9.0034927e-01  -9.0170278e-01  -2.9625906e-01   1.0737523e-01  -2.5544467e-01   3.7373010e-01  -7.6911732e-01  -8.2387001e-01  -3.5200465e-01   1.3604569e-01  -3.7149799e-01   2.1330866e-01   6.2179547e-01  -6.1302402e-01  -3.9171338e-01   6.9080947e-01   2.5672449e-01  -9.3909974e-01   6.2359519e-01  -6.1064763e-01   5.1809573e-01  -2.5082296e-01   9.3683040e-01  -8.5650787e-02  -7.3470291e-01   6.6504884e-01   8.2554271e-01   9.8965374e-01   7.8384347e-01   9.2127112e-01   9.0751750e-01  -9.7952186e-01   2.9470197e-01  -3.9296006e-01  -9.0747515e-01   7.6724019e-01  -3.6500960e-01  -6.1290872e-01   4.6358010e-01   5.4936495e-01   9.7888264e-02  -8.4848244e-01  -2.0586313e-01  -4.2205371e-01   2.7260952e-01  -2.7178459e-01   4.6059607e-01  -7.2773247e-01   4.9744299e-01  -4.2114165e-01   9.7817408e-02  -7.2931152e-01  -9.2068411e-01  -1.9413880e-01  -1.1822374e-01   2.5723425e-01
