   2.2733451e-01   8.9774534e-03   7.5917791e-01   5.8941969e-01   8.7291042e-01   5.3312367e-01   1.5210842e-01  -8.6123326e-02   1.3309310e-01   6.1914102e-01  -8.8202236e-01   4.2235736e-01   4.0957096e-03  -6.7407406e-01  -1.1809794e-01   4.4601186e-01  -5.6726628e-01   5.7358194e-01   3.4864551e-01  -2.2876226e-01  -7.9413011e-01  -2.3595738e-01   4.6907133e-01   5.4519615e-01  -4.0598677e-01   8.3500839e-01   5.3065046e-01   8.3367649e-01   8.5339948e-01   1.3895918e-01  -5.1836739e-01   1.7030956e-01  -6.6755303e-01  -3.0557663e-01  -6.1665893e-01  -7.4365319e-01  -6.4040995e-01   7.5883194e-02   1.0838942e-01   8.4907669e-01  -6.1480032e-02   1.5174239e-01   7.6534307e-01   1.4446598e-01  -9.9313004e-01   4.5687733e-01   5.1393296e-01  -2.7677060e-01  -3.9360595e-01   5.5684808e-01  -9.7612949e-01  -4.9539843e-02  -8.1932835e-01   5.7429628e-01  -2.2796891e-01  -6.0758278e-01  -3.2764287e-01   8.8527350e-01   2.7442585e-01   2.9893707e-01  -2.6775108e-01  -3.9219901e-01   4.5829938e-01  -7.4411033e-01  -7.3355145e-01   5.6640018e-01  -7.0987212e-01   8.9584867e-02  -3.2450012e-01  -5.3445122e-01  -7.4233728e-01   6.8095661e-01   2.5017079e-02   6.6787604e-01  -5.9715610e-02   7.9455329e-01  -2.6836730e-01  -3.9538573e-01   5.0159907e-01  -8.6778521e-01  -5.9391066e-01  -5.6762231e-02  -9.0061099e-02  -3.8903175e-01   4.8004542e-01  -6.2699889e-02  -5.0651979e-01   6.8076081e-01   3.5025009e-01   6.2301766e-01  -3.0912007e-01  -3.4582200e-01   7.5572342e-01   9.9825588e-01  -2.5155251e-01   8.2194401e-01   2.3316935e-01  -4.5393190e-01   2.6922014e-01  -2.0715852e-01  -2.1920415e-01   4.7745127e-01  -2.1033987e-02   5.3523376e-01  -5.2254610e-01   3.0486916e-01  -6.9919641e-01  -5.2570227e-01  -6.0757028e-01   8.0497715e-01  -7.6380471e-01  -8.7559312e-01   5.8094208e-01   3.3672891e-01  -6.9887796e-01   8.0288524e-01   4.4354009e-02  -3.8434683e-01   1.4399102e-01   8.7823501e-01  -5.5303259e-01   1.8307349e-01  -1.6317148e-01   5.0924190e-01   5.2955319e-01  -5.1724589e-02   5.8046198e-01   4.3416467e-02   2.4251957e-01   5.4640239e-01   2.0456894e-01  -4.1432285e-01   1.3621814e-01   3.9526468e-01  -8.5016340e-01   7.4562266e-03  -4.7513281e-01  -6.6226431e-01   3.1194942e-01   1.5198655e-01   6.5516191e-01   2.6599283e-01   1.4775558e-01   6.5786841e-01  -5.6536559e-01  -5.6674210e-01   3.2470211e-01   6.2522385e-01  -3.1582789e-01   9.3592887e-01   3.5285158e-01   7.4401131e-01  -8.4100786e-01   7.9466861e-01   7.0436238e-01   1.0694897e-01   8.9275233e-01   6.0612639e-01   5.6619183e-01  -4.3044989e-01   8.3632457e-01   4.0125234e-01   3.8127667e-01   6.0284298e-01   7.2410723e-01  -5.8375202e-01  -3.2337619e-01   6.9535024e-01   8.8588766e-01   4.7384272e-01   4.2593162e-01  -1.9543695e-01   9.9264796e-01  -4.6303558e-01   3.7024603e-02   2.2933879e-01  -7.2356974e-01   6.4156012e-01  -3.0607734e-01  -1.1642058e-01  -2.9139955e-01   3.7256743e-01  -7.3445848e-01   4.8541046e-01   2.7814596e-01   2.7248916e-01  -1.7365325e-01   5.9738493e-02   3.5210127e-01   9.5853547e-01   4.6749570e-01  -3.9693419e-01  -4.6026171e-01  -5.3309016e-01  -6.3104386e-02  -9.3957965e-01  -7.6561024e-01  -2.4238603e-01  -5.1343691e-01  -9.3746213e-01  -4.1602509e-01  -8.2842181e-01   2.1657037e-01  -6.1611568e-01   1.3128848e-01   8.6856252e-01   5.8567581e-01   9.2420890e-01   1.1034912e-01  -9.7648689e-01  -3.6437671e-01  -8.2837940e-01  -7.2550926e-01   5.0676265e-01  -1.2851293e-02   8.7678942e-01  -1.5271229e-01   5.1858949e-01   6.6616123e-01   4.2266305e-01   4.5609532e-02   2.9418684e-01   4.4479312e-01  -2.1120584e-01   8.5659814e-01   1.3731536e-01   6.4029366e-03  -9.7424058e-01   1.8608887e-01  -9.4112962e-01   9.8552107e-01  -4.7061687e-01  -8.1253379e-01   1.2221253e-01  -9.1641272e-01  -6.4557180e-03   1.5997206e-01   1.7129367e-01   7.2344597e-01   4.0429780e-01   5.6016339e-01  -7.2401730e-01   4.0835900e-01   1.4223077e-01  -6.7028298e-01   4.3827055e-02  -1.7161020e-01  -8.7443582e-01   7.4573752e-01   9.9408007e-02  -4.2643589e-01  -5.5334975e-01   5.1008963e-02  -2.2355652e-02   3.4421633e-01  -2.8713496e-01  -9.4442052e-01   7.6052513e-01  -9.0008211e-01  -8.6323286e-01  -9.2033355e-01  -6.0490140e-01   6.5160396e-02   9.2049646e-01  -6.0639870e-01  -8.5757784e-01  -5.4757977e-01  -3.1654976e-01  -3.6631329e-01   5.8744613e-01   6.3318207e-01   7.4457058e-01   6.2003521e-01   5.1897606e-01   1.1481073e-01   9.1365726e-01  -8.5029173e-01   8.8964304e-01   3.2380439e-01   5.6716239e-01   9.8390290e-01  -4.0607218e-01  -9.8098192e-02   3.3338946e-01   4.3715330e-01  -4.1538485e-01  -4.3263764e-01  -6.3992483e-01  -5.2573030e-01  -6.5397644e-01   9.1960765e-01   8.5359887e-01  -6.0084395e-02   6.0597988e-02  -4.4447290e-01   6.2824083e-02  -4.3577485e-01   9.7260929e-01   1.7744744e-01  -8.2668448e-01  -7.6788764e-01  -3.0146413e-01   7.5464880e-01  -6.3984079e-01   3.5980522e-01  -2.9242850e-01  -9.2784207e-01   5.8882564e-01  -8.6296338e-01  -6.0661432e-01   9.8903309e-01   2.2089306e-01  -1.6603508e-01   6.5286546e-01   1.8229664e-01  -9.8957038e-01  -6.7944978e-01   8.4133981e-01   2.9744697e-02  -2.8719148e-01   7.7992318e-01   8.0112278e-01  -2.1656021e-01   9.7974844e-02   1.4531010e-01  -3.0821022e-01   8.6411004e-01   8.1425421e-01   1.8549771e-01   4.0379635e-01   4.8267073e-01  -7.9564029e-01   9.0998572e-02  -2.7828082e-01   7.6909499e-01  -8.1816908e-01   2.3047286e-01   8.2713164e-02  -9.6718626e-01  -5.4017570e-04  -4.7358277e-01   5.2171133e-01  -4.5321347e-01  -6.3069417e-02  -5.7339846e-01  -9.2918991e-01  -7.5494303e-01   1.0051410e-01  -8.9794144e-01  -8.2328272e-01   2.3175697e-01  -9.1494342e-01  -8.5417069e-01   6.8484261e-01  -1.4978980e-01  -2.5790840e-01   5.1171043e-01   5.5576143e-01   6.8092137e-01  -1.5422589e-01  -2.6082456e-01  -3.5685632e-02  -9.9103370e-01  -5.2672308e-01  -4.2545523e-01   7.9828710e-01   7.4190196e-02  -5.1861818e-01   1.2824221e-01  -4.8544830e-01  -4.9083505e-01   2.7268923e-01  -4.4662507e-02   5.6883629e-01  -2.5932653e-01   9.1670805e-01   4.4641333e-01  -7.3767565e-01   6.1856586e-01  -5.3424554e-01   7.9800941e-01   8.1646640e-01  -2.4854765e-01   4.8204421e-01  -8.5018779e-01  -9.4913643e-01   7.4028774e-03   4.1034317e-01   9.2715631e-01  -2.6477045e-01   5.8250790e-01  -4.8535521e-01  -3.1262045e-01  -9.0620531e-01   8.5551611e-02   5.7302159e-01  -4.0388732e-01  -7.5845756e-01   9.8682926e-02   9.8210839e-02  -5.4265739e-01   1.6491519e-01   8.1965683e-01   2.4390858e-01  -3.7085776e-01   8.1581844e-02   8.2042291e-01  -4.8269744e-01  -2.2233604e-01  -8.6998153e-01  -8.3540998e-01  -7.1499034e-01  -1.3472042e-01  -5.5031807e-01  -8.7999565e-01   5.8434890e-01   7.0836874e-01   1.6640558e-01  -6.9222502e-01   3.7275219e-01  -4.1452185e-01  -8.3384716e-01   9.8034577e-01  -5.0252487e-01  -7.7176654e-02  -8.1969264e-01   7.8079524e-01   1.6349057e-02  -8.3600582e-02   4.5688026e-01   2.7229146e-01   2.4499323e-01   5.1667153e-01   3.1747883e-01   8.1112342e-01  -6.2874618e-01  -6.3423164e-01  -9.5298526e-01  -3.1129846e-01  -5.1161533e-01   8.8812619e-01  -4.7135252e-02  -1.3535644e-01  -3.1441553e-01   9.1591132e-01  -5.0799027e-01  -3.0282123e-01   9.5178188e-01   6.9783345e-02  -8.6877029e-01  -8.0523634e-02   4.2243449e-01  -4.9993968e-01  -2.7166853e-01  -3.4819849e-01  -8.3992721e-01  -8.6993229e-02   3.3029748e-01   9.8455621e-01  -6.7505490e-01   1.5446158e-01  -4.9174731e-01   1.0416699e-01   8.1456920e-02  -7.8075770e-01   5.4379140e-01  -6.2433560e-01   5.5139374e-01  -9.7707526e-01   1.4746206e-01  -4.4615854e-01   9.5815169e-01   3.4057638e-01   6.5822588e-01   2.3437141e-01  -3.1468952e-01   2.7015204e-01   7.5675349e-01   9.8362067e-01   9.2876115e-01   7.2574314e-01  -2.6278417e-01   3.8727767e-01   4.7304133e-01  -2.6272167e-01  -8.6705706e-01  -4.2490896e-01   6.5499367e-01  -1.8261136e-01  -4.3451481e-01  -3.9816340e-01   1.0115712e-01  -9.8246436e-01   1.7952700e-01   9.7915060e-01  -6.5312527e-01   2.1925135e-02   5.8148604e-01   1.3118397e-01   5.0514966e-01  -8.1846005e-01  -2.1041613e-01   1.0434987e-01   4.9538930e-01  -8.9187142e-01   5.3311213e-02   6.4679236e-01  -6.7655316e-01  -7.0245093e-01   6.7490617e-01   3.4963821e-01   4.4101975e-01  -7.7662466e-01   3.3001502e-01  -5.2963874e-01   1.2367800e-01  -6.2790497e-02  -3.4865811e-01  -4.0548020e-01   5.8057743e-01   9.2992606e-01  -7.6309028e-01   2.9120260e-01   4.5494003e-01  -6.0979554e-01   2.9342841e-01   3.1246859e-01  -5.0510297e-02   1.3493976e-01  -8.6150150e-01  -1.1304028e-01  -8.9125052e-01   8.5665213e-01  -2.6964633e-01  -9.3635879e-01   3.5293123e-01   7.2688199e-01   6.7139169e-01   5.5798231e-01  -1.0000012e-01  -2.4186221e-01   8.5733200e-01  -5.3328012e-01   9.3446040e-01  -6.6555025e-01  -6.6917345e-01  -3.1987850e-01  -1.9523661e-01   8.6497117e-01   9.6780983e-02  -3.9417574e-01  -1.1049305e-01   5.5766480e-01   7.8320088e-01   7.6492291e-01  -9.9029788e-01   4.6359444e-01   3.8404381e-01   4.2872478e-01  -6.3059954e-01   6.2251863e-01   9.1887311e-01   4.7251452e-01   5.7346927e-01  -1.0242338e-01  -9.5169143e-01  -9.2696878e-01   8.4151174e-01  -3.8419797e-01  -3.6943483e-01   7.5292366e-01   2.0822274e-01   6.4735712e-01   1.2527441e-01  -3.3540139e-01  -2.2595131e-01   3.9817483e-01   4.1934966e-01   8.1400654e-01   9.5334256e-01   4.3622844e-01   6.8636534e-01   2.4617547e-03  -9.5004981e-01   8.1712380e-01  -2.4494981e-02  -4.2765535e-01   2.5545062e-01  -9.4940597e-01   6.5853903e-01   6.8376571e-01   5.3378714e-01  -6.7315134e-01   2.2567255e-01   9.7328117e-02   9.3170602e-02   7.8193602e-01  -9.1899587e-01   9.8806782e-01  -3.0959483e-01   3.4740762e-01  -4.5626979e-01  -7.0395810e-01   9.2161389e-01  -6.2206760e-01   9.9798032e-01   5.2293908e-01  -9.9700061e-01   4.7534777e-01  -8.8188053e-01  -2.5174343e-01  -9.6172045e-01  -2.2317980e-01  -2.3324055e-01   3.7676797e-01   8.2117038e-01   8.7911838e-01   1.8546816e-01  -5.1759339e-01  -9.4826572e-01   5.2476978e-01   9.3490623e-02   5.3292880e-01   9.8178172e-01   4.5929518e-01  -2.6860196e-01   6.2478548e-01  -8.7484740e-01   7.3381432e-01  -1.0477458e-01  -6.7630103e-01  -8.4548277e-01  -9.8223415e-01   7.3670953e-01   8.1193280e-01   8.1078652e-01  -6.3376372e-01   1.8904570e-02   6.6806483e-01  -5.3629297e-01   2.1991246e-01  -6.0887835e-01   8.9567832e-01  -6.0162099e-01  -8.7567958e-01   8.3501144e-01  -1.3514460e-01   9.4627233e-01  -8.8566409e-01  -1.6216899e-01   1.0927822e-02  -4.8408140e-01   3.6471283e-01   4.5213396e-01  -2.6555148e-01   6.8892791e-01   8.6908680e-01   3.8885163e-01  -8.4781756e-01   3.2240500e-01  -1.5598303e-01  -4.6789100e-01   5.3034972e-01  -8.7345344e-01   6.7713116e-01   3.3421077e-03  -7.5584150e-02   6.9677876e-01   8.1743349e-01  -8.9119397e-01   3.7000033e-01   2.2406092e-01   1.1202213e-01  -1.6999998e-01  -7.5760920e-01   4.2941277e-01  -1.5952865e-02   1.3615312e-01  -5.3924292e-01  -2.7189444e-01  -5.0873437e-01  -7.0551681e-01  -7.6472566e-01  -3.3697836e-01  -8.8922771e-01   4.9858179e-01   3.4874201e-01   5.7533678e-03  -9.8022974e-01  -3.4322855e-01  -5.1061399e-01   8.2380352e-01  -8.6291432e-01  -2.8231780e-01  -9.5650904e-01  -9.4779114e-01  -6.4412526e-02  -7.9868813e-01   1.3418598e-01  -2.5367866e-04  -7.4093401e-01  -9.3452367e-02  -9.2841530e-02  -3.2578909e-01  -3.3772588e-01  -9.8226052e-01   1.2463235e-01   7.5132568e-01  -6.3433750e-01   2.4592088e-01  -5.9495656e-01   5.5073289e-01  -3.9107452e-02   8.6775307e-01  -9.1896358e-02  -5.5680017e-01  -3.1420329e-01   1.8145790e-01  -8.3115386e-01  -6.6304689e-01   6.6795726e-01   7.3174802e-01  -2.4564231e-01   6.4732190e-01   1.2814991e-01  -9.7401696e-01   5.3654714e-01   8.1616397e-01   6.8825015e-01   1.5594236e-01  -4.5778801e-01  -2.1321976e-01  -9.0614528e-03  -7.2635332e-01   9.0622388e-01  -8.1110155e-01  -1.1757583e-01   5.1273767e-01   1.8037335e-01  -2.2666710e-02   5.2478161e-01   4.8238233e-01  -1.5710926e-01  -4.4412667e-02   5.8916124e-01  -8.1222553e-01  -7.6986317e-01  -4.2917162e-01   2.5184290e-01   4.5311778e-01   1.0724191e-01   2.7337413e-01  -4.2483236e-01  -5.0151560e-01   7.4253437e-01   7.6391974e-01   9.7048716e-01  -4.0344918e-01   9.5059079e-01  -8.6454633e-01   5.7538296e-01   7.9199700e-01  -8.4691074e-01  -2.4812757e-01  -3.2415492e-01  -7.5782065e-01   6.7152690e-01  -1.7495957e-02   5.8724601e-01   5.7278461e-02  -9.6127164e-01   8.1039052e-01  -4.4864829e-01   3.8562090e-01  -9.1835453e-01  -1.7904103e-01   5.7208134e-01   2.5147677e-01  -4.2637239e-01  -4.9227589e-01  -1.4828104e-01   5.5482677e-01   2.1043424e-02  -3.6456888e-01  -9.0032985e-01  -9.8443799e-01   5.7161066e-01  -1.3923993e-01   7.6400288e-01  -6.2201537e-01  -8.5360356e-01   8.9937005e-01  -6.5871948e-01   3.9636571e-01  -2.7981645e-01  -9.9525414e-01   1.9046652e-01  -8.3733455e-01   2.9082680e-02   3.8517859e-01   3.5195420e-02   8.5647574e-01  -3.5602430e-01  -8.7235939e-01  -8.6749079e-01  -7.2965281e-01   1.6070379e-02  -8.7382516e-01   4.0170215e-01  -4.1686749e-03   5.7005506e-01  -1.8991571e-01   8.1239848e-01   2.1534321e-01  -1.5024856e-01  -5.7443766e-01  -5.1297836e-02   1.1063850e-01   3.1679550e-01  -3.8778167e-01   9.2399755e-01   3.4603301e-01   1.6400260e-01   8.7430946e-01   2.5624641e-01   9.1149833e-01  -7.3747492e-01  -6.7781975e-01   1.8828176e-01  -8.1434953e-01  -6.8824454e-01   3.6394404e-02   1.8676234e-01  -8.7924799e-01   1.9201029e-01   4.8059967e-01   7.6504816e-01  -2.1154376e-01  -6.9848838e-01   4.2353255e-01   6.6723848e-01  -2.6642125e-01  -7.3051339e-01  -9.1901726e-01   3.7601829e-01   5.8904912e-01   7.7576496e-01  -8.0630893e-01   9.9769251e-01   8.9905439e-01   7.9174884e-01  -2.9097362e-01  -5.3131568e-02   1.0735193e-02   7.6993085e-01   7.9848745e-01  -2.2701850e-01  -4.3412651e-01   8.1572794e-01  -2.1732902e-01   7.2733228e-02   8.3191008e-01  -6.9176562e-01   5.4584136e-01  -4.8662475e-01  -9.7215053e-01   5.4634956e-01  -3.6866122e-01   6.8455463e-01  -9.5341914e-01  -9.7009937e-01  -3.5449434e-01   3.0727823e-01   3.5402323e-02   7.6328465e-01  -8.0564668e-01  -6.3068109e-01  -9.8361411e-01  -6.5865127e-01   6.3846503e-01  -1.5685978e-01  -3.2328391e-01   7.4809180e-01   2.9135163e-01   3.0812376e-01  -1.6671271e-01  -7.7826891e-02  -7.7946462e-01  -5.1732470e-01   3.6752255e-02   3.5468306e-01  -2.6206289e-01   6.7191479e-01   9.4833807e-01  -3.1986580e-01   3.4769370e-01  -4.7009337e-03   2.2558975e-02  -6.9050104e-02  -1.8181703e-01   4.1364264e-01   2.8720873e-01   3.4182060e-01  -5.4651891e-01  -4.5929216e-02  -9.5135655e-01   9.7591457e-01   6.9513060e-01   9.5647238e-01  -5.4337389e-01   7.1845881e-01   4.5153070e-02   3.7230129e-01  -7.9812520e-01   6.0533061e-01  -6.7966231e-01  -7.0475105e-02   9.1457046e-01   8.9989632e-01  -9.8352755e-02   1.4279588e-02  -3.2145237e-01  -5.5502948e-01  -2.4585125e-01   8.6938580e-01  -8.5690397e-01  -4.9615166e-01   7.6350790e-01   6.3495188e-01  -3.0551796e-01   8.3451386e-01  -8.1408275e-01   3.2346047e-01  -2.2206243e-01  -1.3881415e-01   3.0765335e-01   5.8287099e-01   8.7665758e-01   8.0128569e-01   4.5515675e-01   7.5242319e-02   9.8287941e-01   6.6419070e-01  -3.8436680e-01   6.2486418e-01  -5.8552111e-01   2.4024042e-01  -6.9451781e-01   7.9186346e-01   8.6263225e-01   9.5569358e-01   3.0356856e-02   3.9096669e-01  -2.3467382e-01   2.5531160e-01  -9.4820805e-01  -1.4815511e-01   4.0684459e-01   8.7578182e-01   6.9291307e-01  -5.4414837e-01   3.0933101e-01   8.6837283e-02   3.9244251e-01   8.0273938e-01  -1.2869046e-01   3.7962725e-01  -4.2860717e-02   3.1169006e-01   1.7432869e-01   8.4435248e-01  -3.6950666e-01  -1.9077922e-01   7.8173545e-01  -7.4092183e-01  -2.5149037e-01   3.7302110e-01   5.6489956e-01   2.3644474e-01  -5.8633990e-02   9.6628544e-01  -4.0505281e-01   1.7844588e-01  -6.0724278e-01   3.5390835e-01   2.5833344e-01  -9.1337430e-01  -5.7263408e-01   5.5158069e-01  -2.6862062e-03  -9.5652290e-02   7.2556284e-01   5.0903030e-01   3.7654925e-01   3.7712253e-01   6.4558232e-01  -1.3147096e-01   3.0829251e-01  -2.7956521e-01  -5.9816962e-01
