  -6.4190342e-02   8.7561336e-01  -3.3981353e-01  -2.6493877e-01   4.1999960e-01  -3.4658198e-01   6.7334322e-01   5.9111722e-01  -7.6046151e-01   8.6369673e-01  -1.1887831e-01   7.3800087e-01   8.5431606e-01   8.0440661e-01  -5.3340825e-01   2.0593097e-01  -3.1464631e-01  -5.3868828e-01  -1.4955321e-01   7.8238790e-01   1.5685543e-01   1.0664641e-01  -1.2424353e-01   8.3697333e-01   4.2574885e-01   4.9597154e-01  -9.4403550e-01   2.7777491e-02   2.6494097e-01   5.3288146e-01   8.6481521e-01   4.6115103e-01   7.4246169e-01  -7.2736338e-01  -6.4649372e-01   5.3388369e-01  -8.0986971e-01   7.2183994e-01  -3.4083489e-01  -8.9679549e-01   2.9345950e-01  -6.1350497e-01  -7.4437886e-02   8.4911279e-01  -3.7190853e-01   4.3358871e-01   8.5486249e-01   1.0774153e-01   6.1132627e-01   3.4210719e-01  -3.7953556e-01   6.9730542e-01   5.2705505e-01  -3.1712326e-01  -3.7927534e-01   6.3698143e-01   6.0694434e-01  -3.1988019e-02  -3.9202607e-01  -2.6527700e-01   9.3652524e-01  -7.1197152e-01  -5.8570942e-01   7.5206491e-01   5.2836194e-01  -3.3627992e-02  -8.9662696e-01   2.7170350e-01  -8.1633284e-01   9.1609162e-01  -1.3950466e-02  -1.9512351e-01  -9.9885094e-01  -2.5236789e-02  -9.4970316e-01   3.7270441e-01   7.3523471e-01  -7.3318155e-01  -9.3390577e-01   8.8464956e-02  -5.4720075e-01  -7.5320260e-01  -6.2056774e-01   5.4293284e-01   1.1082239e-01   9.8801815e-01   2.4026789e-01   9.8907737e-01   3.6924805e-01  -9.3242127e-01  -8.2654945e-01   8.0984840e-01   9.9227608e-01   2.4937531e-01  -1.8814207e-01  -6.7867730e-01  -5.8404142e-01   6.1745409e-01   3.6788021e-01   8.9995604e-01  -6.8754280e-01  -4.5261586e-01  -3.1822634e-01   1.1296930e-01   6.4400195e-02  -9.6807388e-01   8.4408391e-01  -6.4124755e-01  -3.3323431e-01  -2.6395128e-01  -8.9763132e-01   8.3798541e-02   6.0628014e-02  -3.8446062e-01  -8.3815526e-01   3.8579530e-01   7.9378743e-01   7.9697184e-01  -6.2495557e-01  -2.7505815e-01  -8.6855262e-01   2.2003416e-01  -1.2150187e-02   8.1126815e-01   5.2873668e-02  -3.6904639e-01  -5.2494432e-01   7.7316336e-01   2.6856727e-01   2.8224447e-01  -7.0743526e-01   5.6648931e-01   9.7361443e-01  -1.8696088e-01   7.6129218e-01   9.8889726e-01   4.9820686e-01   7.8557842e-01  -5.5149749e-01   1.4833271e-01   6.4214589e-01  -6.2480573e-02  -3.3579544e-01   6.8087965e-02  -3.3035117e-01  -2.6317923e-01  -5.9076254e-01   5.0552805e-02   6.0456092e-01  -8.8925118e-01   1.3087174e-01   2.3053407e-01   3.0306896e-01   1.0667277e-01   5.9911307e-01   1.6132166e-01   6.0371388e-01   9.5875838e-01   2.3646816e-01  -6.1400423e-01   3.2879045e-01   3.2239057e-01   8.1477675e-02  -5.8212078e-01  -1.4272929e-01  -2.5572194e-01   3.9382627e-01  -2.1026732e-01  -4.5273792e-01   5.4689396e-01  -4.9904246e-01  -6.9693077e-01   8.4031963e-01  -7.7390179e-01   7.5693887e-01  -4.2390244e-01  -2.8909225e-01   1.1585933e-01  -9.0396781e-01  -6.5531563e-01   2.7889629e-01  -9.4566752e-01  -3.5062237e-01   2.8212250e-01  -5.9751762e-01   3.8350472e-02   2.4932876e-01   6.6857857e-01  -5.6045576e-01   5.0474503e-01   1.8770917e-01   7.2281376e-01  -2.0295576e-01   6.8802881e-01  -9.8428963e-01  -6.4214044e-01  -6.3323266e-01  -1.1049698e-01   9.6966210e-01  -4.0071764e-01  -6.7008892e-01  -4.4087411e-01  -7.9889865e-01   3.6925120e-01  -6.2497744e-01   5.7849825e-01  -7.5125519e-01   7.6349646e-02   1.0879737e-01  -4.8953324e-01   8.8751890e-01   6.5334148e-01   5.2710995e-01  -8.2377213e-01   8.9086722e-01   3.4986383e-01   3.0071817e-01   2.2302008e-01  -9.7892053e-01  -8.6067544e-01  -4.4354741e-01  -9.3152534e-01   5.9404727e-01  -8.2178984e-01   9.7346758e-01   6.9498098e-01  -6.2295660e-01  -8.5708348e-01   2.6454159e-02  -3.5161190e-01   8.6747323e-01   8.0352547e-01  -8.0716620e-02  -9.9151897e-01   9.3689976e-01   9.5647753e-01  -7.0308045e-01   5.6686505e-01  -5.0033449e-01  -8.2896994e-01   9.1655708e-01   2.2521079e-01   5.4251881e-01  -2.5235945e-01   8.8736699e-02  -1.1655510e-01  -5.9067294e-01   2.1915775e-01  -1.0757598e-01   3.6320892e-01   8.4521428e-01   3.4571477e-01  -9.0244865e-01   1.6125227e-01   4.6738888e-01  -2.8570535e-01  -2.4160198e-01   4.0409717e-01  -2.1038106e-01   8.9702208e-01  -3.1158396e-01   2.7220729e-01  -7.0925079e-01   4.7446540e-02   4.0205933e-01  -8.2037350e-01   9.4281004e-01   9.7737777e-01  -3.8135468e-01  -5.8018960e-02  -4.0449087e-01  -8.7701710e-01  -1.6725803e-01  -8.5247843e-02  -9.0916960e-01   3.8913637e-01  -8.5145444e-01  -2.9374131e-01   6.0272112e-01  -4.7780854e-01  -9.1232232e-01   3.3858264e-01   6.1820377e-01  -7.1118998e-01   4.6619579e-01  -4.2781865e-01  -6.2130364e-01   2.7191224e-01   8.9685703e-01   8.3870899e-01   6.0285025e-01   4.1241821e-01  -5.5787996e-01   6.8360061e-01   4.6769273e-01  -4.6597799e-01   2.4339441e-01   4.0972606e-01   5.9866811e-01  -7.0244151e-01  -6.5474683e-02  -4.7878825e-01  -1.4599191e-01  -8.4808425e-01  -9.8974426e-01   3.2525945e-02  -2.1287050e-02   6.5542140e-01   3.6866575e-01   1.7581257e-01  -2.1899456e-01   6.8002302e-01   8.7628535e-01  -8.6178294e-01  -4.1006194e-02   6.5303599e-01  -1.2405015e-01  -8.1263111e-01  -5.8923413e-01  -7.6224241e-01  -8.2107975e-01  -5.1740742e-01  -4.9507294e-01   8.4435102e-01   6.7132652e-01  -1.2890873e-01   1.1328839e-01  -6.9216492e-01   9.6940541e-01  -4.0644047e-01   2.9564038e-01   8.7903404e-01   2.9997271e-01  -4.2280903e-01   2.7939147e-01   4.6685993e-01   5.7692365e-02   5.1841554e-01   7.0667633e-01   1.7591304e-01  -9.6721696e-01  -1.8729991e-01  -4.7491107e-01   5.9777819e-01   7.9430441e-01  -1.7089027e-01  -5.9224938e-01  -3.4539605e-01  -6.0499230e-01  -2.0937153e-01   3.9513678e-01  -9.5795100e-01  -3.6523011e-01   7.0148087e-01  -8.1269002e-01  -8.3018429e-01  -4.0394221e-01   5.2421152e-01  -6.7766366e-01  -1.7264662e-01  -8.5012589e-01   1.5921347e-01  -8.2369511e-01  -4.4441131e-01  -8.5856804e-01   2.5976589e-01  -5.9268332e-01  -4.9631731e-02   4.1403642e-03  -7.6060542e-01   1.0888336e-01  -1.1173876e-01  -1.3992026e-01  -6.6106918e-01  -1.6954827e-02   4.9384296e-01   9.9898153e-01  -3.4352757e-01  -9.8946326e-01   5.9721937e-01  -8.2033150e-02   7.3423899e-01  -2.6224637e-01  -7.0749966e-01  -8.6760755e-01   9.2628459e-01   2.3114249e-01   3.9805223e-01  -1.8148597e-01   4.9708821e-02   5.1512996e-01   7.0146917e-01   3.6786978e-01  -2.2192144e-01   2.2798206e-01   6.0520199e-01   5.6259286e-01  -6.5925465e-01  -2.6859073e-01  -3.6896761e-01   1.2697748e-01   4.3135127e-01   1.0327327e-01  -7.9247282e-01   7.1652707e-01   2.1246747e-01   5.9349143e-01  -7.2565735e-01  -6.1629929e-01   3.3341738e-01  -3.1060949e-01   7.5052759e-01  -5.9013086e-01   2.3151745e-01  -9.7266656e-01  -9.2521526e-02  -6.2496407e-01   4.0614388e-01  -5.8659986e-01   8.9741914e-01   3.5073229e-01  -2.6418516e-01   5.2831813e-02   3.3990437e-01  -7.6985267e-01   6.4163777e-01   3.7436180e-01   7.1693942e-01  -2.5655359e-01   2.2189297e-01   5.4570211e-01   8.4264292e-02  -9.9482021e-01   8.4646132e-01  -3.7153751e-01   8.6250091e-02   1.1204227e-01  -8.0502575e-01  -2.9353407e-03   7.7122745e-01   5.4781037e-01   2.7913065e-01  -6.6870629e-01   3.8106546e-01   3.5069911e-01   1.8184546e-01  -8.5010895e-01  -1.7719922e-01   4.1313803e-01   9.9939837e-01   9.8915904e-01  -5.5047201e-01  -9.4870546e-01   7.1135735e-01  -4.3369570e-01   2.5773315e-01  -1.9509861e-01   4.8326005e-02   1.4845894e-01  -5.1434240e-01  -6.1952939e-01   1.7209615e-01  -7.1574297e-02  -3.1801006e-01   8.0512504e-01   8.0411658e-01  -6.6123859e-01   4.1972695e-01  -7.7789892e-01  -9.5411218e-01   6.4620037e-01   2.8175408e-01  -9.6331694e-01   7.9576767e-01   6.5183245e-01   8.0164394e-01   5.0711762e-01   2.1453172e-01  -4.5658097e-01   6.2776513e-01  -8.9671481e-01   2.6664022e-01  -1.2162298e-01  -1.2634295e-02  -7.9597391e-02   4.2329665e-01   7.9865942e-01  -9.6028016e-01  -8.9863359e-01   6.3625908e-01   1.7340364e-01   7.1900375e-01   6.4402224e-01   8.8565308e-01   9.2146704e-01   5.1246054e-01  -2.6022592e-01   1.8451761e-01  -2.4030615e-01   4.9334988e-01   7.5215624e-01  -5.9134780e-01   1.3673254e-01  -7.8052259e-02  -6.0444421e-02   7.3792777e-01   6.5707401e-01  -9.6034676e-01  -8.2407991e-02  -6.2322952e-01  -3.8004890e-01  -9.3341167e-03  -2.3525658e-01  -6.0313723e-01   8.8707447e-01   2.6812008e-01   3.4204889e-01   2.8362622e-01  -7.3176573e-01  -1.3431594e-01   8.9031061e-01   2.1622208e-01   1.8458817e-01  -6.5577170e-01   2.1649502e-02  -6.4125506e-01   9.6826106e-01  -3.7822377e-01   6.3257423e-01   4.5241315e-02  -7.3482239e-01  -5.6112062e-01   1.2087510e-01   3.8880036e-01  -8.2085974e-01  -5.1428446e-01  -5.8630082e-01   2.8298536e-01   3.5636281e-01   4.4005235e-01  -8.8293416e-01   6.5191614e-01  -9.4821504e-01   8.6077685e-01   4.4195352e-01  -6.6074583e-01   1.6234328e-01   5.5859114e-01   1.7898729e-01  -6.3664600e-01  -5.0359980e-01   1.9041791e-01   7.0304668e-01  -3.1088095e-01  -9.9649312e-01   4.4182310e-01   9.1408068e-01  -1.8509981e-01   4.1177968e-01   3.1841351e-01  -1.9045847e-01  -7.7705984e-01   6.8676154e-01   8.2780251e-01   5.0391745e-02   7.0725393e-01   8.7966471e-01   4.4617601e-01  -1.0151543e-01  -4.4456221e-01  -5.8620389e-01  -2.4648438e-01   8.7377847e-01   9.1600217e-01  -1.4712217e-02  -2.4203214e-01   1.1525852e-01  -4.0153103e-01   8.4433605e-01  -7.0161909e-01  -1.4733233e-01  -5.4349156e-01   5.3204716e-01   1.0642222e-01  -5.6953810e-01  -6.9373602e-02   2.4144738e-01  -6.2376412e-01   6.4680946e-02  -5.4234471e-01  -2.2678790e-01  -5.7358795e-01   4.1826544e-01  -3.2990064e-01  -8.4064087e-01  -9.6654591e-01   5.6879092e-01  -8.2880779e-01   8.0565807e-01  -9.2398935e-01  -4.0346028e-01   6.3583645e-02   7.0153762e-01  -2.4715777e-01   9.6530889e-01  -9.3385277e-01  -7.1359155e-01  -7.5033113e-01  -4.2349474e-01   3.1050446e-01  -2.4863778e-01  -6.8850348e-01   7.8390614e-01   6.7414232e-01   6.8078397e-01  -6.5315809e-01  -6.8066446e-01   1.4916314e-01   9.1361197e-01  -8.4670740e-02  -9.1266739e-02  -8.9998394e-01  -4.3749688e-02  -4.6661252e-01  -3.3054839e-02   1.8663970e-01  -8.4143121e-01  -4.8561653e-01  -3.0233339e-01  -5.1777182e-01  -6.5067395e-01  -6.9016023e-01  -3.1646162e-01  -7.5277578e-01   5.9483332e-01  -7.7289457e-01  -1.9201160e-01   7.7409663e-01  -3.7842267e-01  -6.6991742e-01  -6.3089047e-01  -5.4527606e-01  -3.9618452e-01  -5.3356796e-01  -8.4510624e-01  -4.4167413e-01  -7.5619039e-01   7.7878474e-01   7.4705929e-01  -6.6153952e-01  -4.0331761e-01   5.4349325e-01  -9.3369056e-01   4.4524397e-01  -5.5390180e-01  -4.6426528e-01  -1.5153653e-01   8.7907925e-01  -9.0386865e-01   6.7163150e-02  -7.7155447e-01  -6.0177384e-01   4.1074657e-01  -6.5810807e-02  -2.9360830e-01  -7.2384989e-01  -9.2677886e-01  -6.1332674e-01   8.8779423e-01  -1.7580101e-01   6.2739570e-01   8.7306030e-02  -4.8367069e-01  -2.1968940e-01   5.7863583e-01  -1.8396841e-01   7.9643223e-01   6.0305488e-01   1.0981599e-01  -9.3554314e-01   9.1228891e-01  -2.6704549e-01   2.8699374e-01  -6.1332557e-01   9.5743175e-01  -4.9121597e-01  -3.1174572e-01  -5.7456714e-01   6.1530810e-01  -9.6140367e-01  -8.4218053e-01   1.0596036e-01   4.0526085e-01  -6.1261269e-01   9.6540974e-01  -4.9833946e-01   6.0053590e-01   2.9188205e-01  -4.9855737e-01   1.2030677e-01  -5.8089076e-01  -9.4303956e-01  -8.5141753e-02  -7.1610766e-01   9.5794256e-01   6.5195278e-01   7.3090131e-01   4.1054862e-01   5.5468091e-01  -4.8121450e-02  -5.8545161e-01  -1.6372784e-01   1.7117359e-01  -2.1816494e-01   2.6434627e-02  -3.4281963e-01   2.8698934e-01   9.5078210e-01   3.2289198e-01  -4.4670265e-01  -8.2053926e-02   2.3500005e-02  -1.7996375e-02   9.3610097e-01  -5.1326586e-01   3.1100338e-02  -3.3801739e-01  -7.2426596e-01   9.9479823e-01  -7.4124975e-01   5.5824748e-01   9.5123576e-01  -9.4725262e-01  -6.0882041e-01   5.5051589e-01  -6.4632307e-01  -7.1818031e-01   8.2668805e-01   7.0136030e-02   6.0592212e-01   8.1759971e-01  -3.4017709e-01  -9.6004970e-01   2.6657951e-01  -6.9300986e-02  -4.3467746e-01   5.9954660e-01  -9.8947225e-01  -7.4331526e-01   2.2876552e-01   5.3200959e-02  -6.8143089e-01   7.4171496e-01   8.7905246e-01   6.6898647e-01  -6.1803079e-01   8.9605905e-01   1.5642959e-01  -5.2993831e-02   2.0725257e-01  -8.5399870e-01   2.2212330e-01  -8.7123641e-01   2.6248393e-01  -5.4807715e-01   7.3895835e-01  -5.2366483e-01   4.5390783e-01   7.5772684e-01  -6.6487682e-01   1.1036020e-01  -7.9625698e-01   1.3642912e-01  -6.2283863e-01  -9.7401281e-01   8.0950134e-01  -1.0267078e-01   1.3270599e-01  -7.7859551e-01  -9.5214714e-01  -5.7238934e-01   8.1199400e-02  -5.7476629e-01  -3.7838974e-02  -8.6297181e-01   2.8137579e-02   1.6916968e-01   4.8129776e-01  -2.9964680e-01  -6.1273827e-01   5.8537351e-01   1.2157542e-01  -4.2761029e-01  -5.6224146e-01  -3.5464937e-01   4.4856478e-01   8.7583233e-01  -5.3162944e-01   7.7886629e-01  -9.2328504e-02  -3.1035866e-01  -3.6031905e-01  -9.2667646e-01  -1.2175546e-01   6.7583594e-01  -2.3143079e-01  -9.8309606e-01  -5.3729077e-01  -3.4612293e-01  -4.0400002e-01   7.7660014e-02  -1.4538860e-03  -8.7674375e-01   2.9662472e-01  -1.0057352e-01   2.4658536e-01   3.2864650e-01   1.3206662e-02   1.8688971e-01  -4.2285050e-01   3.5869353e-01   9.5020173e-01  -5.2085967e-01  -8.3757195e-01  -6.0129003e-01   7.7528298e-01   7.0903581e-01   2.3459586e-01  -2.3424845e-02   1.2409129e-02  -7.4415262e-01  -8.6336420e-01   7.3703157e-01   6.3840437e-01  -2.3522785e-01   3.2522602e-01   6.5007530e-01   5.3020294e-01   6.4859523e-01   2.3108513e-01   2.4116969e-01  -3.2187879e-01  -6.9372365e-01  -9.8692945e-01  -4.3435637e-01  -5.0387789e-01   1.3510956e-01  -4.1309388e-03   8.6642387e-01  -2.3593819e-01   1.0145522e-01  -4.2258496e-01   4.0361196e-01   2.4912566e-01   8.3163628e-01   6.9432085e-01  -8.4251094e-01   5.3006295e-01  -6.2198502e-02   9.9761216e-01   6.6197079e-01  -3.5472902e-02   3.3943141e-01  -3.2837597e-01  -8.3319589e-01  -5.5456497e-01  -7.1495443e-01  -6.2913168e-01   4.7311266e-01   8.1886537e-01   1.0829583e-01   3.3743512e-03  -7.5311870e-01  -3.6565029e-01   3.1972405e-01  -4.2614871e-01  -5.0489790e-01   9.2757565e-02   6.6093075e-01   3.8280169e-01   9.7600023e-01   8.7127832e-02   8.1515160e-01  -9.5175531e-01   9.9442444e-01  -5.7073428e-02   5.2955266e-01  -2.0405532e-02  -5.9013916e-01   7.1034236e-02   5.5109657e-01  -6.0964994e-01  -7.7078107e-01  -6.1572368e-01   2.7306507e-01   3.5278796e-01   2.7787247e-01  -5.6696487e-02  -4.8891497e-01  -2.6265125e-01   9.1116035e-01  -6.0150910e-01  -2.5921697e-01  -8.6180877e-01  -7.0638309e-01   3.7131227e-01  -2.5605316e-01  -7.8400090e-01   1.9032450e-01  -9.9498962e-02   2.2265425e-01  -8.1799345e-01  -7.0573620e-01   9.6351696e-01   7.5195735e-01  -8.3947634e-01   7.1041150e-01  -5.4621987e-01   5.5281735e-01   2.5253200e-02   2.7949208e-01  -5.9558289e-01  -1.1119229e-01   4.7393514e-01  -5.3873120e-01   9.1779792e-01  -3.8788729e-02   8.4259550e-01  -1.4987671e-01   6.9218339e-01  -9.6003276e-01  -6.7168742e-01   8.1969403e-01   6.9429824e-01   5.0137981e-01  -4.5479018e-01   9.5306428e-01  -3.7769401e-01  -4.9802141e-02   8.1253303e-01  -3.5874736e-01  -2.5479389e-01  -2.5174514e-02   8.5193502e-01  -3.9130699e-01   9.7729710e-01  -4.7513386e-01   2.4937068e-01   4.0975678e-01   8.8105719e-01  -9.3013667e-01   3.2690192e-01   3.4961438e-01  -3.4833708e-01   1.6371838e-01  -1.3952600e-01  -8.1229403e-01   8.7094806e-01  -6.2276011e-01   5.0123966e-01   9.6177498e-02  -2.5444206e-01  -4.4055163e-01   4.0321643e-01   4.1379025e-01  -1.9093941e-01  -2.0225210e-01   5.1186923e-01  -8.8868481e-01   2.4290415e-01   4.6471558e-02  -5.4440548e-03  -2.7537571e-01  -8.9929353e-01   5.4384569e-01   9.8864703e-01   5.7621530e-01   1.7122612e-01  -8.7229157e-01   8.3761297e-01   1.9114294e-01  -6.2455679e-02  -9.3410708e-01   3.6767117e-01  -2.2237055e-01   1.1147068e-02   5.6115708e-01  -9.3736454e-01  -7.7076814e-01  -7.1357313e-01   8.4636640e-01   2.6491922e-01   1.3692686e-04   2.5985231e-01   8.8659027e-01   4.3944546e-01  -7.2242710e-01   7.1869019e-02   2.1508457e-01   5.2137858e-02
