  -3.1748587e-01  -2.7551848e-01  -5.9139634e-01  -9.0774158e-02   9.0877177e-02  -4.0814123e-01  -9.8948292e-01   2.4168655e-01   6.8153054e-01  -4.1629356e-01  -3.7915709e-01  -2.4430228e-01   5.6458201e-01   6.6975551e-01  -2.3926321e-01  -7.0690460e-02   7.4668333e-01   2.0190141e-01  -2.4382714e-01  -7.6915534e-03  -1.4237830e-02   7.5948883e-04   2.1167848e-01   3.3802881e-01  -7.8596460e-01   9.9000473e-01   9.9230811e-02   4.0944271e-01   2.7969408e-01   6.2277762e-01  -6.8579976e-01   7.1138187e-01   2.7327721e-01  -9.8901421e-01  -8.1975634e-01  -4.7542003e-02  -1.5460220e-01  -6.7965484e-01  -8.6278629e-01   4.4387753e-01   6.7565498e-01  -9.8296501e-01   9.1218222e-02   4.3481531e-01   4.8756826e-01   9.7924121e-01  -4.2475336e-01  -5.7963669e-01  -4.7909609e-01  -8.6443821e-02   8.4032519e-01   7.0961012e-01   2.6406507e-01  -7.0016258e-01  -2.1104507e-01   3.4962931e-01  -8.6862233e-01  -4.8476389e-01   4.1867945e-01  -9.4085523e-01  -5.2659052e-01   2.8486649e-01   4.1804959e-01   3.0560928e-01   9.6283807e-01   5.0577637e-01   5.6164361e-01   3.2172780e-01   7.2910211e-01   9.7058023e-01  -2.6001408e-02  -9.6193129e-01   5.3995686e-02  -1.3742848e-01  -9.0818256e-01  -5.1189821e-01   1.2910384e-01  -2.3857460e-01  -1.9938377e-01  -4.0981152e-02  -3.5275162e-01   2.1454051e-01   6.5496735e-01   9.1190368e-01   2.4357289e-01   6.7653173e-01  -5.3841089e-01   1.0360353e-01   6.3668880e-01  -2.3292599e-01   5.9884394e-01  -2.4091001e-01   9.8847073e-01  -2.0010805e-01   9.8455578e-01   3.2948233e-01  -6.6738758e-01  -8.5464038e-01  -7.3816434e-01   4.4862505e-01  -3.9853153e-01   4.6269373e-01  -9.9779275e-01   3.5082931e-01  -9.4865766e-01   4.0089919e-01   1.6511894e-01   2.2964592e-01   2.1886001e-02  -5.2543101e-01   9.9504933e-01  -1.7136007e-01  -1.7057529e-01  -8.3858266e-01   5.3249991e-01   9.9544945e-01   5.6059643e-01  -2.0160291e-01   6.1469003e-01   2.0199405e-01  -5.9670405e-01   8.2686935e-01  -6.6878465e-01  -1.7360954e-02   9.2936509e-01   6.1798568e-01  -8.2309656e-01   5.9804502e-01   3.4153292e-01  -6.4958931e-01   4.8770171e-01  -9.1217708e-01   2.0595251e-02   6.8211081e-01  -2.2919781e-01   7.5405383e-01  -7.0656304e-01  -1.0178628e-01  -2.4141895e-02  -4.6490931e-01  -5.5608759e-01  -6.5325739e-01  -1.4001347e-01   8.3504089e-01   3.3136373e-01   5.6701948e-01  -9.7068691e-01  -2.4371041e-01   5.4786543e-01   3.8014636e-01   2.1858346e-01   2.3539350e-01   1.9233282e-01   5.0401709e-01   5.8100324e-01  -2.6021676e-01   6.6842434e-01   1.2692684e-01   9.6953919e-01  -9.7869520e-01  -4.7576687e-02   1.1288494e-02   2.1925096e-01  -7.6927421e-01  -1.7907636e-01   2.3295381e-01   1.5351586e-01   3.4875181e-01  -4.8241684e-01  -8.5996369e-01  -1.3013161e-01  -8.5993402e-01  -5.3307514e-01   2.5772285e-01   2.8386784e-01   4.6551027e-01   7.8365073e-01   2.1214788e-01  -6.4647257e-01   1.7866641e-01   3.8282705e-01  -3.8448746e-01   1.8607691e-01   4.7203518e-01   2.0055911e-01   8.5627413e-01   8.5151506e-01   9.4749177e-01  -1.4540663e-01  -7.5413512e-02   7.8695709e-01  -3.8865052e-01   5.0210087e-02   6.1106565e-01  -9.2973805e-01  -3.5556729e-01   7.5395460e-01  -4.4060238e-01   6.5173183e-01   2.0251158e-01  -7.8240341e-01   4.8715018e-01  -6.3603593e-01   4.9155472e-03  -7.8819581e-03  -5.4795327e-01   1.6253916e-01  -1.9294354e-01   2.3153754e-01  -2.5256299e-01  -5.6819676e-01  -2.9127937e-01  -1.4507673e-01  -2.8965072e-01  -5.2195291e-01   1.7153665e-01  -6.0686310e-01  -1.1003278e-01   3.7662715e-01   8.0480730e-01  -3.7265491e-01  -3.9433594e-01   2.7681481e-01  -3.7013514e-02  -9.2772937e-03  -2.8652785e-01   3.8882995e-01   9.1721641e-01   3.8692844e-01  -5.2701831e-01   6.8677188e-01   3.4379493e-01  -4.2371142e-01  -9.1723540e-01   8.2472396e-01  -2.8132603e-01  -2.7261944e-01  -9.2357333e-01  -4.7803872e-01   6.7473219e-01   2.4565347e-01   3.2496753e-01  -7.5300743e-01   5.9425382e-01   9.1715323e-02   1.1554994e-01  -3.4505952e-01  -7.2919677e-01  -2.6709599e-01   2.6828486e-01   7.8355415e-01   1.1522129e-01  -1.6146314e-01  -3.7125685e-01  -7.1078926e-01  -4.0572932e-02  -8.8997883e-01   7.8950142e-01   7.0367174e-01   9.9208065e-01   7.9865970e-01   3.9302152e-02  -1.1194789e-01   8.6025794e-01  -2.3530213e-01  -3.9029629e-01   2.1483212e-02  -3.7823355e-01  -9.6933161e-01   7.1439327e-01  -2.2426354e-01   9.4041256e-02  -1.8808121e-01  -6.3392745e-01   6.0943954e-01   3.6016008e-01  -3.3504881e-01   8.0924013e-01  -8.6685789e-01   2.9816793e-02  -5.4358043e-01  -2.4308774e-01   6.5756388e-02  -9.6733510e-02  -3.1648317e-01   4.5979561e-01   9.6089438e-01   1.6216594e-01   5.7790354e-01   6.9604153e-01   1.2242376e-01  -5.4874330e-01   5.8415542e-01  -3.5845414e-02   9.6761713e-01  -2.2046096e-01   6.9055156e-01   2.0692683e-01  -3.7223663e-01   5.5819350e-01  -8.0473738e-01  -9.3978842e-01  -3.0988930e-01  -6.1614075e-01  -8.7724150e-01   9.6561928e-01   4.0496372e-01  -1.9351084e-01  -8.2710197e-01   7.8783901e-02   2.9258667e-01  -1.7022093e-01   5.3719746e-01  -1.4241264e-01   6.3671501e-01  -1.4129549e-01   8.7550913e-01   5.4081586e-02  -2.9524069e-01   5.6551295e-01   8.2211332e-01   8.0707285e-01  -2.9663217e-01  -7.0248126e-01  -9.1337934e-01  -2.4921459e-01  -4.8163778e-01  -2.4915867e-02  -6.7543979e-01   7.7374733e-01  -5.6495901e-01  -6.4471523e-02   4.8583326e-01   1.5185081e-01   4.8567493e-01   1.3055336e-01   9.4011081e-01  -2.5256343e-01   6.3877585e-01  -2.1425727e-01   8.2384920e-01  -5.4440866e-01   3.4042122e-01  -6.9968564e-01   7.6925347e-01   2.4084583e-01   5.0799701e-02  -9.0973660e-01   7.8320136e-01   4.0171308e-01  -6.0450592e-01   6.8869620e-01   3.0525395e-01  -6.3476428e-01   6.0081760e-01  -7.5096815e-01   1.4894921e-02   6.1467635e-01  -7.6822382e-01   5.7929851e-01   4.4855469e-01   9.3899756e-01   5.8289328e-01  -4.0315807e-01  -2.4297574e-01   3.5209949e-01   3.6777270e-01  -3.0547316e-01  -1.2778545e-01   2.5405577e-01  -1.7533547e-01  -3.2603236e-01  -6.3431954e-01   9.4419052e-01   1.4292189e-01  -1.4842003e-01  -9.2180227e-01  -8.7852725e-01   5.7306432e-01  -6.0022559e-01  -8.0038053e-01  -2.1864344e-01  -1.7171639e-01  -4.8909025e-01  -1.7426393e-01  -3.6951783e-02   4.9952733e-01  -5.7339473e-01   4.1838150e-01  -1.8408044e-01  -7.7989558e-01   6.8892865e-01  -1.6072530e-01   5.4836370e-02   4.4248872e-01  -5.8730836e-03   4.5867600e-01   3.2802860e-01  -3.5565245e-01  -2.9210287e-01   9.4796580e-01   5.9111241e-01   2.0094738e-03  -1.8026381e-01   3.2142913e-01   7.6173093e-02   9.3302473e-01   4.5739934e-01  -2.3787104e-01  -5.0844003e-01   1.0113586e-03   4.6486422e-01   5.3433627e-01  -5.8709598e-02  -6.2971592e-01  -3.3985221e-01  -6.9119673e-01  -4.6150901e-04   6.8189650e-02  -3.0517465e-01  -3.2464483e-01   9.4329719e-02  -6.7168124e-01  -2.6920548e-02  -2.4019447e-01  -2.5747923e-01  -3.5382335e-02  -5.6975819e-01  -4.5243018e-01   5.2989330e-01  -5.6698028e-01  -2.5954252e-01  -3.6127836e-01  -4.3384688e-01  -4.6063135e-01   7.9509604e-01  -2.4399943e-01   6.1560728e-01  -8.7198114e-01  -3.6614624e-01   1.5578654e-02   8.3146549e-01  -3.1984770e-01  -5.3227099e-01  -6.7061686e-01   7.7888130e-01  -2.6949868e-02  -4.4065097e-01  -3.6459919e-01  -7.1840485e-01   7.0231865e-02  -5.4541386e-01   1.1274152e-01  -7.9638308e-01   2.0720941e-01   5.3558428e-01  -8.9318237e-01   6.6730491e-02  -1.6153207e-02   2.5409497e-01  -5.5805163e-01   8.0077399e-01   3.7123419e-01  -9.6280604e-01  -9.1464375e-01   9.2633034e-02  -8.7932635e-01   9.5456298e-01   8.9901064e-01   8.6802587e-01  -2.0969913e-01  -2.9139335e-01  -8.4925592e-01   2.5983634e-02  -9.8095665e-01  -2.9826839e-01  -4.8717286e-01  -3.2707523e-01   7.4687765e-01   5.6167662e-01   6.0262315e-01   7.1672464e-01  -5.9015539e-01  -9.9599204e-01   5.0121851e-01  -1.6587255e-01  -6.5965467e-01   4.3766821e-01   4.9842129e-01   7.0733964e-01  -4.0092836e-01  -8.3989336e-01   5.2205670e-01   8.7641615e-01  -3.2416798e-03   5.1439493e-01   8.5649985e-02  -5.3853251e-02   5.6949992e-01   3.6982413e-01   9.7484514e-01  -5.4882989e-01   6.0874759e-01  -4.5919177e-02   7.2767652e-01  -8.9327914e-02   2.1898148e-01   2.9973744e-01  -1.3673799e-02  -2.1000714e-01   1.2435788e-01  -2.8761797e-01   1.7128025e-01  -6.0674556e-01   9.6448743e-01  -9.5610816e-01  -6.1236286e-01   8.8647975e-01  -1.1272035e-01  -2.0128099e-01   3.8335088e-01  -3.6581573e-01   4.0837087e-01   5.9580898e-01   5.8432624e-01   9.0858467e-01   3.9524933e-01  -5.2734342e-01   5.9075224e-01   2.5477487e-01   9.7543678e-01  -1.7010127e-01   4.2023626e-01  -4.5636655e-01  -3.4415648e-01   2.3078696e-01  -5.5375939e-01  -3.5218774e-01   2.3429623e-01   1.2925691e-02  -2.1215506e-01   1.3691681e-01  -1.2198791e-01   1.5259838e-01  -9.7521104e-03   3.6244811e-01   5.4242164e-01  -8.7508517e-01  -4.0592295e-02   1.9081006e-01  -2.9893725e-01  -8.9421865e-01   1.9813816e-01  -7.2413858e-01  -5.0183751e-01   9.3647504e-01   5.8756214e-01   9.0563285e-01   7.9113188e-01   9.5367538e-01  -7.2155190e-01   6.2625123e-01   9.8740059e-01  -9.1364416e-01   3.4585334e-01   9.2281872e-01  -5.8404350e-01   9.1311222e-01   2.0217640e-01  -9.8913999e-01   5.5916029e-02  -4.9883738e-01  -9.1172540e-01   8.3840027e-01   7.9016362e-01  -6.6441842e-01   5.1709803e-01   4.1273426e-01   5.7414629e-01   5.7569911e-01  -3.8036037e-02   2.9931423e-01   3.1503292e-01   7.7270469e-01   4.0600596e-01  -8.4462776e-01   4.8604886e-01  -7.5893642e-01   4.5583302e-01  -6.5573448e-01   6.1992143e-01  -4.0278354e-01   2.9055308e-01  -1.9407160e-01  -1.0691447e-01  -4.8860775e-01   9.1097199e-01  -3.5724080e-01   6.5620440e-01   9.5534589e-01   4.1054887e-01  -5.2122975e-01  -1.8357472e-01  -8.8258310e-01   5.5284310e-01  -2.9360550e-01  -3.1808865e-02  -5.1897536e-01   9.7692101e-01   1.5575281e-02  -8.8695613e-01  -6.8875950e-01  -6.0149462e-01  -5.1443107e-01   6.6603268e-01  -8.9626350e-01   8.3218496e-01   7.2668060e-01   6.7685326e-01  -1.7045468e-01   2.3141435e-01  -9.2375154e-02  -9.8204494e-01  -4.4882319e-01   1.3712938e-01   7.9101636e-01  -7.5583056e-01  -4.5187732e-01  -3.0237840e-01   8.0986471e-01  -5.6152855e-02   4.2141867e-01  -1.9460279e-01   5.0211990e-01  -5.2676336e-01   8.2995822e-01  -5.4221090e-02   6.3842912e-01   9.5786459e-01   2.5418783e-01   3.2471313e-01  -3.9750794e-01  -8.7904874e-01   2.8710167e-01  -6.1727209e-02  -2.2255636e-01  -6.8735000e-01   1.6184522e-01   7.6059498e-01   2.1681252e-01  -5.4887537e-02  -9.6234814e-01   6.8229831e-01   4.1112100e-01   4.9462617e-01  -5.1164099e-02   4.1762218e-01   2.2896615e-02   3.4157301e-01  -2.8488768e-01  -7.8697997e-01  -8.9790815e-01  -3.5656325e-01  -4.8613654e-01  -9.5832710e-01  -3.9194014e-01  -3.6227743e-03   9.5694814e-01  -3.2217434e-01   8.5643701e-01  -8.8076757e-01  -4.8768471e-01   4.9759487e-01   7.2054131e-01   4.8341754e-01   8.3384268e-01   3.6754586e-01  -2.9868655e-01   5.7036507e-02   1.7371293e-02  -8.9387260e-01  -9.0049913e-01  -4.0951828e-01  -2.7064256e-01   1.3699048e-02  -2.5491837e-01   6.5301281e-01  -5.2241915e-01  -2.7208187e-01   6.2769223e-01   6.7050042e-01   9.6583767e-01  -4.8058643e-01   7.6438852e-01  -7.8857602e-01  -2.8209084e-01  -4.2154072e-01  -6.6215647e-01   6.5683543e-01   7.1362132e-01   5.3750555e-01   2.6395626e-01  -7.7524478e-01   1.1678769e-01  -3.1810936e-01  -3.1613402e-01   8.8044918e-01   6.9351206e-01   1.0043878e-02  -5.9054518e-01   9.6254774e-01   1.4887136e-01  -8.3866168e-01  -2.7587838e-01  -8.8184925e-01  -2.6600672e-01   2.2338730e-01  -5.9531177e-01   6.5457558e-01   7.7651348e-01   9.5088903e-01   4.9726393e-01  -5.8854830e-01  -1.4790266e-01   1.4541767e-01  -7.2859235e-01   5.4094127e-01   8.6567718e-03  -3.0639573e-01  -6.5412432e-01   9.8226088e-01  -5.1757104e-01  -8.0012355e-01   9.2614453e-01   2.5524704e-01   8.7232956e-01  -4.0293456e-01  -1.2245285e-01  -5.8195080e-01  -1.7580171e-01   5.4443205e-01   7.7168351e-01  -2.8502455e-01  -9.9789858e-01  -6.0514204e-01   4.4873962e-01  -3.9383719e-01  -9.5683913e-01  -4.8877892e-01   3.6019983e-01  -2.4540878e-01  -1.9518665e-01   5.7040460e-01   4.3290711e-01   2.6323941e-01  -3.1925137e-01   7.1807711e-01  -9.7084483e-01  -3.6824342e-01   7.4921603e-01   6.0208201e-01   5.1110619e-01  -8.0547484e-01  -5.1814413e-01   2.7135950e-01   4.5344303e-01   1.8151018e-01   9.1256446e-01   9.1723441e-01  -5.8561671e-01   9.8929007e-01   6.7560675e-01  -8.6808925e-01  -9.2403943e-01  -1.4694490e-01  -4.8068825e-01   4.1573358e-01  -1.7319096e-01   6.0765140e-01   7.8842915e-01  -3.6000335e-01   2.3336981e-01   8.5105821e-02  -8.9043848e-01  -7.4693758e-01  -5.8747280e-01   9.4876230e-01  -6.8119365e-01  -9.8105128e-01   5.6225240e-01   8.3961969e-01   5.2911269e-01  -9.7285004e-01  -5.3820204e-01   4.2114694e-01   4.1044223e-02  -8.3232532e-01   2.8374204e-01  -3.5967338e-01  -1.0023714e-01   4.9486739e-01   4.4281158e-01  -6.2298191e-01  -1.6220172e-01   3.4618117e-01   1.1778788e-01   6.3262015e-01   2.3845670e-01   4.5612796e-01   2.1985569e-01   4.9153639e-01   7.7662103e-01  -6.6305285e-01   3.9999692e-01   4.8207711e-01  -9.8403791e-01  -4.1216380e-02   3.7271885e-01   2.4971933e-01  -7.4097392e-01   4.3361218e-01  -4.6725355e-01  -6.2323868e-01   3.4904114e-01   2.8007928e-01   3.7459012e-01   4.4837450e-01   1.8162365e-01   5.8000438e-01  -5.9201723e-01  -9.2699471e-01   2.4666478e-02  -7.9681482e-01  -1.9114250e-01  -8.5049490e-01   9.9689243e-01  -8.8636635e-01  -9.6789943e-01  -2.5347614e-01  -6.6431306e-02   7.3525964e-01  -2.6643386e-01  -1.3006516e-01  -3.0955953e-01   1.2038573e-01   5.1622010e-02   6.6505265e-01  -2.8220314e-01  -2.4377272e-01  -9.2738940e-01  -6.6855827e-01   9.3358962e-01  -4.3880108e-01   6.5812058e-01   8.3833508e-01   8.7421219e-01  -9.3809917e-01   7.4287246e-01  -9.9132989e-01   8.5563228e-01   1.4012088e-01   7.3985631e-01   7.3826542e-01  -8.7967790e-01   1.7591060e-01  -3.6502299e-01  -6.3519626e-01  -8.2502475e-01  -4.5372809e-01   1.2029464e-02  -2.1341992e-01  -7.4855103e-02  -1.0861800e-01   1.3110843e-01   1.4506943e-01  -7.7947323e-02  -6.7646761e-01   5.4266108e-01  -9.4404670e-01   6.2769537e-01  -5.4205334e-01  -5.7760159e-01  -5.6050241e-01  -2.6804827e-01  -7.2068670e-01   2.7207961e-01   9.7246600e-01  -5.5399322e-01   3.0578963e-01  -6.9174899e-01  -8.5607890e-01   8.6856127e-01   6.0889790e-01   8.4627247e-01   8.9579396e-01  -7.8292599e-01  -1.3742732e-01   6.2325859e-01  -4.7135933e-01   8.6183670e-01  -3.2936842e-01  -7.4155646e-01   6.5125658e-02   5.2353942e-01   5.9540221e-01   3.2863620e-01   7.3225160e-02  -5.0991499e-02   3.3835523e-01   8.2425423e-01  -6.8006251e-01  -5.2861151e-01   2.0186668e-01   4.9708723e-01   1.8554821e-02  -4.7972514e-01  -8.0098722e-01  -9.9685027e-01  -9.0152657e-01  -1.5328162e-01   4.1262834e-01   4.5127860e-01  -6.5218035e-01   1.1538923e-01  -9.1545651e-02   2.3194385e-02   7.5279916e-01   8.7471835e-02  -2.0150733e-02  -8.3854899e-01   2.2780598e-01  -2.2794110e-02   2.5594095e-01   3.7453606e-01   3.0534175e-02   9.6164346e-01  -5.2505343e-01   4.4502982e-01   9.4555487e-01  -6.8618714e-01   6.4130270e-02  -2.5213679e-01  -8.4944671e-01   4.3469334e-02  -9.5052007e-01   1.8688257e-01  -6.6669734e-01   9.5014901e-01  -1.4002012e-01  -7.7855339e-01  -7.2694587e-01   9.2191423e-01  -5.3218490e-02  -2.4874191e-01  -4.1356587e-01   3.1333423e-01   4.0804284e-01   9.3425241e-01  -9.0190621e-01   9.0129258e-01   6.5573591e-01  -1.7215632e-01   4.3105937e-01  -9.2129401e-01  -4.4306904e-01   5.8518932e-01  -9.3438816e-01   6.0190799e-01  -5.9658137e-01  -8.7051467e-01   6.2819147e-01  -4.4854495e-01   8.4873270e-01  -9.6917469e-01  -6.0402615e-01   4.6736328e-03  -1.5985919e-01  -5.0449086e-01   1.7510212e-01  -3.9116840e-01  -8.3780554e-01   6.1363172e-01   9.0569801e-01  -5.9750058e-01   4.5869135e-01   3.9230538e-01   4.7010882e-01   3.3401580e-01   7.5738631e-01   5.1801516e-01  -5.5729020e-01  -2.9687798e-01   3.2180154e-01   9.1140776e-01  -2.4671372e-01   3.3147005e-01  -5.8620154e-01   7.1923283e-01  -2.6490426e-01   5.1476390e-01
