  -5.0788130e-01   6.9616494e-01   5.2827729e-01  -7.4927664e-01  -2.1943334e-01  -9.4215404e-01   2.2322239e-01  -1.3793287e-01   2.3806452e-01  -2.6498120e-01   9.9857841e-02  -8.6763694e-01  -3.2190590e-01  -6.2483899e-01   9.5844500e-01   9.0510115e-03  -9.2460963e-01  -9.1638794e-01  -6.7043508e-01   5.8572824e-02  -2.5784593e-01  -9.9931604e-01   7.6259899e-01  -3.3838332e-01   7.9594528e-01   9.2923749e-01   7.8137679e-01   7.5354504e-01  -2.0447572e-01   6.5260913e-01  -2.8971978e-01  -7.4409229e-01  -6.7902179e-01   6.3373909e-02   9.7017491e-01   1.1818195e-01   3.2293585e-01  -8.0357415e-01   9.7610129e-01   5.2005164e-01  -8.0284906e-01  -5.4453333e-01   7.6946588e-01   7.2751085e-01  -9.6744868e-01  -5.4760928e-01   4.1363843e-01   4.6922123e-01  -9.1966920e-02  -9.0740277e-01   5.9689576e-01  -5.2418110e-01   7.6989844e-01   1.1033359e-01  -2.2504196e-01   7.0699011e-01  -8.7761546e-01  -3.5534047e-01   5.8740849e-01   1.5178400e-01   6.6629171e-01  -3.3569651e-01  -9.8685970e-01  -2.2025031e-01  -1.1969241e-01   9.3274880e-01   7.8163062e-01  -5.5056914e-01   1.4342932e-01   6.8216802e-01   6.8114404e-01   7.9347931e-01   6.4360162e-01   2.6237664e-01  -4.2774623e-01   6.8020689e-01  -9.9344278e-01   3.0886650e-01  -2.4604657e-01   5.1942886e-01  -9.7937754e-01  -1.4778699e-01  -9.5604290e-01   6.6665018e-01   9.6958400e-01   8.4003544e-01  -6.7243693e-01   1.3234396e-01  -3.0411554e-01  -3.0320807e-01  -1.0118130e-01   2.3670451e-01   2.6703252e-01  -5.2611814e-01  -9.5155720e-01   8.8316318e-01  -9.5550021e-01   6.7336741e-02  -7.7474642e-01  -1.3134834e-01  -4.3424956e-01  -7.9352640e-01  -5.2597838e-01   2.2056897e-01   5.9218477e-01  -5.5002055e-01   7.8362307e-01   4.4757644e-01   5.4983908e-02  -6.3476758e-01   2.2319858e-01   4.6214217e-01   3.5263166e-01   8.2769558e-01   7.9210763e-01   7.6976200e-01   9.8565302e-01  -3.3251346e-01   6.4140494e-01   8.0145224e-01   6.0404230e-02  -1.0845747e-02  -2.8756681e-01   6.1733713e-01  -4.7922146e-01   7.0357431e-01   2.9025170e-01   4.4025839e-01  -9.1660917e-03  -5.7577039e-01  -8.1980446e-01  -4.7622879e-01  -5.8924217e-01   4.6670687e-01  -7.2040723e-01   6.9668838e-01  -2.5553886e-01  -9.4943912e-01  -6.6315383e-01  -1.0948265e-01  -7.9974812e-01   3.2286105e-01   7.2582819e-01  -6.2122256e-01   2.4475044e-01  -1.0683930e-01  -4.2584731e-01  -5.5754676e-01   4.4891144e-01   2.8052627e-01   8.4992832e-01  -9.7033876e-01   2.4602676e-01  -2.5293345e-01  -8.9780742e-01  -3.8752895e-01   1.3712985e-01   1.1432410e-01   8.1169060e-01   6.1976180e-01   1.2665624e-01  -5.4392187e-01  -8.9791384e-01  -3.0181324e-01   1.8006843e-01   1.0964694e-01  -9.6283386e-01   2.8655784e-01   5.8960532e-02   3.6281152e-01   2.9409420e-01   8.3656909e-01  -8.1398330e-01  -4.0937460e-01  -3.8516663e-01  -2.0998805e-02  -7.3245396e-02  -7.6228987e-01  -2.2752046e-01   7.3571039e-01   9.5435452e-01  -4.3697169e-01  -2.3238438e-01  -1.7943728e-01  -3.2372022e-01  -5.5762826e-01   1.6103445e-01   9.5886651e-01   1.2437061e-01   9.3733619e-01  -8.8262250e-01   6.5868222e-01   6.3247294e-01   9.5837222e-01   5.3970983e-01   5.8810311e-02   1.2595104e-01   1.9863877e-01  -9.9849272e-01   4.2233412e-01   3.0474793e-01  -5.6884250e-01  -5.7875047e-01   4.2056609e-01   9.6155561e-01  -1.3329109e-01  -4.0507536e-01  -7.2037799e-01   8.8283338e-01  -5.9293839e-01  -7.7266416e-01   6.1685719e-01  -8.4401511e-01  -3.1601384e-01  -7.9224242e-01  -4.4674935e-01   9.6116531e-01  -1.7115809e-01   3.3721255e-01  -5.6505508e-02  -4.3314954e-01  -4.5316155e-01  -6.7595965e-01  -7.0152473e-01   2.1570575e-01  -5.0179999e-01  -6.1183412e-01  -1.7494078e-01   3.4984819e-02   9.0279533e-01  -5.6808904e-01   4.0037330e-01   9.0857326e-02   9.3821474e-01  -3.4304556e-01  -2.4981676e-01   4.2382255e-01   7.6753719e-01  -3.7933157e-01  -6.0337639e-01   7.3135099e-01  -7.3452624e-01   1.7509306e-01  -3.4111820e-01  -2.5195435e-01   8.2875311e-01   9.9718214e-01  -7.0021278e-01   5.4645166e-01  -9.2451814e-01  -4.6398151e-01   6.5339751e-03  -1.0887746e-01  -8.9726426e-01   8.0325016e-01  -1.5552035e-01   4.2194947e-01  -7.0423089e-01  -6.8854028e-01   9.9443249e-01  -5.6386938e-01  -1.9862366e-01   8.6579298e-01   8.0499485e-01   2.7854445e-01   1.5166567e-01  -7.4741433e-01   1.2345555e-01   8.7715406e-01   5.1812841e-01   7.8156481e-01  -1.0392395e-01  -9.9256174e-01   5.2206520e-02   9.9387341e-02   2.2828869e-02  -1.6634310e-01   6.5262178e-01   8.7260365e-01   3.4995690e-01  -3.0168032e-01  -8.6833212e-01   9.9030021e-01   7.9961653e-01  -3.6581230e-01  -9.5904781e-01   5.4904154e-01   2.9933336e-02  -8.9659440e-01  -6.8800456e-01   8.2855354e-02   9.3374727e-02   1.6810780e-01   3.7156170e-01   7.0008760e-01   7.4925138e-01   6.0385038e-01   1.5206550e-01   9.0821460e-01  -7.9222803e-01  -3.7676955e-01  -4.1883471e-01  -5.8682135e-01   3.1195603e-01   3.4943843e-01   3.3763115e-01  -6.7045299e-01   2.4802788e-01  -4.5707436e-01  -6.9519977e-04   2.8600730e-01   2.7473872e-01  -9.6210335e-01  -8.7191919e-01  -6.7597435e-01  -4.5178054e-01   7.2569550e-01   5.7151313e-01   5.5780567e-01   8.6668120e-01   2.0058389e-01   1.4926752e-01   9.9805771e-01   3.2813283e-01  -1.9771824e-01  -5.0299064e-01   9.4323143e-01   4.2957821e-01  -9.2150559e-01  -5.9492566e-01   7.4802971e-01  -8.6191860e-01   4.7286265e-01  -8.8359901e-01   5.4507397e-01  -9.4486981e-01  -2.1790626e-01  -5.4401862e-01   4.3518755e-01  -1.3584820e-01  -7.9598897e-01   9.7707700e-01  -2.6134099e-01   3.0227722e-01   8.7029518e-01  -5.0287205e-01  -5.6000827e-01  -7.9189639e-01  -1.3585625e-02   8.1808309e-01  -1.1028932e-01  -6.3383202e-01   4.3735754e-01   7.5294903e-01   1.2412270e-01   5.6912523e-01   2.6053045e-02   3.1496968e-01   9.6490364e-01   4.4552547e-01  -5.3314942e-01  -4.1379337e-01  -9.6097089e-01  -9.2256226e-01  -3.5385907e-01  -1.2320050e-01  -6.8035365e-01   7.5574137e-01  -8.2507057e-01   7.0823183e-01  -6.8850319e-01  -3.4785153e-01  -6.4329393e-01  -4.8709279e-01  -7.7295471e-01   7.4589466e-01   4.7882989e-01  -7.3972029e-01   1.7961598e-01   8.3178419e-01   9.7578498e-01  -5.7443944e-02   1.7708392e-01  -9.5848997e-01  -7.6782406e-01  -9.5914255e-01  -1.7030773e-01  -4.1367777e-01   4.2593521e-01  -7.1471653e-01  -6.2676130e-01  -7.7843385e-01   7.9239246e-02  -4.0575524e-01  -5.9525777e-01   1.8062781e-01   5.7802378e-01   7.8242849e-01   9.6279612e-01  -8.2142148e-01   4.8961748e-01  -1.9368026e-01  -2.9398202e-01  -8.6211781e-01  -8.9860282e-01  -1.7412916e-01  -4.6866830e-01   6.0744817e-01   7.1716979e-01   6.7236393e-01  -4.6195033e-01   4.9347502e-01   8.2464585e-01   3.9751165e-01  -3.6245641e-01   6.6331215e-01  -8.3585566e-01   2.0074511e-01   9.9095608e-01   5.9594400e-01  -1.9824319e-01  -4.2978639e-01  -2.7262906e-01   1.9423450e-01  -5.0723881e-01  -7.9928825e-01  -7.1492601e-02   9.8275710e-01   8.3558524e-01   9.5479196e-01   8.1398871e-01  -5.2334302e-01  -4.9625979e-01  -7.2132668e-01  -7.3206530e-01  -5.8394061e-01   8.8736322e-02   8.2498634e-01  -8.7630685e-01  -2.8254288e-01  -1.3044764e-01   9.2742186e-02   2.2603524e-01   3.6342117e-01  -9.5726206e-02  -8.4738203e-01  -1.7046528e-01   6.9299653e-01  -5.5495910e-01   9.1908426e-01   7.9552440e-01  -6.3026166e-01  -3.3079396e-01  -6.5349540e-01  -9.0045067e-01  -5.6471753e-01  -9.9161595e-01   5.2430609e-01   8.4432448e-01  -9.1424270e-01   2.1208552e-01  -7.9440299e-01   2.9209699e-01   8.2976528e-01   1.5443059e-01   2.2037534e-02   1.7554456e-01   7.7362547e-01  -1.2212973e-01   7.3359661e-01  -5.0756949e-01  -1.8885100e-01   2.6262452e-01  -8.0163190e-01   5.2107349e-01  -9.4875828e-01  -3.9159593e-01   4.0090268e-01   7.9905793e-02  -3.4438022e-01  -4.0768389e-01   3.8748840e-02   8.4747851e-01   2.0844445e-01   1.6435486e-02   7.0245940e-01   5.7787279e-01   4.5153705e-01  -8.0765173e-01  -4.0398024e-01  -1.5875252e-01  -7.0483663e-01  -4.9566659e-01  -5.2708002e-01  -2.6983949e-01  -6.7627469e-02   6.0930651e-01   7.7008593e-01   9.9983314e-01   4.0222283e-01   5.1475020e-01  -5.3375176e-01  -9.0498469e-01  -2.3900880e-01  -4.4139203e-02  -2.1875356e-01   7.7832427e-01  -6.4080473e-01  -7.4054342e-01   1.6878562e-01  -8.2245781e-02   5.7256846e-01  -8.0245834e-01   6.8402626e-02  -9.9268579e-01   3.9532114e-02   8.0046513e-01  -2.6879850e-01  -1.8752078e-01  -7.7340277e-01   6.6390127e-01   2.8103460e-01   4.2745024e-01  -1.5299633e-01   6.2820366e-01  -6.9979027e-02   9.5788443e-01  -5.2101696e-01  -4.7238875e-01   5.3291434e-01  -5.3321243e-01  -6.4033751e-01  -6.0514659e-01  -7.7208982e-01   4.6973545e-01   7.7775590e-01   3.4544084e-02  -4.8998836e-01  -1.0008263e-01   2.4482642e-01  -8.3905970e-01  -8.0737427e-03   2.5979772e-01  -6.0004656e-01   6.9007624e-01   9.4827024e-01   1.4393166e-01  -6.9452149e-01  -5.2837733e-03   3.0809327e-01   3.8399660e-01   9.1268079e-01   8.9311611e-01  -7.6786473e-01  -9.7887859e-01  -9.9514758e-01   4.8221427e-01  -5.7274600e-01  -4.2992120e-02   6.2503420e-01   2.8014146e-01  -2.1368564e-01   2.4700329e-01  -5.9418229e-01   5.2022713e-01   7.5308279e-01   7.7146965e-01   4.1872631e-01  -8.1728993e-01  -6.4954534e-01  -1.2001199e-01   8.7929928e-01   8.5691266e-01   1.4802971e-01   2.7261449e-01   1.9580316e-01   3.1269178e-01   8.4333012e-01  -2.3437709e-02   7.7787118e-01  -9.4500574e-01   4.6909432e-01   6.6772166e-01  -4.2341628e-01   1.5646004e-01  -1.6727978e-02  -7.4694514e-01  -9.3195093e-01   6.5476390e-01  -7.6939737e-02  -4.0288207e-01   6.8934854e-01  -8.0222924e-01   6.8394445e-01   1.3556213e-01  -3.6910965e-01  -3.7411179e-01  -7.6992159e-01  -2.5527706e-02  -8.4432552e-01  -1.8936689e-01   6.5005820e-01  -8.2255001e-01   5.3334929e-01   8.0890066e-01  -1.3903410e-01   9.1132568e-01  -5.0659329e-01  -6.3169703e-01  -6.4551413e-01   1.7922748e-01  -3.2466955e-01  -5.2241638e-01  -1.4548121e-02  -6.6137987e-01  -1.7700822e-02   3.3339629e-01  -1.1833230e-01   2.0210626e-01   9.5795210e-01   6.2195171e-01  -8.8877644e-01  -8.7517656e-02   1.9147013e-01   5.9555722e-01   8.6291849e-01  -3.4074215e-01   2.1564145e-01  -5.1676426e-02   2.3797103e-01   6.4903779e-01  -8.6896606e-01  -5.6803972e-01  -6.2526148e-01   6.1728150e-01   4.7764123e-01   8.1423331e-01  -5.7012053e-01   2.5664682e-01   9.9923356e-01   7.6762512e-02   9.5583333e-01   2.0286417e-01  -8.5709764e-01  -6.2191075e-01   8.0443078e-01  -8.0821597e-01   4.0820715e-01   5.2605895e-01   9.2244774e-01   6.7458750e-01  -8.9812710e-01   4.8822544e-01  -3.7958281e-01   9.2481410e-01   3.4878138e-01  -7.7273450e-01   7.2288229e-01   8.9937169e-01  -3.7460372e-01  -8.8907482e-01   1.0474869e-01  -1.5964722e-01  -4.0087529e-01  -9.4481159e-01   1.9086975e-01  -3.4173906e-01  -9.2078235e-01   1.8611397e-01   5.6897527e-01  -7.3015701e-01   5.3759270e-01   1.2047216e-02   9.9757559e-02   8.6629120e-01   2.2175280e-01   9.4418686e-01  -7.7677452e-02  -7.2721355e-01   3.0195582e-01   4.9877550e-01   1.7900491e-01  -3.0742260e-01   3.6445752e-01   1.6383488e-01   7.4564893e-01  -1.4707212e-01   6.8087498e-01  -1.8160143e-01  -4.9221435e-01   9.1102215e-01  -4.9779526e-01   7.6141338e-01  -8.8340076e-01  -5.1365148e-01   4.3220572e-01  -7.3881559e-01   3.1668070e-01  -2.8311360e-01   1.0869217e-01   1.2522733e-01   7.2524240e-01   6.3415578e-01   9.4927828e-01  -9.3577685e-01   5.5870163e-01   4.4426034e-01  -1.9340216e-02  -5.6157313e-01  -3.6369478e-01  -6.7240901e-01   5.0460721e-01  -6.7667120e-01  -2.4937291e-01   7.6237997e-01   8.4962346e-01  -1.4567038e-01  -9.0094257e-01  -9.5424825e-01   9.4590231e-02   6.6690955e-01  -5.7115377e-01  -7.1772576e-01   3.3180996e-01  -3.8842329e-01   2.6006303e-02  -2.0450998e-01   8.6226324e-01  -5.2949764e-01   8.9003641e-01  -5.9693944e-01  -1.4167571e-01  -1.3023331e-01  -1.9688020e-01   5.9865266e-01   7.1104391e-02  -2.6794392e-01   9.8800498e-01  -4.9885930e-01   5.2859733e-02   8.7131920e-01  -6.0888161e-02  -3.6622123e-01   5.5615947e-02   1.7757466e-01   6.8649217e-01  -1.5105346e-01  -4.4542822e-01  -6.8794257e-01  -7.6997465e-01  -4.7888637e-02   4.3729700e-01  -6.5036813e-01  -4.3069607e-01   2.0705526e-01  -5.1850311e-01  -9.5577492e-01  -3.1951551e-01   7.4256247e-01   6.7583801e-01   1.1439471e-01   2.0863313e-01  -8.2546477e-01  -3.7811472e-01   8.0128513e-01   5.3410507e-02   9.7184100e-01   6.0851112e-01  -9.2814304e-02   1.1323464e-01  -7.3626027e-01   6.6416712e-02   9.0178650e-01   2.2371115e-01   3.3525656e-01  -2.1089268e-01   6.1701677e-01   6.0319429e-01   1.1925202e-01  -8.8001862e-02  -6.0726808e-01   5.0403357e-01   4.2928715e-01  -9.7708533e-01   2.5821864e-01  -5.4835448e-02  -2.7258584e-01   6.2335626e-01   4.6279046e-01   1.9521131e-01   9.6176295e-01  -9.4072862e-01   5.7838206e-01   8.4935417e-01  -1.5743802e-01   4.4489057e-01  -9.7705578e-01  -2.7472493e-01  -5.9984056e-01   2.6211402e-01  -6.3757133e-01  -4.5704278e-01  -9.4711955e-01  -4.7812767e-01   7.6875065e-01   1.4613360e-01  -8.6397861e-01   2.6197615e-01  -5.0720831e-01  -8.4195761e-01  -1.7075814e-02  -8.4747205e-01   1.3945878e-01   2.7273440e-01  -6.9884670e-01  -3.9001378e-01  -3.5783465e-01  -1.2767547e-01   3.0571933e-01   6.9879767e-01  -5.0904370e-01   6.6202911e-01   6.6876075e-01  -5.5380376e-01   7.8861501e-01   5.8328000e-02   6.1747839e-01   4.5030002e-01   7.5490672e-01   1.4133006e-01  -3.0072730e-01   7.0923601e-01  -5.4061052e-01   1.5848146e-01  -9.6721847e-01  -2.7049189e-01   7.2332346e-01  -9.0119405e-01   5.6025560e-01   5.4503871e-01  -4.3573658e-01   7.0444276e-01   7.8239608e-02  -8.0438399e-01   9.2048352e-01  -9.4715147e-03   7.5475576e-02   2.4857616e-01   8.4962972e-01  -9.7507718e-01   4.8877502e-01   9.1061121e-01   7.1044780e-01  -4.6589985e-01  -8.8043648e-01   6.9250698e-01  -9.6707318e-01  -2.3445842e-01  -1.9661162e-01   1.2540834e-02   2.4428311e-01  -3.3347363e-01  -6.0416266e-01  -2.3812851e-01   9.1204755e-01  -7.3353894e-03  -7.9095120e-01   9.7705808e-01  -7.9453406e-02   4.8956391e-01  -2.7706734e-01  -4.4029592e-01   6.5683041e-02   2.0742968e-01   5.5075680e-02  -3.2482909e-01  -9.7595393e-01   1.2163066e-01  -8.0676143e-01  -5.2602917e-01  -9.4307139e-02   6.9635725e-01  -5.6339046e-01  -2.8979259e-01  -2.8531841e-01  -3.2782165e-01   8.6636533e-01   2.8218672e-01   7.0433399e-01  -9.4944485e-01  -3.7640210e-01   7.3702028e-01  -5.8630813e-01  -3.6453556e-01  -8.7733796e-01  -4.0992436e-01  -5.9066203e-01  -4.8130672e-01   6.1785323e-01   8.1550090e-01   2.5678577e-01  -8.1071923e-01  -9.2426884e-02  -8.9946518e-01  -4.3385370e-01   7.6849565e-01   7.9487014e-01   6.3985240e-01  -8.1329471e-01  -6.6891911e-02  -3.1133935e-01  -4.1553747e-01  -4.4168591e-01  -7.8202374e-01   1.1130544e-01   5.2425736e-01   4.0339622e-01   3.8845435e-01  -1.4370972e-01  -7.4238009e-01  -9.5317648e-01   2.8917970e-01  -3.4987005e-01   1.3774420e-01  -3.4416281e-01  -5.5091952e-01   3.4437741e-01   7.3068856e-01   6.0677981e-01  -8.8237573e-01   5.2141489e-01  -3.9588711e-01   4.8447233e-02   5.6661954e-01  -3.0407899e-01   1.9990642e-01  -9.0916957e-01   6.9615423e-01   1.7753567e-01   8.5770428e-01   1.6558551e-01   6.1845894e-01   7.4885450e-01   5.7602483e-01   6.2553585e-01  -5.9839647e-01  -6.4132922e-01   1.8692173e-01   9.9249348e-01  -4.2042587e-01  -6.6785140e-01   1.4730073e-01  -9.6643700e-01   9.7480615e-01  -1.7692631e-02   9.2558977e-01  -5.6630473e-01   5.6423385e-02   4.9820735e-02  -8.1285410e-01   5.8836909e-01  -3.9273652e-01   5.0773215e-01   5.6156661e-01  -7.8473923e-01  -3.9201498e-01  -3.6640486e-01   7.4411808e-01   3.5474518e-01   5.4199680e-01  -2.1122363e-01  -6.2373012e-01   8.7620797e-01  -1.7714686e-01  -4.8319141e-01  -9.6455658e-01  -7.2091627e-01  -8.4638862e-01   7.5070298e-01   8.5098229e-01  -5.7424064e-01   9.2235424e-01  -9.0763643e-01   4.7390325e-02   3.6094952e-02   6.0140815e-02   7.1457100e-01   2.0141030e-01   3.4754763e-02   6.8840222e-01   4.5318920e-01  -6.5099669e-01  -4.8164330e-01   7.9502312e-01  -6.7377763e-01  -7.9022881e-01  -8.6584649e-01   2.0977733e-01   3.6537973e-01  -7.0640335e-01
