  -3.8332910e-01  -4.2507829e-01   6.3756651e-01  -7.2451045e-01   9.0615163e-01  -3.1839559e-02  -8.9805962e-01   5.2428246e-01   9.8284546e-01  -8.2316754e-01  -4.1683114e-01  -9.1724393e-01   9.4207480e-01  -2.8388354e-01   2.1446435e-01  -3.7616462e-01   8.7883144e-01  -9.3969204e-01  -6.3078515e-01  -6.8458386e-01   2.4840115e-01   9.2499249e-01  -9.6226261e-01  -7.6906402e-01   2.8075465e-01   3.3432938e-03  -4.7415332e-02  -3.9915822e-01   2.1866006e-01   6.2000447e-01  -6.3713108e-02   5.0967968e-01   9.9735281e-01  -8.8752517e-01   2.3191095e-02  -2.3932100e-01   3.6297446e-01  -8.7730441e-01  -6.2749373e-01   4.5651583e-01  -5.1106357e-01  -6.8853844e-01   6.0519339e-01   4.1979745e-01   3.6955202e-01  -8.8493734e-02   5.8717436e-01   5.4395031e-01   8.3919821e-01  -9.9209246e-01   1.6941766e-01  -1.7925140e-01  -3.9440667e-01   2.9792247e-01   5.2563248e-01  -2.4274628e-01  -6.2593688e-01  -7.7847501e-01  -6.0544457e-01  -3.2712818e-01   3.7486492e-01   5.0693991e-01   8.9612829e-01  -1.4959323e-01   1.9534699e-01   1.9009700e-01   6.7479661e-01   4.6322307e-01   5.1891123e-01  -6.2135549e-01  -7.7349938e-01  -2.3262597e-01   2.3449497e-01   1.6242137e-01   9.0058468e-01  -5.7403907e-02  -3.3697968e-02  -9.2026436e-01   3.4489552e-01   1.7378881e-02  -6.3911243e-02  -4.1589287e-01  -7.7412194e-01   4.2227327e-01  -9.4852255e-01   7.8844795e-01   5.7332577e-01  -3.6702825e-01   1.1617417e-01  -5.7207692e-01  -4.9958019e-01   2.1512569e-01  -2.9931969e-01  -5.6747644e-01   9.7708608e-01  -8.8748552e-01  -7.3225210e-01  -2.2464121e-01  -1.9482801e-01  -6.6956604e-01  -9.5033817e-01   4.7233488e-01   6.2233122e-01  -5.9973555e-01   7.5502111e-01   2.8715163e-01  -4.1067736e-01  -6.1797477e-01   9.0468984e-01  -3.7723571e-01   2.3772062e-01  -9.0390740e-02   7.8202568e-01   8.7782204e-01  -5.1466355e-01   9.5365981e-01  -2.0623697e-02   9.3718184e-01   2.8570479e-01   4.8616400e-01   3.2966220e-02   7.2300720e-01   6.5189391e-01   3.8250041e-01  -9.0399110e-01  -7.8687877e-02  -8.9322170e-01   1.0415466e-01   1.5937259e-01   9.3801177e-01   3.5772914e-01   8.2890197e-03   8.3966900e-02   7.7019902e-01   5.2756039e-01   9.1912345e-01   6.2687375e-01   1.7951035e-01   4.7961136e-01  -6.8616954e-02  -7.4181623e-01  -9.5775021e-01   7.5011961e-01   6.8075311e-01   1.5896143e-01  -3.2725877e-01   1.7348829e-01  -9.9996704e-01  -5.6227284e-01  -6.3508329e-01   6.4806692e-01  -8.2860964e-01  -1.6291224e-01  -4.2510731e-02   1.6439400e-01   1.5212715e-01   4.8127383e-01  -2.8819683e-02  -6.0992408e-01   9.8350822e-01  -8.0084822e-01   1.2760959e-01   2.3691683e-01  -8.6315079e-01   5.9932605e-02  -6.5687699e-01  -8.8164664e-01  -4.8350344e-01   5.6445466e-01  -4.7620915e-01  -9.3748676e-02   2.7806171e-01  -3.1558279e-02  -3.1865632e-01  -9.5492559e-01   8.2047664e-01   1.3864545e-01   7.1133440e-01  -5.9092286e-01  -1.6429280e-01   1.5912451e-01  -3.3750865e-01   4.6460599e-01  -2.9607428e-01  -6.5468581e-01  -6.0569735e-01   9.4957448e-01   6.6594579e-01  -2.9135671e-01  -1.3802187e-01   4.4328186e-01   9.5545657e-01   2.3495648e-01   1.4000573e-01   5.5800519e-01  -3.3999055e-01  -8.3447771e-01  -5.2395873e-01   3.6705577e-01  -4.0813936e-01  -3.9668870e-02   9.0304694e-01   2.9999523e-01   8.4982480e-01  -2.0104810e-01   9.8272953e-01   8.9685559e-01   4.4275162e-01  -1.8823164e-01   6.1012003e-01   9.5737337e-01  -4.3804340e-01   2.9417382e-01   7.4980630e-01  -7.8295489e-01  -4.9520595e-01  -3.4204160e-02  -9.7592149e-01  -1.5846456e-01  -5.7593858e-01  -9.4074038e-01   6.6105319e-01  -8.6661329e-01  -4.8911079e-01   5.6093645e-01   8.3736353e-01   8.4340284e-01  -8.7850583e-01   9.2571970e-01   3.1340472e-01  -2.3282504e-01   8.4303934e-01   6.1897888e-01  -9.4330738e-01  -2.0242652e-01  -3.9361890e-01  -4.8740309e-01   6.6781086e-01  -7.7409804e-01   1.9304872e-01  -8.2838457e-01  -1.4529906e-01  -2.1881022e-01  -7.4660363e-01   3.2390186e-01   7.7176262e-01  -2.0403461e-01  -1.4493508e-01  -2.7570277e-01   2.2460443e-01  -2.2704124e-01  -4.3570300e-01   1.4388804e-01  -8.4184089e-01  -7.2271292e-01   2.8934888e-01  -4.6861504e-01   6.7610708e-01   2.0744131e-01   4.6889765e-02  -6.2430644e-02  -6.4277090e-01   3.3171398e-01   6.5389737e-01   3.4676470e-01  -4.6491546e-01   9.7836459e-01   2.3961926e-01   3.4424722e-01   9.7970037e-01   7.9631843e-01   4.4188822e-02  -8.9283165e-01  -9.9637070e-01  -5.8644605e-01   8.5159925e-01  -9.1589787e-01  -9.4802626e-01   4.7214948e-03   5.2562560e-01  -5.4219662e-01   7.0328808e-01  -8.0563547e-01   6.3830490e-01  -8.9309509e-01  -7.0448473e-01   4.5576183e-03  -3.9578871e-01   6.9575488e-01  -5.6428844e-02   2.7155007e-01  -4.8192701e-01   6.5412420e-02  -6.5056959e-01  -1.8350645e-01   8.1477488e-01   1.6318241e-01  -3.0220013e-01   6.0075491e-01  -3.4158436e-01  -7.1249902e-01   2.2465527e-01  -3.7015101e-01  -3.0295089e-01  -2.5920673e-01   9.8996410e-01  -7.2246455e-01  -9.9769016e-01  -8.3746523e-01   9.0161779e-01  -9.3420159e-01   6.3013639e-01  -7.9967139e-01  -7.0373883e-01   4.7998861e-01  -3.3865339e-01  -7.4471674e-01  -5.0743719e-01  -3.7317340e-01  -7.6034975e-01   2.1936843e-02   9.1299941e-01   4.8816158e-01   2.4302926e-01  -6.2291105e-01   7.2120149e-01  -4.4593955e-01  -4.9442583e-01  -7.8861356e-01  -3.1571565e-01   4.3922501e-01   1.0950104e-02   5.2951890e-01   4.2123765e-01  -8.2729657e-01  -6.7029884e-01  -7.2059180e-01   9.7498944e-01   4.8726471e-01   6.6772344e-02   9.2784343e-01  -3.7440135e-01   1.8359597e-01  -8.4763121e-01  -5.7985498e-01   9.1729949e-01   8.7154051e-01   2.3052549e-01   9.7267735e-01   1.9378429e-01  -4.9801744e-02   2.5885260e-01  -6.4843746e-01  -3.4134149e-01   6.1948081e-01   1.0869071e-01  -2.9317087e-01   1.2638676e-01   8.9968097e-01  -4.2309348e-01   1.5956867e-01   2.0724600e-02   6.8349287e-01  -3.1537597e-01   5.4953716e-01   9.5991938e-01  -4.4283937e-01   4.0238107e-01   1.7645921e-01   4.6162322e-02   1.4853478e-01  -9.5071976e-01  -7.3176503e-01  -8.2894924e-01   9.9868931e-01   6.5555111e-02   9.8175331e-01   3.1517244e-01  -9.7009638e-02   8.2143001e-01  -7.8922571e-01   6.0210141e-01   5.5726382e-01   8.2953859e-01  -5.0043968e-02  -3.9441216e-01   9.3435254e-01   4.0511496e-01   9.4142153e-01   8.0515065e-01   6.3914890e-01   9.0506557e-01   3.7469923e-01  -3.1432931e-01   4.0879970e-02  -2.7395722e-01   8.3125845e-01   1.9022256e-01  -6.0853132e-02  -6.4726932e-01   1.6586953e-01  -3.4630625e-01   1.9642319e-01  -3.7929086e-01  -3.8553566e-01   8.0785692e-01   1.3014927e-01   1.1426422e-01  -7.6113077e-01   6.8065581e-01  -3.6370115e-01  -1.4296922e-01  -5.8958972e-01  -1.0098586e-01   1.5651725e-01   5.8026462e-01   5.4051373e-01  -8.2559542e-01  -4.4601872e-01   2.0650856e-01  -3.4782607e-01   6.4249231e-01  -2.2996142e-01   8.4388873e-01  -1.5395809e-01  -4.9924993e-01   8.0015081e-01   9.2239611e-04  -4.8934498e-01   9.2501722e-01   1.0604734e-01  -9.6288552e-01  -8.5846471e-01  -1.7355484e-01  -7.8447643e-01  -3.4275911e-01   1.1707095e-01  -5.6420216e-01   5.4685382e-01  -4.9608555e-01   3.3816018e-01  -6.1843594e-01   3.8146393e-01  -8.5157343e-01  -6.6954757e-01  -4.4273140e-02   7.3214269e-01   9.8374744e-01   7.4600981e-01  -5.2202634e-01  -2.7115538e-02   8.3855109e-01  -4.1719005e-01   8.6578922e-01  -9.3628129e-01   4.2747903e-01   2.0990436e-01   3.7373234e-01   9.9384061e-01   9.9399561e-01   2.0765939e-02  -4.4853895e-01  -1.7727159e-01  -7.5385307e-01   3.5018040e-01  -3.6309310e-01   4.5661697e-01   3.5311622e-01   5.1297935e-01  -4.2140101e-01  -3.7421683e-01  -6.8320562e-01  -4.4007777e-01  -1.1222101e-01   1.9775452e-01  -4.3314622e-01   1.0635317e-01   2.5003965e-01  -6.7073327e-01   1.7394613e-01  -2.5814837e-01   4.9795483e-01  -2.3107312e-01   2.2334887e-01  -2.2924653e-01   3.7466052e-01  -2.4727897e-01  -4.2837848e-01   9.3458950e-01   4.0524070e-01   5.6106902e-01   3.5989628e-01  -5.0632869e-01   2.2844700e-01  -6.7267907e-01  -7.9430522e-01   7.2226298e-01  -9.0932958e-01  -4.7736927e-01   7.8681181e-01   1.0566238e-01  -4.2172439e-01  -2.8103741e-01   7.6732775e-01   3.7183737e-01   9.6710172e-01   2.9926614e-01   1.5895223e-01   8.3032050e-01   6.1210197e-01   2.2812293e-01  -2.1568158e-01  -6.8630816e-01   1.6304608e-01   6.2539754e-01   5.2475889e-01   6.2949182e-01  -2.1961515e-01   4.3401476e-01  -6.9102945e-01  -9.1079061e-01  -1.1059054e-01  -7.4809581e-01  -7.6398722e-01   1.5043818e-01   6.5707647e-01   1.1118582e-01  -4.2489748e-01   4.3128111e-01  -4.8375052e-01  -7.7138687e-01   9.0041164e-01   3.7390422e-01   5.8791967e-01  -3.8494234e-01  -5.9054090e-01  -7.8085459e-01  -4.6843257e-01   1.8497971e-01   8.1587165e-01   3.7037659e-01   1.3563779e-01   9.2163591e-02  -8.9190125e-01  -2.0361412e-01   4.5028780e-01  -1.4697255e-01  -3.0400287e-01  -5.8598327e-01  -7.7262987e-01   8.3245809e-01  -3.5501562e-01   9.3864110e-02  -9.0579327e-01   7.3322589e-01   7.1730630e-01  -8.9804457e-02   7.9921074e-01   6.8557141e-01  -2.2515347e-01   5.3243154e-02   3.3520695e-01   5.6054443e-01   4.3446521e-01  -6.2778056e-01  -9.1369007e-01  -7.7529447e-01  -8.9640793e-01   3.3151917e-01   2.0869031e-01   5.3333902e-01  -8.9429816e-01  -3.2832692e-01   4.8105748e-01   2.7316629e-01   8.4004276e-01   1.6892304e-01   1.3260587e-01   2.4495265e-01   1.4406368e-01   7.8256475e-01   6.4751775e-01   7.1397699e-01  -9.7728007e-01   6.6982183e-01  -7.0260323e-01   7.1758858e-01   2.5557293e-01  -3.0257708e-02   6.9269672e-01  -4.7566308e-02   1.6759745e-01   4.0558117e-01   5.1904080e-01   1.9196719e-01   9.6087399e-01   3.8502716e-01  -4.3005538e-03   5.1005622e-01   2.9445881e-01   2.3154562e-01   7.8485828e-01   9.1249305e-01  -7.0193016e-01  -4.6015583e-01  -7.7190841e-01   2.9668702e-01   2.1722817e-01   2.5818509e-01   6.9605382e-01   7.0166953e-01  -7.3865552e-01  -2.0637725e-01   2.4201517e-02   9.3897623e-01  -8.0106493e-01  -1.1674547e-01   2.4934756e-01   8.8251525e-02  -5.5891448e-01   1.8144842e-01   5.7543450e-01  -5.2520252e-01   4.9694230e-02  -8.3387546e-01   1.3091425e-02   1.7942353e-02   2.0089798e-01  -4.3047184e-01  -4.2651750e-01  -5.3837420e-01  -2.3104292e-01  -6.6043196e-01  -3.1614623e-01  -3.1237828e-01   7.1885921e-01   1.5107227e-01  -4.2073036e-01  -8.9673259e-01  -6.4417373e-01  -5.4467186e-01  -2.3348239e-01  -4.8496139e-01  -3.8382412e-01  -1.3424766e-01  -7.8038182e-01  -1.8243564e-01  -6.7411440e-01  -6.7472234e-01   3.6001358e-01   8.5777318e-01   2.5486681e-01   7.4140867e-01  -5.1354234e-01  -7.7238957e-01   6.2923567e-01  -1.2392028e-03   2.5332212e-01  -7.0436744e-01   7.4392055e-01  -6.6682645e-01  -8.1948531e-01   2.4852805e-01   6.6563141e-01  -5.4566740e-01   3.0750131e-01  -4.8754200e-01  -4.7928812e-02   7.1244544e-01   8.5088448e-02   7.8274742e-01  -1.7879003e-01   4.1900587e-01   5.5510329e-01   2.3395442e-01   6.0775653e-02   4.6266321e-01  -6.4028688e-01   5.7170240e-01   6.0196471e-01  -7.0291175e-01  -4.6581780e-01   8.5081662e-01   6.3722484e-01  -2.6797281e-01   1.6795960e-01  -9.9245423e-01   5.9352690e-01  -9.6493274e-01  -9.5645080e-01  -6.4272776e-01   4.9963403e-01   1.8418434e-01  -6.2732139e-01   2.6044740e-02   8.4349695e-01  -3.9437076e-01   3.6713740e-01  -8.0297687e-01  -5.5746063e-01  -7.9705638e-01   5.5553079e-01   1.2147797e-01   2.5344979e-01  -9.6282339e-01  -7.0251922e-01  -4.1163207e-01  -5.3948157e-01   9.2756762e-01   7.6702076e-01   1.7003567e-01   1.3805472e-01  -8.7589219e-01  -9.8290909e-01   5.9480853e-02  -5.1007170e-01  -6.2469715e-01  -8.6480007e-01  -1.3405541e-01   5.9107676e-02   9.0003610e-01   9.7239447e-01   4.2480419e-01  -3.1337119e-01   7.5151695e-01  -4.5673672e-01  -8.8405111e-01  -9.2027248e-01   3.6809124e-01   1.0773217e-01  -8.3080496e-01  -9.3443045e-01  -9.4664180e-01  -6.1806150e-01   3.1988115e-01  -7.4193288e-02   8.7234644e-01  -3.2361928e-01   2.0913868e-01  -5.9333489e-01   8.6691647e-01   4.6324635e-01  -9.2735714e-01  -6.6083423e-01   8.2212318e-01   2.8429614e-01   9.8679393e-01   7.4842984e-01   8.3948497e-01   2.2979712e-01  -4.8629416e-01  -1.3409558e-01  -8.5892224e-01  -8.7298747e-02   1.8380657e-01   4.3600459e-02   6.7496303e-01   4.2872976e-02   9.5835993e-01   9.7259766e-01   1.0961668e-01  -1.6462694e-01  -8.5097365e-01   1.3512005e-01   6.6936109e-01  -4.1780256e-01  -4.6031960e-01  -3.7772936e-01   6.7937756e-01   9.2160853e-02  -3.5342559e-01  -8.5290897e-01   2.4649621e-02   1.2487344e-01   5.3325973e-01  -4.4013343e-01  -7.4841497e-01  -5.4960222e-01   8.1613034e-02   8.0814434e-02   1.7996201e-01  -8.3070646e-02  -6.1827139e-01  -6.9932230e-02   1.3985430e-01  -3.0316988e-01  -4.2491475e-01   8.8246242e-01   1.6415454e-01   7.4336900e-01  -6.8147794e-01   5.3338203e-02  -7.7981476e-01   3.1571167e-02  -4.4385900e-01  -6.3694008e-01   2.4959913e-01  -9.5674457e-01   7.1073939e-01   4.5245515e-01  -6.7518722e-01  -9.4820307e-01   5.5885472e-01   7.9081949e-01   2.7827067e-01   1.3858162e-01   8.1151982e-01   1.8741110e-01  -1.4621602e-01  -1.3762998e-02  -3.8400258e-01   7.5053486e-01   5.1772944e-02  -5.7804232e-03   9.9528012e-02   4.5048927e-01   7.1600748e-01  -2.9157289e-01  -6.8326570e-01  -3.7925666e-01   5.7332801e-01  -1.7255434e-01   6.5824528e-01  -3.7033271e-01   6.1373832e-01  -7.2171123e-01  -7.7762156e-01   5.8360550e-01  -7.9501209e-01  -2.5739530e-01  -4.5801032e-01   9.0941409e-01   8.5906057e-01  -2.4893438e-01   4.2246192e-01   2.0642023e-01  -6.7204936e-01   3.6890723e-01  -1.5319428e-01  -8.5632426e-01   5.5366688e-01  -8.6363271e-01  -2.2468284e-01  -6.0898283e-01  -1.5033073e-01   3.8239125e-01  -2.3499283e-01   8.3227735e-01  -8.7382242e-01   5.5995761e-01   7.0729812e-01  -6.0172536e-01   9.2755349e-01  -5.3956695e-01  -6.1744671e-01   9.6206143e-01  -4.3523669e-01   5.1615432e-01   5.7397992e-01   1.2911026e-01  -3.8292798e-01   4.8658203e-01   7.3174139e-01   3.7054653e-01   1.8598283e-01   6.1079220e-01   4.0093970e-02   8.4665649e-01   5.8071487e-01  -3.5285731e-01   5.0756406e-01  -5.7118222e-01   4.0143104e-02  -1.9704790e-01  -3.9067893e-01  -4.4959099e-01  -7.6187272e-01  -8.8099187e-01  -4.4202062e-01  -4.8933131e-01  -6.9055855e-01   9.5913686e-01   6.2108893e-01   5.5139397e-01   1.6573789e-01  -3.7455330e-01  -1.4260726e-01  -4.7235857e-01   6.7257155e-01  -2.6672460e-01  -6.1530679e-01  -8.8227760e-01   5.7870083e-01   6.5934688e-01   7.4088732e-01   9.5461436e-01   8.0532876e-01  -7.1953917e-01   2.6649781e-01  -1.5839732e-01  -7.2032898e-03   6.8071271e-01  -6.5058189e-01  -7.8694278e-01   5.9032357e-01   7.6347141e-01   7.3147773e-01   1.1969015e-01  -7.0894436e-04  -2.5262960e-03   9.1101577e-01  -5.9607883e-02   8.6033110e-01   4.2206211e-01  -7.6110800e-02   4.4542536e-01   4.6246129e-01   3.2749245e-01   6.8554124e-02  -8.7427741e-01  -7.5694658e-01  -8.1127946e-01  -7.5889004e-01   7.5966634e-02   5.1478312e-01  -3.6422177e-01   2.1691555e-01   5.6901397e-01  -5.0595545e-01   7.8923228e-01   4.7172452e-01   2.2131987e-01  -7.3516591e-01  -3.7774820e-01  -1.6712669e-01  -2.0997704e-01   2.3935740e-01   9.8650244e-01   9.0921349e-01  -4.5287807e-01   1.7111635e-01  -9.2965396e-01  -9.6178399e-01  -5.6535744e-01   2.2474876e-01   5.9575419e-01   4.2798696e-02   7.7350547e-01   5.2747134e-01   7.5481041e-01  -7.7090212e-01   1.9277315e-01  -5.0301171e-01  -8.4604270e-01   8.4545363e-01   3.4273548e-01  -9.1146657e-01   2.5711907e-01   2.9244505e-01   9.0045129e-01   7.0226676e-01  -7.7274841e-02  -9.9868795e-01   1.6621202e-01   7.2309776e-02   5.7615909e-03   7.3006713e-01  -9.0612878e-01   9.7804225e-01  -3.2420485e-01  -9.9045573e-01  -6.4596670e-02  -6.1095314e-01  -4.7909635e-01   9.9216655e-01  -5.9200827e-01  -7.8489050e-01   7.6217649e-01   4.2328264e-01  -8.0391599e-01   4.6502945e-01  -9.5624823e-01  -9.9818976e-01   3.9577740e-01   8.9333168e-02   9.2059183e-01   2.7960621e-01   1.1362153e-01   4.6934871e-01   9.0910216e-01  -3.8748252e-01  -8.8906998e-01   1.3041543e-01  -4.2763119e-01  -6.9676979e-01   8.2514087e-01  -4.1875813e-01   7.5470020e-01  -9.7464317e-01  -5.0360747e-01
