  -2.4896218e-01   5.6532265e-01   9.6295290e-01  -3.2929603e-01   5.7748129e-01   6.0186681e-01   7.7730641e-01   7.3693030e-01   9.7239593e-01   4.8007849e-01   2.1287484e-01   8.3143891e-01  -9.7370085e-02  -4.8592075e-01  -4.7996963e-01  -8.3428139e-01  -4.5811417e-01  -6.4740452e-01   3.9466656e-02   6.3869998e-01  -6.5643877e-01   3.9447429e-01   6.2807954e-01   1.2798724e-01   2.9149461e-01  -1.0813344e-01   8.6658065e-02   6.5541145e-01  -1.0552455e-01   4.6386172e-01   9.7562017e-01   4.9836565e-01   2.6569821e-01  -8.1263444e-01   9.3518592e-01  -5.9553951e-03   8.3285285e-01  -3.5827357e-02   3.9686446e-01   9.7228497e-01   2.9620665e-01   9.5079197e-01   6.9781792e-01  -9.3767290e-02  -6.2001436e-01  -1.2593945e-03   8.9642131e-01   8.8465845e-01  -2.5457003e-01  -3.3461016e-01   4.4052376e-01  -6.8790865e-01   5.5647128e-01  -3.2409252e-01  -5.1965022e-01   6.4423626e-01  -4.1461022e-01   9.4397873e-01   3.6955915e-01  -8.5459483e-01   3.0680622e-01   5.9034060e-01  -6.2021272e-01  -2.9523678e-01   4.5989219e-01  -5.7169595e-02   1.7613947e-01   7.9567619e-01   9.0657252e-02  -6.5520866e-02  -5.1627950e-02  -3.7013000e-01   5.7062862e-01  -4.3809473e-01  -7.4939990e-01   1.4981760e-01  -3.0438212e-01  -7.6011460e-01  -3.0460272e-01  -6.7945535e-01  -2.8147499e-01  -9.2431071e-01   1.9663630e-02   5.4875524e-03   5.2883744e-01   7.5517360e-01   5.0922703e-01   1.2918135e-01   9.1057865e-01  -2.2329634e-01   5.1882217e-01  -4.1372088e-02  -3.5244471e-01  -5.0389096e-01  -3.6652921e-01   5.5580041e-01  -1.4731170e-01   3.4256013e-01   6.0306751e-01  -9.6099618e-01   4.0867955e-01   2.9771139e-01   7.8293582e-02  -1.4965605e-01  -8.6184719e-01  -5.9872686e-01   6.5345639e-02  -4.6708753e-01   3.7552812e-01  -4.3755087e-01   5.9294541e-01   2.0300595e-01  -4.7461227e-01  -3.7915403e-01  -3.1679599e-01   6.8307325e-01  -4.0524545e-01  -9.7156645e-02   3.6134614e-01   6.2044707e-01   6.9015000e-01  -8.4746831e-01   4.9506569e-01  -8.2518958e-01  -2.6824261e-01  -9.7202414e-01  -6.0871952e-01  -7.0952236e-01  -1.7504395e-01  -7.0799375e-01   7.6898999e-01   8.9168515e-01  -7.0579818e-01   5.6885032e-01  -1.1236278e-02   4.7157481e-01  -2.5797731e-01  -2.9491768e-01  -3.6818512e-01   9.6663534e-01   7.7188944e-01   1.4553856e-01   4.1529918e-01   2.8590915e-01  -4.8179390e-01   8.1347495e-01   2.1918340e-01   1.5509898e-01  -7.9440697e-01   5.9299584e-01   8.0654526e-01  -6.2839968e-01   4.7115433e-01  -9.1523344e-01   9.8125493e-01   9.6796479e-01  -6.7863274e-01  -2.4183046e-01  -4.6527530e-01  -7.0797317e-01  -7.4758830e-01   3.5860896e-02  -9.9891489e-01   6.8596820e-01   3.4916628e-01  -8.9464161e-02  -9.2746962e-01  -8.6099122e-02  -2.1740424e-01   7.3677491e-01  -4.5948270e-01  -3.9341270e-01  -8.1102114e-01   6.1168172e-01   5.7424494e-01   2.8217257e-01  -7.0958190e-01   4.4468838e-01   8.2671307e-01   7.0118917e-01   2.9930398e-01   5.1876424e-04  -2.2737957e-01   1.7317768e-01  -8.5556823e-01   4.4289329e-01   5.0060886e-01  -2.2919773e-01   8.9245079e-01   6.4187885e-01  -6.6352462e-01   2.6398141e-01  -1.9620720e-01  -3.1359313e-01   2.8590089e-01  -4.6434744e-01  -7.7726410e-02  -7.0049755e-01  -3.7428108e-01  -3.1448041e-02   8.5537453e-01  -8.1817508e-01  -3.5270967e-01   3.4561982e-01   1.7519996e-01   3.5034751e-01  -8.6480781e-01   3.6121914e-01  -9.9682053e-01   2.3953600e-01   8.4401675e-01   9.4654192e-01   7.1114441e-01  -9.9416319e-01   4.3248226e-01  -6.4223572e-01  -6.9641644e-02  -1.2845414e-01   7.4992708e-01   1.9189773e-01  -3.0370438e-02  -2.3239970e-01  -1.8291802e-01  -3.8323402e-01   1.0073920e-01   9.8667829e-01   9.5288151e-01  -1.0210148e-02   1.9972292e-01   8.8423794e-01   8.3707028e-02  -2.8866725e-01  -7.6850166e-01  -1.9744725e-01   9.7087627e-01   2.1186163e-01   5.3012420e-01  -5.1936490e-01   9.2684377e-01  -8.5758361e-01  -8.8300299e-01   2.1463781e-03   9.6195937e-01   1.1026931e-01  -7.8851286e-01  -3.4102579e-01  -2.9691848e-01   9.3661175e-01  -3.3683731e-01   6.0719765e-01   5.2787024e-01  -6.3059343e-02   2.1523406e-01  -6.7966854e-01   3.7607081e-01   9.2619638e-01  -5.4308257e-02  -8.4216090e-01   3.2746575e-01  -7.4160946e-01  -5.6410765e-01   8.9344132e-01  -5.1090717e-01  -7.8842313e-01  -6.6122740e-01  -5.2245552e-01   9.8084657e-01  -5.3812237e-01   6.0009747e-01  -1.4953473e-01  -9.3050569e-01  -8.8843198e-01   4.8130484e-01   2.1705320e-01  -4.9069405e-01  -9.6595049e-01  -3.4914616e-01  -2.3671579e-01   4.7567953e-01   9.9571366e-01  -1.6816304e-01   1.9028358e-01  -6.5754590e-01  -9.4011077e-01  -1.0024471e-01  -4.9002695e-01  -9.5670715e-01  -8.1984585e-01   5.5347488e-01  -3.4264896e-01  -6.3894179e-01   2.3297169e-01   5.4876887e-01  -8.4438620e-01  -2.3971443e-01   3.1993014e-01  -5.4790336e-01  -5.3689806e-01   7.5142102e-01  -1.2621776e-01  -1.6104477e-01  -7.9850069e-01   3.2076051e-01   8.6233888e-01  -2.5177590e-01  -2.9774143e-01   7.6970172e-01   1.4239036e-01   6.4261748e-01  -8.4244941e-01   8.1605798e-01   6.7624673e-01  -7.0352319e-01  -4.1540513e-01  -3.9807949e-01  -9.4047574e-01  -9.9145043e-01  -7.9181000e-01   2.1939970e-02   4.8234886e-01  -2.6577811e-02  -8.1445308e-01   8.3405085e-01   7.8703418e-01   2.6701567e-01   6.9550699e-02   3.1371759e-01  -9.7147760e-01  -4.3987407e-01  -6.4842410e-01   2.9637323e-01  -4.6290763e-01   9.6975580e-01  -1.2527360e-01  -7.1489287e-01   7.8963414e-01   1.4444060e-01   4.3155666e-02   1.1541314e-01   3.7639892e-01   4.8435370e-01  -7.1121247e-01   8.1182696e-01  -7.7719287e-01  -4.0194480e-01   3.8121879e-01  -6.0754300e-01  -6.3029435e-02  -3.7285911e-02  -5.3199222e-01  -3.1317132e-01  -9.2343876e-01   4.3671009e-01  -7.5615709e-01   6.4374111e-01   5.7132302e-01   9.1999446e-01  -4.9330380e-02   6.2990691e-01  -8.6274983e-01  -9.4089805e-01   2.4377398e-01  -8.9618186e-01  -1.4119819e-01   4.4618696e-01   8.5947693e-02   4.0011561e-01  -4.6218971e-01  -3.6099643e-01   1.0392333e-01  -6.2975247e-01   9.3588372e-01  -3.7035037e-01  -7.0693202e-01   5.5981873e-01   1.3559536e-02   2.5213346e-01  -4.9718122e-02  -7.0629992e-01   9.5971123e-01   3.5812171e-01   2.0757498e-01   2.7129805e-01  -4.4680975e-01   3.9963295e-01  -2.2881176e-01  -2.7259190e-01   3.8113168e-01  -5.5279112e-01  -5.3487369e-01  -8.2477058e-01  -7.0740385e-01   2.8104314e-01  -8.7838408e-01   9.9700621e-01   6.7054586e-01  -5.3866396e-01  -8.6794291e-01   3.4423113e-01  -8.4226589e-02   3.5066353e-01  -5.0477014e-01  -4.6096183e-01  -6.7617333e-01   4.2854956e-01   8.2396210e-01   4.7891886e-02  -9.5212789e-01   4.3679166e-01   8.6453452e-01   5.1255483e-01   1.7446867e-01  -7.4784763e-01   1.9133043e-01   6.1922100e-01  -2.9629448e-01  -4.8770266e-01   2.9185500e-01   2.3740579e-01   3.3124555e-01   5.5957002e-01   2.6097062e-01   6.5785269e-01   8.7538197e-01  -1.2914401e-01   8.6902968e-02   2.0129946e-01  -1.3099321e-01   4.9050516e-01   2.4812296e-01  -4.5037214e-01   4.2172663e-01  -3.5788912e-01   4.0865560e-02  -4.8033213e-01  -5.2872166e-01   9.0134097e-01   6.9474537e-01  -9.6164535e-01   1.8394160e-01   5.1659597e-01   8.6607013e-01  -5.7181055e-01   6.8032592e-01  -1.1862500e-01  -9.4642710e-01   4.0337712e-03   2.7016512e-01   2.8540806e-03  -7.3422913e-01   2.9610050e-01   3.2213897e-01  -1.9201001e-02  -9.1711555e-01   6.0744530e-01   4.6764324e-01   6.9636489e-01  -3.2391887e-01   2.1275518e-01  -5.9614522e-01  -8.6692643e-01  -1.7902956e-01  -7.7180133e-01  -8.6197567e-01   9.0790699e-02  -4.9765442e-01  -5.5900613e-01   5.3084086e-01  -5.0305808e-02  -6.2148035e-01  -1.9097787e-02   6.0736238e-01   3.2681061e-02   5.4168423e-01  -1.7701402e-01  -5.4272491e-01  -1.6882538e-01   6.4935592e-02   8.6350765e-01  -4.9944159e-01   7.5900678e-01   3.2633761e-01   1.1522625e-01   8.6198836e-01   6.1597783e-01   1.6978098e-01  -1.1818526e-01  -6.0004274e-01   2.1265907e-01   5.5672732e-01   9.7903254e-01  -7.4762791e-01   7.3628844e-01  -7.1572782e-02  -2.0891035e-01  -4.0478800e-01   6.8337798e-01  -9.9148599e-01   7.3650905e-01   6.5210435e-01   1.9067990e-01  -2.6639861e-01   7.1278782e-01   7.7218091e-01   8.5865547e-01  -4.9832081e-01  -9.0065997e-01  -8.8904016e-01   5.2552329e-01   5.2133715e-01  -7.8659618e-01   3.9039645e-01   6.7133227e-01   6.3397995e-01   7.9887794e-01  -5.3359209e-01  -9.1418374e-02   6.9821008e-01   6.2288052e-01  -1.9781564e-01  -8.7857315e-01   1.0795474e-01   7.6480479e-01  -4.7924487e-01   3.4966563e-01  -2.4837696e-01  -7.6229698e-01   4.4373956e-01  -4.5436665e-01   9.7489511e-01   5.1762923e-02  -6.1956886e-01  -9.1677394e-01  -7.2572235e-01  -3.5808904e-01  -4.2389769e-01   9.8375963e-01  -1.4949344e-01   4.0465321e-01  -6.2815231e-01  -5.3799948e-01  -9.5859138e-01  -6.9058668e-02  -6.8992006e-01   3.8251074e-01   4.4612063e-01   7.3286973e-01  -1.8999182e-01   6.3590772e-01   5.8397234e-01   4.8996860e-01  -6.9852187e-01   9.8571088e-02   6.1392403e-01  -4.9813429e-01   3.9660266e-01  -1.2880394e-01  -8.9716406e-02  -9.9073564e-01   8.9201209e-01  -5.0925229e-01   5.2075441e-01   3.6231006e-01  -7.1749670e-01  -7.3441469e-01   8.1026584e-01  -9.0781908e-02  -3.6095652e-01   3.9061417e-01  -8.0427338e-01  -2.4754637e-01   4.6271872e-02   2.9490364e-01   3.7898407e-01  -1.9464767e-01   7.3505928e-01   6.8774701e-01  -9.6028315e-01  -3.9348569e-01   4.5169197e-01  -5.7722876e-01  -5.2521350e-01  -3.1261557e-01  -4.5079617e-01   3.2458367e-01   3.3376414e-02  -7.8823194e-01  -1.2157868e-01  -6.1890469e-01   2.8501100e-01   3.0240911e-01   2.9402538e-01  -7.1489253e-01   8.5463455e-01  -4.4739478e-01  -2.0241046e-01  -8.7266586e-01  -4.2480998e-01   6.5015273e-01  -7.4080336e-01  -4.6579826e-02  -2.1194709e-01   6.7434119e-01   2.3839480e-01  -7.3541966e-01   9.0857955e-01  -8.4539264e-01  -4.9969763e-01   3.6378641e-01   2.3142637e-03   5.3307821e-01   3.7643204e-01   8.4766350e-01   1.5866260e-01  -9.0431920e-01  -7.6212789e-01   8.9247613e-01  -7.3757801e-01  -5.3511296e-01  -8.1566568e-01  -1.1613981e-01  -7.5040315e-01  -3.5010926e-01   7.5324748e-01  -3.9162055e-01   6.4769848e-01   1.5192021e-01   1.7662653e-01  -2.9570594e-01   9.8020033e-01  -6.0823635e-01   6.7525163e-01  -3.0937230e-01  -4.2525562e-01   9.5149169e-01  -2.1606664e-01  -6.5223984e-01  -6.9772173e-01   7.1016424e-01   5.5892503e-01   5.0572778e-02   7.1314652e-01  -7.4802485e-01   3.2514096e-01   5.8758568e-01   2.9839903e-01  -9.5337418e-01  -5.3260048e-01   8.2069712e-01  -5.1253153e-01   2.7868499e-01  -1.8328910e-01  -6.2755246e-02  -9.2659226e-03   9.8473010e-01  -2.1239907e-03   4.3351043e-01   1.1770152e-01  -1.8405955e-01   2.2526742e-02  -7.8652412e-01  -2.1011609e-01   6.9441532e-01  -5.2031848e-02  -1.6233394e-01   5.9068224e-01  -1.2120493e-01   6.4120594e-02   4.2457653e-01  -8.2370750e-01  -7.0893003e-01   1.1329889e-01   3.6721940e-01  -8.2068262e-01   7.3725716e-01  -9.9434722e-01   8.1920416e-01  -9.3219162e-01   3.7390903e-01  -1.6561659e-01  -8.2460122e-01   1.6627928e-01  -8.0468826e-01   9.1064148e-01   7.0178917e-01  -7.7698211e-01  -4.6779931e-01   3.1543055e-01   2.6045580e-01  -8.2593765e-01   9.0997524e-01  -2.8546414e-02   5.4785073e-01  -7.5750343e-01   1.1358395e-01  -3.1659644e-01   9.6784392e-01  -2.9604833e-01  -6.3034073e-01   6.3302259e-01   5.9289566e-01   5.0605899e-01  -1.6702730e-01  -1.4899259e-01   7.7322365e-03  -3.9156995e-01  -8.7659828e-01   7.5307799e-01   2.3802507e-01  -2.7388470e-01   9.8334144e-01  -3.1649487e-01  -5.3451213e-01  -3.9546970e-01  -6.1006025e-01   8.3283128e-01   6.2944619e-01   7.4594417e-01   1.3002359e-01   5.2612399e-01  -8.0079108e-01  -6.4775417e-01  -4.6007601e-01  -7.5297802e-01  -4.0178921e-01  -4.6693764e-01  -5.2058196e-01   5.3979493e-01  -3.5708254e-01  -9.8627409e-01  -6.1486638e-02   8.0699052e-01  -3.0545443e-01   3.1335975e-01  -2.2449089e-01   1.7028625e-01   9.7976138e-01   3.7932399e-01  -1.6540059e-02   8.3542731e-02  -2.8760772e-01  -4.4772608e-01  -5.1081118e-02  -2.4497654e-01  -8.1985396e-01   8.5358592e-01   7.4832173e-02   7.0902553e-01   3.3274181e-01   6.1751673e-01  -8.6244698e-01  -6.8686262e-01   6.7396761e-01  -5.1474444e-01  -6.5276523e-01   1.3217147e-01  -8.4268006e-02   8.8148804e-01   3.3286770e-01   7.6354063e-01   7.5268946e-01  -5.7209852e-01   3.7770542e-01  -3.1891089e-01   6.7805640e-01  -9.9916368e-01   1.0678082e-01  -2.3857928e-01   8.4503684e-01   5.1265722e-02   4.7566462e-01   9.0955106e-02   2.6985847e-01   7.8944052e-02  -1.9145508e-01   5.4542765e-02   1.2099074e-02   3.4055247e-02   4.4303755e-01   1.1238417e-01   5.9379398e-01  -5.4738584e-01  -6.3917266e-01   2.7381732e-01  -2.4954483e-01   3.1169386e-01   5.6502017e-01   5.5934054e-01   9.6224982e-01  -3.0661345e-01  -9.8166163e-01   9.7648671e-01  -4.2848124e-01  -7.7291217e-01  -2.9733038e-01  -4.2476294e-01  -8.8138106e-01   3.7325049e-01   8.4299106e-01   2.5308989e-01  -7.4849548e-01  -1.6329357e-01  -9.0806175e-02  -9.2904340e-01  -6.1455460e-01   1.9036838e-01  -3.9665046e-01  -8.7281095e-02   1.2193437e-01   5.6262153e-01  -8.5394514e-01   3.5802013e-01  -7.6666729e-01   9.0781229e-01  -1.4466052e-01  -3.7146507e-01  -5.9794336e-01  -8.2678234e-01   7.2639763e-01  -9.7064973e-01   7.6177922e-01   6.8826875e-02  -9.4350778e-02  -9.3785836e-01   9.8704255e-01   8.0072506e-01   9.7668987e-02   1.9639372e-01   7.2154607e-01  -9.2063053e-01   1.4658083e-01   3.0353178e-01  -6.9799943e-01  -6.1434095e-01   3.8378220e-01   2.8348655e-02   3.2358690e-03   3.4242301e-01   9.0200534e-01  -8.0514728e-01   2.6554827e-01   1.4069732e-01  -2.2473528e-02  -1.2272098e-01  -4.2872695e-01  -4.2426535e-01  -8.1125607e-01  -3.0080398e-01   3.3146466e-02   5.6052259e-01   7.9101439e-01   2.0072611e-01   3.3694249e-01  -6.3670047e-01  -2.1395305e-01  -7.9289540e-01   4.0686605e-01   4.6799807e-01  -2.4290377e-01  -2.3574163e-01   1.8728758e-01  -1.5158886e-01  -3.6545247e-01   3.0522832e-01   9.5531161e-01  -4.3092770e-01  -3.0806208e-01   5.8125664e-02  -8.4287201e-01  -4.2914563e-01  -3.4900966e-01  -7.0892220e-01  -6.4257405e-01   1.5984296e-01   1.2321435e-01   7.7321263e-01  -1.1980584e-01  -2.2008353e-01  -6.4682732e-01   2.3395887e-01  -3.4959054e-01   6.2103877e-01  -5.6256500e-01  -7.2894277e-03  -7.4330203e-01   6.9565365e-01   8.4340165e-01   1.1054730e-01  -3.3275968e-01  -1.5529773e-01  -8.2436747e-01  -2.5787848e-01   4.7698770e-01   8.8825618e-01  -9.2757580e-02  -5.5398139e-01  -9.6046906e-03   7.3900940e-01  -5.2795185e-01   7.0134880e-01  -7.9829953e-01  -1.0485808e-01   4.3425509e-02  -1.3232147e-02  -2.1599770e-01   6.0059919e-01  -8.2465137e-01  -2.8619198e-02  -5.1758881e-01   2.1153092e-01  -4.6864754e-01  -6.5059484e-01  -6.9276099e-01  -6.4260200e-01  -7.9562508e-01  -7.2210203e-01  -4.3669139e-01  -7.4966653e-01  -5.6126798e-03  -8.7925715e-01   8.4566474e-01   4.5101969e-01   5.6889853e-02   2.7779146e-01   5.5905347e-01  -6.6501423e-01   8.2360598e-01   7.0902706e-01   7.1930344e-01  -9.9907730e-01   5.4278819e-01   8.8750057e-01  -8.9257076e-01   3.8617426e-01   3.4069156e-01   8.3009896e-01   1.7618970e-01   9.8701713e-01  -2.4532195e-01  -1.0995178e-01   2.7316975e-01  -9.3082662e-01   2.3259205e-01   5.2171732e-01   2.1862166e-01   2.7110535e-01   5.5097187e-02  -3.7119071e-01   1.6239334e-01  -8.0695143e-01   5.5101682e-01  -4.9790288e-01   5.0313035e-01  -7.6346621e-01   2.2758503e-01  -4.7200048e-01  -8.6140362e-01   6.8260828e-02  -3.2746320e-01  -7.7895226e-01   3.7469375e-01   8.2214829e-01  -7.6745840e-01  -3.4458275e-01   5.7429109e-01  -3.6499118e-01   2.4577944e-01  -9.6041890e-01   6.3200786e-01  -2.7820090e-01  -4.5644706e-01  -8.1673265e-01  -1.3854680e-02   5.8870248e-01  -4.1666873e-01  -2.9255265e-01  -7.8190030e-01   3.0039670e-01  -4.3458599e-01  -8.5959718e-01   9.0412931e-01   5.7797747e-02  -2.8236901e-01  -7.9296794e-01  -7.6628721e-01  -2.6870845e-01   1.6045103e-01  -3.2792250e-01   7.0694106e-01  -6.8503661e-01   9.5773816e-01   6.6725641e-01   5.1552638e-01   1.9976503e-01  -5.3518021e-01   8.1758658e-01   7.9260149e-02  -4.8345263e-01  -2.8175084e-01   5.0246012e-01
