  -8.7797705e-01   2.8046962e-01  -6.3839492e-03   8.1586147e-01   6.5078406e-01  -6.8258935e-01   7.9342095e-01  -5.3519122e-01  -7.4375202e-01   9.4557693e-01   6.8899201e-02  -8.8988275e-01  -4.6966959e-01   2.0597218e-01  -3.7662084e-01  -3.2613712e-01   4.6269099e-01  -7.9214460e-01   9.5143800e-01  -2.2681319e-01   9.1855835e-01  -7.5229488e-01   4.7183947e-01   9.9691378e-01  -7.5990208e-01  -1.8781855e-01  -4.7045480e-01  -5.5445654e-01   7.4638247e-01  -4.6193627e-01  -8.3717543e-01  -2.5808221e-01   7.4836274e-01  -2.9259302e-01  -5.7932099e-02   5.8432166e-02  -9.9720902e-01   8.6810932e-02   3.9691166e-01   6.5825115e-01  -1.4889774e-01  -6.7566865e-01   5.7091105e-01   7.2388387e-01   8.1035101e-01  -3.0376270e-01  -3.4083362e-01   7.9090515e-02   8.0471812e-01   7.3521729e-01  -9.3860675e-01   4.1428127e-01  -1.8662717e-01   4.9906866e-01  -4.7302501e-01   4.7252084e-01  -8.0211263e-01  -7.0777951e-01   2.6023275e-03  -4.2151190e-01   5.5362128e-01  -2.0521550e-01  -8.6711107e-01  -9.6459403e-01   8.7490027e-01  -4.7524580e-02   7.5820427e-01   3.8046416e-01   2.2946352e-01   2.0015775e-02  -2.0827971e-01  -9.5058634e-01   3.1955206e-01  -9.8957542e-01   1.5703076e-01   2.0876317e-01  -4.2307789e-01   9.7882516e-01   6.0588498e-01   6.1869511e-01   1.1317961e-01   9.2972006e-01  -3.5721615e-01   9.7580847e-01  -2.0194436e-01   1.1187209e-01   2.2245122e-02  -7.9595689e-01  -7.3631243e-01  -4.9405347e-01  -6.9469360e-01   6.6527459e-01   4.7631885e-01  -8.8806872e-01   6.2077158e-01   6.7525912e-01   1.1932750e-01   8.9271991e-01  -5.4493586e-01   9.9893767e-01  -2.1738434e-01   4.1422126e-01   3.2038453e-01   4.1030185e-01  -4.9405708e-01   6.3995274e-01  -5.2429149e-02  -3.9781379e-01  -4.2925265e-02   7.8734714e-01   2.7484714e-01   3.1723142e-04  -1.4215720e-01   5.3354180e-01  -8.5899112e-01  -2.7520977e-01   1.9776984e-01   4.7253341e-02  -8.1081655e-01  -2.4698811e-02   6.6097532e-01   9.3446220e-01  -6.7289184e-02  -8.8397380e-01   3.2392985e-01  -8.9103051e-01   9.7679770e-01   6.0982089e-01   1.7929589e-01  -3.0534556e-02   3.2532258e-01  -7.7884748e-01   8.1464982e-01   6.2251261e-01   6.1743061e-01   6.4097911e-01   7.7303665e-01  -8.5163286e-01   3.1142502e-01  -2.0849416e-01   7.9771799e-01   1.0205661e-01  -5.7550115e-01   1.1305161e-01  -7.1286279e-01   7.6542369e-01  -4.3515281e-01   7.2948061e-01  -4.4428400e-01   4.6584948e-01  -1.9669046e-01   1.0611152e-01  -2.4246340e-01  -9.1757109e-01   5.1663541e-01   6.5000558e-01   3.8349074e-01  -9.4654815e-01  -9.0966348e-01  -8.0123269e-02   4.7005963e-02   3.3824751e-01   7.5642301e-02  -3.4160499e-03   7.8139088e-01  -4.4805315e-01   7.3474924e-01   5.6877594e-01   9.4288650e-01  -4.3861806e-01  -3.2836669e-01  -4.7710088e-02  -1.5247239e-01  -6.8977892e-02  -7.4235711e-01   2.7047110e-01  -6.3053852e-01   7.2808354e-01   3.9891737e-01   7.7888255e-01  -4.6041153e-01  -9.1977839e-01   7.7862573e-01  -6.7141893e-01  -5.3196720e-01   3.6147986e-01   7.2782386e-01  -1.6383223e-01   4.8484274e-01   5.3213720e-01  -6.4650434e-01   1.6574187e-01  -2.4617422e-02   1.7552738e-02  -2.9775347e-01   4.8564418e-01   6.3919942e-01  -1.1004050e-01  -3.1157048e-01  -6.5608199e-02   9.7365765e-01  -5.1603510e-01   6.6077469e-02   8.0841027e-01   3.0708089e-01  -6.1743607e-01  -5.4541204e-02   9.0153911e-01   2.5252761e-01  -6.1627314e-01  -9.7664474e-01  -7.5309488e-01  -5.2677372e-01  -4.1034939e-01  -9.7994765e-03  -2.5994404e-01  -3.2352186e-02  -4.5462496e-01   5.5620699e-01  -9.2553399e-01  -6.4683048e-01  -6.9761686e-01   4.7042620e-01   4.9088988e-01   1.6944902e-01   5.0294669e-01   9.3803725e-01  -4.5793473e-01  -6.1926683e-01  -6.2012864e-01  -8.0276115e-01  -9.2134794e-01  -7.8589038e-01  -4.2955682e-02   2.2551070e-01   9.3626498e-01   7.7227151e-01   5.1566085e-01   2.3692124e-02  -9.9218085e-01  -9.2382421e-01   8.7365665e-01  -1.1762570e-01  -3.1298570e-01   1.2133615e-01  -9.1105726e-01  -4.3184092e-01   9.3306500e-01  -4.5901847e-01   3.4516172e-01   4.1852531e-01   1.8840293e-01   2.9354058e-02  -8.7209124e-01   7.5604285e-01  -1.2874954e-01   3.6150612e-01  -4.0741129e-01   4.2373221e-02   2.9934651e-01   4.8480063e-01  -3.3989487e-01   8.8401574e-01   3.6508494e-01  -8.5150202e-01  -9.3075967e-01  -7.4260062e-01  -9.7194753e-02   5.9743847e-01   7.4321710e-01   6.7628127e-01  -5.3048638e-01  -3.5304913e-02  -4.3564589e-01  -5.5241306e-01   4.8416369e-01  -7.1821763e-01   5.0576150e-01  -4.5182388e-01  -2.3229190e-01   8.7477621e-01  -3.3410499e-01  -8.8562522e-01   3.5229212e-01  -4.8327775e-01   8.2337987e-01   9.9815091e-01   3.9258033e-01  -4.0505392e-01  -9.4342698e-01  -6.0805001e-01  -5.7589928e-01  -7.6784275e-01  -7.4691044e-01   4.3831106e-01   2.5043151e-01   7.6100513e-01   5.7106661e-01  -5.9071918e-01   6.2481233e-01   6.0801790e-01   2.2108330e-02   2.5794597e-01  -7.1376147e-01  -7.8542161e-01   1.4793202e-01   8.4974555e-01  -1.6603850e-02  -4.8967568e-02   3.2367771e-01   9.5371999e-01   7.0103349e-01  -4.3841305e-01   5.3585370e-01   2.0595313e-01  -2.8574888e-01  -4.5586334e-01   5.7184632e-01   3.3499022e-01   5.5951685e-01  -5.4774468e-01  -6.6040687e-01   6.9736299e-01  -4.8400472e-01  -2.2562918e-01  -3.7401314e-01  -8.7319141e-01  -7.4567209e-01   4.2600756e-01   9.0337804e-01   5.7398576e-01   5.7039327e-01  -6.6648473e-02  -3.0495792e-01   4.2344016e-01  -9.9323354e-01  -7.6232054e-01  -5.1821852e-01   3.9413662e-01   6.3708266e-01  -5.1727674e-01   4.3399915e-01  -9.9773762e-01   9.7453471e-01   6.1586708e-01   7.3364268e-01   5.9164527e-01   7.3038038e-01   3.0756057e-01  -3.7106594e-01  -3.4655296e-01   2.1721380e-01   5.4959228e-01   2.0561676e-01  -3.6749010e-01   3.8879210e-01   3.3686726e-01   7.4891771e-01   6.2002957e-02  -7.2367399e-01  -3.7632794e-01   4.1643378e-01  -8.9075553e-01   3.2741446e-02   3.3114777e-02  -6.6020233e-01   4.2124542e-01   3.7279786e-01  -8.0919793e-01   7.6865486e-01  -1.5998492e-02  -6.9846882e-01  -2.2964901e-02  -6.8785034e-01  -6.8205132e-03  -7.2419605e-01  -8.8238479e-02  -1.8799434e-01  -4.3728027e-01  -2.7125789e-01  -7.5661004e-01  -9.8169032e-01   2.8781350e-01   8.5880701e-01  -5.7576323e-02   4.9986911e-01  -8.8928365e-01   6.5039080e-01  -4.9731063e-01   6.6950720e-01  -6.1589445e-01   6.8125363e-01   9.6414188e-01  -6.5994370e-01  -9.0280816e-01  -5.7636441e-01  -4.6289590e-01  -7.0553241e-01   8.0735575e-01   4.5179051e-01   6.3652135e-01  -6.3323491e-01   2.2538957e-01   8.6629011e-01  -6.6906868e-01   2.7709318e-01  -4.3935093e-01   6.8263469e-01  -8.3345442e-01  -6.1075573e-01   2.7736138e-02  -1.7937056e-01   5.2904289e-02  -4.0513218e-01   9.5277702e-01   2.6914322e-01  -4.8418807e-01   8.7993292e-01   1.8547386e-01  -8.2966644e-01  -3.0756292e-01  -8.3804852e-01  -8.1234674e-01  -9.5543994e-01   4.4213978e-01   8.5734504e-01   8.4152104e-01   3.7694232e-01   3.3114374e-01  -3.8293917e-01   2.4374557e-01  -7.6244665e-01   5.9899118e-01   5.3149942e-01   7.5472250e-01   1.8785907e-01   4.4192615e-01   1.7802010e-02   3.2527474e-01  -2.7606572e-01  -1.1361709e-01   1.1282382e-01  -4.3720096e-01  -7.4668005e-01  -7.1649879e-01  -9.2757454e-01  -8.9740882e-03  -4.6460700e-01   8.8506067e-01  -6.5410379e-01   9.6631109e-01   4.0852002e-01   1.3944712e-01   3.6749031e-01   1.4354771e-01   5.5457613e-01  -9.6124455e-01  -4.2868708e-01   3.1155532e-01  -3.5864076e-01  -7.9632695e-01   6.8240641e-01  -8.3544242e-02   7.1483002e-01   1.0232481e-01  -9.1752820e-01  -2.2538196e-01   7.1050945e-01   8.4426159e-01   1.4392955e-01   2.6631699e-01   8.9502227e-01   2.1066272e-01   3.8445846e-01  -3.7672374e-01  -4.5476058e-02   2.8359509e-01  -9.5342214e-01   4.8239452e-01  -7.5997907e-01  -4.6413303e-01  -6.3836217e-01  -4.5556928e-01  -6.4686891e-01   3.7170511e-01  -2.3554230e-01  -5.3524644e-01  -8.3426724e-01   1.9935439e-01  -6.0717200e-01  -5.2474536e-01   4.6543034e-01  -1.2181503e-01   6.0574498e-02  -8.8745633e-01   1.5096848e-01  -8.4793103e-01  -4.7383178e-01   9.3466090e-02   4.0057302e-01  -3.8746734e-01   3.4112371e-01  -2.8094959e-02  -9.3425596e-01   4.1429104e-01   8.5367326e-01  -9.9641254e-01   7.7778232e-02  -9.1911704e-01  -2.8109345e-03   5.1574053e-01  -4.4323449e-01  -6.5564491e-01   9.0196701e-01  -2.9214207e-01   1.0718028e-01   3.2127109e-01   1.6668505e-01   2.8278505e-01  -6.7753446e-01  -5.9063195e-02  -1.3546642e-02   9.5399723e-01  -8.0132149e-01   1.5676564e-01  -1.3797884e-01   3.6891094e-01   5.3076523e-01  -7.8186122e-01   3.5215358e-01  -8.4953098e-01  -8.3326511e-01   4.7832855e-01  -8.1535636e-01  -3.4909464e-01  -5.8032574e-02  -3.8755082e-01  -8.8794956e-01  -6.6417419e-01  -9.2802872e-01  -8.9963560e-01  -4.4596015e-01  -1.9872303e-01   5.0029136e-01  -1.8628250e-01  -7.9927688e-01   4.4392600e-01  -2.7943943e-01  -4.7483835e-01   8.9198699e-01   7.1962259e-01   3.6634739e-01  -8.2191148e-01  -3.3130239e-01   1.0292977e-01  -4.6168948e-01  -6.4137746e-01  -2.6940923e-01  -6.2372817e-01  -7.8891581e-01   5.6735034e-01   2.4257980e-01   8.4181203e-02   4.4816260e-01  -8.6922024e-02   2.9506808e-01   1.2640246e-01   7.2449826e-01   2.3513345e-01  -8.6501809e-01   6.8013392e-01   6.9505213e-01   8.3808671e-01  -8.1928477e-01   7.4143878e-01   6.5308732e-01   6.6405278e-01   5.4147929e-01  -2.1361604e-02  -4.7732737e-01  -8.2947579e-01   4.3382193e-02  -4.7433184e-01   7.1278343e-01   6.4581846e-01  -1.8292332e-01   7.0492469e-01  -5.1062489e-02  -5.9780154e-01  -8.9038232e-01   5.2927931e-01   6.6977774e-01   5.3859701e-01  -4.4002950e-01  -2.8322752e-02   2.2682445e-01  -2.1353117e-01  -9.6346248e-02  -3.5813357e-01   9.9731006e-01  -4.7231766e-01  -6.2394345e-01  -9.6008119e-01   7.8833148e-01  -2.6789473e-01  -1.4159093e-01   6.4956879e-01   1.9978466e-01  -5.0018277e-01   2.0461518e-01  -8.5779549e-01   1.6080514e-01  -4.5573905e-01   4.5727251e-01  -2.3860608e-01   7.5538845e-01   4.6885364e-01   5.4633224e-01  -1.2816078e-01  -6.6809066e-01   3.5092939e-02   4.6989517e-01  -1.5818349e-01  -7.5439723e-03   5.0300493e-01  -6.5455808e-01  -8.7887775e-01   6.5807324e-01  -3.1207786e-01  -5.3802225e-01   2.4290975e-01   8.1967616e-01   4.0437791e-01  -5.8452825e-01   4.1053893e-01   6.8869384e-01  -3.2155367e-01   1.1581903e-01   8.6953736e-01   5.9503466e-01   9.6515210e-01  -1.5777232e-01  -9.2986871e-01  -7.1203212e-01   7.2264171e-01   2.1570062e-01   4.4357103e-01   9.0807510e-01  -2.7154721e-01   3.1375095e-01   8.4145266e-01   4.5016739e-01  -8.6688614e-01  -8.7184676e-01   7.8020331e-01  -4.3684709e-02  -8.0779238e-01   5.6224695e-01   8.8758796e-01  -2.6728617e-01   8.6401720e-01  -4.4291469e-01  -3.5584822e-01   6.5023741e-01  -7.3553999e-01   7.2270098e-01   3.5257191e-01   2.0468042e-01  -8.1055497e-01  -8.2524962e-01  -1.8275809e-01  -1.4432995e-01  -8.4379488e-01  -1.1200400e-01  -1.0567158e-01  -2.0534706e-01   1.8575769e-01   3.6481305e-01  -6.2552929e-01   5.1230584e-01   3.3156416e-01  -4.9249451e-01   8.3114565e-01  -1.2409435e-01  -8.3488262e-01   5.2171916e-01  -3.2078968e-02  -1.9177876e-01   6.0617489e-01   2.2761397e-01   6.7357085e-01   5.7006464e-01   7.3183880e-01   3.6926387e-01  -4.1337555e-01   3.1459156e-01  -1.1008947e-01   8.6251144e-02  -2.0708121e-01  -6.5104684e-02   9.9766170e-01  -8.1514752e-02  -2.5658295e-01   3.7540389e-01  -8.8595965e-01   7.1658005e-01   7.3660988e-01   1.5530743e-01   7.1220857e-01  -2.5700238e-01   5.4790769e-01   6.7650496e-01  -3.2715125e-01  -6.1645501e-01  -3.0822635e-01   7.2723880e-01  -3.7386894e-01  -5.9529173e-01   6.3423158e-01   7.4011943e-01  -2.9680093e-01  -6.7209105e-02  -4.7627229e-01  -6.8671177e-01  -6.9680823e-01  -5.0741406e-01  -9.6427520e-01  -9.9428410e-01   9.6422091e-01  -1.6646178e-01  -6.7761654e-01   7.8806728e-01  -6.0026652e-01  -1.4301079e-01   4.7456035e-01   5.0771650e-01   5.5746497e-01   7.9420224e-01  -4.7255714e-01   1.7514824e-01  -6.5020599e-01   2.8033361e-01  -7.8002871e-01   7.3140282e-01   8.1920425e-01  -6.1562075e-02   4.7075045e-01   2.3741477e-01   5.2430257e-01  -6.5588359e-01  -4.7783075e-01   2.3651874e-01  -2.0726864e-01   6.5190722e-01   6.6878279e-01   7.7989378e-02  -4.0563580e-01   5.2184597e-01  -9.4536869e-01   6.0667224e-01   3.5719254e-01  -7.7713704e-02   3.4684336e-02  -7.6978076e-02   6.8863005e-02  -4.6608990e-01   2.0769181e-01   4.8486036e-01  -8.3343419e-01  -1.2590543e-01   8.6409694e-01  -6.7280530e-01  -8.4704606e-01   7.4441441e-01   9.6065925e-01   8.4831110e-01   8.3741482e-01   9.8034855e-01   7.0747375e-02  -7.8417843e-01  -6.2038908e-01   3.4784221e-01   9.6512056e-01  -3.0463193e-01  -5.3531346e-01   1.3513696e-01  -3.6122780e-01  -9.8846775e-02   4.5430310e-01   8.6636275e-01   4.5274519e-01  -2.3328830e-01  -1.9603636e-02   5.2181181e-01  -9.7777516e-01  -6.9369970e-01  -4.4061590e-01   8.2858749e-01  -7.0903036e-01   3.0877060e-01   5.9829599e-01  -2.5000938e-01   8.4368362e-01  -4.3255373e-01  -8.6992659e-01  -2.3429845e-01   1.4319435e-01   6.4553209e-01   8.1241266e-01   1.6834829e-01  -7.0744632e-01  -9.4449378e-01  -6.1616828e-01   1.2059706e-01  -4.0241234e-01   5.4830312e-01  -8.3020252e-01  -5.0086787e-01  -7.0382644e-01   5.4386026e-01   1.4353108e-01   4.5176994e-01   2.8473848e-02  -5.8703198e-01   7.8500798e-01   1.8688105e-02  -8.9361428e-01   9.1105485e-01  -1.5751822e-03  -5.0241212e-01  -4.0305714e-01   7.5974241e-01   8.2279443e-01   4.4039706e-02  -7.9236282e-01   7.8183102e-01   5.3158302e-02   6.8462543e-01  -4.7854834e-01  -2.7901585e-01  -2.9944691e-01  -7.3636966e-01  -8.5003071e-01   2.2638952e-02  -7.9669618e-01   1.5095923e-01  -8.3723285e-01  -2.3352069e-01  -8.0344359e-01   3.3756215e-01  -5.6211612e-01   5.3782928e-01   9.8480614e-01   3.5176290e-03  -6.0076608e-01   9.3536675e-01   7.0972407e-01  -9.0635976e-01   1.4717637e-02  -5.4273438e-01   5.0788386e-01  -4.9968111e-01   9.5807165e-01   4.4774315e-02  -1.4509806e-01  -7.8074445e-01   4.7869321e-01  -3.4222840e-01  -3.8534962e-01  -8.4166446e-01   5.9370177e-01  -4.3578991e-01   7.4164731e-01   2.4660146e-01   2.4815938e-01   7.4782205e-01   2.7603630e-01  -5.4251555e-01  -1.9839612e-01  -3.7551239e-01   9.5873326e-01  -2.4908345e-01   4.3827211e-01   4.0607428e-02  -7.2583542e-01  -8.4361013e-01  -6.8932946e-01  -7.7962264e-01   1.0304576e-01   1.4677170e-01   7.3010891e-01   8.1492944e-01   8.3033305e-01  -6.8589704e-02  -5.3664813e-01   9.3616081e-01  -9.8249702e-01  -8.7208331e-01  -7.9713234e-01  -6.2643421e-01  -8.8810824e-01  -6.9480490e-01   7.7259253e-01  -6.4726481e-01  -5.7286473e-01   7.1793272e-01  -6.4177071e-01  -7.6604715e-01   1.1710133e-01   2.7416323e-02  -5.2682665e-01   2.4891642e-02  -2.5488470e-01  -5.6422072e-01  -3.1186947e-01   3.4733369e-01  -6.6084012e-02  -6.4560434e-01   7.0238467e-01  -2.9402983e-01  -6.7262686e-01  -7.1140258e-01  -6.6073995e-01  -5.4505967e-01  -1.9837484e-01   8.0663270e-02   9.2966463e-01   4.7936046e-01  -2.1418858e-02   8.9393310e-01  -1.9163115e-01  -2.7985813e-01  -3.1255144e-01   2.5012611e-01   8.0806071e-01   5.2318972e-01   5.8352957e-01   6.7807504e-01   2.7794985e-01  -6.7373109e-01   6.8043344e-01   8.7541202e-01  -7.9408985e-01  -2.9284786e-01  -8.5789962e-01   5.4995073e-02   1.9797244e-01   1.8279770e-01   9.5282261e-01   3.0803385e-01  -3.8247060e-01   9.4936638e-01  -6.3590263e-01  -8.5286110e-01  -2.1499680e-01   4.1308955e-01  -2.6301192e-01   5.8760290e-02   7.8308399e-01  -2.2556638e-01   9.8447962e-01   6.2313623e-01   2.8120493e-02   6.3484652e-01   1.8513108e-01  -3.8508806e-01   7.1918302e-01  -4.0698596e-01   5.8562413e-01  -6.6068830e-01  -3.1068689e-01   9.4141377e-01  -7.7289966e-01  -9.9364673e-01  -6.4507882e-01   9.5926813e-01  -4.8079117e-01  -1.7064000e-01  -1.0342552e-01   8.3103507e-01  -9.3952330e-01   3.1972779e-01  -4.8650329e-01  -5.5015105e-01  -9.6223440e-01   4.1767880e-01   7.4529549e-01   3.9945870e-01  -5.8640633e-01   3.9787561e-01   5.7232778e-01  -4.9488307e-01  -2.2348307e-01  -7.7233840e-02  -4.5818040e-04   2.3981163e-01  -7.3805533e-01  -9.7855598e-02   7.8654726e-01   7.1189535e-01
