   2.5029050e-02   3.4452276e-01  -7.0213907e-01   9.9632467e-01   7.8365868e-01   6.0507545e-01  -3.7608440e-01  -2.3401967e-01   4.6809362e-01   6.0206270e-01   1.7159693e-01   1.6274809e-02   8.1600982e-01  -5.5731788e-01   9.1642063e-01  -5.3594788e-02  -8.8661547e-01   6.0098277e-01   7.2660305e-01   5.1746168e-01   9.3045876e-01  -8.8238889e-01   7.9853891e-01   8.8073292e-01  -9.6157149e-01  -8.8990458e-01  -9.4337559e-01   2.0660612e-01   5.7792704e-01  -7.6261360e-01  -8.6822930e-01   2.7601658e-01   1.2149748e-01  -6.4834291e-02   8.9595615e-01   3.5627824e-01  -4.5715589e-01   5.5779454e-01   5.4709607e-01  -1.5982864e-01  -5.7776897e-01   4.2700716e-01  -6.6087642e-01  -1.9755785e-01   2.5381142e-01   1.3758856e-02   2.3038351e-01  -5.0454250e-01   1.5686818e-01   2.9867742e-01   4.6122195e-01   6.0921711e-01  -3.7529876e-01  -3.0081222e-01  -4.4248413e-01   9.8197233e-01  -2.3184110e-01   4.5592936e-01  -9.5046147e-01   7.0800925e-01  -7.1544029e-01   9.2448540e-01  -2.3872394e-01  -3.6485332e-01  -4.3265188e-01  -4.5250029e-03  -8.9625394e-01  -6.8287154e-01  -1.8221489e-01  -3.4184037e-02  -1.6902880e-01   1.1250527e-01   7.1648572e-01  -4.3470558e-02   5.9041895e-01  -6.4845731e-01   9.1809913e-01  -2.2972013e-01  -4.0380793e-01   1.3610294e-02   7.6850264e-01   9.1058913e-01  -2.7427932e-01  -3.5065191e-01   7.9546353e-01  -8.1297592e-01   2.5845892e-01   4.8086975e-01  -6.6696133e-01   1.7567890e-01  -1.2176797e-01  -7.6822187e-01   8.4093947e-01  -9.2815666e-01  -5.4536684e-02  -4.7091914e-01   1.4088207e-01  -3.4259855e-01  -9.5192040e-01   4.2325678e-01  -5.6989080e-01   7.1822604e-01  -1.3144982e-01   4.5148300e-01  -9.3942236e-01  -5.4412824e-01  -4.2076654e-01   8.2116673e-01   1.7938409e-01  -1.6474084e-01   4.0927753e-01   4.4693971e-01   9.6085321e-01   8.5310222e-01  -4.2565154e-01   7.4648346e-01  -3.1583418e-01  -7.2901010e-01  -7.8186997e-01   6.5300493e-01  -5.4029694e-01   5.1207871e-01  -6.8536249e-01  -6.4669409e-01  -4.6173581e-01   1.4709948e-01  -9.0580624e-01   8.1291574e-01  -8.9179758e-01  -4.3773109e-01  -1.1716245e-01   7.2896475e-01  -4.0161847e-01   8.1112947e-01   4.8733119e-01   1.6417117e-01   6.7978704e-01  -5.4026905e-01   6.4148118e-01  -4.4378882e-01   9.9881979e-01  -9.9643785e-01   9.5562543e-01   7.1581531e-01   4.9514349e-01   2.9265545e-01  -5.3040774e-01   6.5906585e-01   1.9428053e-01  -2.4349905e-01  -9.0139384e-01  -4.2128844e-01  -9.6600682e-01  -2.2219293e-01  -9.2371838e-02  -3.5575124e-01   9.6192362e-02  -9.5677440e-01   9.9878826e-01   9.4545541e-01   9.9679463e-01   6.6229367e-01  -4.3837946e-01   5.1736677e-01  -7.8043136e-01   7.4903413e-01  -1.7765916e-01  -8.8966179e-01  -1.4237525e-01  -6.2045774e-02  -6.6213669e-01   9.8662548e-01   3.8817816e-01   6.5261612e-01   3.9404921e-01   6.9129686e-01  -3.9110291e-01   2.5684551e-02  -9.1856909e-01   4.1370723e-01   2.9706248e-01   7.0455336e-01  -9.3996005e-01  -4.5857351e-01   6.2139707e-01  -3.6767665e-01   1.0477098e-01   7.9796670e-01   3.5852472e-01  -6.1191325e-01   1.4166326e-01  -9.7826033e-02   5.4167997e-02  -9.0301606e-01  -8.5552807e-01  -8.1438132e-01   7.9715575e-01  -4.4079476e-01   6.7926701e-01  -6.2896988e-02   9.4829579e-01  -3.5897113e-01  -3.5467579e-01   9.3307434e-01   5.6613161e-01   5.2785166e-01   6.4975115e-01  -3.8058522e-01   9.3131568e-01  -6.7011621e-01   5.4263002e-01   6.3257948e-02   9.1646373e-01   6.4308514e-01   9.6272780e-01   1.9016001e-02   9.7366971e-01  -8.6565245e-01  -3.5754447e-02   5.2447305e-01  -5.0059539e-02   7.0584926e-01  -1.1005106e-01   6.7123736e-01   2.5903751e-01  -4.8898069e-01   1.6715977e-01   4.0460855e-01  -3.9391606e-02   1.4579292e-01  -2.1062964e-01  -3.8984161e-01   3.6718353e-01  -3.5851521e-01   6.9684590e-01   8.1986233e-01   9.0695025e-01  -4.7406752e-01  -1.8270068e-01   4.8661518e-01   5.5743654e-01  -7.9991121e-01  -1.5981990e-01  -4.2131755e-03   1.3660437e-02  -5.3513679e-01  -6.6331044e-01   6.5317276e-01   7.4589106e-01  -2.6024239e-01  -4.6738175e-01   2.8811718e-01   4.0095313e-01  -4.1245564e-01  -9.8607934e-01  -4.8773585e-01   8.6767368e-01  -1.7317134e-01   1.6999177e-01  -6.3539273e-01   3.8482108e-01   4.9889983e-01  -4.9350606e-01   4.2224649e-01   7.5919161e-01  -7.4150787e-01   1.6483358e-01   5.1712448e-01   1.1110546e-01   7.4233812e-01   9.9426340e-01  -1.0159437e-01  -1.7106935e-01  -5.2280724e-01  -3.7570877e-01  -7.3750119e-01   2.8677220e-01  -1.6726044e-01   5.6990987e-01  -4.3326903e-01  -3.8197785e-02  -3.0457495e-01  -1.6138897e-01  -2.8000618e-01   3.5353970e-01   9.3868344e-01   8.8858624e-01  -9.3121193e-01  -6.8702762e-01   6.9144471e-01   4.9112544e-01  -3.5010891e-01   6.3996541e-01   8.5765515e-01   8.3024510e-01   1.1664438e-02  -5.0765094e-01  -9.9732282e-01  -8.7193594e-01  -3.4294244e-01  -2.4232531e-01  -1.3352835e-01  -7.5451510e-01   1.2399407e-01   5.4191165e-01   9.1031682e-01   5.2665354e-02  -4.0482120e-01   7.6145300e-01   9.5461965e-01  -3.5435223e-01  -2.7970935e-01   9.2166638e-01   2.8828276e-02  -1.1715561e-01   4.8686166e-01  -9.3438873e-01  -2.0475020e-01   7.2634430e-01  -3.7704101e-01   5.4914025e-01   7.5395326e-01  -4.6461443e-01   4.4617828e-01  -5.7360879e-01  -8.4350195e-01  -9.2662970e-01  -2.7981679e-01  -7.5130978e-01  -5.0658179e-01   2.8468214e-01  -8.3348604e-01  -4.6774480e-01   4.9971012e-01   3.9341758e-01   9.8435867e-01   3.5594917e-01  -8.5675200e-01   9.6104332e-01  -7.3810571e-01   1.4159783e-01   8.3268930e-01  -1.6701280e-01  -9.7078697e-01  -2.9641511e-01   3.0188548e-01  -5.7481130e-01   9.9302097e-01  -5.1140351e-01   1.8522807e-02   9.2950395e-01  -7.9596204e-01  -4.6186450e-01   2.7188504e-01  -5.7897632e-01  -3.6551080e-01   9.5672301e-01  -9.2207518e-01   3.2404413e-01   3.3994163e-01   6.8223358e-01  -1.8059150e-01  -8.0364626e-01   4.9014187e-01  -5.3655852e-01  -1.2661415e-01   9.0120736e-01   7.3715478e-01   6.6033988e-01  -1.0796356e-01  -9.6365886e-01   7.9750625e-01  -3.2905212e-01  -1.9582564e-01   6.1209258e-01  -4.6413807e-02  -9.1136844e-01  -6.6516994e-01  -9.9519104e-01   1.1671317e-01  -4.2451040e-01   4.9703050e-01  -5.0049158e-01  -1.3218774e-02   5.4899101e-01   5.1494202e-01  -9.9229337e-01  -5.3823801e-01  -9.6181247e-01   7.3336346e-01   2.6534518e-01   3.4865251e-01  -5.0428075e-01   1.2683950e-01  -3.8401731e-01   6.9806828e-01   6.5321628e-01   1.0235559e-01   6.5633658e-01  -1.2612622e-01  -6.5074891e-01  -2.8509104e-01   3.9013524e-01  -8.0303622e-01   9.9577825e-01   4.5391077e-01   2.6511332e-01   9.1183144e-01   4.0302155e-01  -7.5130716e-01  -4.6913959e-01   8.3134840e-02  -2.3288104e-01  -8.7234728e-01  -4.3508766e-01   4.9583676e-01   3.3237111e-01  -5.1015840e-01  -3.4603042e-01  -2.3692565e-01  -2.8544677e-01  -4.8555741e-01   1.5677941e-01   9.6513504e-01   8.3935358e-01   4.2786214e-02  -6.2101184e-01  -7.5774524e-01   5.1889715e-01  -3.8971111e-01   3.3064374e-01   5.1257624e-01   4.2260647e-01  -2.8190135e-01   5.4436057e-01   2.7053497e-01  -8.5511073e-01   8.8665620e-01  -4.4187659e-01  -7.2041928e-01   2.4495899e-01   1.2412797e-01  -8.8680430e-01  -7.6861265e-01  -8.3417344e-01  -8.2557916e-02   4.2880267e-01   2.7212305e-02   4.2665690e-01   9.9336836e-01   6.6815254e-01  -3.9138725e-01  -1.9443949e-01  -6.2418845e-01   4.5616057e-01  -4.1923956e-01   5.7572636e-01   4.6033401e-01   9.2802439e-01   4.4064063e-01   4.5188442e-01   5.3583383e-01   8.2338641e-01   7.0374769e-01  -9.2124566e-01   5.8171476e-01  -5.3036158e-01  -8.6179655e-01   5.7633453e-01   8.2878722e-01  -5.5343294e-01  -8.0094249e-01   1.9106161e-02  -7.1646622e-01  -2.3227245e-01  -5.8319699e-01  -4.1864015e-01   9.6584788e-01  -7.6061655e-01   2.4067831e-02   8.0476883e-03  -8.0572344e-01  -1.2599021e-01  -1.0962805e-01  -8.0286797e-01   2.5187696e-01   3.6353425e-01  -1.1312120e-01  -2.9558535e-01   6.5057786e-01   2.6058296e-01  -2.3791514e-01   7.8723368e-01  -6.8465882e-01  -7.1624359e-01   6.9106856e-01  -5.6986250e-01  -8.3269315e-01  -4.2713266e-01   4.4501120e-01  -6.1522433e-01  -6.2834871e-02  -1.0468836e-01  -9.0378684e-01   8.4881258e-01   6.8066146e-01   7.5107158e-01   7.0328449e-02   6.3368416e-01  -6.4733470e-01  -7.5230330e-01   4.3329895e-01  -7.5505036e-01   3.0372145e-01   3.7515554e-01   4.4384034e-01  -5.8620018e-01   7.6865943e-01  -1.7082668e-01   9.3530470e-01   5.7352724e-01  -9.6615437e-01   5.4354023e-02   4.6263902e-01   4.5850381e-01  -3.7200260e-01   7.3395414e-01   8.2907800e-01   5.0130314e-01   5.6865142e-01  -2.4656836e-01  -8.4696606e-01  -5.0850862e-01  -7.4571129e-01  -9.3435172e-01  -1.0904606e-01  -3.2954491e-02   2.1286586e-01   7.5759942e-01  -1.0069623e-01  -6.8519264e-01  -8.0746050e-02  -1.5673068e-01   5.2134715e-01  -6.2813025e-01  -2.1538602e-01   2.3651696e-01  -8.7376103e-01   1.8700974e-01  -6.1788255e-01   1.2926935e-01  -4.0927488e-01  -6.3354143e-01   9.6822518e-01   9.0939343e-01  -7.5066484e-01  -2.8560789e-01  -9.7588541e-01   7.2619689e-01   5.5910719e-02   4.6718979e-01   4.8585386e-01   1.2050706e-01  -3.9099982e-01   8.0860953e-01  -5.8953092e-01   6.1471239e-01  -8.2757937e-01  -5.5199003e-01   4.0564263e-01   4.0992599e-01  -2.3703369e-01   5.6368185e-01  -2.5566606e-01   9.6143184e-01   7.8428671e-01   5.4470764e-01   4.6660382e-02   1.6252747e-01  -2.1561994e-01  -2.1313192e-02   1.7290599e-01  -7.7556535e-01  -9.4082082e-01  -7.3596951e-02  -1.2600371e-01  -8.1705400e-02  -6.3427164e-01  -8.1733309e-01   5.7388802e-01  -4.9328107e-01   1.1564343e-01  -1.6544812e-01   7.2617977e-01   5.0419677e-02   9.6261134e-01  -3.7515185e-01   9.6655549e-01   7.0454620e-01  -7.6774613e-01  -9.0372688e-01   4.4257222e-01  -7.4904410e-01  -6.0019685e-01   7.3737467e-01  -7.8075903e-01   8.5646555e-01  -5.1072385e-01  -4.8430767e-02  -2.3257686e-01  -4.9001060e-03   7.2046510e-01  -2.6574339e-02  -2.7835526e-01   4.9371812e-01  -9.9179747e-01  -5.6776508e-01   8.4995925e-02   2.2571966e-01   6.8353330e-01   9.8405302e-01   1.0811695e-01   2.7425428e-01  -3.7875694e-01  -5.8342570e-01  -1.4310719e-01  -2.1983630e-01  -6.5526717e-01   3.2778228e-02   4.1930216e-01  -3.7321517e-01   7.7891336e-01  -9.7419677e-01  -4.0825136e-01  -3.1362654e-01  -3.6292854e-01  -4.4550287e-01  -9.2699050e-01  -4.0253901e-02  -7.7354646e-02  -5.5033415e-01  -9.1032299e-02  -6.3817969e-01   9.1214580e-01   9.5896604e-01   2.6997680e-01  -1.1530746e-01  -3.2986525e-01  -4.7702950e-01  -7.1765170e-02  -9.5124113e-01  -5.6148827e-01   8.9726000e-01  -3.5410782e-01   8.1703583e-01   5.4601748e-01  -5.0576717e-01   1.5399645e-01  -2.8370359e-02  -3.2039647e-01  -1.7753441e-01   2.1183022e-01   3.7350825e-01  -9.6601088e-01   4.2706092e-01  -1.1045021e-03  -4.5220597e-01   2.4445244e-01  -2.0535320e-01  -9.6266239e-01  -9.1273336e-01   7.3664809e-01  -4.8559034e-01   3.6461887e-01   6.0775155e-01   7.0814143e-01   8.4970108e-01  -4.6968688e-01  -6.9621892e-01   7.0595987e-01   2.5977656e-01   9.5027551e-01   2.9211972e-01   2.9674927e-01   5.5699534e-01   9.6222845e-01   2.5549182e-01   2.8661154e-01  -4.8847165e-02   6.7456312e-01  -3.5257955e-01   1.8119747e-01   7.7622521e-01   4.7384386e-02   3.6693949e-02  -4.2941053e-01   9.2343967e-01   6.1825730e-01   2.1329651e-01   9.7417033e-01   1.6282012e-01   8.9751795e-01   9.4650611e-01  -2.5914925e-01   1.0058334e-01   2.4242190e-01   4.5648503e-02  -4.9823277e-01  -2.6618620e-02   6.4742806e-01  -5.5806236e-01   5.2598419e-01   6.7939742e-01  -8.6900836e-01   9.6363055e-01   4.0960959e-01   6.3996096e-01   4.9475645e-01   5.2078867e-01   5.6595832e-01  -5.9925158e-01   8.7590900e-01  -3.1032569e-02   4.8085463e-01   5.7989814e-01  -6.2654840e-01  -4.0295229e-01  -3.3067899e-01   1.6325992e-01   6.5414867e-01  -7.9756640e-01   4.5044436e-01  -6.1584789e-01   5.4750410e-01   7.5134310e-01  -8.3378974e-01   2.1170173e-01  -5.5297048e-01   1.5500508e-01   4.7835860e-01  -9.7583442e-01   7.7877475e-01   1.9363313e-01  -9.1025193e-01   1.2462067e-01   7.4963808e-01  -7.7466800e-01   3.3231198e-01   4.1477851e-01  -5.7130304e-01  -5.7333304e-01   7.5125568e-01   9.5674411e-01   3.3832062e-01   5.6810856e-01  -8.9418047e-03  -8.1065727e-01   1.3394905e-01   6.6275920e-01   6.0489126e-02  -8.3340442e-01   9.4919603e-02  -6.3580694e-01  -4.6638809e-01  -6.2165268e-01   5.1990378e-01   8.7225010e-01  -8.3285553e-01  -1.3854238e-01   6.4245378e-01   9.4264417e-01  -9.8018950e-01  -2.9673150e-01   9.9165010e-01  -6.7183891e-02  -3.9978396e-01   5.9321318e-02  -8.7335750e-01   7.2760982e-02  -6.0649637e-01  -1.7733792e-01  -7.2877048e-01  -4.4105417e-01  -8.8071926e-01  -2.1900226e-01  -4.9080795e-01  -3.4340927e-01  -3.8918487e-01   3.2898668e-01   8.7182734e-01  -2.8849491e-01  -1.9761277e-01  -5.1528207e-01   2.0271235e-01   6.0348313e-01   6.3540288e-01  -3.1153064e-01  -9.8487743e-01  -2.2055873e-01  -2.6142576e-01   6.4336652e-01  -5.7761478e-02   2.5274983e-01   6.0783188e-02   8.5195246e-01   3.4620794e-02  -7.1439316e-01   5.6447732e-01  -2.7390046e-01  -3.4328144e-01   8.8096245e-01  -1.2093608e-02   5.3466985e-01   2.4205883e-01   5.6753679e-01  -3.0738633e-02   2.9399755e-02  -4.4575671e-01   9.0131851e-02  -5.4665877e-01  -5.4222752e-01   1.9074644e-01  -9.9080531e-02   3.3709210e-01  -5.3635537e-01   5.2793813e-01  -6.4802534e-01   3.7829003e-01   6.2985596e-01  -2.4158310e-01   8.0490093e-01  -8.0788509e-01  -8.4335691e-02   4.8480341e-01  -1.3250989e-01  -6.8846203e-01   3.7885830e-01  -5.1433546e-01  -2.1262981e-01  -5.4001634e-01  -8.5241656e-01  -4.7376785e-01  -2.1653129e-01   3.6384417e-01  -3.5386373e-01   4.6106911e-02  -1.4422766e-02   4.1293260e-01  -2.7742184e-01   5.2336275e-01   4.9498080e-01   3.4666351e-01  -8.9641034e-01   7.6703714e-01  -8.1768022e-01  -1.3096326e-01  -8.3885953e-01  -9.1102129e-01  -2.8814690e-01   9.4447436e-01   7.7270153e-01   4.4917839e-01  -6.3051575e-01  -6.5521871e-01  -8.9662933e-01  -9.6426518e-01  -7.0656242e-01   7.4852741e-01   2.0576802e-02  -6.7924143e-01  -7.5295068e-01  -5.2097028e-01  -6.4596701e-01   6.9945849e-01   7.9187469e-02   2.9513563e-01   4.1200811e-01  -8.7148628e-01  -5.5533496e-03  -9.8603404e-01  -9.9841599e-01  -9.5755467e-01  -1.5586480e-01  -2.4216533e-01   4.5501262e-01   8.2596601e-01  -9.4624507e-01  -4.4205277e-01  -8.4536174e-03   7.7147970e-01  -8.4985313e-01   4.9389087e-01  -2.9983683e-01   9.1733264e-01   1.8696925e-01   1.3984290e-01  -4.5880305e-02   6.4543952e-01  -1.7703487e-01  -6.9603686e-01   6.0342507e-01   6.5704896e-01  -6.1538059e-01   7.0409626e-01  -7.5729667e-01   5.1332124e-01  -4.0863109e-01   2.8297994e-01  -3.0791846e-01   4.0021359e-01  -4.6036343e-01  -7.4914151e-01   8.7586323e-01  -4.5256279e-02   6.1419160e-01   2.6513082e-02   4.7939888e-01  -2.5689888e-01  -5.1629362e-01  -1.4964609e-02  -4.8470444e-01   5.6205422e-01   3.7110624e-01   8.5024574e-01   3.7894320e-01   3.9560711e-02   4.6669997e-01  -9.9917948e-01   1.9667335e-01  -9.3142576e-01  -8.6117349e-01  -8.5477343e-01   5.0707330e-01   5.5054966e-01   7.7823161e-01  -6.8783072e-02   3.1937541e-01  -6.6786233e-01  -9.4424962e-01  -4.7571755e-02  -4.4930557e-01  -8.5902049e-02   7.8712500e-01   1.5922449e-01   3.0956344e-01  -2.3825238e-01  -6.4326620e-01   6.0457536e-01  -4.3222268e-01   5.3998325e-01   9.4925715e-01  -7.0188153e-01   2.4863999e-01  -1.7412984e-01  -8.9591034e-02   1.5131912e-02  -1.6139286e-01  -7.5620426e-01  -3.0591662e-02  -6.2782701e-01   2.5573359e-01  -9.0719125e-01  -2.6649184e-01  -6.7221553e-01   9.3622112e-01  -4.4301481e-01  -1.3908421e-01   5.3476540e-01  -3.6925169e-01  -7.4464670e-01  -6.5284679e-01   8.1748579e-01  -2.6191319e-01  -3.2077645e-01   6.7725656e-01   2.3555977e-01  -2.8269846e-01  -4.2280077e-02   8.2418273e-01   5.6674120e-01  -2.6261364e-01  -8.0932621e-01  -9.4262973e-01   5.1014875e-01  -7.1042326e-01   2.5247257e-01   1.2636254e-01  -1.6519046e-01   9.8224966e-01  -6.1941223e-01   5.1275132e-01   4.5660686e-01  -5.7456122e-01  -3.0243179e-01   6.5617887e-01  -3.7976590e-01   7.1021446e-02   1.2028766e-01  -2.3361353e-01  -3.5960507e-01
