   1.0183913e-01   4.0243006e-02  -1.3177009e-01   7.1277467e-01   9.3821586e-01   1.2055131e-01   4.6151298e-01  -6.3886582e-01  -8.8053660e-01   5.9913848e-01   4.6568777e-01   9.1894296e-01  -9.7056666e-01  -5.1165270e-01   3.9599077e-01  -3.0204184e-01  -2.6917539e-01  -8.7363969e-01   9.8187989e-01  -6.0119764e-01   1.2436641e-01  -6.0352533e-01   2.4427878e-01  -3.5189601e-01  -4.7391096e-01  -9.1498047e-01   2.9884018e-01  -2.9337173e-01   9.1175149e-02   2.7901118e-01   8.7280683e-01   5.6974591e-01   8.9358518e-01  -7.1904862e-01  -6.3844916e-01  -1.1667311e-01   2.2271965e-01   6.1069205e-01  -4.4619796e-01  -4.5717520e-01   2.8204596e-01   9.1210592e-01  -6.4532482e-01  -9.4512709e-02   4.5976058e-01   3.8685153e-01  -9.8023021e-01  -7.3487532e-01   3.4634620e-01   5.4629982e-01   2.2332295e-01  -5.4589431e-01  -1.6409869e-01  -8.3843368e-01   6.6354383e-01  -9.3556277e-01   8.7729179e-01   6.1348943e-03  -4.5796949e-01  -2.2462737e-01   3.6752015e-01  -7.7710689e-01  -1.4106348e-01   2.8249705e-01  -1.2984932e-02   9.8683795e-01   1.6232032e-01  -3.0259129e-01  -7.8859978e-01  -7.5383304e-01  -8.7399598e-02  -3.4192835e-01   5.8842932e-01  -8.6915775e-01   8.9074975e-01   4.8702761e-01   4.0870447e-01   6.4346490e-01   5.6468068e-01  -6.0242092e-02  -7.2484351e-01  -6.4432548e-01   7.6829230e-01   1.6132739e-01   1.7838412e-01  -7.0521584e-01   8.5196192e-01   8.8514705e-01  -2.9374362e-01  -5.7284104e-02  -7.2362640e-01  -2.7235038e-01   6.8142445e-01   3.5446730e-02  -9.6238672e-01  -4.3495972e-01   5.5391224e-02  -5.1513843e-01   5.4049587e-01  -3.6820626e-01  -6.6714229e-01   5.2096058e-02  -7.8576655e-01   3.4306097e-01   7.3108334e-01  -2.0287447e-01   3.9077593e-01  -1.3916383e-01   3.4777086e-02  -7.6680738e-01  -5.5312405e-03   4.7031790e-01  -3.4885574e-01   6.8184077e-01   6.8500928e-01   1.0074777e-01   4.6170198e-01   9.7347853e-01  -8.2165588e-01  -7.0077733e-01   2.8086402e-01   8.5937040e-01  -7.9976768e-01  -9.9583148e-01  -8.9922988e-02   2.7751383e-01  -5.4351816e-01  -4.9356707e-01  -5.3369876e-01   4.0221868e-01  -6.0967362e-02  -5.6232200e-02   1.2262238e-01   2.2392443e-01   2.0342938e-01   1.2666373e-01  -2.2283926e-01  -3.4291507e-01   5.5039825e-01   4.7261738e-02  -3.0653092e-01  -2.5535225e-01  -1.2666892e-01  -3.1621148e-01   4.0732736e-01  -9.0007339e-01   1.1871390e-01  -2.2524671e-01  -7.6329618e-01   1.3523230e-01   4.6974727e-01   7.0160884e-01   3.4297329e-01   8.4410465e-01  -1.7223502e-01  -3.1331289e-02  -3.1017951e-01   2.7716976e-01   5.0587435e-01  -3.8289930e-01  -9.7569583e-01   5.5307492e-01  -3.1991286e-01  -5.4492164e-01  -2.2104190e-02  -6.8624289e-01  -5.9886640e-01  -1.9793496e-01   3.1915755e-01   2.6607614e-01  -1.0676068e-01  -2.1081580e-01   9.9650442e-01  -1.4001478e-02  -2.5007833e-01  -4.8640898e-01  -9.7647087e-01  -3.1498578e-02  -3.7144870e-01   6.3218534e-01   6.2995991e-01  -8.1290830e-01  -5.2995130e-01  -1.8544604e-01   7.8358822e-01   2.9759379e-01   9.6065330e-01   1.4637156e-01   1.9978392e-01   5.8735349e-01   5.6706408e-01   4.3435137e-01   2.2236207e-01   5.3572013e-01   3.0896136e-01   8.7348183e-01   4.4756827e-01   7.3403915e-01   3.9412987e-01  -8.6797689e-01  -6.3627306e-01  -2.8354378e-01   8.7662046e-01   2.3071956e-01   2.2289750e-01   1.4638079e-01   2.8332328e-01   3.0540956e-01  -8.6081497e-01   6.8761743e-02  -6.9395639e-01  -9.7851580e-01  -6.9652341e-01   5.2347516e-01   3.9393796e-01   8.7549617e-01  -8.2306760e-01   4.5508394e-01   8.5257309e-01  -9.3833915e-02   2.8403172e-01  -1.9374666e-01  -9.5603161e-01  -8.0351248e-01  -5.9706428e-01   3.0820709e-01   6.6557128e-01  -1.8904479e-01   5.6445800e-01  -3.9898322e-01   3.1396258e-01   5.8157408e-01  -8.2943848e-01   1.0935109e-01  -5.6737577e-01   6.9269258e-01   1.6688869e-01  -6.8637119e-02  -4.8240640e-01  -6.5354774e-01   1.6603384e-01  -6.0255305e-01   8.1380925e-01   4.3997157e-02   2.1585858e-01   4.9441436e-01  -1.5115015e-01  -4.7386539e-01   6.4147365e-01   4.2288586e-01  -5.5739262e-01   6.5979634e-01   4.3691722e-01   8.5485069e-01   6.0564296e-02   2.1249167e-01  -9.3938281e-01  -4.1883057e-01   3.8973838e-01  -8.9062489e-01  -5.0038016e-02   4.4758990e-01  -8.3359300e-01  -1.7908675e-01   2.6441734e-01   9.3519548e-01   8.0678736e-01   5.4948347e-01  -1.1459021e-01  -6.3313345e-01  -6.5609384e-01   1.9835980e-01  -5.8611712e-01   5.0921296e-01  -7.1081374e-01  -5.6261013e-01  -6.2689697e-01  -9.0751913e-01   3.7334174e-02  -9.9088063e-01   3.1062682e-01  -4.4832289e-02  -4.3227647e-01  -4.4995723e-01  -5.1131796e-01  -4.2982623e-01  -9.1958520e-01  -8.5804336e-02   7.4668491e-01   5.3488265e-01  -2.1085717e-02  -8.4656772e-01  -6.1681554e-01  -1.9372971e-01  -1.5814829e-01   1.7148954e-01   4.0474459e-01   9.0087083e-01  -3.8247998e-01   1.7268368e-01  -8.1593525e-01   5.0431690e-01  -7.2894449e-01   9.2457810e-01   9.4606177e-01  -1.7902976e-01   7.0521309e-01   1.7390314e-01   3.9957089e-01  -7.4275096e-01   1.4094431e-01   7.5835147e-01  -8.3638161e-01   4.6485226e-01  -5.5041573e-01   8.3490669e-01  -8.6882175e-01   5.3565732e-02   1.6251037e-01   1.5504554e-02   9.0742861e-01   1.9315627e-01  -5.0728605e-01  -4.0189219e-01   9.9707687e-01   2.5867421e-01  -3.1253237e-01   9.2692303e-01   6.2997339e-01  -2.3184728e-01  -8.1927855e-01   7.5892643e-01  -3.9679464e-01  -4.5306267e-01  -7.1350796e-01   2.2682583e-01  -4.1657148e-01   8.8744427e-01   5.5510341e-01  -2.6801993e-01   8.4080843e-01   3.0669216e-01  -4.9488802e-01   6.5393785e-03   7.5485850e-01  -1.1351145e-01   8.0499648e-02  -2.0032335e-01   6.9821885e-01   6.8225440e-01  -5.8578854e-01  -1.0775029e-01   9.3770745e-01   5.1431930e-01   6.3084432e-01  -9.2262356e-01  -6.3556520e-01  -2.4653441e-01  -6.7505241e-01   4.4426102e-01  -6.2471485e-01   5.1191614e-02  -6.4130930e-01   5.7941397e-01   6.0676473e-01  -7.4765486e-01   8.7295078e-01   1.9797531e-01   8.6536873e-01  -6.8375808e-01  -6.1889472e-01  -5.1186173e-01  -5.7021639e-01   2.2620374e-01  -1.1437172e-01  -7.6449082e-01  -7.4538448e-01   8.9292564e-01   4.5852244e-01   3.7000726e-01   8.9819181e-01  -6.3336482e-01  -1.7554995e-02  -4.5486124e-01   5.6785506e-01  -5.8965164e-01  -6.1238196e-01   6.5660723e-01  -5.4099774e-01   4.0873317e-01   5.4247964e-01   3.2374893e-01   7.7471130e-01   7.2764274e-01  -1.9645144e-01  -7.6785994e-01  -8.1638105e-01  -2.4621571e-01  -2.3206853e-01  -2.9833831e-01   6.2335390e-01  -1.0637385e-01  -9.2405396e-02  -5.6662783e-01   5.9603512e-01  -1.4914965e-01  -6.9192661e-01  -1.2845871e-01   3.9460916e-01   2.0368997e-01  -3.5550206e-01   8.9277330e-01  -9.1604708e-01   6.8857307e-01  -3.5645443e-01   3.7613398e-01   5.5730395e-01  -1.1832674e-01   4.5797574e-01  -4.6717614e-01   5.1658075e-01   3.7912923e-01   2.2158900e-01   2.8022447e-01   2.5508694e-01  -2.2911298e-01  -2.0577423e-01   4.8004209e-01   9.4885659e-01   3.1214854e-01   7.9414765e-01   8.4537962e-01  -4.7567843e-01  -9.9998981e-01   5.2504080e-01  -4.6200753e-01  -1.6341573e-01  -7.5534916e-01  -9.5636432e-01  -2.2862298e-01  -2.6601317e-01  -9.0192659e-01  -8.7008307e-01   9.5309895e-01   1.8357374e-01  -1.2663016e-01   9.1276937e-01  -1.6354175e-01   1.6112294e-01  -4.9836421e-01   7.6249253e-01  -9.3114590e-01  -9.6605078e-01   1.2794173e-01   3.5401873e-01   2.8548104e-01  -5.6014792e-01  -2.0149799e-01   4.1035624e-01  -8.3723476e-01  -7.0139079e-01   6.0920020e-02  -7.6142499e-01   8.3567363e-01   4.0204112e-01   1.5137433e-01  -8.2070437e-01   6.2707199e-01   5.4114689e-01   9.3634954e-01  -4.6637521e-01  -3.6626139e-02   8.2083313e-01  -3.2298131e-01  -5.0393357e-01   5.1309902e-01   5.0079341e-01   3.3021289e-01   4.2838899e-01  -2.0616115e-01  -3.1004398e-01   3.7644884e-01  -2.1524812e-01   5.4660254e-01  -3.7040495e-01  -9.1400339e-02   5.5908420e-01  -2.1540981e-01  -4.6722695e-01  -6.1160367e-01   4.2548678e-01   9.1039274e-02  -5.1314928e-01  -6.7539273e-01  -8.0562430e-01  -7.8942231e-01  -7.8090387e-02  -8.2669219e-01  -3.3842963e-02  -5.5530536e-03   7.2573044e-01  -4.5114734e-01  -9.9885961e-01  -6.0220203e-01   8.7286708e-01   4.7106310e-01  -5.3309277e-01   5.5428194e-01   1.7061567e-01  -1.5660081e-01   1.7061841e-01  -3.6031709e-01  -7.1851693e-01  -8.7631842e-03   6.0605308e-01   4.6394016e-01   4.0915028e-01   9.4110016e-01  -2.6576280e-01  -1.0813961e-01   4.3353892e-01  -8.8759720e-01   9.7940247e-01   8.6043720e-02   9.8464087e-01   7.8540590e-01  -2.1361652e-01  -6.8029195e-01  -2.1090123e-01   4.8719217e-01  -3.5046492e-01  -2.7248419e-01   6.6740435e-01   3.5119521e-01  -3.2006759e-01  -7.0347544e-01  -3.4925065e-01  -2.4514655e-01  -3.4192114e-01   7.5047781e-01   6.2234539e-01   5.9309231e-01   2.2117216e-01  -1.8498339e-01   4.2297610e-01   9.2674171e-01   7.1975288e-01  -6.9122285e-02  -6.2018407e-01  -9.4247728e-02   6.7966110e-01   9.1480455e-01  -2.1318247e-01   1.1798933e-01  -7.6354642e-01  -5.1337879e-02   4.9140358e-01  -8.9049761e-01  -5.1139300e-01   5.0369495e-01   5.7490819e-01   5.0372423e-02  -2.9682130e-01  -6.5252456e-01  -6.4659281e-01  -9.2926246e-01  -5.8195096e-01  -8.9831412e-01  -5.2386535e-01   2.3501039e-02  -1.5465795e-01   7.8823291e-02   8.3350760e-01  -6.2353557e-01  -3.1667879e-02  -3.2088052e-01  -2.6104949e-01  -3.4196559e-01  -6.2301108e-01  -2.6184980e-01  -9.7040753e-02  -1.7803372e-01   4.2175267e-01  -5.1948768e-01  -6.4180874e-01   2.9599602e-01  -2.1629934e-01  -2.2362534e-01   4.6182526e-01   6.3446721e-01  -8.3456933e-01  -6.0806877e-01  -9.6155032e-01   1.4020848e-01  -7.5876252e-01   4.1224839e-01  -9.0544525e-01  -1.5714335e-01   7.5917672e-01  -5.8679844e-02   3.5089231e-01   6.0184078e-03   9.0746818e-01   8.0894228e-01   9.0729408e-01   5.0144151e-01  -5.8371521e-01   7.1745512e-01   8.3855064e-01   5.2721252e-02   2.4536413e-02   2.8625912e-01  -3.0248691e-01   8.6404682e-01   2.8914980e-01   3.7532122e-02  -1.5279884e-01   6.0422967e-03   2.4236361e-01  -7.2036076e-01   1.7043603e-01  -3.6571581e-01  -1.8226952e-01   6.0836543e-01   6.8625209e-01  -2.3544289e-01  -8.7483928e-01   4.7252834e-01   5.2065031e-01   6.2553716e-01   2.6516107e-02   9.0110158e-01  -3.8172830e-01  -2.7592898e-01  -1.9669286e-03   1.3780357e-01  -9.8348292e-01  -7.7374156e-01  -3.7504188e-01  -5.2965246e-01  -6.9267585e-01   2.4485001e-02   4.3038943e-01  -6.7061470e-01  -2.0694520e-01  -4.2133603e-01  -7.7703757e-01  -6.7666461e-01  -9.7729949e-01  -8.6276350e-01  -7.8876810e-01   4.6962290e-01  -3.6074520e-01  -1.1643503e-01   1.5827000e-02   1.4833884e-01   8.3076303e-01  -2.5376834e-01  -1.5116938e-01   3.0542035e-01  -4.1038208e-01  -9.8380725e-01  -3.3015627e-01  -2.3535931e-01   8.0454006e-01  -6.7715048e-01   5.6693315e-01   8.4206956e-01   5.6898584e-01  -8.9172576e-01  -3.4961227e-01   4.7049057e-01  -4.4474486e-01   3.2259561e-01   7.1499290e-01  -9.3078226e-01  -9.5932686e-01   3.4506564e-01   4.6189240e-01  -5.1957801e-01  -2.3228405e-01  -8.3663271e-02   4.8153496e-01   7.4756910e-01  -9.4363537e-01  -8.1562429e-01   6.5354115e-01  -3.1365102e-02  -1.4212263e-01  -7.1598584e-01  -4.9099420e-01  -7.8857514e-01   2.2258394e-01   1.3577502e-01  -1.4371683e-01  -7.7833858e-02   5.3370283e-01  -1.5968249e-01  -8.3490163e-01  -3.0885898e-02   1.7403109e-01  -3.4817911e-01   1.1349725e-01   2.5914460e-01  -9.1552064e-01  -9.6675661e-01  -3.3772027e-02   2.0482096e-01   6.4353920e-01  -8.0487099e-01  -8.2696618e-01   1.2448186e-01   4.1488609e-01  -6.8678557e-01  -4.8327589e-01  -3.4772460e-01   9.3353068e-01   9.4763693e-01   4.7002383e-01   3.6981925e-01   8.2283725e-01   4.1765099e-01  -7.4861129e-01   8.3541430e-01   1.6317090e-01  -5.0420609e-02  -7.3432157e-01  -3.4087085e-01  -2.5246127e-01  -6.3630107e-01   3.6174070e-01  -1.1611819e-01   2.9153779e-01   9.4447886e-02  -4.5963053e-01  -1.5979168e-01  -1.5372535e-01  -3.1843662e-01  -2.7804786e-02  -3.9437363e-01  -1.3982611e-01  -3.1520081e-01  -8.7388962e-01  -8.2991268e-01  -3.9701298e-01  -1.3896943e-01   3.9404163e-01   9.6456028e-01  -3.0568676e-01  -4.3739974e-01  -5.4162798e-01  -7.2903444e-01  -8.1746727e-01  -6.1544309e-01  -8.6026877e-01   8.0887061e-01  -6.7792133e-01  -9.3808726e-01   3.6694178e-01   3.0438537e-01  -1.4098828e-01  -2.4369014e-01  -3.4910812e-01   8.1790430e-01   1.2842057e-01   9.1229262e-01  -7.8348165e-01   9.0657817e-01   8.7953634e-01  -1.1478375e-02  -2.0346272e-01  -7.7365327e-01  -9.3424112e-01   9.0962601e-01  -4.5485523e-01  -2.2211656e-03  -4.6904103e-03   6.3313766e-01   2.3026280e-01   5.5070786e-01  -1.3429153e-02  -8.2913654e-01   6.2040583e-01  -9.1272196e-01   5.6657659e-01   6.8627413e-01   9.4401239e-02   7.3831860e-01   5.6177751e-01  -2.3757078e-02   1.0352996e-01   1.4175751e-02  -5.5995621e-01  -4.0290774e-01   2.6802990e-01   7.1995160e-01   6.7399096e-02  -8.3065952e-01  -8.6084557e-01  -3.8107846e-01   7.5285737e-01   4.8587729e-01  -6.1189596e-01  -5.2768523e-01  -3.6035698e-01   5.4444553e-01   8.7649666e-01  -5.5023577e-01  -9.4791736e-02   9.0962360e-01   7.8875922e-01  -4.4225204e-01   7.8419133e-01  -6.1170420e-01  -5.3588562e-01  -1.9896240e-01   2.7316186e-01   1.5198357e-01   7.3559570e-01   3.4078487e-02  -1.6273478e-01   3.2899793e-01   3.4754952e-01  -8.4909102e-01  -4.0524144e-01   1.2779730e-01   9.4034189e-01   1.8384393e-02  -9.5659066e-01  -1.7356907e-01   1.5816013e-01  -7.6882113e-02  -6.1416473e-01   8.0628043e-01  -4.2108580e-01  -7.9154877e-01   1.9576591e-01  -1.6966009e-01   2.3831695e-01   6.5214555e-01  -9.2648462e-01  -4.8762102e-01   6.1071088e-01  -1.0752675e-01  -1.8452364e-01  -4.3126533e-01  -5.5569998e-01  -7.0967924e-01  -6.1386378e-01   4.8184445e-01   7.4932850e-01   7.6252945e-01   7.9356264e-01   2.4239855e-02  -9.4036933e-01  -4.6358715e-01  -8.5394656e-01   1.3838178e-01   8.0422567e-01   2.7307217e-01   3.6092406e-01  -6.8810575e-01   6.2750966e-01   7.2595083e-01  -5.1435466e-01  -8.5280427e-01   9.6770017e-01   6.4528835e-01   1.8643063e-01   7.3792456e-01   3.7413493e-01   4.8921151e-02   5.2146978e-01  -5.3844284e-01   6.4061702e-01  -9.1987859e-01  -8.9359681e-01  -8.1427988e-02   8.8792347e-01   9.3330252e-01   2.4642926e-01  -6.6015323e-01  -5.1025758e-01  -3.9062301e-01  -9.2512668e-01   3.3619542e-01   4.0357090e-02  -1.7541974e-01  -9.1325022e-01  -3.5628117e-02  -6.4135249e-01  -4.0375988e-01  -6.0503556e-02   4.1951149e-01   2.2300987e-01   7.5176603e-01   6.2108311e-01   7.9957244e-02   3.9936944e-01  -6.5557225e-01  -4.6477457e-03  -1.3172772e-01  -6.5939969e-01  -6.3116560e-01  -7.4282662e-01   9.4720616e-01   7.7562333e-01   4.2784643e-02  -7.6957321e-01  -5.3573478e-01   7.0256423e-01   1.6687834e-01   1.2563148e-01   6.6379530e-01   5.2069533e-01  -5.0040497e-01   7.2258129e-01   2.7800261e-01  -4.4563617e-01   3.9514240e-01   2.2376775e-01  -7.7061938e-01  -3.7070951e-01   9.7382552e-01   3.0095718e-02   6.0669485e-01   8.4918766e-01   6.3446209e-01   4.5223521e-01   9.4441988e-01  -2.3712915e-01  -6.8117828e-01  -8.8076006e-02   2.4831951e-01  -4.9541177e-01   1.2942237e-01  -2.6548209e-01  -2.8121010e-01  -4.1444603e-01   9.6216283e-01   5.6928258e-01   6.0739003e-01   4.1763883e-01  -3.0314229e-01  -6.5291266e-01   5.6714353e-01   8.7595684e-02  -8.8842486e-01   1.0641692e-01   2.7162210e-01  -4.7615841e-01  -4.4585887e-01  -5.9832273e-01  -4.9197608e-01   3.0876512e-01  -2.5860008e-01  -1.1546581e-01  -2.7637909e-01   5.3349528e-01  -5.7849565e-01  -9.2948628e-01  -9.0553919e-02   5.7530805e-01  -5.3092113e-01   5.3337742e-01   6.0140004e-01  -8.9447240e-01  -4.6389328e-01   3.2235748e-01  -7.8528308e-01   5.7626050e-01   1.6659083e-01   2.1749455e-01  -5.1620563e-01   9.4082612e-01  -3.2641906e-01  -1.7637360e-01   5.9225183e-01   3.6215389e-01   9.7325986e-02   7.7931603e-01  -9.9629751e-01  -2.1336203e-01   9.3764196e-01  -3.7270870e-01   2.6133229e-01  -1.1082587e-01  -6.5965723e-01   8.3112632e-01   1.2383183e-01  -8.6319221e-01  -2.1661656e-01   3.6044779e-01   7.9948084e-01  -7.4263835e-01  -7.8342900e-01  -1.4602761e-01   6.4079454e-01   7.7584115e-01  -4.0672124e-01
