   9.3047530e-01  -5.8588358e-01   5.9259936e-01   8.8529567e-01   8.9789667e-01   9.2134365e-02   4.1654618e-01   1.0153478e-01   2.9815028e-01  -8.1384979e-01  -7.7229456e-01  -3.9620411e-01  -2.0848152e-01   3.8479528e-02   8.7884165e-01  -3.5879246e-01  -3.5402845e-01   5.9207493e-01   3.2375267e-01   4.0466119e-01  -4.7454156e-01   8.2917200e-01   9.9693193e-01   2.5408241e-01  -2.8273693e-01   8.8192059e-01   8.8101065e-01  -4.9675651e-01   1.6333384e-01  -2.7087606e-01   3.8631249e-01   9.0601047e-01  -7.6973578e-02  -6.5111948e-01  -9.7586303e-01   3.0339438e-01   5.3748581e-01  -8.9798604e-01   3.3204106e-01   5.9934723e-01   3.3646563e-01   3.3929821e-01  -2.7743052e-01   7.7945705e-01  -4.3239183e-01  -9.0529472e-01   9.7052207e-01  -8.5799053e-01   7.1531049e-01  -6.8529966e-01  -7.1443147e-01  -7.6103657e-01   4.2418659e-01   7.8287517e-01   6.9976357e-01   5.6392126e-01  -4.9525689e-01   9.7490697e-01   1.1921896e-01   5.9432755e-01   3.7676267e-01   5.3161566e-01   9.9276839e-01  -4.8787207e-02  -4.4597339e-02   6.8607109e-02   3.1896068e-02   6.8642757e-01   5.3128483e-01  -8.3312481e-01  -8.0212559e-01  -3.2896987e-01   5.0350991e-01  -3.3477847e-01  -1.2471737e-01  -2.7411318e-01  -8.8600443e-01  -2.2099800e-01  -8.8238433e-01   7.6845493e-01  -4.4926348e-01  -6.5243586e-01   6.4091703e-01   1.0981679e-01  -9.8569154e-01  -3.4481300e-01  -2.7673902e-02   1.0129814e-01   4.3284942e-01   7.5958448e-01   1.4939548e-01   8.2870972e-01  -5.8712152e-02  -7.0871071e-01   5.1015151e-01   4.0961546e-01   9.3719973e-02   1.9470420e-01   9.8267750e-01   1.5433768e-01  -6.2376046e-01  -9.1260142e-01   7.0841583e-01   4.4505281e-01  -4.3055522e-01  -1.2497573e-01   2.2757068e-01  -2.8399409e-01   9.7956622e-01   6.8170361e-01  -6.7849443e-01  -8.8567141e-01  -9.3275876e-01  -9.6795210e-01  -2.8550628e-01   5.9362152e-01  -1.9482219e-02  -3.4313375e-01   3.6247700e-01   9.8203151e-01   5.2581931e-01  -1.9478486e-02  -9.4132408e-01  -7.0869663e-01  -1.9234617e-01  -1.7178210e-01   8.9761272e-01  -1.3775538e-01   8.2927221e-01   9.7517595e-01  -7.1881904e-02   6.4895256e-01   5.9593858e-01  -4.6463160e-01  -5.8433467e-02   2.4184875e-01  -5.3076589e-01   3.8945500e-01   6.3701023e-01   8.5527962e-01  -8.9696296e-01   1.7034969e-01   1.3301929e-01   4.4373771e-01  -4.3953752e-01  -9.2344063e-01  -5.9925965e-01   5.7543497e-02  -6.1216746e-01   5.3215556e-01  -2.0659764e-01  -1.8972046e-01  -9.6702884e-01   4.6687735e-01   2.0616727e-01   6.0517549e-01  -2.5873867e-01   5.1490929e-01   1.5870541e-01  -2.1273660e-01  -3.8609641e-02  -6.8054124e-01   2.1708693e-01  -4.0928317e-01   1.0849633e-01  -1.0866577e-02  -9.4987034e-01   9.9447860e-01   1.2443624e-01   5.6507465e-01   7.4600478e-01   3.0179515e-01  -7.6163005e-01  -7.4664329e-01  -2.3977542e-01  -7.1860070e-01   7.7506946e-01  -5.0597535e-01   2.1155568e-01   7.3120614e-01   7.1492684e-01  -3.5690593e-01  -1.1776537e-01  -9.8412555e-02   5.4047799e-01  -8.1478216e-01   3.4207389e-01  -8.4012229e-02  -7.9412496e-01   6.6416579e-01   5.7004437e-01   5.3892646e-01   4.4908905e-01  -1.1737400e-01   1.3888031e-01  -4.3533414e-02  -8.6951952e-01   9.4585284e-01   1.3315860e-01  -5.3368550e-01  -2.7371477e-01  -9.5351053e-01  -6.9149546e-01   4.7337930e-01  -7.6816652e-01   9.3699597e-01  -3.1514101e-01  -4.1485252e-01   2.5779975e-01  -4.6407983e-01   2.8944688e-01   9.6854744e-01   5.5529773e-01  -8.0419722e-01  -9.6207553e-01  -2.6821804e-01  -6.3879705e-01   8.9611271e-01   3.7215484e-02  -2.6738756e-01  -2.8565185e-01  -2.5618311e-01   5.2192165e-02   8.7244400e-01   2.5654480e-01   1.5271338e-01  -3.0400295e-02   7.7047718e-01  -7.8079884e-01   9.1362649e-01  -7.5612601e-02   5.1808715e-01   6.6384462e-01   8.7565207e-01   1.1160380e-01  -5.0176859e-01   6.4795233e-01  -6.0608569e-01   2.2167269e-01   2.3162726e-01  -9.5162378e-01  -4.3336508e-01   7.8439785e-01  -4.1118389e-01  -8.1956892e-01   7.5666753e-01   9.3444026e-01  -3.0483154e-01  -2.0071314e-01  -7.7586330e-01   6.9563599e-02   9.3581761e-01   3.6679674e-01  -5.9586435e-01  -6.9191932e-01  -7.9337130e-01  -1.7136006e-01  -6.6291925e-01  -4.7211246e-01  -6.7077073e-01   9.1027494e-01   4.5764324e-01  -1.7458971e-01   2.9763147e-01   8.7561034e-01  -1.6065608e-01  -9.2034589e-01   9.4565072e-01   6.7127332e-01  -5.7713486e-01   9.9398800e-01   3.5699096e-01  -7.2542555e-01  -9.0847874e-02   1.6112732e-01   1.9534911e-01   8.7402606e-01   9.6273155e-01  -4.0164784e-01  -8.0857920e-01  -8.3069904e-01  -1.8098200e-02  -4.7600517e-01   1.1745340e-02  -2.0054942e-01  -1.8455487e-01  -7.3100504e-01   3.3840094e-01   7.2658183e-01  -6.2794768e-02  -9.4982807e-02   7.7196421e-01   7.9354108e-02   2.4712570e-01   3.7048554e-01  -1.6451204e-01  -7.4629150e-01  -3.0524635e-01   4.4073360e-01  -8.6697880e-01   4.0630436e-02  -1.4817783e-01  -2.2320920e-01  -2.7988629e-01   3.9459616e-02   3.9882100e-01   5.7092438e-02  -8.2735166e-01  -2.9641694e-02   4.6257882e-02  -7.4446223e-01   7.0335622e-01   4.6594190e-01   7.2142448e-01   3.4708454e-01   6.6810533e-01   4.7167202e-01  -7.6479722e-01  -8.5664621e-01  -8.4006101e-01  -3.1509599e-01   7.1746076e-01  -9.4580956e-01  -8.8269634e-01   1.2118247e-01  -2.2808836e-01  -6.3846395e-01   6.8263699e-01   1.6354128e-01  -2.3980471e-01  -9.9431191e-01   8.3822815e-01  -6.5406233e-02   9.1665767e-01  -7.5571499e-01   1.5084328e-01  -3.7745414e-02   5.2155845e-01  -2.5129900e-01  -1.6329848e-02   5.8824852e-01   7.0715961e-01  -2.8166857e-01  -4.7587725e-01  -2.0323223e-01   8.1616517e-01  -6.1568695e-01   1.0910116e-01   9.2911496e-01  -5.7599290e-01  -4.4565831e-02  -4.2352326e-02   6.3557091e-01  -8.4852030e-01  -6.0881381e-01  -3.5098714e-02  -9.1229217e-01  -5.2112126e-01   4.6686753e-01  -8.4211323e-01  -4.4234324e-01  -7.4542702e-01  -3.5274147e-01   5.4484467e-02  -8.7261273e-01   2.2596807e-01   2.4182366e-01   5.4854532e-01   1.3909602e-01  -9.8177149e-02  -1.6155102e-01   1.6625130e-01  -2.9424308e-02  -6.2204200e-01   8.5104426e-01  -2.2390523e-01   6.4818734e-01  -8.4431516e-01   5.6073952e-01   5.4152417e-01  -6.2497286e-01   4.1179708e-01   1.6746787e-01   3.1352948e-01   3.6477962e-01   7.8351759e-01   9.2853641e-01   6.4631539e-01  -5.5244158e-01   2.4611083e-01  -1.4880325e-01  -4.0534951e-01   1.5248261e-01  -9.7431900e-01   1.8521846e-01   2.4547669e-02   6.0490841e-01  -9.7752008e-01  -6.2788037e-01   9.8637227e-01  -4.0317197e-01   9.1255606e-01   3.7487757e-01  -9.0877336e-01  -3.0312848e-01  -4.3360634e-01  -8.4443463e-02  -9.3773900e-01  -5.7451683e-01  -4.1260588e-01   1.5080037e-01   2.0321504e-01   2.9204982e-01   1.5682112e-01  -8.1749003e-01   7.5053366e-01  -9.3590840e-01   5.0076709e-01  -1.4697672e-03  -5.0231504e-01  -2.7610067e-01  -7.7936909e-01  -3.9676439e-01   1.5949168e-01   8.6620319e-01   4.7259971e-01  -3.8043083e-01  -5.3702182e-01  -6.5943658e-01  -4.0989517e-01  -4.7941371e-01   2.6771266e-01   4.9771966e-01   4.2351329e-01  -8.1464660e-01  -8.5560379e-01  -4.3824547e-01  -7.2134973e-01  -6.9832529e-01  -7.1510320e-01   8.1419990e-01  -5.8753013e-01   7.1702422e-01  -9.0104566e-01  -8.1652769e-01   9.8177997e-01  -9.8541364e-01  -7.9811196e-01  -7.3364236e-01  -6.5411425e-01  -5.5021025e-01   1.1640686e-02   5.3424322e-01   1.2990022e-01   4.6446948e-01  -9.1395041e-01   9.3103876e-01  -4.8363984e-01  -4.2196792e-01  -8.2981667e-01   3.0182297e-01  -5.4407455e-01   1.3760854e-01   5.6231369e-01   5.4044185e-01   5.8762422e-01   4.6212364e-01  -4.3960687e-01   3.2684898e-01  -6.2606468e-02  -3.4888927e-01   4.0071506e-01  -3.1046491e-01  -4.1280261e-01  -8.4046906e-01   9.7478589e-01   2.9929006e-01  -2.0046380e-01  -3.7977260e-01  -6.9671632e-01   2.6536402e-01  -8.5031654e-01   1.0345027e-01  -2.7072349e-01  -6.0954650e-01   8.8421716e-03   8.4764240e-01   7.2959851e-01  -7.2868852e-01  -5.8766152e-01   9.1825959e-01  -5.7235128e-01  -6.9289360e-01  -7.2946912e-01   3.4054286e-01   6.1255842e-01  -9.2786855e-01  -1.0735489e-01  -5.2611108e-01   2.9076128e-01   5.8500413e-02   3.5480590e-01   3.0324407e-01   4.3779175e-01   2.9131124e-01   5.1749167e-01   6.9249989e-01  -5.1899331e-01   3.5041857e-01   7.6985615e-01  -8.0825017e-01   1.6137922e-01   5.4394232e-01   1.3991096e-02   5.3648263e-01  -5.1056709e-02  -1.1779164e-01  -1.9075727e-01   4.0813678e-01   8.4849164e-01   5.0343764e-01  -5.8139392e-01  -1.4281346e-01   9.7284770e-01  -5.5407283e-01   1.1219609e-01  -2.3683872e-01  -9.9622608e-01   9.3917381e-01   2.6794281e-01   6.3381009e-01  -1.4283464e-01   7.2760618e-01  -1.1058144e-01   7.8488038e-01   1.9658335e-01   7.1193986e-01   2.5508926e-01  -2.7472878e-01  -3.6627889e-01   3.8179061e-01   9.3285955e-01  -8.4768353e-01   8.3960447e-02  -7.6870912e-01  -4.8474425e-03   2.4478133e-01   9.6276605e-01   5.0106971e-01  -3.4306376e-01   8.4531998e-01   6.2270385e-01   7.2317170e-01   9.9815837e-01  -1.4794491e-01   2.9832791e-01   9.7465293e-01   3.8503939e-01   3.3481861e-01   1.1513136e-01  -1.9667686e-01   1.8268934e-01   6.2154459e-01  -2.0328942e-02  -6.6034618e-01  -9.0713970e-01  -8.0216035e-01  -7.2449870e-01   2.3083987e-01   7.2356492e-01  -9.4725320e-01   7.9650439e-01   7.3722218e-01  -2.8456185e-01  -6.5884988e-01  -4.5124446e-01   1.0001914e-01  -5.2939886e-01   1.9901021e-01  -6.5449763e-01  -3.4654933e-01  -9.4107714e-01  -3.3389017e-02   6.9443677e-01  -1.7459168e-01   9.6785051e-01  -1.9342413e-01  -1.3342866e-01   3.2248189e-01   3.2579945e-01   2.0684467e-01   3.2903741e-01  -9.9988708e-01   6.9483042e-01  -7.4432804e-02  -5.0633475e-01  -7.8265719e-01   7.0464819e-02   2.7398214e-01  -8.1590283e-01   6.0522041e-02  -9.4048326e-03   7.5949412e-01  -1.4853514e-01  -9.2024601e-01   2.7146521e-02  -1.4913608e-01   6.2010710e-01   2.2124918e-01   5.4302868e-01  -7.9859756e-01  -7.6042122e-01  -1.4497675e-01  -1.9535775e-01  -1.0982530e-01   9.0064808e-01   2.8341389e-02   9.5625573e-01  -7.3349480e-01   4.5712323e-01  -2.6925890e-01   5.7850828e-01  -2.2482517e-01   1.4473233e-01   3.8238043e-01  -8.9836039e-01  -4.0172975e-01  -9.0399077e-02  -1.4866316e-01  -8.3733080e-01  -6.7284353e-01  -1.1484114e-02   1.5931774e-01   4.4459743e-02  -2.3076798e-01   4.1633650e-01  -8.5956358e-01  -8.6148893e-01   6.4855517e-02   1.5370787e-01  -4.6533132e-01  -6.1010725e-02   9.3199458e-01  -6.5852500e-01   7.0976942e-01  -2.8824429e-01  -8.6917553e-01   3.4616449e-01   4.0206825e-01   3.2621010e-01  -8.2090440e-01  -2.1554498e-01   8.9583958e-01   7.9983619e-01  -2.4503371e-02   1.8619737e-01  -8.1001954e-01  -8.8669201e-03  -6.5793929e-01  -4.3397000e-02   7.5771457e-01  -7.9625295e-01  -9.0614157e-01   9.4946877e-01   3.3217520e-01  -1.1157782e-01  -3.8789539e-01  -4.1549305e-01  -5.7959435e-01   7.1952583e-01  -7.6632403e-01   6.0387966e-01   4.8293209e-01  -9.7441531e-01  -5.6055623e-01  -7.9419116e-01   3.3491601e-01   8.9592595e-01  -3.0253188e-01  -5.6057352e-01   8.2271256e-01   8.5800536e-01   3.4973129e-01   5.7760381e-01  -4.7856434e-01  -4.6224561e-01   4.4538555e-01  -7.5219609e-02   4.6667430e-01   7.3941723e-01  -2.7597420e-01   7.6473208e-01  -2.2321565e-01   3.8273422e-01  -1.8135435e-01   2.3488122e-02  -4.1072212e-01  -5.1855944e-01   7.0676485e-01  -5.8837363e-01   6.8381982e-01   1.5158502e-01  -9.4414274e-01   7.0199627e-01   6.8468419e-01   2.3547394e-01  -4.5647614e-01  -8.3620745e-01   9.4996633e-01  -1.4924828e-01   8.3097315e-01  -7.9912517e-01   2.4538996e-01  -8.0219438e-01  -4.5793897e-01  -2.8433036e-01  -1.8157443e-01  -6.0326808e-01   7.4975033e-01  -1.8459916e-01   1.7919030e-01  -5.5437172e-01   2.9651647e-01   8.9115413e-01   3.9483510e-01  -9.6787288e-01   6.4660503e-01   4.2953718e-01  -7.3239806e-01  -7.3968494e-01  -2.0530141e-01  -8.2146185e-01   5.4756567e-01   9.2972880e-01  -4.1254667e-01  -2.7257766e-01  -2.4315366e-01   5.4357288e-01  -2.5526232e-01   1.1886673e-02  -1.4081475e-01  -2.6551993e-01   8.8540675e-01   5.0985104e-01   2.3894763e-03   9.7189232e-01   7.5669458e-01   8.0585227e-01  -9.3090844e-01   1.5335381e-02  -8.0859856e-02  -1.3450328e-01   4.3893729e-01   7.0639392e-01  -1.9158099e-01   6.0024687e-01  -4.5987246e-01   6.4743781e-01   7.2131704e-01  -5.1797662e-01  -9.3808612e-01  -2.4714725e-01   5.2658081e-01  -7.5964673e-01  -7.1339695e-01   1.3418918e-03   9.6748346e-01  -9.1572608e-01  -8.8508823e-01  -8.0396898e-01  -8.8562102e-02   1.3077030e-01  -8.2250203e-01   3.9623259e-01  -8.0133528e-01  -4.2683761e-01  -1.6057458e-01   9.5797943e-01   7.8830824e-01   9.0143639e-01  -2.3249290e-01  -6.9094447e-01  -7.0512719e-02   6.6324213e-02   8.0856121e-01  -9.4985193e-01  -9.1726632e-01  -1.9758596e-01  -2.3859948e-01  -1.1153927e-01  -4.7316716e-01   6.2004108e-01   3.7664452e-01  -2.4282532e-01  -9.3154207e-01   5.2494415e-01   7.6307937e-02  -4.1652982e-01   8.4547363e-01   8.8942938e-01   2.4521255e-01  -2.5581238e-01  -4.1468794e-01  -9.7472492e-01   7.1635968e-01  -7.2105952e-01   9.3145760e-01   5.7376021e-01   7.8855920e-02  -5.2608706e-01   8.5311401e-01  -1.1460412e-02  -5.4165984e-01   2.7043275e-01  -8.9908185e-01  -2.1643792e-01   7.1903207e-01  -5.7203808e-01   2.1625501e-01   6.2555908e-03  -5.1739763e-01  -9.7489168e-01  -4.2236589e-01   5.7082355e-01   2.0641228e-01   2.6113482e-01  -7.6173376e-01   8.3500854e-01  -4.1264429e-02   7.4735589e-01   7.7097943e-01  -9.8164821e-01   3.3506120e-01  -3.8516155e-02   3.6636929e-01  -1.1617654e-01  -9.3306704e-01  -9.5418027e-01  -4.1279598e-01   6.6176352e-01   8.6312982e-01  -2.8095602e-01   7.4112652e-01   1.8561813e-01  -1.4911731e-01   4.2848014e-01  -7.5590823e-01   6.4274156e-01   7.5364290e-01  -9.4197498e-01  -8.4084240e-01   1.5457622e-03  -6.5830438e-01  -2.5931424e-01  -9.2690328e-01   9.8324688e-01   8.5242192e-01   9.8455495e-01  -8.2966095e-01   3.2512911e-01   8.2740652e-02   7.4346923e-01   6.9810909e-01   7.6435724e-01  -8.4508593e-01  -6.8502017e-01   7.1176735e-01  -5.2323900e-01  -3.3335580e-01  -2.3639592e-01  -2.9237440e-01   9.6084472e-02   1.7044238e-02  -1.7729092e-01  -3.6220241e-01  -4.6261322e-01  -4.3401793e-01  -8.7962878e-01   2.8754520e-01  -3.7968886e-01  -2.4822446e-01  -5.0119297e-01   9.5466098e-01  -5.7050452e-01   9.2868342e-01   8.8981151e-01  -9.6031851e-01  -3.4666962e-01  -2.8396266e-01  -8.6845909e-01   9.2699858e-01   9.5735155e-01   2.7559534e-01   2.2283594e-01  -4.8243834e-01   7.1491701e-01  -3.9526311e-01   9.5811600e-02  -4.1721364e-02  -2.1682377e-01   3.4028226e-02   3.4277214e-02  -3.9561075e-01  -9.1339794e-01  -8.1682624e-01  -3.2435720e-01   8.4863122e-01   7.3711285e-01   4.0189920e-01   6.2537017e-01  -9.8239300e-01  -6.1355518e-01  -1.2002824e-01   4.8829286e-02  -7.8954893e-01  -5.5099458e-01  -7.4657302e-02   7.4408898e-01  -5.2439024e-01  -2.5373703e-01  -4.2439451e-01   8.7891840e-01   4.5883281e-01   1.2761813e-01   4.8346043e-01  -6.9144352e-01   7.4542159e-01  -4.0080804e-01   6.4405902e-01   7.3304934e-01  -5.9859665e-01   7.1405986e-01  -8.9314907e-01  -7.8922615e-01   7.2784925e-01  -5.5936666e-01  -3.1775973e-02   5.6613793e-02  -1.3500890e-01   9.8432186e-01   7.7548313e-01   8.6970348e-01   1.3850889e-02  -4.2170492e-01   6.0234273e-01  -8.8306226e-01  -9.7708940e-01  -8.4836735e-01   8.6015770e-01  -4.0736983e-01  -4.4146371e-01  -8.2306141e-01   3.6674033e-01  -9.1131427e-01   7.2042905e-01   3.3118551e-01  -2.8250785e-01   4.2667174e-01   6.4612137e-01  -9.8213748e-01   4.4682529e-01  -1.6935287e-01   1.6974541e-01  -4.8420745e-01   4.4771885e-01  -1.0126254e-01   7.5687592e-01  -7.8610044e-01   6.7879803e-01   7.2257413e-01  -2.6503185e-01   3.2167420e-01  -9.9102353e-01  -5.8852984e-02   5.8825444e-01   8.0289574e-01   9.2380190e-01   6.6108784e-01  -8.3745669e-01  -5.4873235e-01   3.0501427e-01  -9.1312886e-01   8.2873545e-01   5.8710847e-02   4.1320916e-01  -2.5589878e-01   4.2774351e-01  -8.2569845e-01   4.7466036e-01   2.5796544e-01   9.7794804e-01   6.0126902e-01   1.5503875e-01  -7.5743723e-01  -4.3704917e-01   7.9740617e-01  -6.2946572e-01   8.8470806e-01   3.0879504e-01   3.8957458e-01
