  -9.3413005e-01  -6.1317629e-01  -3.0443121e-01  -8.9335185e-03   1.8401728e-01   1.9913577e-01  -1.2665590e-01   5.3941932e-01   6.6719829e-01   7.0964076e-02   5.1438107e-01  -6.8350663e-01   2.6675177e-01   3.2024420e-01  -9.3624936e-01   5.0912787e-01   7.0192580e-01  -6.7947679e-01   7.4329165e-02  -9.6238241e-01  -4.7413223e-02   9.9110786e-01  -9.3616128e-01  -3.3960371e-01  -1.7166069e-01  -2.5325178e-02   5.1294351e-01   3.0539460e-02  -5.6998807e-01  -2.6564032e-01   2.7005134e-04   8.0320881e-01   6.5513819e-03   3.9748851e-01  -1.1778024e-01   9.3419802e-01  -5.9032826e-01  -6.4320657e-01   5.7988637e-02  -4.9540994e-01   6.1764796e-02  -4.7291191e-01  -2.9732530e-01  -4.4460818e-01   3.3286009e-01  -4.6328776e-02   4.8894255e-01   9.3765848e-01  -7.9639807e-01   4.8820730e-01  -2.2331590e-01  -9.9265663e-01  -3.7083323e-01   4.3520784e-01   5.5864861e-01   8.1863399e-01  -3.8717834e-01   4.1075303e-01   3.4665402e-01  -1.1223621e-02  -6.5677736e-01  -8.0429367e-01   4.1328927e-01  -1.9208386e-01  -7.7681503e-01  -2.1882169e-01   9.0808476e-01  -9.8261267e-01  -5.6485631e-01  -6.5206267e-01   8.6136984e-01  -5.8782298e-01  -1.9605341e-01   1.6691646e-01  -1.4343542e-02  -4.4827228e-01  -6.9187481e-01  -6.8973982e-01  -9.7183345e-01  -9.7092540e-01  -2.3609458e-01   8.6368790e-01  -6.1056186e-01   4.2796911e-01   1.5596883e-01   7.1765230e-01   9.9333356e-01  -6.2996933e-01  -9.7970502e-01   6.5578133e-01   4.4205068e-01   8.0584038e-02  -7.9626756e-01  -7.9287487e-01  -7.5055214e-01   8.7143060e-01   4.3951182e-01  -4.7852247e-01  -4.6334660e-02   5.1640848e-01  -8.9745514e-01  -3.2834965e-01  -6.9556806e-01   7.6223045e-01  -9.1131007e-01  -2.7938413e-01   9.1126141e-01  -6.5000787e-01   4.2628364e-01  -6.3746203e-01   1.8781380e-01   3.4788845e-01  -7.8149089e-02  -5.7595897e-02   9.7298322e-01   7.6246399e-02   8.8207049e-01  -4.0582791e-01   5.0276563e-01   1.8839642e-01  -2.4989901e-01   8.5063264e-01  -5.6657372e-01   7.9005071e-01   8.5014103e-01   4.5699998e-02  -2.1142503e-01  -4.4940760e-01   9.6046258e-01   7.3211663e-02  -8.5728253e-01  -5.9225195e-01  -8.1843430e-01   3.7224234e-01   2.1802290e-01   6.9509435e-01   3.2219630e-01  -9.6288431e-01   3.6278233e-01  -2.8115222e-01  -2.9490454e-01  -2.6783984e-02   4.8633009e-01   4.0082573e-01  -5.7723429e-01   8.1203738e-01  -4.5968509e-01   1.2575599e-01  -2.0061028e-01  -4.3698311e-01   1.5317216e-02  -6.0371436e-01  -7.7953087e-01   2.5071857e-01  -1.0139048e-01   4.0962195e-02   3.9743604e-01   4.7367636e-01  -5.6368803e-01   3.9226083e-01   1.9354776e-01  -7.6520039e-01  -9.7998001e-01  -9.5883409e-01  -2.3582207e-01  -1.0078469e-01  -3.3907897e-01   1.8404460e-01   6.0718399e-01  -5.3800671e-01   9.3146318e-01  -9.0769928e-01  -9.8814517e-01  -4.7286337e-02  -1.5059031e-01   1.4631556e-01  -7.9263277e-01   6.2826317e-01   5.5940898e-01  -1.8755475e-01   3.7847697e-01   2.5709920e-01   3.8793434e-01   5.3375770e-01   7.0640865e-01  -1.6057020e-01  -5.2667039e-01   5.6881530e-01  -4.7137496e-01  -9.2292122e-01  -2.3687458e-01  -2.1605850e-01  -5.1828348e-02  -7.9844406e-01   5.0701677e-01  -7.1208172e-01   9.5765995e-01  -9.4484495e-02   5.5589073e-01   8.3550960e-02  -9.7103477e-01   7.0566612e-01  -8.0944474e-01   3.6575887e-01   1.3947246e-01  -3.1124827e-02   7.5608850e-01  -5.8215577e-01   9.7051580e-01  -7.9269780e-01  -4.0197731e-01  -7.4614787e-01  -1.8426509e-01  -7.5601580e-07  -4.8852456e-01  -1.6732831e-01  -3.3119684e-01   7.4185120e-01   6.3879618e-01  -3.1564352e-02   4.2374943e-02   8.6060722e-02   7.9939012e-02  -6.5399242e-01  -7.2882979e-01  -7.2242542e-01   5.3991680e-01   7.5320857e-01   6.1207491e-01  -1.0117960e-01   1.2714166e-01  -1.2307759e-01  -1.7287654e-01   5.8375416e-01  -2.6828499e-01   3.3022773e-01  -3.1877613e-01  -8.5104218e-01   7.2602882e-01   6.5023631e-01  -8.4861940e-01   5.4183482e-02  -6.4219174e-01   3.8024959e-01  -8.7260461e-01  -7.8370849e-01  -9.8854271e-01  -3.9135400e-01  -5.3164804e-01  -8.0749213e-01   3.7540714e-01  -8.8179938e-01   8.1443726e-02   8.8236901e-01   7.1054152e-01  -3.1042153e-01   8.7846491e-01  -2.2200033e-01  -4.5994422e-01  -8.8755965e-01  -5.5368615e-01  -1.6146203e-01   2.5843057e-01  -7.8342955e-01  -6.2311428e-01   8.2828464e-01   1.0080042e-01  -4.9528442e-01  -8.9749598e-01   9.7101777e-01  -2.8178468e-01   7.1379678e-01   8.9129471e-02  -3.0104899e-01  -4.8627618e-01  -6.6182076e-01  -3.0462172e-01   8.2324768e-01   6.7964290e-01  -6.8871212e-01   5.7592433e-01   8.7830959e-01  -4.7503312e-02  -9.4571287e-01  -3.3558158e-01   8.7534308e-03   9.3744473e-01   6.5636683e-01   2.0328467e-01  -3.0251664e-01   8.5091445e-01   9.4379928e-02  -3.7704834e-01   2.5089527e-01  -6.9982385e-01  -9.0339872e-01   4.6507226e-01   1.3474703e-01   2.2459091e-01  -9.6367211e-01  -2.1947342e-01  -5.5426706e-02   3.4554075e-01  -8.9808631e-01   2.5391994e-01  -5.0537989e-01  -4.8473492e-01   7.4324777e-01   3.7301852e-01  -4.8455154e-01   7.3035204e-01  -5.3349802e-01   9.7251776e-01   8.5061948e-01   2.8911619e-01  -7.7310796e-01  -4.1711617e-01  -4.9602609e-01  -1.4731734e-01   4.2177558e-01  -1.2480982e-01  -6.1091266e-01  -8.7126697e-01  -2.3599958e-01   2.7087441e-01   1.4899301e-01  -6.3119200e-01  -4.1376554e-01   5.4672568e-01  -2.0888853e-01   2.9606104e-01   8.0693102e-01  -1.8433890e-01   5.8915551e-03   9.0413403e-01   1.8893580e-01  -3.3142681e-02  -6.8816702e-02   3.5618227e-01   7.8909847e-01   1.6485625e-01  -5.7527673e-01   9.5331978e-01   9.4924579e-01   7.4401933e-01  -9.8241338e-01   7.9863704e-01  -9.1158914e-01   3.3578751e-01  -2.2824021e-01  -8.4686904e-01   5.2265965e-01   9.0211627e-01  -7.5107353e-01   8.1854624e-01   7.2944257e-01  -8.2506415e-02  -6.8274316e-01  -6.5005342e-01  -1.1855867e-01  -6.1731721e-01  -1.4440533e-01  -4.5468152e-01   6.8650812e-01  -2.5818288e-02  -5.8304715e-01  -5.5418213e-01   6.2780511e-01  -7.7913790e-01   1.8673243e-01  -1.3733647e-01   2.5314747e-01   5.7450407e-01   1.4870530e-01   8.6396898e-01  -6.2356376e-01  -4.5977432e-01  -2.6036798e-01   1.0691430e-01  -5.5175141e-02   7.7930359e-01  -7.6721042e-01  -9.6771602e-01  -7.8818948e-01  -6.6271291e-01   7.6534900e-02   5.8928570e-01   1.4688248e-01   8.9404939e-02   5.6546497e-01  -2.3847568e-01  -2.0382218e-01  -5.6153103e-01  -5.1087244e-01  -7.2506951e-01  -4.7384371e-01  -6.6863203e-01  -2.0514261e-01   2.0900651e-01   1.2247861e-01  -3.3264625e-01  -5.8715779e-01  -5.3758518e-01   9.5183316e-01   6.4742216e-01   6.8148315e-02   1.1928486e-01   7.5706335e-01   8.2009146e-01  -6.7547682e-02   7.4642808e-02   8.6975700e-01   4.7407990e-01   4.7560780e-01   3.5663801e-02  -2.3721671e-01   5.2503437e-01   9.9731099e-01  -4.6175648e-01   2.1555466e-01   8.2537920e-01  -3.7343633e-01  -2.8888470e-01   3.3378632e-01   7.5435411e-01  -8.6615534e-01   8.6813045e-01  -5.1286063e-01   6.0465452e-01   2.1406104e-01   6.1962275e-01   6.5968307e-01   3.9960545e-01   9.0631491e-01   7.3908056e-01   7.1090468e-01  -9.2168055e-01   9.0525112e-01  -9.8800651e-01  -2.0202426e-01  -8.6321475e-01  -7.9160328e-01   3.0770563e-01   4.7451404e-01   2.5069931e-01   4.8833889e-01  -2.6488557e-01  -7.9496735e-01   3.8245166e-01  -5.4526751e-01  -6.0110212e-02   5.4165966e-01   8.3139418e-01   8.9888076e-01   3.9720868e-01  -2.9413158e-01  -5.1764972e-01   7.4986864e-01   7.8922340e-01   9.6436901e-01  -2.0907784e-01   8.5568001e-01  -2.5096119e-01   7.6319453e-01   8.6109272e-02  -3.2550894e-01  -6.8182012e-01   6.8042638e-01  -4.6080040e-02  -8.2307766e-01  -2.1994636e-01   2.7566246e-01   4.1944512e-01  -7.6004627e-01   5.4721387e-01  -7.9555740e-01  -4.8086387e-01  -5.4989886e-01  -3.3038591e-01   6.5246430e-01   4.8477338e-01  -8.8990924e-01  -7.2830568e-01  -2.9950076e-01  -3.0395243e-01   4.0759100e-01   2.9846611e-01  -9.5102352e-01   5.5276300e-02  -1.9024593e-01   4.4096708e-01  -1.4290213e-01  -6.1859473e-02  -9.8145981e-02  -5.6399420e-01  -1.6406116e-02  -7.2196085e-01  -1.7605581e-02  -3.2185658e-01  -3.2729283e-01  -4.1438896e-01   4.9096964e-01   6.5684445e-01   9.3353577e-01  -3.0177677e-01   7.0641124e-01   5.7992409e-01   4.7141076e-01  -9.1695638e-01  -7.6290949e-01  -5.4052818e-01  -6.1755327e-01   7.1440549e-01  -6.9234225e-01   5.8237213e-01  -8.5041297e-01  -6.6975899e-01   4.1792820e-01  -4.8702606e-01  -9.7736471e-01  -9.8184682e-01  -5.1352588e-01   1.2849273e-01   2.5157189e-01   5.0051464e-01   4.0902644e-01  -6.1710382e-01  -9.3764334e-01   6.8958047e-01   3.5128179e-01   5.1003745e-02  -2.9612787e-01  -1.4300877e-01   3.9972894e-01   7.9219444e-01   8.9900239e-01  -6.1533346e-01   3.9070469e-01  -4.9193313e-01   9.9177199e-01  -4.6745331e-01  -5.6925600e-02  -2.5661724e-01   6.8479333e-01  -4.8845486e-02  -7.9801739e-01   4.2912139e-02   5.8779133e-01   9.3755269e-01  -1.7637521e-01   2.7501130e-01  -4.5149520e-01   8.0694723e-01   5.1004867e-02  -4.6842137e-01   4.7280418e-01  -9.3181023e-02   9.5955125e-01   8.7355453e-02   4.2433949e-01   2.8640117e-01   6.8747391e-01  -5.3049662e-01   8.5723552e-02   6.9494992e-02   2.4062820e-02  -4.9875513e-03   3.2396090e-01   6.3086856e-01   8.0787647e-01  -1.9985920e-01  -4.9399248e-02  -5.7783300e-01   6.1328764e-01  -6.3432194e-01   2.0419868e-01  -3.5883966e-01  -2.4366546e-01  -7.5391638e-01  -2.6187257e-01  -4.6969927e-01   8.1219159e-01   1.2763816e-01   3.4314757e-01  -7.1366595e-01  -9.4899927e-01   9.1050301e-03  -8.9061620e-01  -6.1076237e-01   9.8131328e-01  -8.8213554e-01   8.6434688e-02  -1.0311777e-01  -4.2640439e-01  -9.0552614e-01  -5.9065854e-01  -9.1953504e-01  -1.7663861e-01  -7.5220796e-01   6.5645712e-01  -3.5819182e-01  -8.4790971e-03   8.8628420e-01   1.5382383e-01   2.7151614e-01  -5.0119853e-01  -6.4709275e-02   9.5183230e-01   6.9535147e-01  -6.2811841e-01   7.0390760e-02  -8.4764342e-02   2.9673456e-01   7.4696880e-01   5.7936103e-01   1.2790986e-01  -1.2428340e-01  -4.9081553e-01  -5.4351411e-01  -2.9769789e-01  -5.4041785e-01   6.5567250e-01   7.0906689e-01   3.6171467e-01   5.5389437e-01   8.3037446e-01   6.0638238e-01  -9.6463821e-01  -9.6037811e-01   9.8871588e-01   1.7909189e-02   3.0855598e-02  -1.3116004e-01  -6.1351523e-01   3.0368307e-01  -5.2503650e-02  -3.0568220e-01   8.8049545e-01   2.6478555e-01  -4.1908887e-02   9.9316023e-01  -7.6941698e-01  -1.2201651e-01  -1.3703175e-01  -2.7559107e-01  -8.3572329e-01   2.2842294e-01   5.2454518e-01   4.2999391e-01   7.5364489e-01   5.7503333e-01   2.9959109e-01   6.3715774e-01   1.5756427e-01  -1.6282796e-01   4.1101784e-01  -6.8820097e-01   1.9997209e-01   2.5496868e-01  -6.9363563e-01   5.1131077e-01  -9.7302216e-02  -2.7411940e-02   8.5490441e-01   7.3636559e-01   2.0598543e-01  -9.0162450e-01   6.5603845e-01  -2.1361311e-01  -2.8307978e-02  -8.5755049e-01  -7.6272111e-02   8.8794828e-01   4.7478589e-01   7.2907561e-01   6.1459371e-01  -1.6576800e-01  -8.6941032e-01  -1.1604936e-01   5.7529097e-01  -6.8414016e-01  -8.3491153e-01  -2.0902367e-01   4.3140228e-01   5.8879402e-01  -6.5121180e-01   2.0537144e-01  -6.6104899e-01  -7.8715803e-01  -9.9009644e-01   5.4782563e-01  -4.4177869e-02   9.8598708e-01   4.3578378e-02   3.0804142e-01   9.8850609e-01   5.8947545e-01   4.3262003e-01   7.1150655e-01  -6.5746416e-01   2.9191949e-01  -6.7395415e-01   9.6632027e-03  -4.4508720e-01  -3.7994943e-02  -4.6466090e-01  -7.8379101e-01  -6.4247698e-01  -1.4366258e-01   5.6589378e-01   9.5800320e-01  -8.3708528e-02   8.5678508e-02   9.7553015e-01   4.0734218e-01   9.4152007e-01   9.5800593e-01   6.6928753e-01  -9.3767653e-01   3.8046776e-01   3.3687753e-02   2.5171097e-01   8.2532992e-01   4.7996915e-01   2.1951181e-02  -6.4608644e-01   9.3005709e-01   5.4335655e-01   9.5980931e-01  -2.6192220e-01  -3.9074465e-01  -2.9578614e-01  -4.4685584e-01  -9.0559385e-01   5.3474589e-01   9.9218143e-01  -9.2455786e-01  -8.0300776e-01   7.5757493e-01   6.0074761e-01  -9.3896828e-01   2.9954041e-01   1.6231108e-01  -9.6959459e-01   6.2391670e-01  -4.5568925e-02  -8.1783329e-01  -6.1104269e-01  -4.5840432e-01   2.7186234e-01   1.2021320e-01  -6.6309343e-02   3.3052911e-01  -1.4483368e-01   1.3596891e-01  -6.9245423e-01   3.8262166e-01  -5.2188443e-01  -7.8064389e-01   3.5948573e-01   8.4134109e-01  -5.7168850e-02   3.4215677e-01   5.2803392e-01  -6.8543538e-01   9.6616253e-01  -6.3846432e-01  -6.2948704e-01   2.7303299e-01  -2.0479722e-02   8.0113751e-01   2.3664957e-01  -5.0044413e-01  -1.6665084e-01   8.4113306e-01   7.0117617e-01  -4.1643779e-01  -1.1286560e-01   8.1649225e-01  -4.3523478e-01   2.8063576e-02  -3.6061717e-01  -1.6236084e-01   9.1380537e-01   1.4883412e-01  -5.6268154e-01   6.4701761e-01   5.2589932e-01  -8.2516446e-01  -5.4203274e-01  -7.3151396e-02   3.6157809e-01  -5.1677039e-01   9.0024477e-01  -2.5319609e-01   2.7443721e-01   9.4961011e-01   4.3631519e-01  -2.1796164e-01   3.1737420e-01   8.5480838e-01   3.2330514e-01   8.5341563e-01   8.4556841e-01   5.0255621e-01   9.5026020e-01  -8.7182681e-01   6.3894503e-01   6.9971887e-01  -8.6981779e-01  -6.9057398e-01  -2.7389572e-01  -6.4675117e-01   1.1823448e-01   1.5966780e-01   3.7523949e-01   4.0964752e-01  -7.5706889e-01  -4.9739030e-01   5.0264266e-01  -2.3293429e-01   8.5995020e-01   5.2011288e-02   8.2567958e-01  -4.7610433e-02  -5.4244238e-01   3.7669956e-02  -3.2999876e-01   3.6311576e-01  -4.6559106e-01  -7.6079733e-01   6.7450482e-01   5.4794070e-01  -1.9836237e-01   9.8668412e-01   8.4176875e-01  -2.8955305e-01  -9.6786871e-01   4.6043262e-01   8.7287639e-02  -8.9387548e-01  -4.0793106e-01  -4.8101578e-01   9.1679109e-01  -8.9389879e-01  -4.7201725e-01  -4.7223077e-01  -1.1069005e-01  -8.2263090e-01  -6.7662384e-01   1.6333561e-01   8.7600927e-01   3.1811773e-01  -7.6789781e-01  -5.8137909e-01   5.7583460e-01   2.1229446e-01  -5.4422555e-01  -8.6035096e-01   2.4113829e-01   6.8252368e-01  -8.1207867e-01   3.3324537e-01  -8.6112455e-01  -8.1555355e-01  -1.9556444e-01  -1.6217251e-01   3.9467825e-01   3.7678623e-01   1.4461153e-01   2.7859825e-01  -9.4844582e-01  -8.2225026e-01   7.4514541e-01   1.3486597e-01  -8.3577378e-01   2.1436219e-01  -6.8111345e-01   9.2473160e-01  -7.9400689e-02   3.1548538e-01  -9.8644932e-01  -3.0158575e-02   4.5504997e-03   4.9815004e-01  -2.7991104e-01  -8.0154168e-01  -3.1406539e-01   3.7143657e-01   7.2331768e-01  -8.3933778e-01   7.1428073e-01   5.6290265e-01  -5.2489351e-01   3.0468545e-01  -7.2907405e-02  -7.5081705e-01   7.1702088e-02  -4.2988118e-01   7.0584294e-01   5.7869925e-01  -6.9108354e-01   7.1667502e-01   9.0869930e-01   3.5721868e-01  -7.2171746e-01   6.3269240e-01  -2.8602907e-01  -7.0934164e-02  -7.4484443e-01  -2.7050350e-01   1.2813012e-01   1.8708606e-01  -7.4096528e-01   4.0698021e-01  -5.2847959e-01  -8.7964946e-02  -5.1079429e-01  -7.7663558e-01  -2.1696854e-01   7.2486690e-01   4.2224642e-01   7.0826215e-01  -7.3463196e-01  -8.6339356e-01  -1.7142770e-01   9.3102063e-01  -9.0931134e-01   5.1748781e-01   7.8115625e-01  -4.4781212e-01  -5.0981169e-01   9.8498865e-01  -2.8571502e-01   1.8936648e-01  -7.0764555e-02  -5.8159466e-01  -1.4626847e-01   5.9650717e-01   1.2063297e-01   7.6109224e-01   1.9468838e-02   4.3402350e-01   3.9450584e-01   2.0431708e-01   7.4922954e-01   2.5308241e-01  -5.0367509e-01  -3.5591303e-01  -5.0021854e-01  -2.5995567e-02   4.3501300e-01  -4.0557513e-01  -6.2962543e-01   5.3970342e-01   6.4745206e-01  -2.6511025e-01   4.8155502e-01  -2.9260965e-02   7.1324004e-02  -8.5657181e-01   5.5494147e-01   9.1552811e-01  -2.1582587e-01   4.1197631e-01  -8.6496605e-01   9.6552906e-01  -1.6607796e-01  -4.3454263e-01  -9.3317945e-01   4.4314395e-01   3.7447625e-01   3.2283616e-01  -7.4050875e-01  -3.5636228e-01  -3.1508152e-01   7.9493182e-01  -3.3755491e-01   2.3220872e-01  -7.4184131e-02  -4.1780889e-01   9.9558788e-01   2.1936401e-01   8.4153352e-01  -5.5131558e-01  -7.2813424e-01   8.1256495e-01  -8.6369796e-01  -7.2627820e-01   3.0491038e-02   2.0326078e-01  -3.6242759e-01  -5.0550907e-01   1.3281507e-01  -7.3314882e-01  -6.2753194e-01   7.3477809e-01   8.5778217e-01   8.2603525e-01  -9.0691702e-02
