   8.1655701e-01  -8.3251906e-01  -1.3773386e-01  -2.6250119e-01   5.2752603e-01  -9.0117865e-01  -7.4256588e-01   3.7810100e-01  -8.8088554e-01   5.5413597e-01   9.0376664e-01  -3.8955251e-01  -2.2522637e-01  -5.4843569e-01  -4.3762749e-01  -5.7740002e-01  -1.0181710e-01   5.4061023e-01   1.4819124e-01   7.5382625e-01   9.8365251e-01   5.3222809e-01   5.3468179e-01  -8.3152466e-01  -2.6534143e-01  -7.3162483e-01   9.4426788e-02  -2.6179694e-01   6.7101084e-02  -5.8128788e-01  -6.3208398e-01  -9.8217672e-01  -1.1490867e-01  -9.6877807e-01  -8.5260082e-01   7.1093225e-01   2.5775111e-02  -4.3924982e-02  -2.2006773e-02  -2.8798453e-01   6.6347673e-01  -2.9559435e-01   7.6349928e-01  -3.3071542e-01   9.5124788e-01  -5.4601194e-01  -2.7471133e-01  -8.8895239e-01  -2.7406597e-01   8.8262175e-01   2.5218930e-01   9.7974566e-02   9.4911016e-01  -5.5663100e-01   9.8942434e-01   5.4646289e-01   2.6589498e-01   3.8974141e-01  -9.8129973e-01  -4.7524690e-01  -7.6704378e-02  -8.9340567e-01   2.6462759e-01  -3.2452318e-01   1.7581215e-01   7.1679580e-01   8.3202139e-01   2.5711763e-01  -1.1118588e-01   8.8841667e-01  -6.9468462e-01  -1.3254075e-02   2.2535690e-01   2.1660336e-01   8.2651203e-03  -3.5292113e-01  -4.3671546e-01   1.0941538e-01  -5.6507444e-01   5.1301504e-02  -3.5708506e-01   7.5865242e-01  -9.7931086e-01   3.8106201e-01   6.2670725e-01   4.7024916e-01  -9.5866105e-01   3.0917053e-01   3.8601213e-01  -3.3694763e-01   2.3825034e-01  -1.0378435e-01   5.4174576e-01   2.9780546e-01   3.9492679e-01  -5.2699233e-01   2.5218984e-01   7.0387723e-01   5.8330403e-01   4.1144707e-01  -9.5996501e-01  -9.7620052e-01  -7.7003282e-01   8.8776896e-01  -8.0173010e-01   4.1464519e-01  -5.5562455e-01  -7.7853414e-01  -9.4521730e-01  -8.1648195e-01  -3.8069644e-01  -6.4677443e-01  -7.7239686e-01   2.5706785e-01   2.7973642e-01   4.3319854e-01  -6.3292994e-01  -3.3645792e-01  -7.3728196e-01   5.6107353e-01  -6.3200678e-02  -6.6286657e-01   1.2605462e-01  -8.9370477e-01   1.4815712e-01   8.1236251e-01  -2.2011667e-01   5.3130088e-01   8.3910692e-01   9.5080976e-01  -1.9802696e-01  -5.6672703e-01  -2.8113541e-01  -5.7346434e-02   2.9410756e-01  -6.6174179e-01  -3.7903120e-01  -7.9749680e-01  -7.7988991e-01  -1.1236128e-01   1.4154255e-01   8.4745501e-01   3.7671680e-02   5.9985490e-01   7.5838895e-01   1.4548593e-01  -9.0736063e-01  -5.3544266e-01  -3.3803565e-01   1.1618297e-01   5.1277595e-01  -5.1008471e-01   8.4817481e-01   5.6607584e-01   9.2011541e-01   2.2698532e-01  -9.7236691e-01   5.5495749e-01  -3.2782439e-01   8.2143238e-01  -8.2405876e-01   1.0385151e-01   1.8022444e-01   5.7543478e-01   1.7018034e-01  -1.0783042e-01  -5.8136402e-01  -6.1500521e-01  -1.3509013e-01  -9.3338996e-01  -2.2441222e-01   8.5393394e-01   2.6207100e-01   9.8877349e-01  -8.7850812e-01  -3.1521449e-01  -9.6464630e-01  -4.1441788e-01  -2.5151147e-01  -5.4519537e-01   9.1745402e-01   5.9009914e-02   5.5540823e-01   7.1192197e-01  -5.3969619e-01   4.6969853e-01  -7.9696419e-01  -7.8740974e-01  -4.5693589e-01  -5.2212317e-02  -7.6247728e-01   2.8780766e-01   8.4015167e-01   9.3188917e-01   7.9712481e-01   6.4112869e-02  -2.3669615e-01  -3.0313434e-01   4.6688643e-01   2.5771196e-01  -7.6075671e-01  -2.0247861e-01   3.1715324e-01   6.4667377e-03  -7.3570434e-01   1.1513946e-02   8.3786077e-01  -9.1289994e-01   5.5704089e-01  -4.5061998e-01  -8.7240150e-01   2.2739016e-01  -5.5135905e-01   3.8653781e-02  -2.9945372e-01  -3.2506363e-01  -6.1228506e-02   7.0175021e-01   8.6503338e-01  -8.2690405e-01  -3.6425534e-01   6.5662376e-01  -4.8284782e-01   1.4412964e-01  -3.1976630e-01  -4.6723908e-02  -4.1605285e-01   8.6357978e-01   6.7556670e-01  -6.2186742e-01  -6.1300317e-01   7.9805298e-01   1.0069796e-01  -8.6757649e-01  -3.8493863e-01   8.3411621e-01  -1.5891218e-01   5.6582315e-01   7.6325170e-01  -1.2450205e-01   4.9901459e-01  -2.4520239e-01   6.6523558e-01   3.4496039e-01  -1.4048259e-01  -2.2587455e-01   7.6492226e-01  -2.1123782e-02  -4.5496721e-01   8.5950761e-01   3.0233547e-01  -2.3250373e-01   9.7694346e-01   8.0920422e-01   2.6805408e-01   5.2690216e-01  -7.8180235e-01  -2.8038704e-01  -2.7697688e-02  -3.7202182e-01   8.2026592e-01  -3.9869804e-01  -5.0843778e-01   8.4679521e-02   3.1055064e-04  -4.8486245e-01   5.6471484e-01  -3.3656776e-01  -4.0303850e-01  -5.4425792e-01  -1.1549810e-01   3.9810447e-01   5.2482885e-01   5.5524668e-01   9.4464845e-01  -5.4320960e-01  -2.3809123e-02   2.5127632e-01  -6.5332164e-01  -7.8034165e-01   2.9832006e-01   3.1455326e-01  -4.8875554e-01   6.8385119e-01  -2.4614981e-01  -9.3633035e-01   6.3829313e-01  -1.6585728e-01   7.5966810e-01   7.2311102e-01   5.6144447e-01   5.3033537e-01   4.9575857e-01   3.5503912e-01  -8.1904682e-01  -2.9361861e-02  -4.1337953e-01  -1.1905243e-01   3.7658648e-01  -1.6210614e-01  -7.2821103e-01  -8.0245586e-02   8.9498477e-01   1.5073543e-01   4.0063867e-01  -9.3403841e-01   4.3104109e-01  -5.2885093e-01  -5.9709838e-01   6.9569278e-01   9.2706342e-01   9.2046209e-01  -2.1638643e-01   5.2515934e-01  -8.7676620e-01  -6.3859099e-01  -7.6345325e-01   9.2209936e-01   4.2463443e-01   5.0687890e-01  -1.3940487e-01  -5.1394691e-01   7.0189017e-01   9.0202967e-01   4.2525262e-01  -7.9567566e-01  -2.4126263e-01  -9.3081918e-01  -5.0913080e-01  -8.0099153e-01   3.7740764e-01   6.4251512e-01   1.4585698e-01   5.7637640e-02   7.1549989e-01  -7.6378987e-01   7.2792206e-01  -4.7092718e-01  -8.6776580e-01   5.8504730e-01   4.6812359e-01  -7.1323051e-01  -8.6565943e-01   1.8961390e-02   9.1667981e-01  -6.4670640e-01   5.2702037e-01  -2.1919384e-01   6.0721596e-01   1.9101755e-01  -4.3409890e-01   5.9901409e-01  -3.1986453e-02   8.1744772e-01  -8.3756947e-01  -8.4126096e-01  -8.3130763e-01  -4.4784818e-01  -8.9378726e-01   1.8437301e-01  -6.1238863e-01  -3.5606358e-01   7.6593176e-01  -6.3425620e-02  -1.6105888e-01  -7.3451331e-01  -3.0433189e-01   3.7219238e-01  -6.1894226e-01   4.5480887e-01   7.5451988e-01   4.3322095e-01  -7.2502987e-01  -6.0906629e-01   8.2511136e-01  -7.1049153e-01  -8.3045910e-01  -7.4235615e-01  -8.4521185e-01   9.4794166e-01   7.6842063e-01  -2.2352707e-01   2.2020410e-01  -3.6787299e-01  -9.9682407e-01   7.7007635e-01  -9.2196026e-01  -5.3913743e-01   3.0230276e-02  -6.5485051e-01   3.2555105e-01   1.8599870e-02   2.9184321e-01  -2.9740314e-01   6.5240943e-02   1.4475776e-01   9.2800619e-01  -1.7517962e-01  -9.7205596e-01   9.2000343e-02  -9.8249557e-01  -3.6215938e-02   9.1502649e-01  -1.2089969e-01  -4.8965128e-01   8.8629099e-02  -2.8217727e-01   4.5010477e-01   3.1333168e-01   9.5849560e-01   9.5153638e-01  -5.1974316e-01   2.2328673e-01  -7.1564522e-01   8.4499882e-01  -6.7034263e-01   5.0327541e-01   4.8384709e-01   9.8799889e-01   3.5923026e-01   5.3941344e-01   9.1308145e-01   3.3728089e-01  -2.2541035e-01  -4.5655139e-01   7.6803938e-01  -5.1659966e-01   6.1666416e-01   1.7846617e-01   5.2253359e-01  -9.7924047e-01  -3.5921486e-01   3.7290672e-01   2.6895204e-01   9.4706463e-01   2.1185760e-01  -3.5453444e-01  -7.7733330e-01   4.4273923e-01  -3.3968658e-01  -9.8687597e-01  -2.6199192e-01  -6.3931169e-01   3.6103152e-02   9.8517279e-01   9.8304738e-01   2.5203800e-02   5.3951706e-01  -6.1677710e-01  -9.1335708e-01   8.1364157e-01  -2.2052130e-02  -1.0550113e-03  -6.8355546e-01  -7.1556112e-01   6.0858970e-01  -4.8601374e-01   6.1928263e-01  -8.0133853e-02  -2.5613447e-02  -1.8265807e-01   9.4916069e-01  -6.6234233e-01  -4.3302646e-01  -5.8292517e-01   6.4623040e-01  -5.3115010e-01   9.3072204e-01   6.2414776e-02   7.4188568e-01  -7.3065908e-01  -8.4243885e-01  -6.7036820e-01  -2.6021663e-01   3.4405098e-01   5.8887362e-01  -1.8117717e-01   9.1648968e-01   6.9563512e-01   4.9858005e-01   1.6008254e-01  -9.5300169e-01   9.3807188e-01   5.5277049e-01   3.0297613e-01   6.4928719e-02   8.1798643e-01  -2.8364774e-01   1.5029747e-01  -8.9328777e-01   8.7527491e-01  -1.3804221e-01  -5.0803570e-01  -5.3023619e-01  -1.6816145e-01  -5.7846631e-02   9.1192273e-01   8.1102106e-01  -4.0637258e-02   3.8827860e-01   4.1892286e-02   4.1875909e-01   7.6358598e-01   2.9539776e-01   6.5976831e-01   8.2819308e-01   9.9837596e-01   8.1480831e-01  -5.4692101e-01   8.4213878e-01   7.4047286e-01   1.1610557e-01  -6.5405591e-01   7.1278517e-01  -6.4510813e-01   9.3275683e-01  -6.3182247e-01   8.6340435e-01   3.2932193e-01   5.2858764e-01   1.0547638e-01   1.7955314e-01   8.9540706e-01   2.3500342e-01  -8.0354517e-01  -9.9470426e-01  -5.7626574e-01  -7.1223948e-01   7.3743690e-01  -4.5528670e-01   9.3820826e-01  -8.4167446e-02  -4.9093373e-01  -8.1892422e-01  -9.1980329e-01   5.3711159e-01   8.6801546e-01  -7.3646807e-01  -6.5248800e-01   3.0565308e-01   2.4143296e-01   5.3553211e-01  -1.6967884e-01  -9.1898010e-01  -6.4840866e-01  -8.7721094e-01   2.3727619e-01  -8.2982295e-02   5.1486584e-02  -2.0290193e-01   2.3934009e-01  -8.2709564e-01   1.1229907e-01   1.1472076e-02  -3.8175962e-01  -5.8031404e-01   9.2760764e-01  -6.5476935e-01  -1.2640778e-01  -6.7407269e-01  -3.0814767e-01   6.4249672e-01   7.1898537e-01   6.9097675e-01   3.2939652e-01   3.4058990e-01   2.9640354e-01  -6.1220597e-01   8.9757965e-01  -8.4524618e-02  -7.1599005e-01   9.8428041e-01   1.1583212e-01  -5.5742753e-01  -1.7401348e-01  -1.7362356e-02  -8.3815111e-01   7.5316933e-01   6.9515590e-01  -1.2692840e-01   7.9390664e-01   1.3757483e-02   7.8137356e-01  -7.7082726e-01   4.5317510e-01   5.0716123e-01  -6.7954110e-01   7.2010344e-01  -5.3924818e-01  -3.9938454e-01   2.5324260e-01   3.8325144e-01   3.7639621e-01   2.4136736e-01   3.6849270e-01  -2.4647492e-01  -2.9228060e-01  -3.0246534e-01   6.8055167e-01  -1.3616248e-01  -7.6834689e-01  -5.0579423e-01   7.0734854e-01  -4.8804439e-01   6.2371952e-02  -4.3964916e-01  -6.4362836e-01  -8.8449401e-01  -9.6162694e-01   7.4030917e-01   8.7983405e-01  -3.7446378e-01   1.5424333e-02  -9.9987963e-01  -8.8103183e-01   3.8128658e-01   1.5505352e-01   1.9160112e-01  -2.8345294e-01   4.6534316e-01   9.4516737e-02   9.0568670e-01   6.8977930e-01   2.0541537e-01   3.3955730e-01  -1.4082162e-01   1.8619365e-01   3.3149975e-01  -4.6172286e-01   6.3185654e-01   8.7894205e-02  -5.8990966e-01  -5.1385686e-01  -3.8886594e-01   1.4771129e-02  -4.2953990e-01   3.9468233e-02   6.0860002e-01   5.2437613e-01   2.2284897e-01  -4.7941495e-01   3.3121608e-01  -3.8931407e-01   6.9176082e-01   3.8939642e-01   1.0242973e-01  -9.4620253e-01   4.7347673e-01  -4.9485036e-01   3.6134697e-01   2.3127474e-01  -5.7680375e-01   8.6040086e-01   8.1344790e-01   8.1135695e-01   8.2081202e-01  -6.9876649e-01  -4.4788012e-01   2.5199773e-01   5.9163759e-01   4.0920595e-02   2.8392942e-01   7.1095835e-02   2.0621629e-01   1.0689654e-02  -7.4065416e-02   5.3620941e-01  -5.3901543e-01   3.0067359e-01   3.4595330e-01   2.3582896e-01   7.8031775e-01  -1.4809521e-01  -5.1179948e-02   5.4729349e-01  -6.1536008e-01   4.1080466e-01  -6.0833472e-01  -6.5675733e-01  -4.4477465e-01  -2.1285223e-01  -9.9863065e-01  -1.6175906e-01   2.8573049e-01  -4.7597000e-01  -3.5320365e-01   3.6133612e-02   3.7829750e-01   9.2619760e-01   3.2567749e-01  -4.3720116e-01  -8.6840678e-01   9.7539544e-01   6.6941348e-01   7.3462812e-01   9.3760492e-01  -5.1407619e-03  -5.3310741e-01  -7.9030712e-01  -2.8823261e-01  -6.0326559e-01   5.4827827e-01  -2.5153947e-01   5.9594747e-01  -4.3777231e-01  -3.2048827e-02  -4.8386679e-01   5.5752325e-01   5.2405344e-01  -3.3855591e-01   8.8558399e-01   5.6378960e-01   4.3964996e-01  -7.1646114e-01  -3.8887822e-02   5.1358251e-01   8.4040944e-01   3.4020780e-01   9.0504301e-01  -6.4323337e-01  -5.8212696e-01  -9.7126745e-01   1.5701618e-01  -8.2321927e-02   2.8813852e-01   8.4281657e-01   7.1867449e-01  -7.4634878e-01   6.8113527e-01  -7.3296878e-01   1.7386363e-01  -2.1803373e-01  -7.6910411e-01  -9.0886945e-01  -2.2933690e-02  -6.0211999e-01  -9.9701049e-01  -9.3304019e-01   7.2870835e-01   1.0322173e-01   6.0503024e-01  -1.4360376e-01   9.7650309e-01  -8.4435652e-01   8.2810269e-01  -5.6292839e-01  -8.5128285e-01  -6.3253169e-01   9.5475360e-01   2.6369370e-01   1.8834795e-02   4.8396821e-01   4.3257073e-01  -5.9832266e-01   5.8759140e-01  -9.7964467e-01   9.3381108e-02   5.4185154e-01  -1.6850669e-02   3.5716352e-01   9.5877624e-01   2.2589018e-01  -7.7685110e-03  -1.7707671e-01   9.8120214e-01   8.3857711e-01  -9.8634251e-01  -1.8188229e-01   4.1208018e-02   5.4173919e-01   8.0332496e-01  -5.8522283e-01   4.5861587e-01  -6.6804208e-01  -8.4458818e-02   3.3592955e-01   4.9208827e-01  -1.7327103e-01  -3.0859899e-01   4.5074721e-01  -1.6292135e-01  -1.2327763e-01   7.3588929e-01  -9.9517095e-01   3.8120226e-01  -2.8266388e-01  -3.5230707e-01   3.3530351e-01   4.8013091e-01  -4.2681272e-01   5.6491977e-01   7.7167347e-01  -7.1941477e-01   9.6776827e-01   8.5069721e-01  -9.3337341e-01  -3.6934340e-01  -9.6115326e-02   6.6342687e-01  -9.0744925e-02   5.9281429e-01  -8.5109095e-01  -2.8266727e-01   8.8799387e-01   9.0260169e-01  -9.9187954e-01  -8.6170707e-01  -7.9218150e-01  -6.6950995e-01  -9.5396583e-01  -3.6218916e-01   6.4622200e-01   5.3695400e-01  -1.1841208e-01   4.2428445e-01   1.7734902e-01   1.8470140e-01   1.9070535e-01  -6.9394145e-01  -8.0448535e-01  -9.2650818e-01  -5.8473740e-01   1.1574170e-01   4.7149217e-01   7.4980634e-01   5.8852720e-01   1.0503887e-01   5.2347275e-01   6.6660741e-02  -3.2598764e-01  -9.1723375e-01  -2.6065346e-01   5.5522121e-01   4.3033618e-02  -1.0479867e-01   4.2948959e-01   3.8763046e-01  -3.0458853e-01   4.7584466e-01   8.4038868e-01   8.1929731e-01  -5.5153381e-01   9.2235951e-01  -7.3159356e-01   4.0110012e-01   8.5123350e-01  -1.9504224e-01  -1.6844639e-01   7.6073331e-01  -4.4370506e-01   2.3696317e-02  -5.5060932e-02  -7.3535252e-01   9.7430048e-01   1.9686567e-01   5.1971002e-01  -5.5861443e-01  -5.1538425e-01  -7.7171126e-01  -8.4986089e-01   1.5341778e-01  -4.0630222e-02  -8.1100376e-01  -4.6520167e-01   1.4065606e-01  -5.8011693e-01  -1.9580690e-01   7.7697161e-01   5.0298200e-01  -1.3035308e-01   6.9313455e-01  -4.4149829e-01   6.2745402e-01   8.9435081e-01   3.7023819e-02  -3.2541083e-01  -1.6421714e-01   3.2550919e-01  -8.9373926e-01  -4.2524693e-02   2.2158105e-01  -1.1694360e-01  -8.9166653e-01  -4.3651318e-01  -2.3803405e-01   8.4378159e-01   9.9394841e-01  -6.6956757e-01  -2.7142419e-01   1.7235939e-01  -3.3149740e-01   9.0817598e-01  -7.4228719e-02   5.4253077e-02  -2.5591829e-01  -6.7935225e-01  -8.8370504e-01   4.5500100e-01   1.5189209e-01   7.4082618e-01  -6.6852595e-02  -8.6075092e-01   8.9155447e-01   2.8427077e-01  -9.6167214e-02  -2.9685372e-01   5.2605279e-01  -4.1461111e-01  -5.4517008e-01   6.1935990e-01   3.6206355e-01   3.6479132e-01  -2.9919930e-01   9.1160154e-01   6.5248394e-01   9.1697633e-01  -3.6614704e-01  -4.8872105e-01  -3.5616178e-02  -3.6686163e-01  -4.8061059e-01  -4.5859500e-01  -8.9966573e-01   4.7851716e-01   5.0397900e-01   4.1560209e-01   7.4389025e-01  -3.5380713e-01   8.2614851e-01   5.5483029e-01   1.9699530e-01  -5.9923340e-01  -1.5220296e-01   1.2703925e-01   5.1578110e-01   6.5459189e-01  -5.6927788e-01   8.2350356e-01   6.3599782e-01   1.7284130e-01   2.5164443e-01  -6.8909722e-01   1.5213843e-01   6.5602590e-01   9.8111846e-01   7.4911020e-01  -6.5162135e-01   9.9186273e-01   7.1152341e-01  -6.6724014e-01  -9.1378685e-01  -1.0758358e-01   4.4167111e-01  -4.4642543e-01   3.9622390e-01  -7.6088453e-01   2.4791262e-01   3.7704761e-01  -9.7080273e-01   9.7792799e-01  -2.2000753e-01   4.3486004e-01  -5.0508596e-01  -1.3726385e-01  -9.5332813e-01  -4.9063114e-01   8.7206546e-01   7.0223490e-01   9.0813331e-01   9.9277538e-01  -1.1149949e-01   9.1516184e-01   6.3569188e-01  -2.9531982e-01  -7.6952559e-01   2.4771460e-03  -5.4480181e-02   4.5772095e-01   8.1630250e-02  -2.1490832e-01   1.1191484e-01   4.9663441e-01  -8.3368332e-02  -6.7854056e-01   2.5544777e-01   9.8176503e-01  -8.8753203e-01  -2.5833703e-01  -5.7195121e-01  -1.7829119e-01  -4.4655013e-01   7.0063425e-01  -9.6315646e-01   7.0852605e-01   8.8668437e-01   6.2214024e-01  -2.0194072e-01   3.5925674e-01   5.6918912e-01   9.2208202e-01
