   5.4924166e-01  -7.6112665e-01  -1.1811642e-01  -6.6010177e-01   7.3456662e-01   9.0311447e-01  -7.5588154e-01  -1.3175971e-01   6.9965207e-01  -9.5600467e-01   1.2826728e-01   9.5435887e-01   5.3049780e-01   2.1538630e-01   6.0704810e-01   4.3611655e-01   4.2575977e-01  -5.1695610e-01  -9.4129177e-01   1.2817914e-01   5.8884145e-01   5.2456279e-01  -6.9821882e-01   6.6100023e-01   3.0729487e-02  -8.5458185e-02   8.6356753e-01   6.1635968e-01   6.5628762e-01   6.4635079e-01  -3.4425480e-01  -4.1146202e-01   3.6841827e-02   9.7609225e-01   7.7761012e-01   5.9286586e-01  -8.8724926e-01   4.9127373e-01  -4.8129331e-01  -5.9669521e-01   8.1831040e-01  -3.4980393e-01  -2.1790896e-01   5.1338790e-01  -5.0453556e-01  -3.0343331e-01   5.4641755e-01  -4.3334040e-01   8.8520538e-02   3.4637217e-01   5.0505438e-01   6.1260420e-02  -5.0381375e-01  -9.1466743e-01  -5.9060100e-01  -3.4341508e-01   9.9864014e-01  -3.7562964e-01   9.6450321e-01  -4.5781960e-01  -4.0000483e-02  -8.7355446e-01   5.6678464e-01   3.6036069e-01  -5.2812733e-01  -9.6238343e-01   3.4368544e-02   4.9252376e-01  -4.4338641e-01   9.8813149e-01  -1.4286625e-01  -4.9355776e-01   8.7270654e-01  -4.6369943e-01  -7.9827326e-02   6.5436888e-01  -2.6234886e-01  -7.6474713e-01   6.6460061e-01   6.5807077e-01   7.7205807e-01  -6.1446554e-01  -4.0349774e-01  -2.5225325e-01  -1.2745790e-01   9.2723634e-02  -2.1431213e-01   5.0912610e-01  -8.8271802e-01   2.0230344e-02   9.1681485e-02  -7.1604630e-01  -2.7565271e-01   1.2794676e-01  -6.0941084e-01   4.4107062e-02   5.9964094e-02  -4.3969648e-01  -5.1691751e-01   7.4692753e-01  -8.9740310e-01   4.3687481e-01  -1.9672046e-01  -8.1950733e-01  -7.2604780e-02  -7.0647674e-01   2.7943824e-01  -7.9849071e-01  -5.3474622e-03   5.1272222e-01   7.8030698e-01  -9.6684396e-01   7.9998744e-01   3.4752113e-01  -4.9219667e-01   8.7806651e-01   9.5515962e-01  -5.1633649e-01   7.6236624e-01   3.6072254e-01   1.1504406e-01  -9.1192412e-01  -6.3587017e-01   9.8089009e-01  -7.8974264e-01  -4.3603784e-01   3.9006722e-01  -4.3657685e-01   6.6891267e-01   3.9586725e-01   8.1945284e-02   6.1014057e-01  -5.6092766e-01  -4.4942084e-01  -9.9173958e-01  -8.6721914e-01   3.6558089e-01   9.3136492e-01  -2.4093016e-01   1.9095832e-01   1.1606635e-01   6.4950294e-01   4.8295560e-01  -2.3889986e-01  -6.9816135e-01   7.5320211e-01  -7.8019417e-01   3.6650280e-02   7.5460677e-01   6.2454300e-01  -2.9461102e-01  -8.6671485e-01   8.7553443e-01   7.9390695e-01   8.2775532e-01   2.4535704e-01   9.1879140e-01   5.5446630e-01   9.8753041e-01   5.8417745e-01  -8.7928435e-02  -4.3159623e-01  -1.0855177e-01  -5.8810803e-01   8.3612455e-01   4.8046972e-02  -5.5315024e-01  -8.5625506e-01   6.0493070e-01   2.1951930e-01  -6.9595903e-01  -1.0717871e-01  -1.5619289e-01   7.2034790e-01   4.2122653e-01   1.0860189e-01   1.9394812e-01  -5.8483817e-01   6.9552539e-02   8.0359010e-01  -5.0903762e-01  -8.1490765e-01  -8.3021748e-01   4.2247283e-01  -6.1185841e-01   3.6605304e-01   1.0048335e-01  -6.0948427e-01   7.9279332e-01   6.3980811e-01  -1.3420101e-01   7.8148850e-01   1.4718361e-02   2.2228433e-01  -1.7927387e-01   2.9215891e-01  -2.8053542e-01  -1.2349954e-01   5.7733346e-01  -2.9786069e-01  -7.8689364e-01  -3.5968288e-01  -3.8661902e-02   6.9766690e-01  -9.0573275e-01  -6.0120087e-01  -6.4539089e-01   8.7252131e-01   3.6018418e-01   7.6599960e-01   2.4755182e-01  -9.1198965e-01   4.3995307e-01   8.3974709e-01   9.2337484e-01   1.6544386e-01   4.1719566e-01   2.7959819e-01   6.0896663e-01   8.9813323e-01   6.0397955e-01  -6.3999838e-01  -9.3738943e-01  -9.3043720e-02   3.0940437e-01   7.8783080e-01  -3.4353389e-01   9.6897698e-01  -1.3979245e-01  -5.6489261e-01  -4.6951745e-01  -2.1797829e-01   3.8846776e-01  -8.6435656e-01  -9.5017414e-01  -8.5795878e-01  -3.3093549e-01   7.5247504e-02  -7.1836066e-01  -1.6810969e-02   7.6247424e-02  -3.0862826e-01   7.9217955e-01   4.8203509e-01   2.1061177e-01  -6.0296125e-02   6.6142325e-01   3.9681730e-01  -1.0400070e-01  -7.1331392e-01   8.4976993e-01   1.2569406e-01  -7.9373972e-01  -6.9955666e-01   3.6277470e-01   3.9807929e-02   1.6441648e-01  -9.8795799e-01  -5.1714680e-01  -9.6740343e-01   5.2596560e-01  -2.3244777e-01   9.2165623e-01  -5.0556461e-01   1.9454977e-01   9.0014206e-01   7.0257681e-01   7.6920784e-02   3.3199381e-01  -1.9786652e-01   6.1981783e-01  -9.5018409e-02   1.5793832e-01  -4.1375921e-01  -2.6782844e-01  -4.6436809e-01   4.1876361e-01  -3.4795576e-02   8.8681069e-01   3.5746385e-01   4.5235542e-01  -6.9966695e-01   1.3006013e-01  -2.5350917e-02   9.1269546e-01   2.1762099e-01  -2.4862945e-01  -6.8600327e-02   2.4378712e-01   5.4325029e-01   8.8526329e-02  -6.5877556e-01  -4.3100222e-01   1.5113938e-01   8.3276253e-01   7.5704540e-01  -2.8173416e-01   1.0276162e-01  -3.6996074e-01  -3.6070919e-01   3.2910033e-01   4.8099283e-01   5.2248337e-01   8.2503251e-02   4.9460504e-01   1.7334382e-01   5.5107388e-03   2.1680420e-01  -8.8467716e-01  -8.6276826e-01  -4.3680716e-01  -6.1857238e-01   5.9681778e-01   6.9767198e-01   6.7267582e-01  -6.9124197e-01  -4.5914453e-01   3.3266424e-02   1.2425934e-01  -7.1026932e-01  -6.6448172e-01   7.0948102e-02   1.8138043e-01   9.4245767e-01  -1.7670829e-01   2.4895397e-01   9.7714520e-01  -5.3787974e-01   2.2079180e-02  -6.7444865e-01   1.5139812e-02   6.5642110e-01   9.5765888e-01  -8.2387525e-01  -9.3579022e-01  -3.2516819e-01   5.4426724e-01  -7.3413156e-02   6.5372968e-01  -5.0668349e-01   8.1504720e-01  -9.2525889e-01   9.1285422e-01  -4.9650800e-01   7.1422726e-02  -8.1692330e-01   5.5435218e-01  -6.4195429e-01   3.4312162e-01   5.1432282e-02   4.8427177e-01  -3.1467667e-01  -2.0417209e-01   6.6502055e-01  -3.1733348e-01  -5.0631464e-01  -2.2790979e-02  -4.7494418e-01   2.5255713e-01  -8.6679920e-01   5.6818462e-01  -7.0212619e-01  -3.3304378e-01   1.3781892e-01  -7.0277230e-01  -5.7767557e-01   4.2178915e-01   7.0427166e-01  -8.8392565e-01   9.2298051e-02   6.1904889e-01   5.1252857e-01  -6.2980110e-01   6.4047931e-01   9.9167581e-01  -1.4759175e-01  -3.8084161e-01  -4.2879025e-01   1.6573073e-01  -2.0022374e-01   5.7927147e-01   8.5748170e-01   3.6829650e-01   7.8311607e-01  -1.7750256e-01   4.9307720e-01  -8.3149999e-01  -7.7335122e-02  -8.6947355e-01  -2.6532300e-01  -8.9432358e-01  -9.4445010e-01  -1.3572768e-01  -7.3650494e-01  -3.0414924e-01  -5.6365992e-01  -9.6696109e-01  -8.9919771e-01  -1.6856187e-01   3.8780491e-01  -1.0210646e-03   4.1170446e-01  -9.8115432e-02  -9.9731026e-01   5.4576229e-01   8.8347536e-01  -8.9469621e-01  -4.4961633e-01   6.1336290e-01   6.4688558e-01  -5.9114412e-01  -9.9743278e-01  -9.2228534e-01   4.6162748e-01   9.3106377e-01  -4.2856222e-01   5.3409492e-01  -2.6919206e-01  -7.9172180e-01   8.3114761e-01   1.0025150e-01   3.4698747e-01  -8.8791050e-01  -2.2957232e-01  -1.2379627e-01   3.3728916e-01  -1.7606637e-01  -2.8026584e-01  -6.6947059e-01  -3.1701099e-01   3.8089334e-01   5.2392287e-01   7.4063060e-02   5.3209929e-01   3.2656362e-01   5.9818958e-01   1.8648302e-01  -2.9704964e-01   1.9958161e-01  -2.5415445e-01  -6.5554387e-01   8.6189275e-01   3.2366736e-01   8.6431605e-01   9.0565908e-01  -1.3314653e-01   4.9762791e-01  -9.6482458e-01  -1.3369492e-01   4.9866601e-01   3.4116915e-03   5.8834202e-01   3.5791469e-01   3.3480312e-01  -7.3522142e-01  -4.8594276e-01  -8.6249437e-01   5.6788493e-02  -7.7633566e-01   4.7308275e-01   7.3674789e-01  -9.2483752e-01   2.8870968e-01  -3.6610314e-02   1.7806792e-01  -4.0823355e-01  -1.6952848e-01  -9.5662441e-02  -5.6063282e-01  -1.6735867e-01  -5.2105536e-01  -8.2542273e-01   6.0051781e-01  -8.0657683e-01  -1.6168282e-01   1.3571710e-01  -4.2501977e-02  -8.2182213e-01  -1.6719743e-01   6.9925549e-01  -4.6789108e-01  -9.1238998e-01   2.3910729e-01  -3.7619857e-01   9.4209167e-01  -9.9721593e-01   2.3428630e-02  -4.1764287e-01  -8.0904549e-02  -6.4309698e-01   8.8821234e-01   2.4020885e-01   7.9052240e-01   9.7577075e-01  -6.6025460e-01  -8.4204895e-01  -7.8090985e-01  -6.0186032e-01   8.8968125e-01   1.9685048e-01  -1.7545694e-01   9.1346429e-01   7.1564262e-01   4.1825549e-01  -5.7674230e-01   3.3656375e-01  -1.0392896e-03  -3.2843592e-01  -7.2977551e-01  -1.6413262e-01  -7.7020868e-01  -6.6584387e-02  -4.4503605e-01  -6.6130917e-01   6.1208361e-01  -6.7272349e-02  -1.8004061e-01   3.5224448e-01   9.0448775e-01  -5.7689875e-01   4.5186483e-01   5.7862632e-01   2.7642225e-01   4.4957759e-01  -6.1302714e-02  -8.8874093e-01  -5.4499519e-01   3.6862301e-01   6.8266054e-01   5.1757830e-01  -8.5495273e-01  -4.4995115e-01  -2.2965821e-03  -4.3803935e-01  -6.9578711e-01  -3.4932689e-01   7.5428621e-01   5.4217273e-01  -2.3842158e-02   4.2316864e-01   5.0375156e-01  -7.6435140e-01  -2.5139695e-01  -7.1820041e-01   2.8977923e-01  -5.9753542e-01  -7.0287812e-01   7.5709020e-01  -5.4298898e-01   1.5236899e-02  -7.9132610e-01  -2.6530604e-01  -6.6164524e-01   5.5485913e-01   6.7021165e-01   1.3288162e-02   8.6622804e-01   8.3742109e-01   4.4723218e-01  -4.6736873e-01  -7.2782295e-01   6.2581080e-01   4.9134758e-01   5.2488386e-01  -2.5440321e-02   9.9343909e-02  -5.1858382e-01  -4.9347389e-01   6.4583166e-01   9.2095194e-01  -9.8109892e-02   2.8403061e-01   8.6209393e-01   5.8929562e-01  -3.5933580e-01  -1.5265126e-01  -1.2740724e-01  -4.9155887e-01   3.8315551e-01  -6.8224485e-01  -8.3779045e-01   4.0940291e-01   5.7081966e-01   7.4849926e-01   5.8882422e-01   4.0621825e-01  -4.8008816e-01  -7.6953598e-01   1.3439965e-01   1.3026541e-01  -7.3750752e-02   5.5047849e-01   9.5093503e-01   9.1460013e-01   2.7337618e-01  -1.2977389e-01  -4.4727180e-01   6.2367544e-01   1.4451843e-01  -6.6479354e-01   6.7270971e-01   7.4876845e-01   5.5081026e-01   4.8960877e-01   5.6791826e-01  -8.7088627e-01   9.4266938e-02   8.5473172e-01   5.4328464e-01   3.1724984e-01   4.7961120e-01   2.7376586e-01  -8.6090735e-01  -6.5663637e-01   2.9656188e-01  -7.4616657e-01   1.1332529e-04   2.6402013e-01  -9.6117861e-02   3.0150788e-01   6.8413246e-01  -1.7626380e-01   4.4079684e-01  -5.9229232e-02   6.8045569e-01   2.2835614e-01   2.3165515e-01   7.4860119e-01  -2.2529592e-02   8.6473884e-01  -4.3302175e-01  -1.1562532e-01   5.5832135e-01  -2.3122794e-01  -3.4370606e-01  -6.3374058e-01   5.7901027e-01  -6.8852722e-01   9.2400360e-01   3.3050496e-01   7.7393504e-01   8.7381523e-01  -7.3536289e-02  -3.3009814e-01   4.2836987e-01   5.9344793e-01  -6.0960853e-01  -1.5931505e-01   4.7458560e-01   4.2804517e-02   6.2325580e-02   8.2307678e-01   5.1034498e-01   5.5807008e-01  -8.4681853e-01   9.1677008e-01   1.8957169e-01  -2.4744206e-01   6.1704252e-01  -8.2765229e-01  -7.6968683e-01  -7.3289200e-01  -4.3880871e-01  -3.8622102e-01   6.6060736e-01  -1.0305342e-01  -3.7199444e-01   9.5911587e-01  -1.1204061e-01  -2.0722593e-01   4.8248868e-01   2.2891522e-02   1.6980249e-01  -7.9210593e-01  -7.9603703e-01   5.8779654e-01  -1.6239990e-01   6.8466516e-02   7.9837456e-01  -5.2112458e-01  -5.5108933e-02  -2.6948834e-01  -2.8159349e-01  -6.9019853e-01  -8.0906686e-01  -9.6002813e-01   9.8212875e-01   3.8345784e-02  -7.3715033e-01  -7.7111490e-01  -2.8879358e-01  -7.0808218e-02  -7.6525502e-01  -6.8463540e-01   9.2978605e-01  -6.0006406e-01  -8.8640450e-02  -1.2103081e-01   4.0790409e-01   3.8320494e-01   5.8025704e-01  -1.9374616e-01  -1.1668014e-02  -1.5444338e-01  -9.8956275e-01   9.9301686e-01  -9.8734876e-01  -3.8098470e-01  -5.1301200e-01   2.2181985e-01  -6.0987409e-01  -6.5855034e-01   6.1545207e-01   7.4364466e-01   5.7516299e-01   6.3104299e-01   5.0585815e-01   2.6780807e-01  -4.3269905e-01  -6.0641118e-01  -1.5717514e-01  -2.3179110e-02  -3.4801562e-01  -8.9015154e-01  -4.2998124e-01   4.1377717e-01  -3.0294773e-01  -9.6950151e-01  -2.3360302e-01   6.3921652e-01  -3.8414436e-01   8.6627451e-01   2.2448567e-01  -9.4845615e-01  -6.0362875e-01   8.2907525e-02   7.7820278e-01   3.4487229e-01  -5.0411373e-01   9.2065037e-01  -9.6205097e-01  -9.7085110e-01   2.7297001e-02   2.3899541e-01  -6.3701166e-01  -7.2883544e-01  -4.7376682e-01  -5.9824708e-01  -9.1233298e-01   6.7161943e-01  -1.3464510e-01  -5.3664346e-01  -2.8876303e-01   3.9858953e-01   4.8368291e-01  -6.8742454e-01   8.1321961e-01   5.9799121e-01   2.8633462e-01   4.7411473e-01  -2.9648068e-01   3.6680917e-01  -9.6576320e-01   3.4167351e-01   3.6129876e-01   4.3137532e-01   2.3955079e-01  -5.8592603e-01  -5.8468485e-01   1.1601730e-01  -5.4083398e-01  -5.1509256e-01   7.2432214e-01   8.5833568e-01  -4.2497605e-01   2.1400543e-01   9.0745946e-01   5.5440742e-01   5.0091386e-01  -1.0517833e-01  -4.9481630e-01  -5.2259815e-02   7.0744243e-01   5.6524419e-01   2.1148937e-01   4.7985312e-01  -7.5189307e-01   5.1487157e-01  -6.9868709e-01   7.7975407e-01  -4.0707232e-06  -1.3683528e-02  -6.7421805e-01   7.3670404e-01  -4.0733436e-01  -3.0735529e-01  -3.4153137e-01  -7.6874388e-01   8.1371733e-01  -7.1474780e-01  -4.0643585e-01  -7.2065275e-03  -1.7634719e-01   4.5613186e-01   4.8566365e-01   2.2558689e-02  -2.6587715e-02  -9.9916355e-01   7.2885773e-01  -9.6838894e-01   8.0118789e-01  -1.7254228e-01  -8.7881929e-01  -1.2681340e-01  -9.7146147e-02  -2.5679333e-01  -5.2852566e-01   4.9616481e-01   4.9107445e-01   5.2453561e-01   9.5193097e-01   9.0388284e-01   3.1204441e-01   2.2854292e-01   2.1189859e-01   5.0711331e-01  -1.1941517e-01   2.9855750e-01  -9.3119201e-01   1.8412835e-01   1.8368151e-01   3.7340412e-01   3.5696961e-02   2.9921745e-01   7.4848729e-01  -7.2301782e-01   7.9338519e-02  -9.8200813e-01  -9.1532406e-01   6.9566353e-01   2.4713502e-01   5.7739440e-01   8.5117968e-01  -3.5543525e-01   2.9356603e-01  -8.6134391e-02  -9.6084870e-01   4.9966663e-02  -3.9831351e-01   8.9032231e-01  -9.0554281e-01  -9.1244325e-01  -9.5633572e-01  -1.5501535e-01   8.9115072e-01  -2.8865712e-01   6.0172953e-01   5.9276293e-01   4.7754975e-01   2.3760131e-01   2.3107985e-01  -7.2879689e-01  -1.1327315e-01  -9.2383590e-01   4.1944267e-01  -8.8347215e-01   3.2105150e-01   1.3544474e-01   6.8554548e-02   1.0742998e-01  -8.2772154e-02   7.9913459e-01  -1.3360727e-01   5.8847750e-01   8.0088089e-01  -5.5117402e-01   2.0571809e-01  -1.5759492e-01   8.7082255e-01  -6.3664582e-01  -9.6266024e-01  -8.3919203e-02  -5.0441828e-02   3.3142363e-01   3.5214724e-02   8.9418008e-04  -6.2338927e-01  -2.4691012e-01   6.4077098e-01   5.5242129e-01   7.7643742e-01  -6.3262146e-01   1.7474582e-01   1.8860648e-02   8.5823312e-01  -5.8089474e-01  -8.6984124e-02  -2.7635206e-01  -7.2429410e-01  -6.8914205e-01  -4.1858026e-01  -2.9031914e-02  -6.7442774e-01  -1.7745162e-01  -9.0445779e-01  -6.8713402e-01  -2.5822083e-01  -9.1179855e-01  -1.8771484e-01   4.7282951e-01  -3.4695905e-01   6.0441880e-01  -8.9222534e-01  -2.1845567e-01  -1.7350065e-01  -4.0262116e-01  -1.3406509e-02   1.2269784e-01   5.6577326e-01   3.2132436e-01   1.5183871e-01  -1.8074715e-01  -9.3766601e-01   2.7852373e-02  -4.4639431e-01  -5.0675240e-01   2.9244530e-01   1.0019882e-01  -7.0335106e-02   3.9324607e-01  -8.6604335e-01  -4.3057544e-01   1.0116886e-01  -7.6813112e-01  -7.8693374e-01  -7.8544819e-01   8.7311767e-01   1.9236775e-01   3.6140881e-01   8.3825917e-01  -9.0032073e-02  -6.8557802e-01   9.1981917e-01  -8.9761934e-01  -8.6438614e-02   4.4006227e-01  -5.4558236e-01   5.6194895e-01  -3.0232691e-01   4.9408838e-01  -9.9311209e-01  -2.9753674e-02  -1.7234236e-01   9.5498355e-01  -2.4848943e-02  -2.1538678e-01  -9.8841403e-01  -7.2063401e-01   1.6861661e-01  -3.4130981e-01  -1.5242055e-01  -1.5538422e-02   2.4623908e-01   2.2829133e-01  -7.4129857e-01   1.5203424e-01  -7.8478598e-01  -3.9613155e-01   2.4915319e-01   4.9453675e-01   6.3083620e-01  -2.7506409e-01   4.5158079e-01   9.2408311e-01   3.6196590e-01  -8.9615565e-01   4.5622045e-01  -1.9563865e-01   9.8322742e-01   2.0073651e-01   4.4899426e-01   9.7637047e-01  -8.5163717e-01  -9.2797997e-01   2.1398054e-03   2.6105129e-01  -2.3456811e-01  -5.7801604e-01  -1.6074000e-01  -2.1691680e-01   6.0231085e-01  -2.8346867e-01  -7.7008868e-01   2.7433463e-01   3.5306999e-01  -8.3034560e-01  -7.2911505e-01   6.9093537e-01   1.6559581e-01   2.5783584e-02
