  -3.8089700e-01   4.8169501e-01  -8.1428819e-01  -8.3858791e-01  -6.7083747e-01  -4.6941610e-01   1.2928431e-01   9.1885638e-01   8.8049033e-01  -1.4028980e-01  -3.7301298e-01   9.9568130e-01  -2.8604062e-01   8.2322918e-01   3.8231780e-02  -8.8996168e-03   7.5806598e-01   6.8129617e-02  -5.8533391e-01   8.5522325e-02  -2.5431392e-01  -4.2720840e-02  -5.3935223e-01   1.4668608e-01  -8.7464018e-01   6.8818493e-01  -3.4186569e-01  -2.5967246e-01   9.0957648e-01  -7.4592197e-01   5.9406664e-01   8.5896000e-01   4.1644516e-01   4.9442194e-01   6.0975296e-01   5.2304485e-01   2.1407169e-01  -7.4244414e-01  -1.0720059e-02   4.3916895e-02  -1.8553298e-01  -3.4958125e-01   5.3438239e-01   8.6544572e-01   8.4142687e-01   1.8366637e-01  -2.1259165e-01   2.1536588e-01  -1.4637768e-01   6.1852461e-01  -4.6737073e-01  -4.8163454e-01  -4.5478537e-01   5.9810217e-01  -9.4692977e-01   6.9958958e-02  -2.9330423e-01  -2.0733077e-01   2.1252218e-01  -2.2198399e-02   7.9102261e-01  -5.8451167e-01  -3.2769324e-01  -9.1895375e-02   1.6885849e-01  -6.5118090e-01  -9.7785443e-01   5.4638922e-01  -8.5814113e-02   7.0993923e-02  -4.7875463e-01  -4.4136996e-01  -6.6470190e-01  -1.7956076e-01   7.4019319e-02   6.3591053e-01  -7.5862227e-01  -4.4338584e-02   6.7830952e-01   1.9343058e-03  -5.2692541e-01   2.2766641e-01  -2.6297630e-01   7.8930622e-01  -9.3265984e-01  -6.0842077e-01   3.3106436e-01   9.1829335e-01  -3.3560237e-01  -9.0995915e-01  -5.7491344e-01   8.0711688e-01   5.2063524e-01  -3.2559481e-01  -7.2714559e-01   6.8322414e-01   9.2204203e-01  -9.2199837e-01   7.2611476e-01  -2.0253646e-01   6.9268154e-01  -3.2586462e-01  -8.1093858e-01   4.7643532e-01   9.0005077e-01   9.7412835e-01   9.3028972e-01   2.6030739e-01  -7.7851377e-01  -6.4381859e-01   9.6782920e-01   3.0360121e-01   9.7910740e-01   8.7339307e-01  -3.9083112e-01  -9.9840208e-01   7.7699662e-01  -1.6543063e-01   7.6586554e-01  -2.9671018e-01  -9.3211652e-01   8.0020202e-01  -6.6323403e-01  -2.2860178e-03  -8.9175288e-01  -1.4642350e-01  -6.0474238e-01   8.5711737e-01  -4.0677410e-01  -3.3962521e-01   8.0541389e-01  -7.7207747e-01  -7.2710563e-01  -8.6610951e-01   1.7485795e-01   8.2133550e-01  -2.3720690e-01   1.7684109e-01   3.8532505e-01  -3.8687049e-01  -7.1784183e-01   7.6910647e-01  -7.2839326e-01  -4.1684027e-01  -8.0541913e-01   5.4297849e-01   5.5010562e-01  -1.1302120e-02   3.9820052e-01   8.2599087e-01  -2.2862120e-01  -6.6575839e-01  -1.5151888e-01   9.4694199e-01  -5.2211851e-01  -7.2694132e-01   4.3048687e-01   5.6081129e-01   5.8960773e-02  -2.0048875e-01  -3.8274421e-01  -1.6767519e-01  -5.6301539e-01   9.5083211e-01   9.7364350e-01   3.5257711e-01   1.0918809e-01   8.2988480e-01   7.5101798e-02   4.5182571e-01   9.7612266e-02   2.6663287e-02   9.6490399e-01   6.4516343e-01   7.8721138e-01  -1.2256454e-01  -2.3050188e-01  -3.7453658e-02  -5.8415571e-02  -8.4326284e-01  -4.5670253e-01   7.0612833e-01  -9.1639397e-01  -8.5838110e-01  -6.4796913e-02  -9.8738313e-01  -6.7728106e-01  -3.3528652e-01   9.4980172e-01   5.9198063e-01   2.1685006e-01  -6.2069521e-01  -4.9974059e-01  -5.2860376e-01  -6.6135400e-01  -9.5478577e-01  -8.0286665e-01  -3.5963848e-01   8.8873706e-02   1.1881837e-01  -7.6978917e-01  -3.2588645e-01  -6.1302694e-01  -1.4850125e-01   6.5118869e-01   1.4949683e-01  -3.3775847e-01  -6.2332084e-01  -3.8569636e-01  -6.3670001e-01   8.9004548e-01  -9.2093178e-01  -6.8597781e-01   7.7662165e-01   9.8539454e-01   4.6317512e-01  -9.3292171e-01  -8.1174055e-01  -2.9698091e-01   7.8690515e-01   4.2356302e-01   3.5859248e-01  -6.6201626e-01  -7.7217694e-01   2.1258239e-02   8.1983698e-01  -3.1838726e-01  -5.8753235e-01  -7.4514150e-02  -9.5179740e-01  -6.9738185e-01   9.3166585e-01   3.3352225e-01  -2.3279647e-01   8.0111933e-01   4.5727394e-02  -7.3399998e-01   2.0405280e-01  -4.0545926e-01   1.0569602e-02  -9.1681817e-01   4.6391055e-01   4.2104620e-01  -1.3451527e-01  -7.4168910e-01  -2.7684903e-01  -1.4167865e-01  -9.4671133e-03  -7.5963327e-01   1.1348283e-01  -8.9201837e-01  -9.8313817e-01  -1.5290034e-01  -9.9753376e-01   1.9732974e-01  -8.6499289e-01  -2.8426951e-01   9.9583989e-01  -7.8465984e-01   8.8672553e-01  -7.8804706e-02   5.6220816e-01   1.1678102e-01   3.6080510e-01  -9.2676342e-01   8.7140083e-01  -5.6254070e-01  -3.7110534e-01   1.0706601e-01  -4.9842835e-01  -9.0281643e-01  -8.9224084e-01   7.9170370e-01  -2.9171682e-01   8.8236548e-01  -2.9382008e-01  -5.7486641e-01   3.9258609e-01  -7.0534863e-01   5.6359395e-03   2.5577476e-01  -6.4381410e-01  -6.7227291e-01   1.0437055e-02  -1.2148449e-01   8.1016421e-01  -9.5311123e-01   9.9919082e-01  -2.9443004e-01  -7.1766321e-01   2.3858422e-01  -5.3962453e-01   3.6651802e-01   7.4723695e-01   6.1645027e-01  -1.4452248e-01  -9.9508227e-01   7.5118554e-01   2.4568904e-01   6.9764215e-01   3.5521887e-01  -6.8975421e-02  -9.7221309e-01   6.0616948e-01   4.6604996e-01   1.0631594e-01   1.1909439e-01  -9.2205358e-01   2.3377137e-01  -7.6281508e-01  -7.9738630e-01   4.9822999e-01  -5.1620944e-01  -8.8740438e-01  -6.4595732e-01   6.4867365e-01   1.2448057e-01   7.2973482e-01  -7.9361762e-01   7.0189694e-01   7.6061565e-01  -5.7208910e-01  -2.5662517e-01  -7.4051431e-01   7.1863376e-01   5.1776286e-01  -7.5815460e-01  -9.8376290e-02  -4.0074299e-01  -3.8956479e-01   8.4191292e-01  -7.1575574e-01  -4.4669780e-01  -2.8448656e-01  -5.3129353e-01  -2.6819512e-02   2.6985627e-01  -8.0053205e-01   6.8964408e-01   6.9588646e-02   9.3171966e-02  -6.4207914e-01  -2.1355500e-01   4.5769210e-01   7.2197482e-01  -5.9232544e-01  -8.7139051e-01   8.2660166e-01  -1.9192097e-01  -2.1340962e-01   1.6913404e-02   6.7432245e-01  -4.1012287e-01  -8.5401482e-01   5.3958400e-01   9.2189693e-01  -7.3520283e-01  -8.8804978e-01   2.5069157e-01  -9.0042870e-01   5.2355939e-01  -1.3989857e-01  -2.5151247e-01   4.9988867e-02   1.8141355e-01   9.9998247e-01   7.0544008e-01   2.5468705e-01   2.9018877e-01  -1.6837123e-01  -9.5339372e-01   6.8728634e-01   8.4861018e-01   6.8275397e-01  -8.5637931e-01  -9.1509297e-01  -2.4208634e-02  -3.0536580e-01  -3.4895026e-01   3.5602346e-01  -8.4930280e-01   5.3029589e-01  -7.8988101e-01   7.0222187e-02  -9.2758478e-02  -3.0910404e-01  -3.9267736e-01  -8.6278928e-02   5.5484684e-01  -3.5410788e-01  -9.5909998e-01   8.9808981e-01  -3.9064572e-01  -2.2795876e-01   7.6911483e-01   9.7335822e-01   8.5116011e-01  -8.3569990e-01  -2.1380165e-01   2.7348108e-02  -6.1138108e-01   6.1920717e-01   4.1917895e-02  -3.4614175e-01   2.5640456e-01   8.5900183e-01   5.8645803e-01  -2.1621982e-01  -6.5642915e-02   5.0259073e-01  -5.4510903e-01   2.5600078e-02  -9.1566458e-01  -3.3849047e-01   4.5083552e-01  -1.1701772e-01   4.2309580e-01  -8.2735758e-01   1.0160211e-02   9.9863975e-01   6.2495260e-01   2.0716153e-01   3.6474456e-01   6.4250515e-01  -7.2188790e-01   7.7234370e-01  -1.5725568e-01  -4.5755404e-01   4.8940988e-01  -4.8773477e-01  -4.8737052e-01   8.3624719e-01   5.0544575e-01   5.4126399e-01   6.1544964e-01  -6.1022796e-01  -9.9904499e-01   2.1007102e-01  -3.1370446e-01   4.9736908e-01  -3.1115166e-01  -4.4255028e-01  -9.4801284e-01  -2.4093628e-01  -4.6262576e-01   6.4567006e-02   7.4536169e-01   1.9021094e-01   8.9801493e-01  -6.5606239e-01  -9.5938333e-01   4.6747708e-02  -4.7158928e-01  -6.2785574e-01   9.2239343e-01   9.7923178e-01   1.8920469e-01  -7.3550395e-01   5.0201748e-01  -8.7238519e-01   4.4122313e-01  -8.7358263e-01   2.2341265e-01  -4.4664009e-02  -5.9383907e-01   4.4170124e-01   4.1631993e-01   3.2414703e-01   1.9417307e-01  -1.5127169e-01  -7.1065815e-01  -1.8325890e-01  -4.4439061e-01   7.6377508e-01   5.8515649e-01   6.2979200e-01   5.6700553e-01   4.9566848e-01   4.9066190e-01   1.1792637e-03   5.6311971e-01  -6.4290213e-01  -5.4156877e-01  -4.0729994e-02   9.4109149e-01   6.4507216e-01   8.5825017e-01  -6.8116727e-01  -9.2713230e-01  -8.8318144e-01   4.4586298e-01   6.3792068e-01   5.3790908e-01   9.2583620e-01   1.7639123e-01  -8.6830333e-01  -1.9266234e-02   7.5671293e-01  -7.8955074e-02  -1.2516577e-01   3.6956946e-01   9.6624385e-01  -5.2446024e-01   6.3428220e-01  -5.5366640e-01   9.3314716e-01  -8.2201992e-01  -2.6790899e-01   8.0713159e-01  -4.3252101e-01   7.5754532e-01   7.9836192e-01   4.4026924e-01   2.8211737e-01   6.3321707e-01  -1.9685353e-02  -7.3407197e-01  -4.0912819e-01  -5.5104447e-01   4.9813853e-01  -4.2220335e-01  -4.5749622e-01  -8.5388307e-02  -1.1272017e-01   6.6044449e-01  -3.5060179e-01   3.4673205e-02  -7.4911808e-01  -9.3889580e-01  -6.8364170e-01   9.4554169e-01  -8.9211952e-01   4.9130994e-02   8.7370798e-01   5.5018441e-01   2.5972842e-01  -4.6615760e-01   8.5665079e-01  -4.1366833e-01   6.3404650e-01  -3.6797275e-01   1.4033426e-01   6.7980904e-02  -2.2551649e-01  -4.0057331e-03  -5.1457764e-01   8.4967832e-01   4.7383905e-01  -1.0766365e-01   5.9447237e-01   4.2845055e-01   9.0219627e-01  -3.6187792e-01   8.2895188e-01  -9.8115411e-01   4.6110010e-01   5.6749534e-01  -6.3871015e-01  -1.5584097e-01   1.9173466e-01  -4.9970973e-01  -4.9036810e-01   5.0218955e-01   5.3542603e-01   9.4143572e-01   5.4806671e-03   6.5194411e-01  -5.0067604e-01  -9.5491460e-01   2.4436819e-01   6.9809433e-01   9.1965963e-01  -2.4088341e-01  -9.2527133e-01   6.7465461e-01  -1.2408473e-01   9.1505286e-01  -5.3949559e-01   3.1286045e-01   1.5020734e-01   2.7163903e-01   5.5436100e-02  -9.1774110e-01  -9.5297631e-01   2.9266648e-01   9.4879485e-01  -3.1061413e-02  -1.3094041e-01   6.8565055e-01   8.4312365e-01   5.7141676e-01   7.2471428e-01   2.9885610e-01   5.7254669e-01  -7.7221247e-01   2.3613958e-02  -2.1278069e-01  -6.7638090e-01  -5.1779364e-01  -9.0622422e-01  -2.5441537e-01   7.1361588e-01  -9.0802827e-01   4.7691543e-01   6.4121698e-01  -1.9561078e-01  -1.6160177e-01   1.6217186e-01   6.1687381e-01  -7.9235929e-01  -6.2286306e-01  -4.4696986e-01  -8.7035039e-01  -2.2358043e-01   7.8780317e-01   3.8190841e-01   8.2821833e-01   4.6250450e-02  -8.4888146e-01   2.2523280e-01   4.8802727e-01   1.2122860e-01  -9.0132640e-01  -4.0647887e-01   5.9696800e-01  -9.6963668e-01  -6.2495278e-01   7.7667918e-02   6.5992556e-01   2.9072009e-01  -4.0047592e-01   4.3931136e-03   9.6887067e-01   3.1410241e-01   3.2006948e-01   3.3240983e-01  -8.2098598e-01   8.5826196e-01   4.0209437e-01  -3.1307009e-01  -1.7200921e-01   3.0443844e-01   3.8223772e-01  -4.4138142e-01   8.5309622e-01  -4.1884023e-01   5.0506924e-01   4.5878689e-01  -8.1871160e-01   8.6171048e-01   5.1848123e-01   3.2959277e-01   4.9019121e-01   4.2514004e-01  -5.5717190e-01  -2.8915988e-01  -4.4720564e-01  -2.7897531e-01   1.8028773e-01  -3.8340997e-01   4.3038201e-01  -3.7397742e-01   9.3564545e-02  -7.4669395e-01   9.6973999e-01   9.0997512e-01  -9.7416313e-01  -3.2012685e-01   5.0453166e-01   7.5547323e-01  -2.1873631e-01   9.2927102e-01  -3.8910113e-02  -5.0054348e-01   3.2294092e-01  -7.2013342e-01  -5.2535661e-01   3.6844071e-01   9.8148370e-01  -3.7262810e-01   7.7362399e-01   9.5650742e-01  -2.2973133e-01  -8.3031758e-01  -2.9396837e-01  -3.3462782e-01   1.4079215e-01  -8.0198351e-01   3.5470760e-01  -1.4370624e-01  -3.4498913e-01  -8.6379067e-01   4.7099962e-01   8.2877762e-01   1.2794406e-01  -9.6919011e-01   6.1807561e-02   7.7162415e-01   2.8892991e-01   3.8767515e-01  -3.1260679e-01  -4.5997129e-01  -3.9921881e-01  -4.4642876e-01   1.0112838e-01  -9.3970939e-01   5.7848456e-01  -6.7380683e-02  -8.0820725e-01  -5.1385335e-01   9.9017348e-01  -5.5513298e-01   1.9863670e-01  -5.3003622e-01  -2.5036967e-01   9.3293278e-01  -3.3483583e-01   1.9343961e-01  -4.3673254e-01   1.1326999e-01  -8.7544092e-01   8.7442713e-01  -8.0999874e-01   1.4932103e-01   1.6986805e-01  -1.6318260e-01   8.6534387e-01  -4.7162314e-01   1.7137692e-01  -1.5088292e-01  -1.6223459e-01  -9.8769149e-01  -4.5962776e-01  -7.8470526e-02  -8.0057553e-01  -9.5186983e-01  -6.8390160e-01   4.1292226e-01  -9.6107963e-01  -1.5505582e-01   4.8408939e-01  -5.9911031e-01  -1.3281436e-01   3.6379497e-01   6.7701728e-01   7.0434518e-01   4.8692353e-01  -9.3390758e-01   2.5712858e-01   5.4911718e-01  -6.6022719e-01  -7.4020640e-01   1.5504539e-01  -7.3043093e-01  -5.9004777e-01   2.2827612e-01   9.8822788e-01  -5.9102368e-01   4.4986573e-02  -1.1429452e-01  -5.3728857e-01   1.4528549e-01   3.7404048e-01   6.2068883e-01   5.3749710e-01  -1.7811705e-01   8.8105149e-01  -4.7940520e-01  -4.4652550e-01   4.5273390e-01  -7.0667265e-02   5.0747078e-01   5.9072837e-01  -7.8561103e-01   9.1022020e-03  -1.7902759e-01   4.9836623e-01  -9.2625268e-01   2.0076273e-01  -2.5146800e-01  -8.7495908e-01  -8.0490637e-01  -1.1675580e-01  -6.1061680e-01  -3.8364178e-01   3.5821664e-01  -6.9529694e-01  -4.7215231e-01   8.8609227e-01  -7.8058203e-01   7.6245682e-04   4.8740690e-01   3.0316205e-01   1.3266863e-01   6.5419842e-01   4.4573315e-01  -4.2159389e-01  -9.0992997e-02  -6.3613938e-01   8.3438860e-01  -8.4227436e-01  -2.5601066e-01  -8.0151336e-01  -6.3966591e-02   1.3294051e-01   9.9222315e-01   7.5442714e-01   9.8876874e-01   8.9992781e-01   3.7809658e-01   5.7580997e-01  -1.7881828e-01  -1.6135625e-01  -7.9587428e-01  -1.9266951e-01   8.5930666e-01  -1.6512396e-01  -7.6662620e-01   4.6194003e-01   3.9274184e-01   9.3347652e-03   1.4257070e-01   1.5069150e-01   3.4826003e-01   9.0133501e-01   8.5178109e-02  -7.7772580e-01   7.0709174e-01  -5.1588209e-01   7.3931959e-01   6.1415255e-01   4.4481202e-01   7.6213797e-01   6.9635159e-01   5.7198265e-01   5.3023849e-01  -1.6498092e-01  -5.7528463e-01  -5.9669521e-01   5.1820320e-01  -2.6381646e-01   9.9833785e-01  -4.4342338e-01  -3.0764017e-01   4.5616450e-02   9.0065653e-01  -9.1326580e-01  -7.1467593e-01  -7.8559080e-01  -4.3874014e-01  -9.1273509e-01   7.8043216e-01  -2.7062111e-01   7.3248159e-01  -6.0758918e-01  -7.5125289e-01   5.0986255e-01   1.8990423e-01   2.1867798e-01   7.5242565e-01  -8.2386968e-01   1.4487256e-01   5.3207052e-01   1.0833270e-02  -7.0653710e-01  -4.8526469e-01   5.6483129e-01   5.9024003e-01   8.9830894e-01   3.4223861e-01   8.1749909e-01   1.6905567e-01  -9.4341732e-01  -8.0719678e-02  -8.5041532e-01  -3.9179809e-01  -8.7137352e-01   3.8168673e-01  -3.2886369e-01  -1.8588421e-01  -6.7074616e-01  -7.9563869e-01  -2.1023289e-01  -7.6753168e-01  -3.4884573e-01   4.4859474e-01   2.4172727e-01  -9.7093660e-01  -2.8881655e-01  -5.6598462e-02   5.5186734e-01  -8.9146954e-02   1.2576168e-02  -4.3818126e-01  -8.9304034e-01  -1.8190963e-01  -6.0490681e-01   6.8982890e-01  -8.1644542e-01  -6.8819425e-01   2.6208501e-01  -4.2076648e-01   2.3160531e-01  -7.3431785e-01  -9.9003104e-01  -9.7646855e-01  -7.9242284e-01  -3.7417211e-01  -6.3503580e-01  -9.1677217e-01  -8.6874727e-01  -1.4975018e-01   1.1257716e-01  -5.5176886e-01   2.2891450e-01   5.5274237e-01   6.5631510e-01   3.5687173e-01  -9.2460410e-01  -8.5980809e-03   8.9800620e-01   2.5700571e-01  -1.9362637e-01   2.4849538e-01   4.3629309e-01  -3.4001986e-01  -3.7952916e-01   9.0633693e-01   2.7120183e-01  -3.3803763e-01   7.3246257e-01   9.4402540e-01  -6.9151814e-01   8.1013534e-01   4.4281507e-01   4.6568091e-01  -6.1633565e-02  -7.1315244e-01  -7.7956894e-01  -9.4253081e-01  -8.9707314e-01  -2.5027165e-01  -9.1335910e-01  -2.1412719e-01  -7.6843547e-02  -4.3363031e-01  -9.0601445e-01   4.7255511e-01  -2.2971416e-02  -1.0225482e-01  -6.8382779e-01  -2.6451076e-01   6.8110265e-01   2.4768455e-01   6.6296281e-01   3.0019693e-01   3.2229100e-01   1.6598338e-01  -7.1149263e-01   5.3697811e-01  -5.6133326e-01  -9.6234410e-01  -7.4208327e-01   3.4347843e-01  -3.9964824e-01  -8.7193760e-01  -9.1506027e-01   5.0014605e-01  -7.0573803e-01   3.2580794e-01  -6.9754967e-01  -4.6818096e-01  -4.3079657e-01   9.1517673e-01   1.5871888e-02   6.4065954e-02  -5.9237282e-01   7.1674517e-01  -8.1252930e-01  -9.2027112e-01  -7.4016090e-01  -7.5899560e-01  -2.9633589e-01   9.7240912e-02   5.2968071e-01  -1.7914078e-01  -6.3645868e-01   4.6874191e-01  -8.0808853e-01   8.9814539e-01   7.3071498e-01  -8.1331778e-02  -7.2781323e-01   1.9236897e-01   7.7766683e-01   7.4776372e-01   4.2599344e-01  -3.3628281e-01  -3.1350226e-01  -4.4671687e-01
