   7.1215565e-02   5.2343330e-01  -7.7051008e-01   4.3575821e-01  -2.2895859e-01  -4.0503600e-01  -1.3106125e-01   9.5455859e-01   9.0460835e-01  -4.6972998e-01  -8.2054237e-01   8.2357300e-01  -6.7813016e-01   7.3920611e-01  -3.0120882e-01  -7.7081353e-01   4.5368265e-01   7.6917152e-01  -6.6429268e-01   7.4203044e-01  -1.3049655e-01  -7.3790074e-01   5.8220039e-01   1.3214300e-01   8.4864344e-01   7.8707298e-01   3.7142310e-01   7.7353739e-01  -2.6480070e-01   4.0730485e-01   9.4082657e-01  -1.2996384e-01  -9.8258610e-01  -2.8585972e-01   2.7096060e-01   4.3237437e-01  -4.7264936e-02  -8.7503713e-03  -7.4062973e-03  -3.2652610e-02  -6.0280637e-01  -2.7580353e-01  -7.2416846e-01  -7.7920333e-01  -5.7513577e-01  -1.4725737e-01  -5.9873636e-01  -7.1367509e-01  -8.0733446e-01  -3.4335128e-02  -3.5623057e-01  -2.5847150e-01  -4.3358989e-01   6.1371104e-01  -2.7094063e-01  -2.6169815e-01  -1.9820935e-01   7.4047629e-01   4.8183502e-01  -3.8167926e-01  -8.6594174e-01  -4.9029787e-01  -1.5496205e-01  -3.2901873e-01  -8.8067873e-01   3.9489548e-02   7.2029486e-02   8.6058492e-01   8.2012528e-01   7.6824995e-01  -5.2312434e-02   8.6600953e-01   5.2122154e-01  -3.3216978e-01  -5.4929283e-01  -6.9147153e-01  -9.6987930e-01   6.6977230e-01   3.4166954e-01  -4.8871690e-01  -1.9878636e-01  -4.7255406e-01  -1.5269641e-01  -9.0340025e-01  -5.1690134e-01  -3.7687914e-01  -4.0549065e-01  -5.9531880e-01   4.4112112e-01  -4.9731542e-01   7.4352745e-01  -8.0763225e-01  -5.6582020e-01   6.5400808e-01   7.3671846e-01  -6.2555462e-01   5.4919989e-01   5.6474286e-01   6.7696278e-01  -1.7645309e-02   8.3971105e-01  -2.0896070e-01  -6.5421530e-01  -3.5618915e-01   4.9408788e-01  -6.7884838e-01  -8.2445126e-01   7.5143963e-01  -4.8119938e-01  -6.7781831e-01   7.3520999e-01   1.7409353e-01  -1.5593400e-01  -2.2884728e-01  -3.7832540e-01   6.7931907e-01   7.6854017e-01  -5.1081237e-01  -6.3831508e-01   5.3312446e-01   9.8674485e-01  -5.8983108e-01   5.7458566e-01   6.5679625e-01  -7.3211966e-01   2.4117264e-01   6.7766421e-01  -2.1783579e-01   5.1220581e-01   5.4049769e-01   6.6904300e-01  -1.2842258e-01  -4.5877711e-01   1.9101523e-01   4.1705149e-01   1.1049217e-01  -8.7121558e-01  -8.0323815e-01  -3.0635338e-01   5.9637079e-01  -5.1641441e-01  -1.4469042e-01  -1.9845738e-01   5.7629774e-01   1.3789467e-02   2.0481121e-01   1.2563981e-01   4.1119750e-01   1.6238741e-01   5.1123042e-01  -7.0264565e-01   3.4183400e-01  -7.3067950e-02  -3.5581954e-01  -2.9693563e-01  -5.9406923e-01   5.2680633e-01   6.2518159e-01  -3.4824393e-01   5.0350894e-01   9.5567176e-02  -3.0696263e-01  -5.8259133e-01   5.5042103e-01   6.4755987e-02  -9.9734401e-02   2.6912773e-01   2.3455094e-01  -1.7627329e-01   2.5693776e-01  -6.5094621e-01   4.0688233e-01  -8.2102312e-02   7.7805807e-01   2.2917878e-01   3.0550401e-01   6.4917811e-01  -5.6760116e-01   5.8874850e-01  -4.5690116e-01  -2.9997998e-01   8.7266238e-01  -5.7654155e-01  -2.1632471e-01   3.2920094e-01   5.3564680e-01   2.0971094e-01   1.4242629e-01   5.8900046e-01  -8.8487302e-01   5.1503477e-01   3.7769241e-01   8.4602586e-01  -9.2465617e-01   8.8939493e-01   2.2620133e-01  -2.8414045e-01  -8.1447345e-01  -8.8659818e-01  -7.6163244e-01   9.8384478e-01   1.0937469e-01   5.7945927e-01  -3.9957580e-01  -6.3498407e-01   3.9172042e-01   7.0884986e-01   4.6743635e-01   6.7420405e-03   5.0933221e-01  -7.4314749e-01  -1.1988845e-01   1.0658704e-01   1.9393659e-01   7.7496657e-01   1.0761292e-01  -4.6558504e-01   1.3228296e-01   9.6268730e-01  -1.5784798e-01   5.9553498e-01  -2.6392317e-01  -5.5708898e-01   9.8750044e-01  -1.8317715e-01  -6.3376494e-02   7.3625577e-01  -3.2322459e-01  -4.8904428e-01   4.1845538e-01   4.5091421e-01  -9.3241931e-01   9.6433790e-02  -9.3490606e-01   6.9320278e-01   4.9642142e-01   7.0437693e-01   6.1583093e-01  -9.9898372e-02   7.5271876e-01  -2.5795052e-01  -9.9546723e-01  -4.7785311e-01   6.2214105e-01  -6.9243999e-01  -9.4900811e-01  -5.2427464e-01  -5.3169958e-01   7.2275526e-01  -3.8020128e-01  -6.7260708e-01   2.3046969e-01   7.0912176e-01  -3.1967531e-01  -7.5462347e-01   5.9426234e-01   4.4435021e-01  -8.0894022e-01   5.5606888e-01   3.4773795e-01  -7.9889657e-01   8.7424717e-02  -4.1078067e-01   2.2350509e-01   5.8738468e-01   8.1788049e-01  -2.1806653e-01   9.4763891e-01   2.3974513e-01   4.3201201e-02   2.3014508e-01  -9.1135370e-02   4.9758128e-02  -4.3285690e-01   3.8333466e-02   6.7984152e-01  -4.1547005e-01  -1.4821889e-01  -7.8824940e-01   3.0407856e-01   8.9401747e-01  -4.1232974e-01  -6.3781080e-01   9.3058030e-01   1.4576080e-01  -7.3116420e-01  -5.4488784e-01   3.0505327e-01  -7.4213329e-01  -7.0812980e-01  -4.0111828e-01   5.8322483e-02   6.8353308e-01   2.1614105e-02  -2.5583960e-01  -3.2248204e-01   9.5986726e-01  -6.3566056e-01  -5.1028212e-01  -1.4518333e-01  -4.4879163e-01   9.6496395e-02  -7.3071572e-01  -7.5372857e-01  -5.0237655e-01  -8.3691877e-01  -2.8617882e-01  -3.8809579e-01  -3.2936393e-01   5.8333226e-01   5.8013485e-01   8.5251116e-01  -6.7600052e-01   2.6728199e-01   6.3070532e-01   4.3525907e-02   4.7882924e-02   3.7718689e-03  -8.9032816e-01  -1.6351424e-01  -5.7523599e-01   1.1496023e-01  -8.3778420e-01   9.3495987e-01   1.6177096e-01   7.3974039e-01   9.3538990e-01  -4.2229202e-01  -9.4423869e-01   6.1848429e-01  -6.5595310e-01   3.2425656e-02   7.0528471e-01   7.5533841e-01   9.0479623e-02   5.6551369e-01  -3.1846704e-01   5.8440132e-01   1.0111617e-01  -9.5702700e-01  -9.5489011e-01   9.3652516e-01  -9.3259461e-01  -7.1856071e-01  -5.3027993e-01  -9.0516932e-01  -6.4790766e-02   1.9605406e-01  -3.2010560e-01   3.9871482e-02   8.1991077e-01   1.9420943e-01   8.9966908e-01  -2.9589626e-02  -7.7405062e-01   2.3339549e-03  -8.9684120e-01   4.8711625e-01   9.0670708e-01  -4.1007925e-01  -7.6366097e-01   9.5236599e-01  -5.3421065e-01  -8.4868944e-01   3.6203258e-01  -4.4379494e-01   3.3310288e-01  -1.4524788e-03   1.2012864e-01   6.9674402e-01   8.4514573e-01  -8.3122416e-01  -7.8673865e-02  -4.8155656e-01   2.1073262e-01  -5.5523046e-02  -2.4781517e-01   6.8365557e-01  -4.2819253e-01   3.8490338e-01   3.3735017e-01   4.8883909e-02  -8.6313601e-01   9.3302696e-01  -2.3897598e-01   9.7278149e-01  -8.4951407e-01   6.2154429e-01  -9.8108968e-01   5.6769809e-01   5.8844580e-01   3.5815463e-01  -6.7508970e-01  -5.5615449e-01   9.5170086e-01  -5.9856252e-01   4.7230183e-01  -9.2521003e-01  -3.2581598e-01   8.9728450e-01  -3.5817671e-01   8.5693280e-01   6.0836947e-02  -7.6099329e-01   6.2929256e-01   3.3634762e-01  -9.3056278e-02  -6.1866970e-03   7.4592475e-01  -1.3488706e-01  -7.3175638e-01  -6.7908283e-01   4.2222870e-01   4.6410990e-01  -8.7678241e-01  -3.9203320e-01  -5.4194309e-01   9.8761481e-01   9.1439543e-01   9.8731367e-01  -8.6687022e-01  -3.9690408e-01  -9.8888750e-01   2.6493106e-01  -9.6869956e-01  -3.8833539e-01  -5.8828834e-01   2.9970690e-01   9.1886454e-02  -5.9689476e-01  -9.4060298e-01  -3.1713104e-01  -7.7115940e-01   1.1095158e-01   4.0198291e-01  -2.0097395e-01  -4.8363264e-01   4.1126248e-01  -2.6846586e-01   8.3843838e-01  -6.0494011e-01  -8.2244757e-01   3.9674387e-01  -2.7680603e-01  -8.5621907e-01   4.1877794e-01  -8.0697347e-01   6.3205234e-01   6.5309680e-02  -3.7067844e-01   5.1607289e-01   9.7985777e-01   4.9706449e-01  -9.3122885e-01   2.8590914e-02  -3.1803615e-01  -8.8514730e-01  -4.6506563e-01   9.0909722e-01  -3.6438894e-01  -5.9940716e-01  -7.3240573e-01   1.5819728e-01   7.0893849e-01   6.7658444e-03  -3.4250194e-01   2.0453247e-01   6.3533005e-01   2.9544379e-01   5.0727200e-01  -4.1547666e-01   8.3873154e-01   4.5802333e-01  -3.7119386e-01  -8.1075339e-01  -1.9046326e-01   7.3130994e-01   9.2720842e-01  -5.4517290e-01  -9.1941790e-01   3.3553894e-01   9.3316640e-01   4.3563267e-01   3.5850549e-01  -5.5434194e-01  -7.9414784e-01  -9.0108047e-01  -5.8933204e-01  -7.2600352e-02  -3.7112338e-02   7.6775614e-01   9.8874036e-01  -2.1385233e-01  -8.3984630e-01  -5.2413776e-02  -5.8028977e-01   6.3806626e-01  -4.6386743e-01   3.6715365e-01   3.0298935e-01   8.0046612e-01  -1.9263759e-01   6.7680543e-01  -9.6342357e-01  -5.2870395e-01   3.1122941e-01  -2.2439366e-01  -4.4404804e-01   5.2653218e-01   1.6872495e-01  -9.1309196e-01  -2.2688669e-01   1.9029085e-01  -4.9726299e-01  -7.7874048e-01  -9.6221871e-01   2.1232896e-01  -5.8561568e-01  -3.3265548e-01  -6.6331226e-01   6.0466124e-01  -1.3730818e-01  -6.9178605e-01   4.6822455e-01  -6.6623198e-01   7.1698827e-01  -4.1703950e-01   5.8423670e-01  -3.1229388e-01   4.6013439e-01  -1.9657735e-01  -6.6216737e-01  -9.4905266e-01  -7.8349532e-01   5.4438471e-01   2.2551748e-01  -2.8885604e-01   5.3638951e-01  -1.7760233e-01  -4.9002718e-01   9.7945892e-02  -1.4903442e-01   9.8175095e-01   7.6896376e-01  -3.2356059e-03  -7.0258443e-01   1.6797088e-02   1.9179007e-01   1.9125452e-01  -3.0361644e-01  -5.2426387e-01   1.6183232e-01  -4.0711862e-01   7.6725917e-01  -4.8947129e-01   3.5417560e-01   8.7094022e-01   7.5708671e-01   3.3867527e-01   8.5934857e-01  -4.3825015e-01   8.2344989e-01  -4.2994369e-01   9.7297445e-01  -7.6767240e-01   7.8027232e-01  -5.0631088e-01   7.6943104e-01   2.5247104e-01  -2.3343043e-01   7.7649734e-01   9.6069822e-01  -7.4993988e-01   3.9458658e-01  -4.4064263e-03  -3.1937134e-01  -3.8991250e-01   4.1000614e-01  -8.0980448e-01  -6.1719881e-01   8.0836541e-02  -6.2526521e-01  -5.3619314e-03  -9.0559740e-01  -9.0565714e-01   4.9456059e-01  -2.0502706e-02   3.3820497e-01   9.5605593e-01  -4.4987455e-01  -4.7806425e-01  -1.2648978e-01   7.7725852e-01  -4.7409777e-02  -4.9625982e-01  -8.8988567e-01   7.0565858e-01   6.7652643e-01  -7.9409108e-01  -9.0589110e-01  -4.8421371e-02  -5.5583924e-02  -1.4583200e-01   7.7160556e-01  -5.9947725e-01  -7.6998685e-01   5.7839035e-01   8.3672209e-01  -5.2776930e-02  -2.2052759e-01   6.2381619e-01   4.7343386e-01  -5.0079513e-01  -6.6509116e-01   6.8754804e-01   2.1959927e-01  -5.2455542e-01   2.1161569e-01   5.5855063e-01  -2.2702469e-01   3.5462897e-01  -2.9364109e-01  -8.3642478e-01   5.6863655e-02   5.9639500e-01   9.3392883e-01  -6.9983180e-01  -3.5968494e-01   7.1921032e-01   1.3083917e-01  -7.8892582e-01  -1.3469582e-01   8.4791643e-01   6.2141618e-01  -6.4235963e-01  -1.3167271e-01   3.5124171e-01   3.9049317e-02  -3.4131124e-01   8.0111771e-02   7.4586437e-01  -5.7867364e-02  -7.4310638e-01  -9.7943431e-01   7.5493294e-01  -6.9120188e-01  -4.9418696e-01  -7.3876484e-01  -3.8758060e-01   7.0802080e-01   7.2290217e-02  -7.3718419e-01   8.7518428e-01   9.2901718e-01   6.3305900e-01   8.7970221e-01  -9.7381371e-01   5.0188010e-02   2.7538727e-01  -4.1356868e-01  -4.7782576e-01  -9.9280402e-01  -8.7266878e-02   7.9201386e-01  -1.2989947e-02   7.7285946e-01  -7.0277211e-01   1.2611627e-01  -3.4037899e-01  -2.7410511e-01   7.8985507e-01  -5.4923528e-01   7.6482134e-01   6.9699514e-01  -7.2135327e-03   9.1818383e-01  -7.6275323e-01   8.7486540e-01  -2.5931103e-01  -4.9064663e-01  -2.5654548e-01   8.1654329e-01  -5.5993630e-01  -5.0712235e-01   4.0094403e-01  -2.6468008e-01   8.7417576e-01  -1.2831977e-02  -5.6175610e-01  -1.2592117e-02  -3.6558871e-01   3.9561715e-01  -9.3530537e-01  -7.4494907e-01   5.7276788e-01   7.8290663e-01  -4.2404198e-01   2.5562820e-01  -4.1555093e-02   8.6367011e-01   6.4232082e-01   7.0998298e-01  -2.7318530e-01   1.9061964e-02   8.8020664e-01  -5.5637134e-01   7.2450946e-01   5.3961832e-01   9.3316551e-01  -3.8352598e-02  -5.6184073e-01  -7.5913604e-02   6.7581208e-01   8.9993062e-01   6.4345746e-01  -8.3488377e-01   3.7067890e-01  -6.2545620e-01   4.8109967e-01   8.1933159e-01  -3.7121139e-01  -4.8739003e-01  -7.7646087e-01   1.2572702e-01  -2.2910811e-01   1.8047605e-01   7.8168512e-01   6.6419106e-01   4.6057395e-01  -4.4139879e-01  -4.7891041e-01  -2.4690561e-01   8.1598826e-01   8.6815398e-01  -3.0017530e-01  -5.3472695e-01   1.2629296e-01  -7.0960721e-01   4.1978863e-01  -8.9935522e-01  -4.9765735e-01   7.7807473e-01   1.8796961e-01  -8.0495366e-01   7.7036129e-01  -1.6319084e-01   6.9588080e-01   5.4333999e-01   5.6843366e-01  -2.9239370e-02  -6.0120012e-01   6.8801710e-01  -3.7218017e-01  -6.1505208e-01  -3.0669278e-01  -8.5080998e-01  -1.4035026e-01  -3.1719305e-01  -8.0189110e-01   9.3017145e-01   7.7844254e-01  -4.0168594e-01  -6.0416969e-01   1.2977342e-02  -7.9844917e-01  -5.5124810e-01   3.5827436e-01  -7.0639283e-01   3.2641929e-01   2.1321672e-01  -2.8121813e-01  -4.0148273e-01   4.3740032e-01   5.7534318e-01   8.2577133e-01  -7.0612006e-01   8.3891410e-01  -9.6519832e-01  -2.4490714e-01   4.7778866e-01  -5.9977580e-01   4.8832727e-01  -6.0826215e-01  -5.6412041e-01  -6.0113277e-01   5.6480519e-01   6.2061140e-01   1.2286845e-01   4.6363031e-01   9.7561654e-01  -3.8155452e-01  -4.6124095e-01   7.2979780e-02   6.2031343e-01   8.2489991e-01  -6.6321777e-01   7.0563089e-01  -1.8629344e-02  -5.6285232e-01  -9.2693409e-01   1.9663042e-01   1.5699434e-01  -5.7631352e-01  -5.9659474e-01  -3.1321826e-01  -1.4142695e-01   2.8640970e-02   5.8105808e-01  -5.6625082e-01   3.1615610e-01  -9.7348283e-01   2.2827215e-01   2.7002437e-02   1.8606987e-01  -8.9541824e-02  -4.4693734e-01   7.6870060e-01   2.4923041e-01   1.9961623e-01  -1.9469576e-02  -4.8047982e-01   8.2932606e-01   6.1404172e-01   6.9750621e-01  -2.9554302e-01  -5.5609001e-01   3.8475106e-01  -8.7491220e-01   7.2555207e-01  -3.1324551e-01  -3.4187414e-01   7.9885454e-01   2.5118422e-01   4.9785121e-01   6.2043736e-01   4.4326399e-01   1.3092044e-01  -6.3263493e-01   4.6384091e-01  -5.0273858e-01   9.6380972e-01   3.2502168e-01  -9.3441651e-01  -5.0791138e-01  -1.9696966e-01  -1.0235880e-01  -4.3297505e-01  -2.1677664e-01  -6.7418172e-01  -3.1213416e-01  -9.3399501e-01   6.3701791e-01   6.2207808e-01   2.3350874e-02  -9.9319104e-01  -5.3860980e-01  -3.3305033e-01  -8.9032439e-02   1.3582747e-01  -8.6662633e-01   6.1542983e-01  -1.7223997e-01  -4.1700595e-01   5.2676223e-01  -7.9671289e-01  -7.5137978e-01   5.0055826e-01   2.8970862e-01  -9.8488335e-02   8.5981617e-01   8.2657667e-01   7.1069952e-01   4.2486370e-01   2.9207786e-01   2.5190765e-01   1.2153742e-01  -9.1771943e-01  -4.4770116e-01  -9.2992327e-01   7.4652378e-01  -5.7798562e-01  -7.1872964e-01   9.8785259e-01  -7.4357924e-01   4.8221309e-01   7.8798938e-01   8.2507200e-01  -7.6046478e-01   2.4543671e-01   8.3853263e-01  -7.9844298e-01   7.6876139e-01   3.7544943e-01  -3.9089695e-01   1.5304544e-01   9.3580069e-01  -6.4922161e-01  -5.7757291e-01   4.2582914e-01  -2.7875108e-01  -3.7981984e-01  -8.8994321e-01   9.9444696e-01   6.9968056e-01   9.3472260e-01   6.5065873e-01  -6.4878219e-01  -6.9954351e-01  -9.9892328e-01  -9.7862024e-01  -2.1698160e-01   5.5218691e-01  -5.0668421e-01  -2.0647999e-01  -4.3195002e-01  -3.7520865e-01  -3.6832733e-01   9.6699503e-01   8.7476786e-02   1.7006320e-01   5.0864010e-01  -1.5757519e-03  -3.3861194e-01   8.1599286e-01  -9.0329126e-01  -7.5792704e-01   9.6994186e-01  -3.2704253e-01  -7.3932834e-01  -8.4397797e-01   5.5824011e-03   2.3701492e-01   5.3879614e-01  -5.5606961e-01  -5.8644864e-01   6.5736003e-01   2.4128591e-01  -3.2182490e-01   3.4915485e-01   7.5502989e-01   7.4609724e-01  -7.6827763e-01  -9.8972679e-01  -9.2831579e-01  -2.7362577e-01  -8.0575535e-01  -3.3321924e-01   8.5778570e-01   1.5773546e-01   8.4325925e-01   4.6408916e-01   5.9646583e-02   3.0752650e-01  -9.7366814e-01  -6.2704583e-01   3.8196295e-01  -2.1912062e-01   5.8632817e-01   3.0346246e-02   3.6105700e-01   4.6579231e-01  -3.2402568e-01   1.9669799e-01  -6.4863946e-01   3.0847697e-01   1.9662712e-01   5.9663509e-01   9.0996134e-01   3.8953843e-02  -4.8882988e-02   8.6783350e-02  -7.0133439e-01   5.9742940e-01  -3.4864673e-01  -2.1345822e-01   4.2324795e-01   1.3884306e-01  -9.8725371e-01  -9.4820833e-01  -3.1294611e-01   5.9703737e-01  -4.6685335e-01  -5.8522727e-01   3.8365118e-03   4.8160695e-01  -2.6841588e-01   4.4097455e-01  -8.8459151e-01   1.7790429e-01  -5.8130285e-01   5.3388055e-01  -8.8258255e-02  -4.9858708e-01  -7.3601704e-02   1.9652070e-01   7.5821925e-01  -2.4818885e-01  -6.8883492e-01   6.0855495e-01   5.9236512e-01
