   3.7136621e-01   8.0285332e-01  -8.7156100e-01  -6.0040587e-01  -3.4480103e-01  -3.6991573e-01  -6.0886383e-01  -1.3187670e-01   9.0387342e-01   4.1374489e-01  -4.3207812e-01   4.5513922e-01   7.8280683e-01   9.0925983e-02  -7.0555883e-01   1.5057764e-01   5.1239671e-01   2.2539453e-01   7.5541456e-02  -8.8720433e-01  -6.9200122e-01  -7.8414218e-01   8.0991565e-01  -3.2374121e-01  -4.1628737e-01   1.6158786e-01  -6.3436364e-01  -8.6003612e-01   7.8726442e-01  -3.5736444e-01  -9.4479105e-01   5.4009904e-01  -1.0958463e-02   3.2285046e-01  -2.0234984e-01  -3.8376137e-01   9.1864869e-01  -3.7338810e-01   5.7174914e-01  -3.9622297e-01   3.7898017e-01   4.2571882e-01  -4.1140073e-01   1.1211671e-01   5.4033045e-01   7.2655309e-01  -7.3747245e-01   5.9363043e-01   4.7943928e-01   9.4032555e-01  -5.1082441e-01  -9.6751044e-01   3.6414775e-01   6.0343144e-01   3.3176363e-01  -6.0372642e-01   7.7360441e-01  -3.8836139e-01  -3.0069116e-01  -3.5427991e-01   1.5946258e-01  -4.4570173e-01   3.8754072e-01   7.2249732e-02   4.7083898e-01  -7.8948724e-01  -8.4180913e-01  -9.4391609e-01  -1.6083871e-01  -8.3444972e-01  -9.4976945e-01  -2.3180109e-01   3.0721291e-01  -4.7475674e-01  -4.0095186e-01   6.1277833e-01  -2.2565129e-01   8.5187477e-01  -3.6777416e-01  -8.5575500e-01  -4.7629814e-01  -4.0692928e-01  -2.3594975e-01   4.2886003e-01   3.2333925e-01   2.4719023e-01   5.9169910e-01  -6.3740347e-01   1.5935206e-01   2.7570781e-01  -1.0543572e-01   4.8040937e-01  -3.1910238e-01  -1.3553957e-01  -9.7850293e-01  -8.5413947e-01  -2.5070518e-02   6.5905706e-01  -8.5377268e-01  -7.5767237e-01  -9.2019170e-02   5.8090934e-01   9.1528763e-01  -5.7663705e-01  -3.9280519e-01   1.9616297e-01   4.9162597e-02   9.3921316e-01   4.7841483e-01   6.8819752e-01  -2.8570199e-01   9.4794739e-02  -8.8810870e-02  -6.9789733e-02  -3.1635638e-02   7.4540552e-01  -2.3902182e-01  -8.7027781e-01   1.2846121e-01   9.4879290e-01   2.0009768e-01   5.8019751e-01   6.4406363e-01  -4.6030904e-01   7.2632532e-01  -4.0986687e-01   5.8490878e-02   4.4805122e-01  -4.3790979e-01   9.9780855e-01  -5.8343963e-01   1.4352905e-01   8.8501631e-01   2.7719355e-01  -3.5952369e-01   6.9410589e-01   5.7421357e-01  -6.9544105e-01  -2.3783217e-03   4.0759461e-02  -5.0636584e-01   8.9096910e-01   9.0043850e-01  -8.5285265e-01   7.3379433e-01  -6.0934987e-01  -2.0207039e-01   4.8503520e-01  -6.6642406e-01   7.0505339e-02   5.7928009e-01  -1.2095868e-01   4.5375083e-01   1.4371108e-01  -4.1106151e-01   2.5689044e-01   4.6914966e-01   2.9930951e-01  -5.8510747e-01  -6.2789505e-01  -9.2601854e-01  -9.7398809e-01  -6.0827551e-01   1.6692553e-01  -9.2888717e-03   4.8496760e-01   9.8775309e-01   9.5190897e-01   6.5562284e-01  -6.5394281e-01   9.8400006e-01   4.8131854e-01  -9.7292904e-01  -9.1951325e-01  -1.1203404e-01  -3.3892251e-01   2.2673974e-01   1.3763614e-01  -9.4430516e-01   3.9217321e-01  -5.7436408e-01  -5.7729698e-01   5.6130743e-01   4.7468060e-02  -3.8590113e-01   2.0489876e-01   7.5398835e-01  -9.0590472e-01  -4.0084708e-01   1.1432282e-01  -2.3416301e-01  -8.8998515e-01   4.6154098e-01  -5.5968230e-01  -5.6905679e-01  -9.9856634e-01  -3.0709209e-01   2.5693989e-01  -6.5611289e-02  -2.5575849e-01  -8.1555331e-01  -2.3446422e-01  -6.2559668e-01  -5.6224858e-01   4.5567518e-01  -2.2342181e-01  -8.2842950e-01   7.4909323e-01   6.5584536e-01  -9.4482423e-02   7.3995938e-01  -4.8556926e-01  -9.2828611e-02   8.1108832e-01   5.6150390e-01  -3.7614697e-02   7.8944257e-01  -9.1714390e-01  -4.3712454e-01   1.5632581e-01   1.1585420e-01   5.6722192e-01   8.9103901e-01   4.6766871e-01  -8.8327717e-01   6.1312416e-01  -4.8754351e-02   8.8482351e-01  -1.2308139e-01   4.8520859e-03  -9.0689183e-01  -6.0457641e-01  -3.9178813e-01   9.6843212e-01   7.2679461e-01  -4.1109053e-01  -8.1866725e-01   1.0988480e-01  -9.1437339e-01   7.6601349e-01  -7.5512799e-01   9.1821904e-01   9.9287594e-01   4.8687842e-01   7.9173169e-02  -5.7942472e-01   7.3547743e-01   8.7142855e-01  -8.0354099e-01   1.4180672e-01   1.5484173e-01   4.2623400e-01  -8.0452480e-01   4.2071025e-01  -6.0863617e-01   6.5130545e-01   8.2061340e-01  -8.0201779e-01  -8.1052810e-01  -7.3855871e-01   9.3174797e-01  -2.2171453e-01   9.7090596e-01   8.6577381e-01   8.5911535e-01   5.4824444e-01   7.6550078e-01  -6.3915260e-01   5.1386590e-01  -6.4016805e-01  -7.1408269e-01  -8.9478295e-01  -7.7125218e-01  -9.1088135e-01   9.2900640e-01  -4.2821006e-01   5.7535894e-01  -4.9429314e-01   9.3106951e-02  -9.0440304e-01  -1.9825588e-01  -8.9351028e-01  -2.6818091e-01   7.0286279e-01  -3.7269080e-01  -9.9080890e-01   5.2679795e-01  -1.1355228e-02   8.2432709e-01   4.9152423e-01   3.2902000e-01   1.9414741e-01   8.0686599e-01   7.6057145e-01  -8.9988491e-01   7.3728229e-01   5.3624121e-01   8.0420449e-01   6.6583431e-01   2.1367484e-01   1.2699667e-01  -5.5146899e-01  -2.6958500e-01  -6.6494858e-03  -2.3445798e-01  -7.5260840e-01  -1.2897486e-01   4.3124170e-01   6.3955401e-01   5.3081370e-01   4.6023564e-01  -5.9296136e-01   6.6744480e-01   9.5563086e-01   3.4114076e-01   6.6494918e-01  -6.8323170e-02   5.9267162e-01  -3.8333531e-01  -8.8719862e-01  -8.2987174e-01   9.3755974e-01   7.3378942e-01   8.9962719e-01  -2.7242719e-01   4.9397063e-01  -3.9292770e-01  -9.0794160e-01   1.4606953e-01   9.6603917e-01   5.2933113e-01   8.2205686e-01  -4.2646389e-01   1.7804127e-02  -8.8754081e-01   8.1598173e-01   4.0948910e-01   1.5232929e-01  -9.6681596e-01  -4.8864697e-01  -5.4833286e-01  -7.7172198e-01  -9.9680184e-01  -4.1364618e-01  -9.7067888e-01  -5.1703815e-01  -4.9433518e-01  -9.1740001e-01   3.8286327e-01  -5.4219351e-01   4.8440356e-01   6.8204953e-01  -7.1006291e-01   4.5401520e-01  -5.8584409e-01  -9.5132896e-01   8.5331756e-01  -4.1724828e-01  -4.3967321e-02   3.7595665e-02  -4.6428761e-01   1.0452719e-02   4.0207885e-02   5.7011383e-01   1.1926915e-02  -7.5820235e-01  -8.9223386e-01  -3.4151640e-01   2.2019198e-01  -1.4846888e-01  -7.0878386e-01   3.0748177e-01   5.8904904e-01  -9.4508077e-01  -6.4204891e-01   7.0893320e-01   9.0640217e-01  -2.9385172e-01  -3.8090463e-01   8.3515145e-01  -2.7354568e-01   2.4637499e-01   5.1117126e-01  -9.4478359e-01  -3.4977349e-01  -1.5122404e-01  -9.7304764e-01  -3.3423799e-01   2.1964731e-01   5.0390581e-01  -6.6657280e-03  -5.8885041e-01   7.2388788e-01   9.7537119e-01  -5.3284690e-01  -8.0304008e-01   7.7274023e-01   7.3459707e-01  -7.0663305e-01   4.9359145e-01   6.5099254e-01   2.4666089e-01   9.1083226e-01   7.0780911e-01  -3.2246161e-01   1.6253839e-02  -4.5631396e-01   8.0504141e-01   2.6707776e-01   3.7021833e-01   5.8034927e-01  -1.1228383e-01   8.9249170e-01  -7.9373149e-02   8.9764572e-01   9.7287299e-01  -9.8689683e-01  -7.5469695e-01   5.2759013e-01  -3.0719189e-01  -2.2049383e-01   4.7610681e-02   9.5989706e-01  -5.6195895e-01  -5.7234155e-01   3.2252076e-02  -2.7585565e-01   8.7141487e-01   4.3555190e-01  -1.1028519e-01  -9.9777101e-01   2.9662564e-01   3.8306495e-02  -2.8663044e-01  -9.6876186e-01   3.3065367e-01  -3.5819301e-01  -8.0286588e-01   5.7319965e-01  -7.8007453e-02   1.7222883e-01   5.3607623e-01  -1.1150062e-01  -8.2529311e-01  -4.3003178e-01  -8.0916029e-01   4.3446150e-01  -9.8622128e-01  -7.2762214e-02  -3.0809975e-01  -2.1042888e-02  -4.1589933e-01  -9.5686704e-01   2.4023986e-01   6.4426570e-01  -2.0341271e-01  -1.1205348e-01  -8.8895490e-01   1.0320768e-01   2.9656200e-01  -1.9987524e-01   9.0563073e-01  -1.5414514e-01  -8.9641587e-01  -4.9536750e-01   9.8426929e-01   1.6231680e-01   5.4018586e-01  -9.0365609e-01   2.1345357e-02   1.2253974e-01   3.7639382e-01   8.7014335e-01   2.6300478e-01   4.7945516e-01   6.5233413e-01  -6.2132242e-01  -5.5800517e-01   3.3106620e-01  -5.0577295e-01  -5.5714209e-01  -5.5342831e-01  -8.4868492e-01  -5.7218799e-02   8.4979206e-01  -4.1772614e-01   9.3880139e-01   3.3192179e-02   5.0644143e-01  -5.4234679e-02   3.4943650e-01  -9.9045423e-01  -8.0497610e-01  -6.0066064e-01   8.6541787e-01   7.5198908e-01  -1.4361097e-01   1.4627106e-02   7.8057454e-01  -2.2298322e-01   7.4459834e-01  -3.6690436e-01   7.2716396e-01  -4.3659196e-01  -3.1644952e-01   3.4436376e-01   2.5821028e-01   6.3152890e-01  -4.2470869e-01   2.3747661e-01  -6.2484425e-01   5.2226910e-01   8.9820292e-01   2.5073937e-01   2.0115891e-01  -4.6987945e-02   4.4510543e-01   8.1080584e-01   6.8804189e-01   6.3859129e-01  -6.3765459e-01  -8.6605530e-01   4.5159924e-01   2.7015211e-01   1.1394231e-01  -8.0290653e-01   3.2613594e-01  -4.8265890e-01  -2.7281985e-01   2.4744400e-01   3.3151790e-01  -1.4327837e-01   8.3149919e-01  -2.5557065e-01   6.2208709e-01  -4.3581640e-01   8.0526720e-01  -7.0930733e-01  -6.2568342e-01   6.9823273e-01   2.1087229e-01   5.7976227e-01  -2.2219733e-01   8.4623956e-01  -1.4903809e-01   2.0187117e-01   5.6865901e-01  -7.5632865e-01   3.7354171e-02  -9.4704933e-01  -8.6513008e-01  -8.1941203e-01  -8.9946314e-01  -1.5846688e-02  -6.2851334e-01   8.9949310e-01   1.8379285e-01   4.1120322e-01  -4.5462760e-01  -2.7822621e-01   9.1378157e-01   2.0454882e-01   4.2500930e-01  -7.9540764e-01   2.7724243e-01   7.3982088e-01   5.6744299e-01  -8.2052628e-01   9.9639386e-01   6.2457406e-01   8.5121911e-01  -3.2239562e-01   8.6777219e-02   5.6430349e-01  -7.4063767e-01   4.3651602e-01   4.8936405e-01  -5.5054878e-01  -9.0145264e-01   8.0176625e-01  -6.5958637e-01  -8.4259009e-02   6.9164025e-01  -3.1511584e-01   2.6305402e-01   4.8413786e-01  -4.4398206e-01  -8.3003541e-01  -8.0135234e-01  -3.4400292e-01   1.8930223e-01   7.1675642e-01  -7.5387358e-01   4.2412328e-01  -2.4565171e-01   9.8230258e-02  -5.3434056e-01  -9.9003603e-01   7.4693048e-01   8.3366684e-01  -9.1265844e-01  -8.4184619e-01   8.3378596e-01  -5.6189681e-01  -7.6972089e-01  -3.9365832e-01   2.9584030e-01   7.8098286e-01  -1.1634861e-01   6.3736821e-01   1.7498432e-01  -1.8086345e-01  -3.9882546e-01  -4.0392533e-01   4.5529992e-01  -2.2461515e-01  -9.9444740e-01  -1.6915192e-01   7.9717506e-01  -7.5919661e-01   8.5237554e-01   1.5941809e-01  -7.8160327e-01  -9.3420529e-01  -6.1215882e-01   9.6167276e-01   4.7942905e-01   6.6960506e-01  -3.9367411e-01   5.5706347e-01   3.6855459e-01  -3.9109433e-01  -6.0918239e-01  -1.6002834e-01   8.1455463e-01   3.7885419e-01   6.6677132e-01  -4.5189353e-01  -5.4696694e-01  -4.6824281e-01  -6.7472321e-01  -8.0317838e-01  -4.3482699e-02   2.0942838e-01  -6.7359015e-01  -5.0671511e-01  -3.2530025e-01   1.1970927e-01   2.8912553e-02  -5.8888905e-01  -5.4602395e-01   1.7131580e-01  -7.7664702e-01   7.9891056e-01  -7.9281167e-02  -1.4059542e-01   3.4808358e-01  -8.5232026e-02  -4.8259508e-01  -6.9851517e-01  -4.6234538e-01   6.5975032e-03  -1.8621226e-02  -1.3653881e-01  -6.0159155e-01   6.2808477e-01   4.8296952e-02   4.5193982e-01  -1.9189064e-01   3.9501309e-01  -2.7245734e-01  -9.7665594e-01  -2.2942178e-01   8.2291880e-01  -4.6176255e-01  -7.1225885e-01  -5.3852937e-01  -5.3260148e-01  -4.5472522e-01   7.9224132e-02   1.3917480e-01  -2.7408318e-01  -6.3553729e-01  -6.9132606e-01   3.6717482e-01  -5.7637920e-01   8.4989835e-01   1.4997136e-01  -8.4333441e-01   7.4238334e-01   9.7987956e-01   5.3727223e-01  -2.8742085e-01  -1.2465504e-01  -1.2244717e-01  -3.7745405e-01   9.8572401e-01  -8.5595205e-01   8.2095368e-01   1.3818217e-01  -7.4362828e-01  -3.9944893e-01  -1.5323960e-01   7.4427833e-01   3.5911759e-01  -1.6702101e-01  -3.7008842e-01  -5.0688711e-01   7.1711195e-01   6.4145754e-01  -8.9294776e-01   2.2959915e-01   3.7544379e-01  -1.5046378e-01  -6.0135497e-01   6.4992316e-01   1.9195716e-01  -6.9689267e-01   7.9162703e-01  -4.9817525e-01  -6.9474932e-01   2.2172477e-01   4.5782818e-01  -2.6867220e-02  -4.8387314e-01  -7.5078882e-01  -5.5903842e-01   5.9314330e-01   5.4314481e-01  -4.8604900e-01   3.7763319e-02   7.0473587e-01  -7.9791826e-01   3.2487066e-01   7.9002933e-01  -4.6068332e-01   3.9766427e-01   9.9952269e-02  -4.3410125e-01   4.1736584e-01  -1.1366386e-01   2.5999783e-01   1.3628043e-01  -9.3184257e-01   4.0673404e-01   3.7100902e-01  -2.8973015e-01  -1.4112623e-01  -6.3814364e-01   1.7053945e-01   3.9479468e-01  -3.2708930e-01   9.6014268e-01   8.9317898e-01  -3.4785624e-01   2.4529298e-01   8.9713230e-02   6.3572891e-02  -3.9038042e-02   8.7756296e-01  -5.4793196e-01   6.3977123e-01  -2.5393370e-01  -6.4321600e-02  -9.7051507e-01   4.9798075e-01  -5.8366676e-01   2.1739906e-01   6.0299770e-01  -2.5168686e-01  -1.7358947e-01   6.1620524e-01  -2.6679870e-01   7.1515426e-01  -5.0595512e-02  -8.9230084e-01   5.3226918e-01  -5.2068644e-01  -2.8059715e-01  -4.3756615e-02   8.7887251e-01  -4.4431250e-01   3.0150958e-01   6.6645298e-01   9.1153774e-01  -6.1558950e-01  -5.4551845e-01   8.7839463e-01  -2.0493728e-01   2.2376624e-01  -6.2978791e-01  -9.1467002e-01   7.3145580e-01  -7.6392726e-01  -7.2051070e-01  -5.3222134e-01   3.3676221e-01  -6.2117386e-01   4.4538989e-01   7.8429370e-01   2.7379073e-01  -1.9549398e-01   5.8389045e-01  -8.1619816e-01  -6.5017038e-02  -8.7895616e-01  -8.7608676e-01   6.2834663e-01  -3.1860991e-01   8.2570727e-01   4.4008478e-05   2.0076975e-01   2.2146298e-01  -7.7318666e-01  -6.7717475e-01   4.3580014e-01  -2.0860651e-01   9.0897704e-01   8.3871540e-01   9.2949617e-01  -8.1245374e-01   2.8580070e-01   1.1118341e-01  -6.4400196e-01  -2.1289978e-01  -9.4675942e-01   4.1881578e-01  -4.3104803e-01  -5.3629272e-01   5.2052237e-01   3.9543120e-02   8.2014469e-01  -4.3230819e-01   4.7682846e-01   7.9671644e-01   6.2464944e-01  -9.7547838e-01   1.2867647e-02  -8.8253123e-01  -5.0942037e-01   5.3397646e-01   3.3535028e-01   1.6670731e-01   1.1352889e-01  -4.9008588e-01   3.8367145e-01   1.2230544e-01  -4.8120278e-01   4.6354426e-01   6.0955281e-01  -3.2974078e-01   2.3974215e-01  -4.4304622e-01  -6.9213325e-01   1.0462900e-03   9.2719469e-01   9.0699619e-01   8.5199614e-01  -4.0244898e-01  -8.1899536e-01  -6.3244250e-01   4.0000146e-01  -9.4796536e-01   7.6135839e-01   2.5320222e-02   5.1921779e-01  -2.6883592e-01  -6.4032184e-01   3.7144818e-01   8.2342616e-01   3.8805941e-01  -5.2733677e-01   3.7961564e-01   5.1838689e-01  -7.2481680e-01   9.2652793e-01   8.9660704e-01   2.4560015e-01   9.7529339e-02  -3.1259182e-01  -3.6246106e-02   2.5165864e-01  -9.0952897e-01   3.4156462e-01   2.4382203e-01   3.9101482e-01   4.8895439e-01   5.6504588e-01   7.6050711e-01  -6.5094296e-01  -3.8716178e-01   4.7658490e-01   8.0045020e-01   5.2218555e-01  -2.9382626e-02  -6.3666527e-01   5.0725122e-01   3.8997199e-01  -6.3666846e-01   4.3070877e-01   7.0278597e-01  -2.0684005e-01   8.6049438e-01   3.2041868e-01   2.7662972e-01   7.3123787e-01   3.0060872e-01  -1.1267988e-01  -3.3618076e-01  -1.9956322e-01  -8.8533451e-01   4.8246470e-01  -9.4483390e-01   8.2585661e-02   9.8560030e-01   9.4826263e-01  -8.6903940e-02   9.6623266e-01  -8.9737053e-03   3.3748939e-01   8.8362859e-01   2.7728331e-01   4.9419558e-01  -2.7913715e-02  -8.1172308e-01  -8.3394753e-01   6.7353785e-01  -9.9202431e-01   3.0889433e-01  -1.3112565e-01   9.5371046e-01   8.6901735e-01   2.6706132e-01   5.9028706e-01  -7.3456415e-02  -5.8814180e-01   7.7375033e-01  -8.6462081e-01   4.7296359e-01  -4.8736145e-01   9.8691817e-01  -3.8869710e-01  -9.1564064e-01   1.3418574e-01  -3.0720375e-01  -1.0574877e-01   7.2124824e-01   1.5783258e-01   8.7728637e-01   2.1497585e-02   7.7512428e-01   5.5131702e-01   9.9013012e-01   9.9306455e-02  -5.4050013e-01  -4.3105733e-01   7.7559000e-01  -9.2834381e-01   1.9952745e-01  -8.8439913e-01  -3.1738142e-01  -5.8997036e-01  -4.5364788e-01   8.7148116e-01  -3.6135776e-01  -8.8864306e-01   7.8951487e-01   9.5458808e-01  -6.0063857e-01  -7.3876554e-01  -1.7812225e-01   6.1258485e-01   1.5880523e-01  -9.6442770e-01  -9.0216743e-01  -3.5268511e-01  -1.8309002e-01   3.1377992e-01  -4.5309190e-01   2.2530519e-01  -9.0324486e-01  -7.0601108e-01  -8.1291007e-01  -5.7106581e-01   8.6339860e-01  -9.6418215e-01   8.4770102e-01  -3.0810135e-01   1.4164128e-01   8.2772520e-01   3.1499916e-01   3.3845677e-01   8.1474934e-01   4.1584548e-01  -8.7114930e-01  -7.1785707e-01   3.3992719e-01  -7.7930411e-01   9.0850949e-01   7.3855106e-01
