  -6.2401827e-01  -5.3206025e-01  -9.6959250e-01  -7.7892965e-02   4.2268042e-01   5.6572289e-01  -2.6932923e-02  -9.5660097e-01   8.5997535e-02   1.9610513e-01   6.9202882e-01   2.2993326e-02   3.5841940e-01  -7.8404121e-01   5.0490116e-01   6.8235524e-01  -3.9274707e-01   4.7353887e-01   5.1585847e-01  -5.0930686e-01  -6.2833154e-01   7.5685009e-01   2.0037876e-01   3.1745274e-01  -9.7684332e-01   4.8918046e-01   5.5129266e-01   8.0800766e-01  -8.9695476e-01  -5.4458955e-02   1.2007092e-01   1.8027891e-01  -7.3002167e-01   9.8305712e-01  -3.6457320e-01   5.0293455e-01  -2.0733239e-01  -3.9622551e-01   4.7573949e-01   9.6463504e-01   6.4030847e-01   4.6436480e-01   5.0790551e-01   9.6003818e-01  -4.5712139e-01   4.7674818e-01   1.5905930e-01   1.9090583e-01   1.4966603e-01  -6.9006885e-01  -5.4928827e-01   2.5209136e-01  -5.3542646e-01  -6.2808071e-02  -2.0018961e-01  -2.9645643e-01   8.5529692e-01   4.5962429e-02  -8.7866745e-01  -1.9879167e-01  -4.3749243e-01   4.2573331e-01  -4.8208544e-01   2.7858277e-01  -3.7122309e-02   8.9473096e-02  -8.2987332e-02   3.5213470e-01   1.5881289e-02   8.0700861e-01   9.7455897e-01   3.9395638e-01  -2.6867800e-01  -4.7605211e-01  -4.1253795e-01  -8.0174561e-01   6.6440614e-01   6.0291156e-01  -1.7122540e-01  -7.8162511e-01   2.0173868e-01   5.1294611e-01  -9.8839035e-01   8.9992306e-01  -9.3076396e-01   1.4577545e-01   5.5937521e-01  -7.8430641e-01   1.6309041e-01  -8.1839448e-02   1.5276499e-01  -2.9572247e-02   7.4511084e-01   4.6427285e-01   9.2235940e-01  -3.3518316e-02  -1.9750347e-01  -9.3528249e-01  -2.3659571e-01   9.1212307e-01  -2.7310187e-01   3.8408902e-01   7.1739373e-01   2.0466083e-02  -7.2204938e-01  -9.3594393e-01  -3.8877780e-01  -4.3130507e-01   3.8330315e-01   3.0750996e-01  -5.0417430e-01   6.8337721e-02  -3.5110217e-01  -8.0553711e-01  -6.5170796e-01  -4.0592786e-01  -3.4909811e-01   6.3156830e-03  -2.0199750e-01   1.1973010e-02  -4.6474411e-01   5.2229529e-01   9.3859178e-01  -3.3784562e-02  -5.3486587e-01  -1.2481211e-01  -7.5498958e-01   1.5746929e-01  -8.4773975e-01  -6.4073245e-01   3.6693842e-01  -4.8760871e-01   6.1077491e-01   5.0433509e-01   1.7180891e-01   5.6218745e-01  -4.9129115e-01  -2.5794326e-02   4.4162845e-01  -7.3592221e-02  -4.0261101e-01   2.9959606e-01  -6.2960845e-01   2.8570619e-01  -2.2883806e-02  -5.1749252e-01  -9.2436197e-01   9.3373026e-01   1.3607555e-01  -2.7112812e-01   9.6799004e-01  -3.9442569e-01   1.5511422e-01   1.7422402e-01   2.9129409e-01   2.8780246e-01  -4.8014118e-01  -5.2805332e-01  -2.6379439e-01  -3.0921946e-01   2.3366049e-01  -8.2551132e-01  -3.5169061e-01  -2.6559528e-01  -6.6371837e-01  -2.7498427e-02   5.8278355e-01  -9.6000463e-01  -3.1973250e-02   7.8229852e-01  -7.0125260e-02  -5.7524510e-01   1.8356679e-01  -3.1052104e-01   6.3599048e-01  -4.4488094e-01  -7.5310745e-01   1.8750172e-01   9.2473658e-02   9.7125919e-01   3.9442972e-01   9.9230041e-01  -3.6929370e-01  -1.8263306e-01  -2.7692720e-01  -1.5609749e-02  -9.9985343e-01  -8.4849868e-03  -1.2853943e-01   8.4712068e-01   8.6452485e-01   4.7621905e-01   1.7858413e-02  -8.6933802e-01  -6.0622565e-01   2.4934281e-01   3.1511678e-03   7.1161177e-01  -6.7562279e-01  -2.0162529e-01   8.3735636e-01  -2.5961030e-01  -9.3922862e-01   7.0302462e-01   8.7355229e-01  -9.5963342e-01  -6.8691255e-01   6.7145170e-02  -1.1603574e-01   6.4901173e-01   2.1870772e-01  -8.0919500e-01  -7.9561846e-01   2.3109188e-01  -1.1992131e-01  -3.0550669e-01   7.6463722e-01   3.3821034e-01  -8.7063145e-01  -4.1692599e-01  -1.7208735e-01  -6.7968588e-01  -2.9591798e-01   2.2796387e-01   3.2714888e-01   4.2052403e-02  -3.4371089e-01  -8.2876280e-01   6.8720047e-01   6.9368832e-01   8.0817451e-01  -6.3608201e-01   1.0376828e-01  -9.2235797e-01   7.8076668e-01  -9.3189555e-01  -8.9409738e-01  -6.3064099e-01  -5.6622770e-01  -1.6104751e-01   4.9845958e-01   6.0094181e-01  -6.2250747e-01  -3.7270274e-01   2.3054649e-01   4.4040292e-01  -4.4707748e-01  -5.7778588e-01  -4.7579265e-01   7.0444843e-01   5.0634463e-01  -1.7681783e-01   6.7850896e-01  -6.2249166e-01  -3.7417721e-01   2.6774253e-01   7.2459183e-01   5.7621601e-01   8.6860823e-01  -2.9609781e-01   1.3772353e-01   4.1985879e-01   6.9403952e-01   4.7779890e-01   2.4947781e-01   3.7024586e-01  -9.8071981e-02   8.1999215e-01   3.2772737e-01   4.9331226e-01  -5.8352795e-01  -3.5576533e-01  -2.6839376e-01   7.9428446e-01   6.3936855e-01  -2.7287126e-01  -9.5962461e-02  -1.8486810e-01  -6.4458766e-01  -9.1115814e-01  -3.6553490e-01  -6.5399925e-01  -8.5535413e-01  -5.9879914e-01   1.4100281e-01  -5.8905281e-01   3.6002821e-01   9.3952842e-01   7.9814900e-01   8.4525266e-01  -1.9010641e-01  -3.7040621e-01   7.2737216e-03   1.8353786e-01  -4.0507887e-02   9.5745358e-01   4.1591833e-01  -1.6612906e-01  -8.2823228e-02  -8.1368849e-01  -1.3714074e-01   4.0942933e-01   8.8275060e-01   8.5747234e-01   5.5760753e-01   8.1736154e-01  -5.7202843e-01   6.1841351e-01  -4.9501878e-01  -9.7335790e-01  -2.7731784e-01  -2.0108713e-01  -2.4707858e-02   5.3652775e-01   1.0115238e-01  -7.5565033e-01   2.8487005e-01   6.8670422e-01   5.2859579e-02   7.1810695e-01  -8.6543016e-02  -5.4768497e-01   1.2700096e-01   6.0153300e-01  -3.8686750e-01  -6.6035432e-01  -6.2489334e-01   3.3229361e-01  -4.7613328e-01  -4.1364621e-01  -3.0827968e-01   7.2857174e-01  -4.5043864e-01   1.4961878e-01  -6.1500816e-01   3.5080403e-01   4.8053118e-01   1.9874158e-02  -8.9544472e-02   8.3959190e-01  -2.8175910e-01   4.8526123e-01  -8.1751709e-01   3.0744279e-02   1.3669165e-01  -7.2565794e-01   6.6908394e-01   6.6198781e-01  -5.9231786e-01  -3.4208694e-01   2.8832187e-01  -3.5285342e-01   2.1098205e-01   5.0205431e-01  -4.4890847e-01   3.1835831e-01  -4.7184682e-02  -4.8006232e-02  -9.2151526e-01   1.7935987e-01   5.4642534e-02  -9.9152894e-01  -4.4114765e-01  -3.0421209e-02  -6.2832744e-01  -8.5896872e-01   9.8007082e-01  -6.5183600e-01  -8.9517187e-01   9.8965228e-01   9.9102130e-01  -2.2976367e-01  -8.4642505e-01  -9.0780312e-01   9.0596391e-01   8.5734814e-01   2.2110348e-01   7.8275515e-01  -1.6466768e-01  -8.4715202e-01   2.6980504e-01  -4.2741590e-01   1.1295104e-01   1.9396497e-01   9.5260708e-01  -6.6212721e-01  -5.1722363e-01   7.1196876e-01   7.6779574e-02  -5.8355588e-01   8.1395006e-01  -8.7566255e-02  -1.7277869e-01  -1.9429317e-01  -6.4793475e-01  -3.7311611e-01  -4.9773683e-01  -1.7810710e-01  -8.6478447e-01  -3.2551332e-01   4.1697459e-01  -5.7967627e-02   1.7021414e-01  -3.5192975e-01  -5.6475506e-02   1.4179099e-02  -6.8362026e-01  -9.4643987e-01   5.7788728e-01  -1.7451796e-01  -4.2881899e-01   3.2120709e-01  -3.5524498e-01  -5.5472169e-01  -1.9304258e-02   4.1941170e-02  -3.4982316e-01  -8.7583211e-01   8.0948744e-01  -2.2835404e-01   2.9420459e-01   5.4804220e-01  -2.1583030e-01   8.8383227e-01   3.4769728e-01  -8.4748851e-01   2.7953273e-01  -2.2680684e-01  -5.9096458e-01   2.7620499e-01   7.0084334e-01  -6.4479575e-01   6.5167445e-01  -4.5562180e-01   1.7218141e-02  -7.4950373e-01   2.6714043e-01   4.3354888e-01  -9.8990088e-01   7.3196570e-02   3.3710837e-02   2.3946471e-01  -8.0258435e-01  -4.9716192e-01   4.6523332e-01  -3.6578549e-01   1.6223282e-01  -2.5014239e-01   4.4409316e-01   4.1533461e-01  -8.6511445e-03   6.5573661e-01   9.7029393e-01  -7.9716738e-01  -4.4646197e-01  -8.9402909e-01  -9.4800695e-01  -9.2270691e-01  -5.5920662e-01   7.1488377e-01   1.5346738e-01   4.5332467e-01   2.5530442e-01   7.7622065e-01  -7.0249503e-01   8.4782645e-01  -5.4535163e-01  -8.9858857e-01   3.2507946e-01   9.1587524e-01  -7.4617421e-01   7.6023024e-01  -7.0169536e-01  -1.1026150e-02   7.8836176e-01  -8.7967549e-01   4.1498417e-01   2.2804462e-01  -9.9876680e-01  -1.6293041e-01  -7.6836951e-01  -5.5687234e-01   3.5249637e-01   2.0039392e-03   4.2623651e-01  -6.9357097e-01  -9.5101016e-01   4.1690865e-01   7.3790865e-03  -4.6293408e-01  -1.0565002e-01  -5.0025012e-02   1.0025549e-01   1.6682755e-01  -7.3375898e-01  -9.9447678e-01   1.8672214e-01   3.4619560e-01   3.0161923e-01  -1.6891434e-01   3.1446859e-01   8.2994406e-01  -5.5551930e-01  -9.1859190e-01  -8.0696655e-01   1.4127896e-01  -2.1546651e-01   3.7411583e-01  -6.8342290e-01  -5.0410915e-01  -2.3166907e-01   7.6977907e-01   2.4970086e-01  -6.6322975e-01   1.0760169e-01  -7.4813151e-01  -5.0708051e-01   1.4770879e-01  -6.1492576e-01   5.6554717e-01  -9.9566165e-01  -5.4947246e-01  -8.3169073e-01   7.5246950e-01  -9.9985687e-01  -1.4545244e-01   9.7720365e-01   3.3572122e-01   1.5537020e-01   3.4077400e-02   8.6095602e-01   5.1195017e-01  -9.1934713e-01  -8.9613305e-01  -1.9311012e-01   8.6435219e-01  -2.7753966e-01  -8.2062253e-01   8.7620089e-02  -9.5889533e-01  -3.7739392e-01  -8.6223189e-01  -6.9087864e-01   7.1994157e-01  -5.9801542e-01  -3.8975522e-01   7.5594008e-02  -2.3658053e-01  -1.4515086e-01  -5.3906470e-01  -8.4092230e-01   4.3477012e-01  -9.5582332e-01   6.7787166e-01  -8.3362067e-01   9.9817006e-01   7.1126491e-01   4.9049422e-01   3.4812320e-01   4.4861128e-01  -1.8534117e-01   6.9710333e-01   2.6866155e-01  -7.6081741e-01  -8.9567883e-01   6.3635270e-01   4.1965388e-02   7.0874553e-01  -9.8204438e-01   5.1002685e-01  -7.5243507e-01  -1.3763876e-01   4.8129061e-01  -4.3779996e-01   6.0513723e-01  -7.0533835e-01  -7.7988743e-01  -5.3130484e-01  -4.1601635e-01  -4.1958433e-01   5.8734689e-01  -1.2498352e-01   4.7947324e-01  -2.6853650e-01  -7.6698439e-01  -4.4500106e-01  -4.3642722e-02   6.7920311e-01   4.4154889e-01   1.5199816e-01  -7.7338768e-01   3.5400755e-03  -3.4587126e-01  -8.0739750e-01  -9.0657622e-02   1.2854424e-01   5.2202606e-01   5.5381037e-01  -6.5495280e-01   1.8130038e-01  -2.7137396e-01  -1.1084998e-01   9.1786665e-01   6.8041169e-01   2.0567613e-01  -9.2554191e-02  -3.2124824e-01  -4.6123777e-01  -8.4296621e-01  -5.5370139e-02  -9.0157219e-01   7.2657506e-01  -6.1027233e-01   6.6759403e-01  -1.0077455e-01   7.3650396e-01   1.7645113e-01   6.2207291e-01   3.8182772e-03  -2.8261095e-01  -4.2265366e-01  -9.6277803e-01  -6.6298312e-01   5.6028267e-01  -7.2091324e-01  -4.3274181e-01   2.3401772e-01  -2.2227283e-01  -9.1257760e-01   3.4006853e-01  -4.7992809e-01  -1.5603881e-03   4.8856932e-01  -5.0134575e-01   9.5737688e-02   2.3067757e-01  -2.9264632e-01   3.8298399e-02   9.5195840e-01  -1.6239608e-01  -2.9835248e-02  -6.1935354e-01  -3.7001933e-01  -5.7973107e-01   7.6875418e-01   9.5052413e-01  -6.2236415e-01  -1.9708255e-01  -5.9409852e-01  -8.8864787e-01   1.4019929e-01  -1.0563307e-01  -4.7954872e-01   3.7483087e-01  -4.0231612e-01  -3.3397902e-01   8.4274358e-01   6.4750034e-01  -5.6057380e-02   8.5568368e-01   7.6488615e-01  -9.9086704e-01   5.7776348e-01   3.6630573e-01   4.8891521e-01   3.6886947e-01   1.1743731e-01   1.4411592e-01   8.0602289e-01   3.0554449e-01   2.9648574e-01  -8.6836256e-01  -9.3636983e-01  -2.6357780e-01  -5.6768353e-01  -9.9150303e-01   9.7701421e-01  -3.8213004e-01  -6.4957451e-02   8.7886320e-01   5.2867959e-01   6.8028470e-01   4.9042295e-01   3.4762720e-01   6.2201762e-01  -4.0415341e-01   3.0498466e-01   4.1760817e-01   3.1145958e-01  -5.9875232e-01   6.4484725e-01   8.9250204e-01   8.4952130e-01   1.8329643e-01   4.4837603e-01   8.7529324e-01  -3.6752570e-01   4.8469809e-01  -1.1192203e-01   1.3405573e-01   8.6188824e-01   9.9434143e-01  -4.8753736e-01  -6.2442349e-01  -2.4304422e-01  -9.8391980e-01   6.7136510e-01   6.7515486e-02   2.6292292e-01   3.5637345e-01   2.5708914e-01  -5.6160664e-01  -4.2507737e-01   1.7594279e-01  -1.0242094e-01  -1.9775035e-01   2.2063278e-01   5.6514146e-01  -3.4199858e-01  -1.4603289e-01  -8.4772280e-01   7.2359469e-01   2.6863290e-01  -6.2807161e-01  -9.1853704e-01   4.6095645e-01   2.9949523e-01  -2.2126552e-01  -5.8661273e-01  -6.5709558e-01  -9.4268100e-01   8.6653069e-01   3.5488940e-02   6.7365216e-01   4.6332560e-01   1.0070523e-01  -1.8072455e-01  -1.6812547e-01  -1.1964809e-01  -9.1312611e-01  -9.9998069e-01   8.0297956e-01  -2.2381955e-01  -7.2067795e-02   7.1861785e-01  -8.4423311e-01  -1.4863503e-01  -6.5433792e-03   2.6220134e-01  -8.8490748e-01  -2.4541511e-01  -2.0593360e-01  -5.0694764e-01  -4.0415841e-01  -4.1150365e-01   6.0562476e-02  -8.8532965e-01   8.2584981e-01   9.7617956e-01  -1.7330583e-01   8.0670172e-01   7.8509740e-01  -9.1818145e-01  -9.1309267e-01  -3.6106781e-01  -9.7957792e-01  -5.4964324e-03   6.3058221e-01   2.6739493e-01   5.3240685e-02   1.9682539e-01   3.4194850e-01   9.2652637e-02   8.7479421e-01  -2.7891912e-01  -8.7324994e-01  -6.0430121e-01   4.5103642e-01  -9.7685100e-01  -5.3820085e-01   6.0882718e-01   5.9918972e-01   8.6625967e-01   7.3445176e-01   4.2841809e-01   1.7155102e-01  -9.3140383e-01   5.5078468e-02  -1.8244477e-01  -3.5142968e-01   6.7017972e-02  -8.8437903e-01   2.1856263e-01  -4.3681391e-01   2.0343006e-01   6.0233255e-01  -2.2548514e-01   9.0862333e-01   6.9959813e-01  -5.6081056e-01  -9.6818022e-01  -6.0819145e-01   4.0269604e-01  -9.3807187e-01  -6.9367689e-01  -9.6845895e-01  -3.7618757e-01  -6.0289268e-01  -1.3451100e-01  -9.1329354e-01  -4.9283873e-01   2.3538445e-01   8.8569749e-01  -5.4692026e-01  -8.6323636e-01  -5.6284307e-01  -8.8759623e-01   7.0086280e-01   7.6545990e-02  -4.3989933e-01  -4.6589761e-01  -7.8989110e-01  -1.5169948e-01   8.7630410e-01   4.9884555e-02   7.1903824e-01   7.2302249e-02   6.8578698e-01  -3.0421693e-03   5.0228842e-01   6.1434108e-01   1.1933034e-01  -4.3596500e-01  -7.2542097e-01   3.8333229e-01  -3.9230374e-01  -4.0100426e-01   8.2829970e-01  -8.4597615e-01   7.9346844e-01  -7.2224214e-01   8.0726580e-01  -2.1022406e-01   1.3122220e-02   1.9525457e-01  -6.9278882e-01  -7.4890001e-01   9.6944687e-01  -7.6779936e-01  -3.6557749e-01  -1.0271785e-01  -5.3410870e-01  -2.3011440e-01   4.8266827e-01  -4.8359055e-01   2.5135372e-01  -2.0634745e-01   8.8124448e-01  -1.9045537e-01  -9.4449390e-03   3.0816227e-01   5.1467494e-01   8.7186140e-01   7.8531834e-01  -7.1568492e-01  -9.8247336e-01  -9.9107823e-01   6.3763699e-01   9.8626512e-01  -5.3852302e-01  -3.1364193e-01   9.9704874e-01   7.4558509e-01  -2.9641289e-01   4.5801878e-02  -5.4934682e-01  -8.2896377e-01   8.4674029e-01  -9.1612799e-01   7.8688204e-01   7.1571993e-01  -4.4811033e-01  -8.3582620e-01  -4.7425780e-01  -4.9646709e-01  -4.0446202e-01  -7.8948143e-01  -9.0962187e-01   3.6842863e-01  -4.5711337e-01  -5.9917354e-01   7.3472432e-01  -2.3053665e-01   4.3927864e-01  -9.9060593e-01   3.2589795e-01  -1.0425069e-01  -2.8768517e-01   2.0119405e-01   8.5599819e-01  -3.1900447e-01  -8.8388976e-02  -5.2434693e-01   7.8409674e-01  -5.0938713e-01  -6.2197611e-01  -2.0166559e-01   5.0331449e-01   2.4493288e-01  -6.8288924e-01  -1.9655064e-01  -6.2671598e-01  -4.1608762e-01   2.1521134e-01   2.8662404e-01  -2.3743315e-01  -6.6496694e-01  -7.4636785e-01   8.9469795e-01  -5.3277472e-01  -5.7088008e-01  -4.9246295e-02  -5.7686095e-01   2.7969534e-01   6.6134970e-01  -6.2987728e-01   8.0324158e-01   4.0335061e-01   1.5836679e-01  -4.4119774e-02  -5.0374676e-01  -3.2968420e-01   7.6966236e-01   5.2173576e-01  -2.3116755e-01  -4.5726883e-02  -4.8690918e-01  -9.8689002e-01   4.3921269e-01  -7.0341758e-01   9.9479663e-01  -8.4924869e-01  -8.1659303e-01   7.4944224e-01  -8.0264530e-01   6.8956617e-01  -6.8795008e-01  -1.4417107e-01  -4.9431560e-01   1.8969992e-01  -7.5172986e-03  -4.0690763e-02   8.6849060e-01   3.1544598e-01   8.4232422e-01   4.2090853e-02   7.0058043e-01   9.6656087e-01   8.0404443e-01   7.0613879e-02  -3.0617298e-01   7.1455169e-01  -4.2016075e-01   4.6268887e-01  -3.1873658e-02  -6.6548376e-01  -2.6603727e-01  -4.4236037e-01  -8.3052490e-01   9.1772133e-01   4.9365344e-01   4.2145141e-01   1.9366685e-01   3.1960503e-01  -7.1596675e-01   6.4437987e-02   5.0208721e-01  -4.1189044e-01  -7.6619636e-01   6.5971606e-01  -8.3778438e-01   6.0239546e-01   5.4710761e-01  -1.2237058e-01   7.1353471e-01   6.2357903e-01   5.1039048e-01   7.3356333e-01  -4.0512210e-01  -9.5153187e-01   2.2013558e-02  -4.0965232e-01   3.7722625e-01   7.6975230e-01  -9.5702914e-01   7.0653329e-01   5.3776087e-01  -7.7523766e-01  -3.9103194e-01  -3.7614016e-01
