  -7.5295688e-01   7.7485048e-02  -7.8471613e-01   7.4193615e-01  -1.3135442e-01  -7.4372977e-01  -1.2822495e-01  -1.0401502e-02   7.9298311e-01   6.8194700e-01   7.6995036e-01  -9.9307553e-01  -6.0879825e-02  -1.0007988e-01  -8.3230075e-01   4.7095637e-01  -5.2031234e-01  -4.6751081e-01   9.9961851e-01  -8.9727731e-01   3.8578324e-01   4.3187691e-01  -7.6813853e-02   2.3537854e-02  -1.9701196e-01   9.7091912e-01  -9.8665921e-02   4.6297260e-01  -4.5044936e-01  -1.3813880e-01   3.2678510e-01  -8.3069604e-01   6.7174774e-01  -8.7631578e-01  -7.6178517e-01   3.1723010e-01  -8.6945283e-01  -2.3170830e-01   2.5173008e-01  -9.7365216e-01  -1.3352184e-01  -5.2942876e-01  -7.8582009e-01   2.9314578e-01   9.9490325e-01  -8.1848626e-01   8.3081190e-01  -8.6314921e-01   1.1327029e-01   7.6667927e-01   9.5397629e-03   6.7439005e-01  -1.6928629e-01   3.0215070e-01   4.2506766e-01  -2.9126122e-02   3.1376216e-01   6.7751004e-01   9.9475110e-02  -2.8650722e-01  -1.5646211e-01   2.7942545e-01  -6.9620499e-01   2.7610365e-01  -9.6202522e-01   9.9632999e-01   8.6627766e-01   9.1668161e-01   9.4744198e-01  -9.5974010e-01  -7.9670494e-01   7.4376430e-01   7.9619652e-01  -1.0668011e-02   7.9694203e-01  -7.5355606e-01   4.0083584e-01  -3.9274798e-02  -3.7027952e-01  -3.8516281e-01   4.0266759e-01   7.3857516e-01  -9.2192417e-01  -4.4050474e-03   3.1762461e-01  -5.0972335e-01   7.0981738e-01  -4.1812696e-01   4.9364011e-01   9.3824491e-01  -4.2815955e-01  -9.1646548e-01   6.1193949e-01  -3.3999631e-01   2.3707564e-01  -3.8255324e-01  -6.9637889e-01   7.7573702e-01  -5.3892886e-01  -3.0995256e-01  -4.0982815e-01  -6.9077998e-01   5.3826161e-01   3.6970953e-01  -9.5328570e-01  -3.5503390e-01   4.7676346e-01  -8.1885870e-01  -1.9893276e-02  -3.4444675e-01   4.2061926e-01   6.6272917e-01   9.3803556e-01  -5.5135205e-01   1.5708840e-01  -7.6123709e-01  -1.0185962e-01   5.4843192e-01   2.2659699e-01  -8.0906702e-01   1.8741380e-01  -2.5446503e-01  -4.6664508e-01  -5.0532702e-02  -6.8359125e-01  -4.2915877e-03   5.6837137e-01  -7.5730007e-01  -2.6252297e-01  -2.5181015e-01  -6.0424580e-01   7.7772795e-03  -4.4217242e-01   7.8785817e-01  -8.3195418e-01   4.7305182e-01  -7.5828757e-01   9.3602294e-01   3.8343451e-01  -3.4856677e-01   6.4611716e-01   6.5499588e-01  -9.5109213e-01  -1.6554600e-01  -7.8678977e-01  -8.7795967e-01  -3.6411716e-01  -6.1833060e-01  -6.4339934e-01   7.8830781e-01   5.8391436e-02   6.4115508e-01   8.5420906e-01   4.0113281e-02  -9.7345098e-01   2.8320448e-02   6.0258309e-01   2.9887324e-01   1.7134208e-01  -7.5558662e-01   8.6999262e-01  -2.4959820e-01  -8.7507701e-01   3.6605596e-01   8.3000618e-01  -7.9321577e-01  -1.9087046e-01  -5.8793460e-01  -3.0885512e-01  -9.7609335e-01   2.4388017e-01  -9.4925761e-01   2.4402600e-01   9.9627198e-01  -5.8250899e-02   3.0376312e-01   9.6288383e-01  -4.5786502e-01  -4.8373565e-01   7.3872510e-01   1.7422709e-01  -5.3009837e-01  -4.3533578e-01   9.6407482e-01  -6.1696913e-01  -3.3654575e-02   1.7793592e-01   9.2196711e-01   9.8380438e-01   1.3419640e-01  -7.3085829e-01   6.6833852e-01   5.2209393e-01   1.2365440e-01   2.2304878e-01   9.3383872e-02   5.3766942e-01  -7.9616621e-01  -5.7282122e-01   3.7737666e-01   9.2430586e-01   1.6905731e-01   5.6145332e-01   2.2731547e-01   5.1593273e-01   8.8470006e-02  -6.7961730e-02  -6.0943785e-01  -5.4909335e-01  -8.8957376e-01   6.3779942e-01  -5.2139608e-02  -8.1161013e-02   6.2346395e-01   9.0615035e-01  -7.3314964e-02  -5.1184625e-01  -3.3258923e-01  -5.0293252e-01  -8.9513280e-01   1.4809229e-01  -3.8881155e-01  -2.7767643e-01  -4.0947885e-01   9.0202618e-01   6.4816992e-01  -3.6101246e-03  -2.4689414e-01  -7.9697583e-01  -4.1758525e-01   7.1240950e-01  -1.0593495e-01   8.3404530e-01  -3.6737259e-01  -7.5265620e-02   1.6913153e-01  -9.8924129e-01   8.6556836e-01  -3.4697036e-01   1.8505952e-01  -2.2645821e-01   6.3682521e-01  -5.5507198e-01  -7.7701629e-01  -2.9665977e-01  -7.9890830e-01   4.5341149e-01   7.4546956e-01  -9.6081773e-01   3.5981545e-01   7.2539804e-01   5.8589958e-01  -1.9334531e-01  -9.6869938e-01   6.9807255e-01  -2.1744251e-02  -2.3316123e-01   1.4860844e-01  -7.9807676e-01   6.4125665e-02  -7.8627755e-01   9.5650597e-01  -8.7812038e-01   9.7484632e-01  -4.9956846e-01   9.4608580e-01   6.8917569e-01  -8.0733512e-02  -3.1275936e-01  -8.4127934e-01  -3.7364790e-01   5.9901252e-01  -9.7888819e-02   5.9845194e-01   2.0035282e-02   7.5655645e-01  -6.4473060e-01   3.4943823e-01  -9.3741551e-01   2.7671836e-01   5.2879155e-02   8.8204172e-01  -3.6123123e-01   6.7007680e-01   9.1540865e-01   2.7709585e-01   9.6010495e-01   8.0002160e-01  -7.2073950e-01  -9.0890640e-01  -2.8645491e-01  -1.6509622e-03   2.7898872e-01  -7.1497264e-01   2.6401629e-01   8.0697397e-02  -4.4620364e-02   2.4548699e-01   6.5416402e-02  -7.1232519e-02   3.9812029e-01  -7.1766934e-01  -5.5704998e-01  -2.3007710e-01  -4.3861766e-02  -4.4241402e-01   9.3416313e-01   9.7935894e-01   5.9182972e-01  -5.9729662e-01   9.6634792e-01  -4.7150072e-01  -8.1044761e-02   3.7935545e-01  -7.0558506e-01  -3.8778290e-01  -6.1708724e-01  -9.0204444e-01  -4.0669182e-01  -8.8792322e-01  -5.6187190e-01   9.9787780e-01   4.0128431e-02   3.2397904e-02   6.3374684e-01  -5.6442375e-01   1.0027145e-01   6.2277903e-01  -1.5920231e-01  -9.4960966e-01   5.5264678e-01  -8.9381136e-01  -6.7776896e-01  -2.1388130e-01  -6.5846749e-01  -3.1226715e-01  -9.5013666e-01  -4.8364039e-01  -2.6748407e-01  -1.9382731e-01   3.8792406e-01  -1.5302574e-01   5.7922505e-01  -1.6656643e-01   1.1588282e-01   9.7443439e-01  -5.7503296e-01  -3.5552506e-01   7.9332761e-01   2.8775425e-01   1.2108695e-01  -8.6692028e-01   7.9178626e-01   1.6061206e-01  -1.2744292e-01  -7.0147660e-01  -2.1951045e-02  -2.7372797e-02  -2.5912594e-01   6.9538499e-01  -5.3935761e-01   7.4060698e-01  -5.0116311e-01  -8.5551497e-01   1.3884213e-01  -1.7499131e-01  -6.8425111e-01  -5.4052099e-01  -5.4065602e-01   4.5772462e-01   1.5225428e-01   6.5973772e-01  -7.4778541e-01  -3.3489519e-01  -9.8614595e-01  -3.1055482e-01  -5.8568541e-01   6.2116154e-01  -9.1194443e-01  -6.3515008e-01   7.3871748e-01   8.0888001e-01   4.4889285e-03   6.6165979e-01   3.8616217e-01  -4.6495827e-01   4.1809009e-01   3.9754161e-01   4.8842432e-01  -1.5029956e-02   9.3017863e-01   2.4640896e-01   3.2896179e-01  -8.7419512e-01   5.2129158e-01   9.3337264e-01  -7.1169961e-01  -2.5666768e-01  -2.4634553e-01  -9.0814353e-01  -5.4248405e-01   7.4242902e-01  -2.1107740e-01   3.6010639e-01  -1.8792937e-01   6.6749717e-01  -2.1454456e-01   3.6367173e-01   6.2318957e-01   1.5586554e-01   3.3755555e-01  -7.4358542e-01   7.7252493e-01   8.3793421e-01   4.4215900e-01  -4.8891244e-01   1.5429234e-01  -6.7062994e-01  -2.4132702e-01   4.2017237e-01  -8.1585762e-01  -1.2599523e-01  -1.1957903e-01   3.8216258e-01  -8.6846562e-01  -9.8898760e-01   8.7214974e-01  -2.6556741e-01  -8.8104561e-01   4.4218683e-01   9.8445688e-01  -3.5735145e-01   7.0115441e-01  -3.8142601e-01  -6.4974091e-01   3.8828932e-01   1.0210288e-01  -5.6958007e-01  -5.2295255e-01  -6.2305073e-01   3.2034049e-01   5.5626304e-01  -2.5343728e-01   4.4966574e-01  -1.6832858e-01   5.3847945e-01  -6.5179913e-01  -4.4003357e-01   3.1671331e-01   3.7980150e-02  -8.0814047e-01   2.8061989e-01  -2.0947245e-01  -8.2686174e-01   5.4941940e-01   2.6172026e-02   6.5082155e-01   8.7402098e-01   6.5057428e-01   1.0380768e-02  -7.4119332e-02  -3.1306286e-02  -8.2889292e-01   3.9778254e-01   4.0543541e-01  -9.4202939e-01  -6.2743125e-02  -7.0650588e-01   5.9666235e-01   7.9787561e-01  -2.2876838e-01  -2.8781658e-01  -6.7922385e-01  -3.5753164e-02  -2.0786312e-01  -5.9479985e-01   6.7134050e-01  -3.3376208e-01  -7.7056180e-01   8.2792045e-01  -9.1295446e-01   5.0044167e-01  -3.8613586e-02   4.0703420e-01  -7.1576739e-01  -4.7982562e-01   3.6709382e-01   3.1458853e-01  -1.5781506e-01   6.8934714e-01   6.1988024e-01  -2.9933166e-01  -4.6607615e-01   3.5978772e-01  -8.4237311e-01  -9.5279339e-01  -3.4781522e-01   5.3659328e-01   8.7263127e-01  -2.4075400e-01   6.8337539e-01   7.9292473e-01   8.7350525e-01   9.7886432e-01  -5.4052337e-01  -4.6611974e-01  -2.6470016e-01  -4.0228864e-01  -1.9037822e-01   7.0896191e-01   1.4245447e-01   2.5431824e-01  -2.2643491e-01   8.7819204e-01  -7.8566718e-01  -7.2262207e-01   6.6060636e-01  -5.5793925e-01   4.6640246e-01  -2.1759155e-01  -4.2080701e-01   1.4057091e-01  -1.3122204e-01   1.6350586e-01   8.1469073e-01  -5.9824811e-01   5.2949866e-01   5.5762907e-01  -7.4948132e-01   1.9769098e-01  -5.5028100e-02  -2.4737897e-01   7.1398853e-01  -1.3709903e-01  -8.2268181e-01   7.8044487e-01   9.6223925e-01   8.8092967e-01   9.5221921e-01  -1.5337644e-01   6.4677465e-01  -8.6426501e-01  -5.1789443e-01   7.0629779e-01   6.5249805e-01   8.4802649e-02   6.8685203e-01  -6.1036598e-01  -9.9963808e-01   9.3489758e-01  -8.2332601e-01   5.7739294e-01  -6.0286862e-02  -7.1276313e-01   2.8282762e-01   2.7692191e-01   9.0589661e-02   8.9908870e-01  -1.3205220e-01   6.5694415e-01   3.9228523e-02  -7.5718747e-01  -6.7544599e-01  -9.8584738e-01   2.1088968e-01   1.5570504e-01  -5.0764680e-01  -1.8977968e-01   8.9344384e-01   7.2750085e-01  -3.5065592e-01  -5.9306421e-01  -8.9731650e-01  -4.5182916e-01  -8.1460038e-01  -4.8651705e-01   2.8402273e-01   2.1331707e-02  -9.3522114e-01   5.0777305e-01   6.5235484e-01  -7.5103635e-01   3.8219477e-01   3.6957428e-01   8.9775580e-01  -5.6135045e-01  -9.6519223e-01  -9.9962528e-01  -4.1515340e-01  -5.7409185e-01   7.9747289e-02   1.0865224e-01   6.7832221e-01   2.7550523e-01   4.9123945e-01  -3.0218012e-01   4.1351006e-01   3.1763014e-01   6.1148913e-01  -3.2329272e-01  -2.6196740e-01  -4.6377370e-01   1.8478606e-01  -1.0020147e-01  -2.8280752e-01  -2.6147805e-01   4.6762800e-01  -7.5565761e-01   3.9715060e-02  -8.4161123e-02  -1.9798362e-01   3.3388728e-02   3.4541316e-01  -6.6453973e-01  -9.0631400e-01   4.3852717e-01  -5.1288309e-01  -4.3655657e-01   4.9050314e-01   7.7924290e-01  -5.9252750e-01  -5.2226612e-01  -9.5755981e-01   1.2607372e-01   4.7173798e-01   7.7498714e-01  -1.5399129e-01  -8.0213834e-01   5.1683557e-01   7.3885364e-01   5.3394739e-01   4.9960451e-01  -8.6243619e-01   5.7621343e-01   1.6267982e-01  -7.6678280e-01   2.6371873e-01   4.8902495e-01  -8.5234367e-01  -3.4695779e-01   8.6329128e-02   7.7698157e-01   4.2213216e-01   5.6324833e-01  -1.9488105e-01   8.0283793e-01  -7.8445984e-01   4.2992741e-01  -1.3846153e-01   2.9102004e-01   9.2948499e-01  -8.7333695e-01  -8.4044647e-02   9.0486807e-03  -2.9766763e-01  -7.5392650e-01  -9.4266204e-02  -4.3743497e-01  -8.5769895e-01  -8.7481774e-01   6.7911540e-01   4.9829994e-01   3.8561775e-01   4.8577289e-01   4.4000326e-01   5.8049933e-01   5.4690034e-01  -2.0980218e-01   3.2815099e-01   4.3378297e-01   3.7561622e-01  -3.6508677e-01   6.9747313e-01   3.7802178e-01   2.7163222e-01   1.8836694e-01   8.5934237e-01   9.0478063e-01  -3.8665616e-01   8.5825195e-01   5.5181531e-01   8.9031031e-01   3.9239204e-01   4.0584118e-01  -9.9031791e-01   5.3986330e-01   9.5792122e-01   5.3635334e-01  -7.4068214e-01  -5.6656642e-01  -7.2377527e-02  -7.8480250e-01   1.4474620e-03  -7.4921484e-01   4.3152270e-01   5.0068010e-01   8.4206713e-01   1.9124652e-01  -8.9930417e-01  -6.9396008e-01   9.8427129e-01   6.4975443e-01   2.4434041e-01  -5.2787190e-01  -6.1577670e-01   4.4699330e-01  -5.8041817e-01  -7.4480551e-01   2.7331459e-01   7.9944122e-01   1.9764074e-01  -1.5036558e-01   3.5426090e-01  -1.3027601e-01  -8.8647435e-01   9.7168067e-01  -6.4941594e-01  -6.6173556e-02  -4.6611686e-01  -7.6865293e-01  -6.5729557e-01   8.0944004e-01   5.8752234e-01   6.5400163e-01  -6.1329585e-01  -2.4499773e-01  -4.3424889e-01  -4.1280005e-01  -1.6357669e-01   9.7059533e-01  -2.8591225e-01  -6.1651684e-01  -6.1553554e-01   3.2721221e-01   2.2509518e-01  -2.9859632e-01  -5.4410630e-03   8.8829490e-01  -9.9658804e-01   1.7079976e-01   9.9480611e-01  -4.7172534e-01  -1.8102680e-01   5.3145482e-01   1.7836480e-02   3.2785745e-01   7.7042721e-01   6.8803761e-01  -3.7395555e-02   6.0599921e-01   3.8023784e-01  -2.6097421e-02  -2.5207118e-01  -9.6722452e-01   7.8127569e-01   9.3954268e-01  -6.2620027e-01  -7.9131403e-01  -7.0664018e-01   1.5424199e-01   9.8552034e-01   9.9074195e-01   6.6634473e-01  -2.7253510e-02   5.0315010e-01   1.2422632e-01  -9.6096884e-01   4.9390626e-01   5.8813410e-01   8.9858718e-01  -6.3105342e-01  -1.0186997e-01   1.6794638e-01   9.8467558e-02  -4.7090910e-01  -2.6740416e-01  -1.2531001e-01   6.5300939e-01  -9.9416422e-01  -1.2569222e-01  -7.6754115e-01   5.1134032e-01  -2.6059313e-01  -6.9364402e-01  -5.1969935e-01  -8.9885304e-01  -9.1250081e-01  -2.5486889e-01   3.5619303e-01   9.1245679e-01  -3.6361276e-01   8.2114064e-01   3.0376400e-01  -6.4797355e-01  -2.9663928e-01  -6.3461439e-01   3.6850775e-01   5.5397314e-01  -1.6717932e-01   7.5200626e-01   3.0024378e-01   3.4972307e-01   7.4823816e-01  -5.2393588e-01   7.8932412e-01   9.1088773e-01  -8.5634940e-01  -1.9742948e-01   5.6746621e-01   7.0156194e-02   4.4623292e-01  -3.6161458e-01   8.8757389e-01  -3.3267172e-01  -6.0642724e-01   6.5063041e-01   2.6980274e-01  -4.1134124e-01  -1.6951871e-01  -9.2852891e-01  -5.6896359e-01   4.5603994e-01  -7.3851723e-01   1.1754154e-01   3.1392602e-01  -6.3838847e-01  -9.8803122e-02   6.8103551e-01  -3.7455045e-01   3.0941300e-01  -7.7017239e-01   9.2699619e-01   9.8777784e-01  -8.8113395e-01  -1.3179996e-02  -3.7911448e-01   2.8178239e-01   7.2704194e-01   2.3869900e-01  -2.4722658e-01   9.5170076e-01  -3.1949031e-02   9.5837899e-01  -4.3925714e-01  -9.5891098e-01   8.1141693e-01  -3.3344903e-01  -7.4846843e-01  -1.4058801e-01   9.7576798e-01   7.0648698e-02  -4.2156434e-01   4.0127553e-01  -3.3606455e-01  -6.1504184e-02   6.5561509e-02   5.8199873e-01  -7.0986219e-01   9.9218247e-01   9.5445705e-01   4.2073655e-02  -7.7214722e-01  -3.8803744e-01  -2.0020533e-01  -9.0632967e-01   4.1498118e-01  -3.5063612e-01  -7.1304656e-01  -5.2819634e-01   7.0508385e-01  -3.0864415e-01  -1.6116031e-01   6.8776339e-01  -8.7996102e-01  -7.5041730e-01  -5.3826562e-02  -7.1259613e-02   9.4939432e-01   7.6960234e-01  -8.2188721e-01  -4.8802861e-01  -5.1745678e-01  -6.3580783e-01  -5.7903279e-01   5.4224116e-01   8.4101829e-01   1.2681299e-01  -5.6070826e-02   6.3018387e-01  -2.8109325e-01  -9.0476007e-01  -2.8741140e-01   3.7446267e-01  -4.2409714e-01  -5.5682458e-01  -4.9974358e-01  -8.2891512e-01  -7.6164504e-01   1.4448630e-01  -5.8764075e-01   7.2477228e-01  -7.0300701e-01  -4.6998184e-01  -5.8938134e-01  -4.3888693e-01  -1.6651681e-01   6.0349756e-01  -4.0898697e-01   4.0756569e-01   5.7509163e-01   2.3401919e-01   9.3384963e-02  -8.4305604e-02  -4.1119299e-01   6.9163035e-01  -3.5504927e-01   7.2425178e-01   9.0564629e-01   6.8260173e-01   9.9621842e-01   3.9327365e-01   3.0342210e-01   8.1905854e-01   4.2116933e-01   1.6362070e-01   4.5559776e-01   9.5051580e-01   4.5553534e-01   9.9962154e-01   8.0490588e-01  -6.0048660e-01   5.9326431e-01  -1.4030911e-01  -8.1441933e-01  -3.1723505e-01   8.4911748e-02  -5.9155904e-01   5.4497578e-01  -4.7771123e-01   3.6945895e-01   8.6220588e-01   6.1260137e-02   8.0843742e-01   6.9272450e-01   7.9485305e-01   7.2308710e-01  -9.8277542e-02  -8.0940148e-02  -5.1094977e-01  -4.0851104e-01  -7.0423473e-01  -5.9179582e-01   2.4975880e-01   5.1808787e-01  -3.9406042e-01  -9.3609957e-02   3.6550496e-01   9.1342364e-01   9.5158998e-01   8.2050111e-01  -6.7498195e-02   8.3820136e-01   6.9823026e-01  -4.1736031e-01  -8.9890380e-01   9.7829273e-01  -1.4870174e-01   2.0279309e-01  -7.4268214e-01   1.4739920e-01   3.7924701e-01   3.7875594e-01  -4.3626922e-01  -4.1761640e-01   8.7921887e-01   6.2583757e-01  -2.4212235e-01   2.7426209e-01  -1.5550614e-01   1.5512512e-01  -7.0885732e-01  -5.0104359e-01  -1.6857057e-01   6.9801746e-02   5.8751697e-01   3.1647609e-01   3.8840915e-01   9.3215018e-01   1.0982549e-01   8.3191339e-02  -6.6238018e-01   3.1010660e-01   5.8646599e-01  -6.7651350e-02  -2.4577691e-01   5.8857798e-01  -6.6714138e-01  -6.0917658e-02  -5.2111492e-01   7.0962727e-01
