  -2.8472919e-01  -6.8421991e-01  -8.0389887e-01  -6.1494220e-01  -1.9664935e-01  -8.4838656e-01   9.8933937e-01   2.4289473e-01  -3.9156679e-01  -4.6212352e-01  -7.9881942e-01   2.8140485e-01   7.0457893e-01   2.8098393e-01   2.1198916e-01  -1.4499608e-01   1.1973523e-01   8.1593524e-01   1.9511042e-01  -1.1807640e-01  -5.9480561e-01  -9.6979123e-01  -7.2438355e-01   6.6372086e-01  -7.5572721e-01   6.4607111e-01  -9.9193027e-01   6.9038339e-01   4.8184835e-01  -3.3873237e-01   8.5120070e-01  -1.1441853e-02  -9.1241515e-01  -7.2566565e-01  -2.0896173e-01   4.7607133e-01   4.2203103e-01  -4.5754229e-01  -3.3307694e-02  -7.1363648e-01  -4.8799125e-01   9.2632987e-03  -5.6210763e-01  -5.1343726e-01   7.3527401e-01  -5.2918227e-01   2.4979479e-01  -2.4093155e-01  -8.9662254e-01  -8.9605383e-01  -8.5713450e-01   5.5410567e-01  -5.5514913e-01   5.7474653e-01   2.6441768e-01  -6.7140004e-01  -5.3463486e-01  -9.7475023e-01  -1.2108369e-02  -7.1641055e-01  -1.6815019e-01  -7.5096224e-01  -7.9554869e-01  -4.4379451e-01   1.8623485e-01   9.2282637e-01  -3.1544226e-01  -3.6019258e-01   8.0464422e-01   2.8565276e-01  -8.4368768e-01  -7.6397531e-01   5.0418533e-01  -2.6937848e-02   4.7221314e-01  -7.9666241e-01  -4.4793211e-01  -2.7446481e-01   4.1242608e-01   4.7857416e-01  -5.6799390e-01   3.6165748e-01  -8.1665403e-01  -6.9581689e-01   8.9552711e-01  -9.4692449e-01   2.5494274e-01   8.3431658e-01  -9.3444132e-01  -5.3626335e-01   2.3885392e-02  -2.2197113e-01  -3.3227373e-01  -7.6792438e-01  -5.3073822e-01   7.6993248e-01   9.6527426e-01   2.7268388e-02  -7.8203286e-01   1.4472513e-01   7.8731660e-01  -7.5559929e-01   5.0036269e-01   4.3660232e-01   5.7879787e-01   5.3614916e-01  -3.6480957e-02   6.7584614e-01   2.7201489e-01   9.7436408e-01   9.5033100e-01  -9.9694526e-01   2.6114353e-03   8.8626435e-01   3.5997292e-02   5.1771582e-01  -4.5405896e-01   4.3812088e-01   9.5831221e-01   6.0851391e-01   8.8470460e-03   1.2573724e-01  -4.3117953e-01  -7.4726112e-01  -4.6775756e-01  -6.3874374e-01   6.8212046e-01  -6.3807896e-01  -2.3301133e-01   5.4864576e-01  -4.0155950e-01  -7.7333873e-01  -4.4184962e-01  -6.2502983e-01   2.1886189e-01  -3.7227457e-01   7.9347078e-01   4.3241326e-01  -8.8196370e-01  -8.4148078e-01   9.3333110e-01   1.4642153e-01  -7.2793919e-01  -4.8041075e-01   2.1344298e-01  -8.0935756e-01   5.1090360e-01  -3.4190747e-01   3.1671347e-01  -9.5849105e-01  -8.0090236e-01  -4.8614077e-01  -2.8344655e-01   8.7187733e-01  -4.3378829e-01   8.8789727e-01  -9.2477371e-01   2.9725967e-01  -8.9392890e-01  -1.2857962e-01  -5.0247508e-02  -1.8038068e-01   9.5635072e-01   8.0374605e-02   6.0659113e-01   5.8974066e-01   9.1888553e-01  -6.7004693e-01  -7.1883466e-01   8.0152143e-01  -9.8342979e-01  -8.1107869e-01  -2.1080175e-01  -8.1972449e-01   5.4816239e-01   7.5059002e-01  -8.6109819e-01  -4.9934785e-01   8.3869299e-01   4.1521412e-02   9.0084256e-01  -4.2620054e-01   3.0200199e-01  -3.3276686e-01  -7.3398234e-01  -3.4836699e-01  -6.4127681e-01  -8.9240259e-01   9.9119774e-01  -6.1118475e-01  -1.8367057e-01   2.6920117e-01  -2.1144133e-01  -4.5788129e-01  -7.6387303e-01  -4.0488699e-01  -3.3793016e-02   8.8756592e-01  -6.8155161e-01   8.9355483e-01   1.9881281e-01   6.1157132e-01  -7.5734826e-01  -6.9051516e-01  -1.0250631e-01  -6.6413154e-01  -1.1885605e-01  -4.8782300e-01  -1.9280164e-01   4.7012188e-01  -8.0963396e-01   3.3939908e-01  -1.9077471e-01  -9.4048397e-01  -1.9294271e-01   5.3673944e-01  -4.8309264e-01  -5.2301397e-01  -6.9966298e-01  -7.2043074e-01   6.0824130e-01   7.3653402e-02   2.4215844e-01  -1.5252888e-01  -8.9886106e-02  -1.6622078e-01   9.3424852e-01  -7.9242166e-02   8.5625137e-01  -4.8284261e-01   2.8515846e-01  -8.5475896e-01  -4.3782790e-01   1.6100634e-01  -3.2479016e-01  -2.5160946e-01   1.9054386e-01  -3.5989917e-01   5.0667246e-02   2.6481886e-01   6.9020336e-01   9.0514994e-01   2.2606345e-01   4.4742010e-02  -4.6024783e-01  -1.8087376e-01  -5.7919514e-01   9.9751557e-01  -8.7132081e-02   3.7027046e-01  -4.0072362e-02  -9.7711703e-01   2.9256612e-01   9.1248049e-01  -8.5623288e-01  -3.4442341e-01   2.3245901e-01   6.7791133e-01   6.2903564e-01  -5.3199177e-02  -2.7727492e-01  -4.7156943e-01   4.2009718e-02  -8.7432203e-01   8.2747464e-01   5.5316858e-01   8.0948611e-01   8.5265691e-02   9.3864983e-01  -8.4554760e-01  -7.9987156e-01   2.8707094e-01   1.8177433e-02   9.9418586e-01   6.5231681e-01  -4.9688141e-01   3.3433939e-01  -5.8638133e-02  -5.3583499e-02   6.1798454e-01   7.4733167e-01   5.5307347e-01  -9.1866954e-01   9.7402443e-01   7.1680907e-01  -6.1912342e-01  -5.7087655e-01  -2.7489781e-01   4.8526471e-01   5.2903614e-02   9.5113016e-01   9.5344067e-01   9.8337797e-01  -9.3334514e-01  -9.5949934e-01   6.9217916e-01   4.6706843e-01  -2.3234966e-02  -6.9278720e-01  -6.8378897e-02  -3.2483259e-01  -9.5517527e-01   8.1808083e-01  -8.4126434e-01  -5.9756498e-01   7.7521446e-01   9.2989981e-03  -9.6456977e-01  -3.1580126e-02  -8.9791183e-01   7.6354225e-01  -6.5805195e-01   8.3014559e-03   8.0672160e-02  -2.6566461e-01  -9.1323788e-01  -5.1623569e-01  -9.2284319e-01   4.8545575e-01   9.0976527e-01   4.1346360e-01  -8.5646502e-01  -4.1723687e-01   6.8112689e-01   5.5788427e-02  -1.0899246e-01   3.2244851e-01   7.2116582e-01  -9.0589697e-01   1.0817020e-01  -4.2241127e-01  -9.2531289e-01   9.3829254e-01  -5.1332616e-01  -7.9759115e-01  -2.8296996e-02  -2.6310179e-01  -2.9128378e-02  -4.6249949e-01   2.2047794e-01  -6.3197502e-01  -7.4984586e-01   5.9359883e-03   1.2073668e-01  -2.5185264e-01   3.4319223e-01   3.7211993e-01  -6.8176208e-01   4.4851794e-02   8.5171860e-01  -7.8863176e-01  -5.0896808e-01  -6.8985583e-01  -6.0930873e-01  -2.3031252e-01   9.3924116e-01  -5.1672855e-01   3.8258985e-01   5.6016589e-01   4.2957369e-01  -7.0099585e-02  -7.7204794e-01   7.4956265e-01   4.7050235e-01   5.3148040e-01  -2.7813327e-01  -9.9215601e-01  -6.3421055e-01  -3.0972339e-01   6.4189931e-01   2.2755276e-01   6.2152117e-01   6.4837349e-01   1.6812382e-01  -9.4313512e-01  -9.1743899e-01  -7.2558056e-01  -6.2188300e-01   9.2663627e-01  -4.3343967e-01  -9.5527097e-01  -2.3721992e-01   3.3084368e-01  -8.9838276e-01  -8.3371550e-01  -3.5593325e-01   7.9939064e-01   7.9091129e-02  -6.0185703e-01  -1.6321932e-01   5.1431215e-01   1.5238345e-01   1.2344321e-01   6.7204619e-01   1.3274153e-01  -6.4058387e-02  -1.9800418e-01  -7.2355441e-01  -1.8254836e-01  -9.2378235e-01  -7.2434038e-01   4.6160745e-01   5.9389733e-01   4.1667484e-01  -5.1926106e-02   7.2079990e-01   4.8620577e-01   7.0960193e-01  -3.9878326e-01   1.4694531e-01  -9.8575666e-01  -8.6797209e-01  -2.9868508e-01   6.8454792e-01   1.8867928e-01  -5.4562235e-01   8.3480008e-02  -9.0237924e-01  -7.3864313e-01  -9.3136893e-01  -7.4080526e-01  -5.4164646e-01  -1.4063088e-01   1.4127693e-02   4.2608782e-01  -2.0294492e-01   5.3451309e-01   8.1491162e-01  -7.8926652e-01   8.2970616e-01   8.0038445e-01  -5.4862941e-01   1.9922482e-01   3.1839202e-01   8.5413126e-01   2.0821388e-01  -5.8454349e-01   3.4191654e-01   8.5503346e-01  -9.5705772e-01  -8.6728759e-01   1.2118054e-02  -3.8570509e-01   5.8600013e-01  -9.4542464e-01  -4.8073417e-01  -2.4866946e-02  -9.2528759e-01  -1.4828220e-01  -4.0684408e-01   8.4093487e-02  -8.4102314e-01   9.7308023e-01  -9.8957583e-01   8.1260134e-01   6.9241817e-01   4.5049615e-01   6.1274649e-01   3.0667067e-01  -9.0808654e-01   6.8911890e-02  -4.7813913e-02   5.1110952e-01   4.4210752e-02   9.7781308e-01  -8.0679432e-01   5.6678858e-02   7.2873950e-01  -3.8467377e-01  -5.1282679e-01   2.7942526e-02  -1.1810310e-02   6.8522647e-01  -8.1729887e-02  -8.8998988e-01   2.5036810e-01  -2.7416446e-01   2.0378560e-01  -5.3120773e-01  -6.5685607e-01   3.8297707e-02   3.3061057e-01  -3.3761295e-01  -2.6224122e-02   9.1897494e-01   9.8221827e-01   6.1875111e-01   1.5958166e-01   5.0970561e-01   8.6595047e-01   4.2667322e-01  -6.9787424e-02  -5.2520658e-01  -1.0468753e-01   2.7881624e-01   9.4706364e-01  -5.7850930e-01   7.8129911e-01  -1.1865513e-01   8.8408675e-01   9.4106270e-01   2.2544570e-01  -2.6543895e-01   8.4178090e-01   4.5505563e-01  -4.3112258e-01   8.4498194e-01  -1.6964805e-01   9.1786354e-01   4.9751187e-02   1.3633397e-01  -7.0455101e-01  -1.7104229e-02   7.3445124e-02   2.7690928e-01  -5.5709890e-01  -1.2342251e-01   1.0746046e-01  -2.5869753e-01  -5.0292653e-01   1.5801846e-01   3.9382818e-01  -3.9934400e-01   9.2678827e-01  -5.5785905e-01  -6.9253838e-01  -7.7264474e-01   8.6399195e-01   3.6242589e-01   7.7793481e-01  -7.8651678e-01   3.6994470e-01  -9.2444240e-01  -2.1960696e-01  -9.5400817e-01   3.2167992e-01  -8.2877810e-01   1.0278884e-01  -7.3530280e-01  -1.1982968e-01  -3.3937086e-01   4.2189095e-01   2.3793253e-01  -7.2045258e-01  -5.6718876e-01  -3.0712458e-01  -2.3400760e-01  -8.3364903e-01   8.3084670e-01   5.1158754e-01   1.7812662e-01   3.1198811e-01   2.1128915e-01  -5.8283615e-01   7.5367015e-01  -4.3024084e-01   4.9804195e-01  -2.4493785e-01  -4.9558762e-01  -5.4960935e-01   2.6480094e-01  -9.3870830e-01   7.6007916e-02   8.5726495e-01  -2.1405238e-02   6.4287178e-01  -5.6454129e-01   3.8006923e-02   4.4710254e-01   2.9253366e-01   3.2343243e-01  -5.8816500e-01   9.6385273e-02  -3.4951227e-01  -9.8972432e-01   2.2727693e-01  -3.9494790e-01  -1.1703776e-01  -2.8487969e-02   3.8200083e-01  -5.9948994e-01   1.4074571e-01   1.8473157e-03  -6.4875642e-01   6.9016630e-02   1.9667965e-01   5.1305581e-01  -1.6810153e-01   7.9372487e-01  -6.5603040e-01  -6.9146695e-01  -5.1862641e-01   1.1582979e-01  -7.3782574e-01  -8.8948854e-01   3.1146582e-01   1.7244599e-01   3.8841680e-02   2.9213226e-01  -9.1947983e-01  -7.3284571e-01   9.3597055e-01   1.0892885e-01  -4.2156353e-01   4.3548588e-01   4.4649088e-02   9.0934382e-01   5.8122150e-01   9.6769350e-01   6.7076496e-01   9.1519013e-01   1.7419189e-01   1.3024185e-01   6.1835407e-01  -9.5921780e-01  -1.7231610e-01  -7.7322905e-01   1.0598540e-01   2.5860791e-01  -6.2455008e-01   9.3273424e-02   6.5576438e-01  -5.6561720e-01   6.9312574e-01   9.0815664e-01   4.6398432e-01  -1.3772403e-01   9.9223756e-01   4.7138903e-01   8.7897282e-01  -5.4268878e-01   9.6074013e-01  -6.3729551e-01  -8.5347552e-01   1.4021847e-01  -3.0215118e-01   3.2259540e-01   8.2559994e-01  -1.7630826e-01   6.1919640e-01  -2.5785553e-01   9.2446556e-01  -7.0572142e-01  -7.9702665e-01  -9.3687506e-01   7.7044240e-02  -9.7388911e-01   4.6166925e-01   7.0335982e-01  -1.7024675e-01   5.3263647e-01  -6.6082770e-01   4.2169101e-02  -2.0349551e-01  -9.3069614e-01   3.3098633e-01  -2.7927779e-01   1.6413202e-01   3.9072645e-01  -4.8612837e-01   5.9295766e-01   4.0780952e-01  -1.0219273e-01   6.5473901e-01  -9.6425948e-01   5.1808168e-01  -3.7162612e-01   8.4809362e-01  -1.5426421e-01  -5.1945796e-01   1.4009388e-01  -7.4414605e-01   4.5645569e-01   1.6918304e-01   9.8203713e-01   3.4345622e-01   2.0418457e-01   6.9784683e-01   4.7618893e-01  -8.4172039e-01  -1.2019739e-01  -9.8130907e-01  -1.1383983e-01   7.8936199e-01   6.7268911e-01  -8.8705396e-01   6.5623539e-02   8.8126776e-01  -8.4529116e-01  -4.5178024e-01  -6.6257883e-01  -2.4486127e-01   5.2491803e-01  -2.9623630e-01   5.9887170e-01   2.0926417e-01  -6.0588256e-01   2.4306675e-01  -4.1718736e-01   2.1823977e-01  -9.3089494e-01  -7.7808099e-01  -8.3717288e-01  -8.5504672e-01  -5.5132426e-01   9.1083218e-01   1.2076730e-01  -1.5030792e-01   8.9771132e-01  -4.1285997e-01  -3.7196342e-01  -2.1632046e-01   8.2443209e-01   6.9677997e-01  -5.5568887e-02  -3.1389023e-01   6.3510471e-01  -8.0720242e-02  -6.3797006e-01  -8.6113516e-01   7.7793928e-01  -5.1626100e-01   5.1206780e-01  -6.1132641e-01  -9.5898226e-01  -1.3108676e-01   9.1193289e-01  -9.8490741e-01  -3.4728337e-01   9.1455172e-02   8.9755200e-01  -7.3649725e-01   5.0440812e-01  -7.3023227e-01  -1.6486645e-01   1.2572274e-01   8.6717135e-01   8.2240658e-01   6.7184689e-01  -8.5976092e-01   7.4473235e-01   7.3495420e-01  -4.5587639e-01  -7.1127933e-01  -6.1340675e-01   4.3144339e-01  -9.7626636e-01  -8.6433608e-01   9.7007763e-01   1.4731699e-01  -3.5105709e-01   8.2175549e-01  -8.2266391e-01   8.3559356e-01  -1.2463714e-01  -2.6042831e-01  -3.2400680e-01  -3.6104276e-01  -9.4792334e-01   6.8810041e-01   8.1356233e-01   5.9642983e-01  -5.9784203e-01  -3.1846267e-01  -3.4305161e-01  -9.6507300e-01   4.5882248e-01  -1.4950086e-01   7.4858754e-01   4.8898022e-02   9.9089267e-01   4.5222373e-01  -6.1030370e-02   8.3299747e-01   7.1846184e-01   2.8745796e-01  -8.8207485e-01   2.8622223e-01   4.5931484e-01   1.2215685e-01   4.4750442e-01   2.2494324e-01   9.3505133e-01   2.9976786e-01  -9.0200092e-01   5.3238992e-01  -9.9808171e-01   3.9264009e-01  -6.5035927e-01   4.8450379e-01  -6.2890561e-01   4.8494550e-01   8.7415628e-01  -4.8841095e-01   2.8970564e-01  -5.1556727e-02   6.8147873e-01   8.7969063e-01   7.1059830e-01  -1.4260531e-01  -6.4867762e-01   9.2109087e-01  -1.7567184e-04  -3.3040668e-01  -2.9030208e-01  -6.9952154e-01   4.3923993e-01  -2.1523688e-01   1.5657257e-01  -6.6222357e-02   8.1399582e-01   3.7768350e-01   1.6522899e-01   5.6866669e-01  -1.6964205e-01   3.2786074e-01  -6.1345273e-01  -1.8141088e-01   8.4430430e-01   2.6529681e-01  -6.7733040e-02   2.4091960e-01  -8.3744220e-01   7.6740506e-01   6.5187511e-01  -5.0626388e-01  -8.0884017e-01  -7.7570284e-01   1.0462530e-01   5.1646304e-01  -6.1568063e-01   4.0848058e-01   8.3870339e-01  -1.7489628e-01  -3.7161599e-02   7.9480931e-01  -3.4689943e-01  -5.2887155e-01  -2.2720791e-02   8.0969498e-01  -5.6908676e-01  -4.4888030e-01  -1.0294683e-01   9.0026140e-01   4.6158499e-01   3.7926922e-02  -8.3045060e-01  -3.7243013e-01   2.8650033e-02   4.0048692e-01   4.7594653e-01   6.5369427e-01  -1.5199456e-01   5.8833036e-01   7.8501682e-01   5.4507920e-01   9.0347394e-01  -8.2271079e-01   7.3593469e-01  -6.0260143e-01  -9.7067280e-01  -2.8318438e-01   2.0348503e-01  -1.3442685e-01  -6.7200982e-01  -3.7052616e-01   7.3264349e-01  -5.2749079e-01   1.3348687e-03  -9.7200483e-01  -6.7177187e-01  -9.6018922e-01   1.3152560e-01  -9.2598147e-01   7.6473480e-01   5.2489020e-01  -8.0144292e-02  -3.8970993e-01   8.4198589e-01  -4.9277734e-01   7.4454847e-01   2.2542830e-01  -6.0980650e-01  -2.4626389e-01  -2.4791404e-01  -9.0964307e-01   9.2606180e-01   5.5418099e-01  -2.8492181e-01   4.7669816e-01   6.0996560e-01  -7.6306840e-01   4.9029829e-01  -2.8235126e-01  -4.0742469e-01   8.0331035e-02  -2.3423079e-01  -7.5395377e-01  -8.6348472e-01   1.4007678e-01  -6.0775660e-01   6.8640552e-01   9.7251279e-01   8.3992009e-01   7.5145905e-01  -1.6430807e-01  -1.5802811e-01   5.7557513e-01   6.9442510e-01  -9.9895714e-02   4.8432360e-01  -5.9926427e-01   2.9818053e-01   4.0760563e-01  -4.5240522e-01   5.2632284e-01  -4.3664513e-01   9.9787563e-01   7.6967803e-01   1.1117428e-01  -3.2749007e-01   2.3827849e-01  -1.8899330e-01   1.1440664e-01   5.2936960e-01  -7.2462043e-01  -3.2857679e-01  -8.8338108e-01  -1.6626612e-01   4.6387594e-01   2.9815259e-01   9.4777873e-01  -1.9850878e-01  -6.9539471e-01   4.5195598e-01  -8.5423176e-01  -2.4027477e-01  -9.8604620e-01   1.9582772e-01  -8.6209291e-01  -2.5592706e-02   1.0603045e-01  -3.6001099e-01  -6.5799250e-01  -1.2988692e-02  -3.0372353e-01   8.0664810e-01  -6.6492776e-01  -3.8693913e-01  -6.8351926e-01   3.7366363e-01  -6.0116918e-01  -3.0992929e-01  -6.6001840e-01  -5.1314374e-01   4.9837169e-01   8.8075310e-01  -2.1930078e-01  -1.3325286e-01   3.4223295e-01   7.3678309e-01  -9.2533549e-01   2.2187063e-01   3.3441028e-01  -1.3111268e-01   1.3854078e-01   3.4403015e-01  -7.6502129e-01  -7.3868149e-01   9.0298793e-01  -3.2310394e-01   9.4752910e-01  -9.2685921e-01  -8.0419391e-01  -2.8770630e-02   4.2587678e-01  -6.6029574e-01  -7.5983350e-01  -1.0416534e-01   1.1417015e-01   8.9924787e-01   7.1677069e-01   5.3616890e-01   5.2911907e-01   1.4875144e-01   3.1911287e-01   9.5124593e-01   3.7450847e-01  -1.0930822e-01   3.5377793e-01   7.1678763e-01   2.5091518e-01  -3.7112169e-01   7.4395578e-01   4.7454169e-01  -7.9983011e-01   8.7621473e-01  -4.6348596e-01   9.4936954e-01   6.7552261e-01
