   2.7064227e-02   3.4805000e-02  -4.1701566e-01  -8.6735679e-01   3.6288215e-01  -5.9816827e-01  -2.4005139e-01   4.1326777e-01   9.8062832e-01  -3.2121381e-01   7.6394812e-01   5.6784894e-01   4.8170322e-01   9.5592823e-01   6.3878371e-01  -8.1218262e-02  -7.1295521e-01  -4.5765646e-01  -2.9192801e-01   4.1220675e-01  -3.7318699e-01  -6.8826013e-01  -6.4138032e-01  -6.6695009e-01  -6.7025256e-01  -6.8030487e-03  -8.8966040e-01   2.3293747e-01  -7.0452601e-01  -1.8651137e-01  -8.3919049e-01   8.5382331e-01  -2.3538372e-01   6.6460308e-01   9.4537212e-01   3.0781418e-01   5.5779064e-01  -1.9298603e-01  -4.6511982e-01  -3.7496488e-01   4.8949779e-01  -1.6712757e-01   1.1617428e-02   2.3933663e-01   5.7963309e-01  -2.2648386e-01  -8.2944322e-01   8.8944272e-01   9.9093749e-01  -6.9151817e-01  -1.9985373e-02   8.2217579e-01   6.2912942e-01  -3.7395694e-02   7.9274278e-01   1.9799658e-01   6.7966526e-01  -2.4058781e-01   2.8437976e-01  -3.7942018e-01   2.2307725e-01   4.7554749e-01   3.8493305e-01   7.9140927e-02   9.8829899e-01  -1.9275089e-01   2.3450109e-01  -4.7952806e-01   3.5039462e-01   9.2671537e-01   3.2840244e-01   4.4274377e-01  -4.4268291e-02  -6.9923675e-02   2.7029265e-01  -9.5007839e-01  -3.5627147e-01   6.8237417e-01   1.4355865e-01  -6.1155922e-02  -5.4548900e-01  -5.0742578e-01   6.8318204e-02   3.4535211e-01  -8.0996275e-01   5.2768126e-01  -3.9839475e-02   7.2156601e-01   6.7575755e-01  -9.2783142e-01   8.1223516e-01   4.6565450e-01  -5.0402438e-01  -8.6431594e-01   3.2917719e-01   1.6778442e-01  -9.1716512e-01  -6.5299537e-01  -6.4847178e-01  -4.4860967e-01   6.9631793e-02  -9.3418741e-01  -4.6548063e-02   4.8991377e-01  -7.2977130e-01  -6.8258615e-01  -3.8936844e-02   1.9363053e-01  -6.2327232e-01   5.8673631e-01  -9.1778020e-01   9.8574806e-01   2.7664879e-01  -8.8673592e-01  -2.6606063e-01  -3.5907620e-01   1.9040339e-01  -6.6720452e-01   3.9705341e-02   5.4747802e-02   7.4417799e-01  -9.4685328e-01   5.8929869e-01   4.2467411e-01  -3.9929361e-01  -9.6323975e-01  -7.0021895e-01  -8.3865924e-01  -1.0711131e-01  -8.3414034e-01  -5.9232713e-01  -6.1053712e-01   2.0613047e-01  -3.4531101e-03  -2.0320690e-02  -6.6878351e-01   8.6351610e-01  -9.9564798e-01  -3.8389321e-01  -4.4217086e-01  -7.2375704e-01   6.8199070e-01  -1.6859350e-01   3.9016776e-01  -9.7436412e-01   3.2470004e-01  -4.4785917e-01   3.3555068e-01  -5.0135358e-01   4.5073680e-01   8.3765207e-01   1.8117299e-01  -4.8229731e-01  -7.5274232e-01  -6.0265599e-01  -9.8644826e-02   4.8454826e-01   5.2256149e-01  -3.1460920e-02   7.6160396e-01   7.2213927e-01  -5.8999585e-01  -2.8924653e-01  -4.6307436e-01  -8.7347560e-01  -2.5854856e-01   8.2572798e-01   3.0713566e-01   8.0122103e-01  -1.8806032e-01   2.4406045e-01  -6.8009318e-01   6.7679979e-02  -9.9467800e-01  -3.4608039e-01  -9.5482922e-01   3.9326092e-01   7.1073685e-01   7.3787655e-01  -2.4575880e-01   7.0848378e-01   6.5389302e-01   6.0615793e-01  -8.2142113e-01  -4.2916332e-01   6.1622825e-01   6.4493254e-01   6.2566675e-01  -7.3595354e-01  -8.0771825e-01  -2.3488618e-01   5.4334455e-01   4.2432128e-01  -9.6377614e-02   3.1885178e-01  -9.0466912e-03   2.3861988e-02  -8.7484567e-01  -8.2212457e-01   2.0464553e-01   5.2628937e-01  -3.3286769e-01  -1.8494017e-01   8.7472226e-01   2.6775074e-01   9.6899527e-01   2.4958206e-01  -1.0387214e-01   9.8505278e-02   2.1238408e-01   4.4689012e-01   3.1613671e-01   8.8387855e-01  -5.0920257e-02   6.6620071e-01  -4.9594656e-01  -6.9505727e-01   4.3439257e-02   7.8862391e-01   2.3448472e-01  -6.8505605e-01  -2.9089334e-01   6.3995665e-01   9.6732839e-01  -6.4266686e-01  -4.9023975e-01   4.2672375e-01  -8.8027574e-01  -1.8236621e-01  -3.6499872e-01  -3.9874042e-01  -6.6203027e-01  -6.2967780e-01   4.3660363e-01  -7.2419362e-02  -5.7275952e-01  -1.1406165e-02   2.9094286e-01  -1.6691430e-01  -8.5223012e-01  -1.4176847e-01   2.0679896e-01   3.0053084e-01   3.9244827e-01   8.6572428e-01   3.1467058e-01   6.9178598e-02  -4.1054174e-01  -5.2523376e-01   7.0099537e-02   1.4141242e-01  -3.0356196e-01   2.1034927e-01  -9.1030380e-01   4.4238770e-01   4.8703734e-01   5.8403966e-01   2.0630249e-01   4.8666844e-01   5.1957168e-01  -4.8174226e-01  -2.5425988e-01   9.2160744e-01  -2.0781632e-01  -6.5908825e-01  -2.9625546e-01   4.3794756e-01  -4.8727507e-01   3.6124407e-01  -9.4455005e-01   6.7757528e-01   9.3891551e-01  -4.1696857e-01  -3.5502226e-01  -1.2766401e-01  -5.0228550e-01  -7.4355381e-02  -2.9334252e-02   4.6932583e-01   5.8666785e-02  -6.4051707e-01  -4.2962966e-02  -3.0184688e-02  -9.2690677e-01   2.2274833e-01  -9.6424903e-01  -2.7195867e-01  -9.7974293e-02  -6.3929811e-01  -5.7909429e-01  -9.0802721e-01  -7.1448283e-01  -2.0267248e-02   8.6524888e-01   1.3412347e-01   8.8473443e-01  -2.1638313e-01   1.0179582e-01   4.9810371e-01  -9.3357913e-01   6.9910237e-01   7.0507268e-01   5.9052655e-01  -3.0982832e-01   2.7766538e-01   7.7685013e-01   7.0082900e-01  -1.8303928e-01   4.0493087e-01  -2.3040704e-01   4.7124493e-02   2.4591157e-01   3.5278215e-02   4.0777208e-01   6.1787656e-01   9.5601733e-02  -9.3182216e-01  -5.5152985e-01   9.5117406e-01  -5.6994005e-01  -8.3791347e-01  -3.7663120e-01   3.6530031e-01  -6.1925295e-01   9.8886046e-01   7.8232602e-01  -1.2109307e-01   2.4222181e-01   9.6728333e-02  -4.1076723e-01  -3.4795050e-01  -9.6743722e-01   9.5233679e-01  -8.5252032e-02  -6.2516468e-01  -2.3947366e-01  -4.7082141e-01  -3.9635010e-01  -3.2684554e-01  -9.5798356e-01  -2.4874647e-01   6.1128183e-01  -4.7355938e-01  -8.7662296e-01   8.9160742e-01   8.8037563e-01  -7.2029839e-02   8.0700952e-01  -2.6833253e-02  -4.1863947e-03   1.9603455e-01   5.6256796e-01  -6.6263799e-01  -3.9563838e-02  -3.4410964e-01  -1.9186609e-01   5.3221884e-01   2.8503875e-01  -5.5976526e-01   1.1470239e-01   5.2462954e-02   1.3626782e-01  -1.8068313e-01  -8.3766367e-01   1.4171329e-01  -4.4672869e-01   8.7665309e-01  -6.5963745e-01   5.7189726e-01  -1.0024303e-01  -4.2676892e-01  -2.7128220e-02  -7.2568777e-01   1.5517198e-01   7.9437611e-01  -2.8554686e-01  -3.8639411e-01   7.5260291e-01   7.4677341e-01   6.2933535e-01   7.1349159e-01  -1.0501941e-01   2.8553376e-01   8.5938635e-01  -4.8627006e-01   9.0916478e-01   7.7872228e-01   7.5052604e-01  -6.7227842e-01   7.0605651e-01   7.2465483e-01   9.1492796e-01   2.7804031e-01  -9.5431493e-01   2.3876625e-01  -5.8914302e-01   6.1498355e-01   1.8274434e-01  -3.9482232e-02  -6.0603300e-01  -2.8261931e-01  -6.8278019e-01  -1.4104077e-02   9.8577334e-01   7.0761807e-01  -8.4311832e-01   7.6365929e-01   7.4553201e-01   1.6574507e-01  -3.1388539e-02  -8.0383360e-01  -3.7561207e-01  -5.9402399e-01   8.9132217e-01   7.1850401e-01   1.5938540e-01  -1.1833566e-01   9.0961163e-01   1.0195002e-01   2.8569687e-01  -1.7878644e-01   1.8207732e-01   8.0061729e-01   1.2073406e-01   2.2381773e-02  -5.6799694e-02  -7.7472142e-01   7.6869920e-01  -6.5451433e-01   7.9030867e-01  -3.1731271e-01  -2.8884598e-02   7.2711270e-01   3.8004250e-01   4.9708118e-01  -8.9636407e-01   4.4003990e-01   2.8550501e-01   6.1338611e-01   5.9737846e-01   3.4927184e-01   8.7933348e-01   7.2402973e-02   2.8975729e-01  -9.1757316e-01   6.1388217e-01   2.1379924e-01   9.5940753e-01   3.3806770e-01  -6.3681931e-01   7.1117164e-01   2.7295395e-01  -7.5627144e-01  -3.8939420e-01  -3.0148492e-01  -8.9207812e-01  -6.0312927e-01  -8.2419149e-01   2.9132299e-01   1.4849888e-01   4.0629176e-01  -4.1985159e-01   9.5657394e-01  -9.1930276e-01   9.9710241e-01  -8.5345830e-01   1.1145487e-01   7.0717325e-04   5.6515491e-01  -4.9574210e-01  -4.8538027e-01   2.3444063e-01   7.3245213e-01  -6.4358881e-01  -4.0442885e-01   9.2687847e-01  -9.8856290e-01  -8.1208363e-01  -1.8225651e-01  -9.2881579e-03   2.8015573e-01  -5.5096596e-01  -1.6563121e-01  -8.7356998e-01  -5.3472665e-01   7.4402712e-01   2.3498390e-01   7.4952924e-01  -5.6612776e-01  -1.5868748e-01  -3.3256344e-02  -2.2782575e-01   8.8630804e-01  -6.9022490e-01  -7.4472246e-01   8.4363374e-01   7.1170680e-01  -1.1807492e-01   9.8858365e-02  -2.1796808e-01   1.0579562e-01  -6.5087662e-01   4.3628843e-01   8.5685142e-01  -6.6977120e-01  -7.0974682e-01   1.8727536e-01   8.7200714e-01   1.5776672e-01  -4.3281410e-01  -2.5222399e-02  -1.0073058e-01  -8.8405440e-01  -8.6400658e-01  -5.8519026e-01  -3.0193598e-01   3.5134564e-01   1.2781516e-01   1.5279111e-01   6.4772086e-01   4.1583270e-01   9.4518415e-01  -4.6856895e-01  -5.0701564e-01   9.6355831e-01  -1.5648115e-01   5.6759828e-01   1.5517940e-01  -3.9515976e-01  -3.2986304e-01  -4.0662147e-01  -1.9914680e-01   6.0239308e-01   8.2208993e-01   7.8903047e-01  -8.3089652e-01  -3.6205672e-01   8.4107048e-01  -9.4914032e-01   3.7264313e-01   5.5224593e-01  -6.1763553e-02  -9.0943622e-02  -5.9605975e-01  -5.0717723e-01  -4.7798004e-01   3.8636995e-02   9.8122828e-01   4.6665137e-01  -3.2503583e-02   8.3636525e-01  -7.9326832e-01   9.5314986e-01  -1.4906854e-01  -3.0391533e-01   3.9706919e-01  -7.6582498e-01  -5.5978287e-01   5.0768532e-02  -2.9220653e-01   7.0187385e-01   7.8793913e-01  -8.1513708e-01   7.4166388e-01   1.5869297e-01  -1.9295808e-01  -3.4830294e-01   9.4706146e-02   5.5760513e-01  -7.3376858e-01  -4.9259525e-01  -3.4132544e-01   5.4212248e-01   3.7721444e-01   4.9154710e-01   2.3104680e-01   7.8261306e-01  -8.5944459e-01  -6.4705471e-01  -1.1576020e-01   9.2510079e-01  -5.0893119e-01  -2.3131098e-01  -2.5549071e-02  -6.6359324e-01   4.1411659e-01   4.6399922e-02  -9.6752587e-01   8.2420586e-01  -6.5076400e-01   3.7080879e-01   1.9568140e-01  -2.9973696e-01   1.5184724e-01  -2.1826772e-01   4.5490345e-01   4.1461425e-01  -8.6658024e-01  -1.4498575e-01  -6.3822148e-01   8.8377096e-01   3.7902912e-01   4.7918338e-01   8.3044814e-01   5.3015624e-01   1.0667367e-01   6.4828331e-01  -6.1342443e-01   5.8075952e-01   2.0688981e-01  -8.7468345e-01  -7.3075765e-01   8.2762799e-01  -4.2950520e-01  -8.6723196e-01   7.0520465e-01   1.6839280e-01   6.4570796e-01   2.1285366e-01  -7.9873508e-01  -6.6011250e-01   4.6769784e-01  -7.9479220e-01  -7.6885982e-02   8.6381332e-01   2.7563489e-01  -9.0528646e-02  -6.7571227e-01  -1.5399392e-01   8.2663315e-01  -4.9584899e-01  -9.6122047e-02   1.1721803e-01  -3.7538181e-01  -9.7477227e-01  -1.2401562e-01  -2.8091302e-01  -2.8540021e-01  -9.4705675e-01  -6.5245434e-01   4.5145535e-03  -3.7105339e-01  -7.7593970e-01  -3.8926112e-01  -4.8926290e-01   1.5431920e-01  -7.6582087e-01  -1.8507909e-01   6.7650055e-01   6.4218346e-01   4.4335263e-01   5.8088819e-02  -9.3246367e-01   5.1805896e-01  -8.8346531e-01   5.3898095e-01  -7.5904615e-01  -2.7899951e-01   8.9757930e-01  -4.3845176e-01  -2.8986753e-01  -4.6315702e-01  -8.7016677e-01  -9.5907152e-01   8.6243631e-01  -6.1369596e-01   2.0196634e-01  -7.1945811e-01   5.9787881e-01  -3.3595084e-01   9.4483211e-01   6.5085849e-01   9.9812302e-01   4.3514532e-01  -5.6197589e-01   3.6860045e-01  -6.1135795e-01  -9.0542121e-01   9.7889086e-01   5.1589498e-01   4.6182673e-01  -5.2285721e-01  -9.4314811e-01  -4.7244713e-01  -8.4699719e-01   9.9745246e-01  -9.4019584e-01   2.8707112e-01  -4.1838916e-01   4.8318155e-02   3.5449371e-02   1.2806022e-02   3.8920993e-01  -7.3209882e-01   5.6495056e-01  -5.5062800e-01  -7.6326380e-02  -1.5144661e-01  -5.7729399e-01   2.8107055e-01   2.0764190e-01   9.4304960e-01  -9.9727389e-01   9.1245930e-01  -5.4414006e-01   4.6428810e-01   4.5991555e-01   1.3149828e-01   2.4756161e-01   6.3315686e-01  -5.5371693e-01  -6.4830603e-01   1.7290432e-01  -2.9666631e-01   1.3721109e-01   5.4086599e-01   2.6403960e-01  -8.0155024e-01   6.2850958e-01   9.6920859e-01   2.4913808e-02  -8.6330884e-01   4.1543151e-01   8.5047991e-01   8.4854064e-01  -9.4414725e-01   1.4385625e-01   7.7052614e-01   4.3146390e-01  -2.4658553e-01   1.1435659e-01   2.0018174e-02   8.6905340e-01   3.8183539e-01  -5.6047221e-01  -9.7531548e-01   7.1737664e-01  -9.2853009e-01  -7.8902533e-01  -8.9403227e-01  -5.7237575e-01   4.0701342e-01   3.5224063e-01  -9.6159318e-01  -1.4937943e-01  -1.6828595e-02   8.6250215e-01   1.3663572e-02   9.9390242e-01  -5.3429487e-02  -1.3882013e-01  -8.5482631e-01  -8.8129865e-01  -4.4908047e-01  -3.2573063e-02   9.3150409e-01   5.4969799e-01   6.5876429e-01   2.4403251e-02   6.6469163e-01  -3.0291119e-01   7.1122936e-01   2.7644886e-01   3.9804491e-01   2.3157252e-01   4.3961632e-01  -7.7006119e-01  -1.4488677e-01   5.2498519e-01  -1.6010269e-01   3.5299865e-02   6.6513321e-02  -3.7708469e-01   2.2800357e-02   9.4809224e-01  -7.6674279e-01   4.0534979e-01   4.9804181e-01  -9.5934174e-01   6.8103577e-01   1.3835636e-01   9.4967357e-01  -1.3966143e-01   4.8338345e-01   6.0946527e-01   6.4730480e-01   1.6705917e-01  -6.7421569e-01   1.8523524e-01   2.4910440e-01   8.1888169e-01  -5.9062360e-01   1.7261381e-01  -9.6755882e-01  -2.5681761e-01  -1.8718473e-01   1.7669534e-01  -1.2575158e-01   2.6491635e-01  -8.2361807e-01  -7.7479008e-01  -2.5154854e-01  -8.1134190e-01   7.4900321e-02  -1.1820086e-01   2.9870718e-01  -9.4431590e-01  -5.9924045e-01  -1.0515183e-01  -5.8156679e-01  -8.2992930e-01   4.3406108e-02  -3.3287617e-01  -2.7178075e-01  -1.2620323e-01  -4.9906377e-01  -1.4621179e-02   1.4545916e-01   4.4401971e-01   3.5104913e-01   2.8718220e-01  -7.1853996e-01  -8.9886450e-01  -3.9412893e-01   7.6850679e-01   6.9357516e-01  -9.4427777e-01   1.6800914e-01   6.4050662e-01   9.4209799e-01   2.3098224e-01  -1.0496127e-01  -7.9116726e-02  -1.1114750e-01  -4.4316016e-01  -6.6689973e-01  -9.2431760e-01   3.8911137e-01  -4.5452229e-01   9.3588002e-01  -4.0644195e-02   9.9114476e-01  -8.2821266e-01   9.5457248e-01  -5.6689785e-01   9.4313205e-01   6.9621010e-01  -9.9014423e-01  -1.3609892e-01   9.6410123e-02   9.9507879e-01   4.1068090e-01   7.0273231e-01   9.9888237e-01   9.1710742e-01   2.0951816e-01  -4.5175643e-01  -5.5528459e-01  -8.6685988e-01  -8.0099593e-01   4.4090905e-01   5.0297541e-01   7.0281019e-01   9.9974256e-01   1.1785566e-01  -6.9833683e-01  -9.9928634e-02  -7.4383333e-01   1.5102317e-01   8.3008056e-01   2.5360359e-01   9.6865584e-01  -6.8930326e-02   9.2624838e-01   6.7574386e-01  -6.0197404e-01   6.4814628e-02  -9.1851204e-01   5.7939857e-01  -8.0272166e-01  -4.3481683e-01  -9.4876611e-01  -7.2215584e-01   6.1926728e-02   7.1697478e-01   3.0046499e-01  -7.0022218e-01   6.5468019e-01  -3.5755591e-01  -1.1201205e-01  -5.8517990e-01   4.2723862e-01   5.5044311e-01   8.0415076e-01  -5.2427375e-01  -4.2352103e-01   5.5374889e-02   8.1577250e-01  -6.1548905e-01  -3.0861077e-01   3.2902999e-01   6.6581483e-01  -8.6925813e-01  -5.2464446e-01   5.2789450e-01   4.8123655e-01  -3.8906137e-01  -3.0730755e-02   8.9665885e-01   6.4944010e-01   8.5481496e-01   6.6077706e-02  -5.6916893e-01  -8.0782734e-01   4.8892983e-01   4.3977752e-01  -7.1296957e-01  -1.3111522e-02   1.2428507e-01   9.4582911e-02  -3.6869979e-01   9.5334320e-01   9.5022583e-01   3.9905106e-01  -7.1658812e-01   7.7049503e-01  -3.2248608e-01  -2.0613531e-01   7.4916043e-01   3.2437902e-01  -1.7238526e-01   1.2679473e-01   4.4778461e-01   3.8202929e-01  -5.1513085e-02  -7.3629582e-01  -3.9747957e-02   2.8749402e-01   2.8104404e-01  -9.3382135e-01   2.7071003e-01  -4.2500847e-01  -4.1227772e-01   2.7769550e-01  -3.1457575e-01  -9.3742550e-02   7.5417375e-01  -3.3266596e-01   9.5212251e-01   7.5769186e-01   1.5843499e-01  -4.4304657e-01  -9.6641010e-02   1.9418916e-01  -9.2312817e-01  -8.8118525e-01   3.6439718e-01  -4.9386907e-01   6.4019385e-01  -2.0809659e-02  -7.8591753e-01  -4.3311094e-01  -2.1565583e-01  -3.2265413e-01  -2.7283251e-02  -6.3741323e-01   5.1782314e-01   3.9084702e-01   2.0459856e-01  -2.7145592e-01   4.8756899e-01  -4.2258999e-02   7.7424025e-01   6.1657174e-01  -4.3162469e-01   9.0706942e-01   2.6600551e-01   4.8207405e-01  -6.1798159e-03   4.0444192e-01  -6.3757976e-01  -9.5161848e-01   6.9247343e-01  -8.0059127e-01   8.5347575e-02  -1.6035925e-02   2.5584444e-01  -6.1596529e-01   2.1990619e-01   4.3604955e-01  -8.1169042e-01   9.6824850e-01  -3.2779239e-01   7.9868316e-01  -3.3824842e-01   4.0052318e-01   4.3525711e-02  -7.9394372e-01   6.4214521e-01   9.1309861e-01
