  -5.5567273e-01   5.2502762e-01   3.7253451e-01  -1.0781595e-02  -3.9690655e-01   3.7563886e-02   8.7621457e-01  -4.1746016e-01   9.5631905e-01  -5.8695763e-01  -8.0300044e-01  -4.0670607e-01   2.6644156e-01   4.3693510e-01  -5.1947439e-01  -8.2960420e-01  -2.6312921e-01   7.2362716e-01  -3.4610195e-01   7.4212190e-01  -8.7687487e-03   3.3045704e-01   9.8393047e-01   8.4860239e-01   4.0451195e-03  -4.9927180e-02   6.9123691e-01  -7.9296179e-01   6.7759136e-01   9.0739334e-01  -3.3743810e-01   2.3930963e-01  -1.8411456e-01  -4.2341971e-01  -8.9604008e-01  -3.0343441e-01   6.0378670e-01   7.3978529e-01   6.3870336e-01   6.2998742e-01   6.5067952e-01  -7.3300614e-01  -7.1885844e-02  -6.8977634e-01   2.5705708e-02   9.3905432e-01   1.4681251e-01  -5.2575168e-01  -2.4103549e-01  -8.2079273e-01  -2.9543993e-02  -6.9126245e-01  -8.2693231e-01  -7.5952006e-03   2.8279654e-01  -4.3385158e-01  -9.7345782e-01   8.8232257e-01  -7.6013494e-01  -9.3852865e-01  -6.8718469e-01   1.6047044e-02  -4.7333827e-01   4.2583583e-01   8.4865470e-01  -7.8053253e-02   8.9654881e-01   7.8923528e-01   1.6384966e-01  -1.5799350e-01  -5.7832700e-01  -5.5320856e-01   9.3302149e-01   2.6832798e-01  -1.6823573e-01   8.7693228e-01   9.2413934e-01  -8.2911213e-01   5.2243279e-01   9.3907889e-01   7.4035263e-02   4.8915094e-01   8.3016405e-01  -9.9020322e-02  -8.8372727e-01   7.7553924e-01   7.4270146e-01  -8.1248082e-02   4.0399548e-01  -4.6379448e-01  -5.4906323e-01   5.1355922e-01   7.2262190e-01   4.4202595e-01   4.6537888e-01   6.8525302e-01   4.7671834e-01   4.9217070e-01  -1.6988732e-01   1.4831530e-01   7.9506117e-02   3.3462671e-02   7.2715104e-01  -8.4445940e-01   6.4208879e-01  -3.1107205e-02   6.5536755e-01  -4.8359725e-01  -7.6464545e-01   2.9225914e-01   1.2553132e-01   4.4411668e-01  -9.6608043e-01  -6.5243202e-01  -5.9838984e-01   2.3507354e-01  -9.9913023e-01   4.6024223e-02   1.0687847e-01  -5.2220133e-01  -6.9488197e-01  -4.4085208e-01   3.4494949e-01  -4.8154032e-01   8.1671325e-02   1.5231042e-01   1.4017910e-01  -7.9029851e-01  -2.7164762e-01  -3.3500056e-01  -6.4832122e-01  -3.5632037e-01  -3.8711154e-01   7.8348410e-01   5.1605680e-01  -1.7883687e-01  -6.8251553e-01   5.0926896e-01   2.8620576e-01   2.6649042e-01  -3.4773080e-01   3.5736696e-01   9.3372888e-01  -5.3121532e-01   6.5851035e-02   4.4211369e-01   2.1148342e-01  -6.0736569e-01  -8.8213827e-01   4.7781863e-01   1.0619923e-01  -4.8957376e-01   2.9279478e-01  -5.8577281e-01   5.6933941e-01   3.9406934e-01   8.8328817e-02   5.3085992e-01   6.6101500e-04   5.7433792e-01  -7.6016490e-01  -5.5287374e-01  -7.1638806e-01   3.9942145e-02   3.9126706e-01   7.8016062e-01  -8.2840789e-01   9.8753480e-01  -1.4453174e-01  -7.3446809e-01   3.9470307e-02  -6.9085519e-02   8.6861983e-01   4.8265487e-01  -9.1235152e-01   4.5996131e-01  -5.6009352e-01   8.6610074e-01   7.0903118e-01  -8.1448807e-01   2.1769152e-01   7.3880167e-01  -5.1025784e-03   7.8984663e-01  -5.2902684e-01   3.0599457e-01   7.3385781e-01   2.3646963e-01  -3.6675594e-01   5.7358847e-01   9.8363958e-01  -2.5041672e-01  -5.7833937e-01  -5.2621424e-01  -9.9015392e-01  -9.4879168e-01  -5.7753443e-01   4.8045724e-01   9.7068067e-01  -2.1402125e-01  -7.7096697e-01   5.0207764e-01  -9.9525247e-01  -8.0490004e-01  -8.7312430e-01  -3.8946817e-01   3.0073557e-01  -9.0558465e-01  -6.8093848e-01  -1.5706625e-01  -2.3171158e-01   5.2729533e-01   1.9800160e-02  -5.7444604e-01  -3.5529819e-01  -2.0610967e-01   1.9945885e-01  -4.8214459e-01  -9.7516939e-01   4.4920051e-01  -8.0803696e-01  -1.7073082e-01  -5.8653612e-01  -8.4068680e-01   4.0529832e-01   4.0754180e-01  -4.6698452e-01   2.7596365e-01  -7.7809656e-02   1.9170552e-02   5.7946901e-01   6.1316173e-02  -9.1519544e-01  -2.8830975e-01   1.6974071e-01  -7.4886024e-01  -1.7327747e-01   5.8400704e-01   6.2704436e-01  -5.8150547e-01  -5.0419777e-01  -4.7694298e-02   9.7112454e-01  -1.5396274e-01  -7.4564798e-01   5.7126727e-01  -1.1132885e-01  -4.8088401e-01  -8.8287194e-01  -4.6704494e-01   5.7965174e-01  -3.9514092e-01   7.5554075e-01  -9.3793519e-01   1.7571682e-01   9.3695067e-01  -7.5223201e-01  -6.1788206e-02  -2.6037919e-01  -3.9379636e-01  -6.2489624e-01   7.1912095e-01   7.5445410e-01   3.1939546e-01  -5.7653259e-01   1.3290760e-01  -5.3635651e-01  -2.9046691e-01   8.0594223e-02   5.4125145e-01   3.0644245e-01   5.2459659e-01   9.1984226e-01   8.1279320e-01  -1.2788764e-01   9.2014941e-01  -7.9678415e-01  -4.5932530e-01  -2.9840878e-02  -6.0971349e-01   1.0812991e-01  -4.7777139e-02   7.4642633e-01  -9.6833458e-01   4.8261883e-01   8.1068974e-01   7.9735756e-01  -8.8312030e-01   2.8948127e-01   8.9340551e-01  -5.5601099e-01   7.6867633e-01  -1.8663486e-01  -4.0943730e-01  -3.0335505e-02  -5.8089537e-02   4.3666472e-01  -1.3019987e-01   8.8455655e-01  -5.9530134e-01  -8.3602193e-01  -7.3731693e-01  -4.9756105e-01   6.3617945e-01  -4.2389310e-01   4.2329610e-01  -7.7117706e-01   5.7608197e-01   5.0485142e-01  -9.2949728e-01  -4.1636610e-01   7.9054695e-01   7.1544549e-01  -4.1974734e-01   1.9645203e-01   7.6979744e-01   8.1076037e-01   8.1226090e-01   9.0410592e-01   2.6142563e-01   8.6700586e-01  -9.3467784e-01   3.2153074e-01  -5.4453311e-01   2.5098708e-01  -6.2823210e-01  -3.8598259e-01  -5.5147162e-01  -5.5181871e-01   1.6750026e-01  -5.0535673e-01   9.1137437e-01  -2.6366292e-01  -6.8305034e-01   9.7807151e-01   1.1665495e-01  -4.8864796e-01  -7.3433794e-01   4.1868311e-01  -7.2426056e-01  -9.8519187e-01  -5.8303858e-01   3.6695894e-01  -2.5851956e-01   9.6731723e-01   2.5541421e-01   8.6619793e-01   2.6448826e-01   8.1219401e-01   9.7378372e-01   3.8582977e-01   6.9569966e-01   5.6626009e-01   6.5168530e-01   3.4195653e-01   6.5045816e-01   8.6561400e-01  -4.2251877e-01   6.5520455e-02  -2.1630548e-01  -9.8571127e-01  -4.8308359e-01   2.2001042e-01  -6.5751398e-01   1.5943266e-01  -5.7824023e-01  -5.7484804e-01  -7.6419777e-01   2.8706720e-01   5.6507127e-01  -8.0887335e-02  -3.9917494e-01   7.6840829e-01  -3.5879344e-01   2.6502148e-01   2.6363465e-01   9.7269693e-01  -6.5026082e-01  -9.4435493e-01   2.6351027e-01   6.5368105e-01  -6.4129198e-01  -5.5346423e-01   3.0017702e-01   2.5675999e-01   8.9001968e-01   2.9686457e-01  -8.2277304e-02   4.6738675e-02  -2.6134650e-02   3.3225551e-01  -4.8251651e-01   2.9308423e-01  -6.0721162e-01   4.1349718e-01  -5.7891293e-01  -1.4744583e-01   3.2690317e-01   1.7410966e-01   5.2395698e-01  -3.4558456e-01   6.4332792e-01   6.5475201e-02   9.9099763e-01   3.0232514e-01   4.5641821e-01   1.1476708e-01   9.7282951e-01   4.3128573e-01  -3.8258269e-01   6.2377442e-01   9.2159654e-02  -1.3861395e-01  -6.6551098e-01   5.5287111e-01  -7.2818695e-01  -3.1577733e-01   5.3147479e-01   7.2118969e-01  -9.5831881e-01  -3.0485789e-01  -2.7757007e-01   4.7655951e-01  -7.4233394e-01   4.8326960e-01  -5.1600790e-01   9.1953384e-01   3.5085906e-01  -2.7732332e-01   9.9614702e-02   5.5440590e-01  -1.4935260e-01  -9.8133508e-01  -3.2491029e-01  -3.9446606e-01   2.5277911e-01  -6.3339935e-01  -5.5907876e-01  -1.8579121e-01   7.2086247e-01  -6.2013870e-01   1.0586277e-01  -1.9649121e-01  -2.4808499e-01  -3.1375374e-01  -7.4559062e-02   2.3401003e-01  -4.5697202e-01   6.2706119e-02  -2.6336255e-01  -4.2473393e-01  -6.4867112e-01  -2.7116157e-01  -9.5965018e-01  -9.2219840e-01  -7.7989859e-01   2.3196090e-01   1.3160179e-01  -3.3626339e-01   4.7951843e-01   8.0352246e-01   9.4007278e-01   2.8763271e-01  -8.7431721e-01  -8.3216301e-01  -5.5717264e-01   8.0237667e-01   6.7965803e-01  -6.0534720e-01   1.8732409e-01  -9.4892577e-01  -3.6715266e-01   5.5905557e-01   3.9410336e-01   4.9348566e-01  -7.3308284e-01   2.9138336e-01   6.1496076e-01   5.3590778e-01  -9.9764838e-01   6.0622854e-02  -5.2618194e-01   8.2168585e-01   2.0627711e-01   1.4568137e-01  -4.7125906e-03  -5.1546312e-01   9.8184886e-02  -1.9459807e-01   3.3100632e-01  -2.3000194e-01   4.4649987e-01   1.5691214e-01  -9.8806377e-01  -1.2672468e-01  -5.4875351e-01   2.6757019e-01  -7.1223453e-01  -5.5082601e-01  -4.5014238e-01  -8.5632074e-02  -3.9548095e-01  -7.0842438e-01   3.5653719e-01   6.8849650e-01   2.9076786e-01  -5.1302395e-01   9.8708451e-01  -4.0450396e-01  -6.3835861e-02  -5.5224889e-01  -4.8257735e-02   5.5654009e-01   2.9455781e-01   3.9827766e-01  -6.9699443e-03  -1.3346890e-01   1.4921673e-01  -7.5009478e-01  -4.0891847e-01  -9.5311040e-01   2.4882906e-01   5.1544912e-01  -9.1474929e-01  -2.6853531e-01  -9.1939614e-01  -2.1883053e-01  -5.3755286e-01  -1.4936971e-01  -9.1421728e-01  -6.8060246e-02  -9.8869372e-01   5.0044765e-01   9.7386608e-01  -6.5278967e-01   3.6578091e-01   4.3575737e-02  -1.6873172e-02  -4.2139787e-01   6.1501198e-02   4.1976543e-01  -3.6260525e-01   4.2021769e-01  -3.4439138e-01   1.9114568e-01   8.4201083e-01   6.6154143e-01  -8.0742766e-01  -6.5079481e-01  -2.1954868e-01  -4.7439939e-01  -3.5791787e-02   5.7601679e-01   7.2453155e-01  -1.0524904e-01   3.9711751e-01   7.8373632e-01   3.6027380e-01   8.6378140e-01   3.2229857e-01   6.5666267e-01   8.2622328e-01   5.8716169e-01   6.5399195e-01  -2.5393428e-01   9.1538228e-01  -3.4900654e-01   7.5665480e-01   3.4321606e-01   8.9465599e-01   3.8813146e-01   5.3376424e-01  -1.7042972e-01   4.2677849e-01  -3.6189217e-01  -3.5663486e-02   9.9359318e-01   5.4868274e-01  -9.1337229e-02  -3.4722072e-01  -3.5880253e-01  -2.8984710e-01  -4.4715797e-02  -4.4783644e-01   7.6924938e-01  -9.1461302e-01  -2.6231854e-02  -4.1775588e-01  -3.2405052e-01   2.6937808e-01   7.6804068e-01   3.0001970e-03   8.9926149e-02  -3.9167427e-01   4.5166451e-01  -7.4683074e-01  -4.2509567e-01  -1.7220019e-01   2.5068252e-01   6.2583053e-01  -7.7258425e-01   9.0954093e-02  -9.1972878e-01   8.8012603e-02  -9.4197333e-01   7.7751575e-01  -8.7367479e-01  -9.9366383e-01  -7.7465991e-01   5.0912754e-02  -1.5208384e-01   8.0730500e-01   8.8825471e-01  -7.1477830e-01   7.5482494e-01   5.0856395e-01   3.4217676e-01  -1.4590964e-01   5.1806283e-01  -3.4402521e-01  -2.0342159e-02   6.3813329e-01  -5.8856431e-01   2.0114773e-01  -7.6078571e-01  -3.3735399e-01  -1.7395544e-01  -2.0690358e-01  -6.9263101e-01   7.3128167e-02  -2.7154324e-01  -1.6837927e-01  -5.3809697e-01   3.7705152e-01  -6.9461694e-01   2.3711778e-02  -5.7599489e-01  -4.8761724e-01  -8.2399041e-02  -9.9812232e-01  -9.4014792e-01  -2.9436696e-02   3.9146788e-02  -7.6976778e-01  -9.8263111e-01   4.5599220e-01   3.6101523e-01  -1.7001323e-01   9.6333452e-01  -3.8720612e-01  -7.4937964e-04  -2.7948161e-01  -2.5159736e-01  -2.3261163e-01  -1.4758424e-03   3.8207929e-01  -7.0035992e-01  -2.8607780e-01   5.1426732e-02  -2.5709690e-01  -5.5201630e-01  -9.5642856e-01  -7.2981516e-01   1.1539901e-01   4.4662783e-02  -8.2363359e-01   3.1897572e-01   7.6428913e-01  -5.9727781e-01  -9.1188505e-01  -5.0268390e-02   8.0375536e-01  -6.0478025e-01   5.8134999e-01  -4.1945545e-01   2.0632443e-01   8.8422604e-01  -1.4564619e-01  -1.6046224e-01   1.3935259e-01   4.2083474e-01   6.8292218e-01  -8.7560942e-01   7.3290905e-01  -1.0547611e-01   8.1225941e-01   6.3894341e-01  -1.1684264e-01  -2.4527035e-01   2.6199219e-01  -7.2320900e-01   1.4242915e-01   9.4603803e-01   1.6942603e-01  -7.9591405e-01   5.1924958e-01  -5.9936638e-01   5.4192165e-01   7.8396657e-01   9.7877133e-01   2.2875979e-01   2.4065769e-01  -5.0721363e-02   1.3518328e-01   8.4976238e-01   9.7929417e-01  -6.6099421e-01  -7.4494777e-01  -7.3193711e-01   7.0915913e-01   8.5639595e-01  -5.1839304e-01  -6.7944953e-01  -4.5856998e-01   2.6795557e-01   4.4573818e-01  -6.0659624e-01   6.0294719e-01  -5.8411327e-01   9.8893727e-01   2.6275835e-02   5.7288685e-01   1.5292132e-01  -6.5811821e-01  -2.1232496e-02  -7.6803974e-02   4.2202549e-01  -6.8491666e-01   6.2518013e-01  -6.0978450e-01  -3.4510337e-01   3.9617829e-01  -5.8355763e-01  -1.1322388e-01   5.7158435e-01   3.3589312e-01   1.1126423e-02  -2.0951842e-01   8.5127978e-01   1.1635036e-01   4.8739668e-02   9.2335035e-01  -5.7075803e-01   2.2528210e-01   9.6821063e-01  -7.9066641e-01  -7.2173345e-01  -3.7991541e-01   1.4489823e-01   6.8949083e-01  -2.6632741e-01  -2.4935904e-01   2.3688137e-01  -2.9891298e-01   9.2001473e-01   2.1066390e-02   5.0850025e-01   9.0940554e-01   9.1843215e-01   1.4427018e-01   9.6138881e-01  -6.8885346e-01  -1.2686029e-01   3.4322545e-01  -9.6495046e-01  -9.4011247e-01  -1.1513702e-01   2.2573486e-01  -6.7778393e-01  -3.7712254e-01   3.9663954e-02  -7.6682906e-01   5.3265497e-01   2.7178223e-01  -6.1165563e-01   3.1843368e-01  -5.9325233e-01  -8.0606850e-01   3.8787027e-01  -7.4806035e-02   4.8139165e-01   1.0346768e-01  -9.7862410e-01   9.2071626e-01   4.1002577e-01   8.3307594e-01   9.4946125e-01  -9.1388033e-01   7.5314328e-01   5.5228100e-01   1.8385898e-01   9.2870423e-01   5.5559784e-01   8.8641268e-01   5.6787347e-01  -3.9759546e-01   8.2177577e-01  -3.2875941e-01   8.4050373e-01  -7.3191984e-02  -3.5352030e-01  -8.3937976e-01  -9.3627037e-01   8.0453759e-01  -3.0218715e-02  -1.4252036e-01  -1.1824152e-01   2.9496138e-01  -3.4452252e-01   3.0646383e-01   3.7303228e-01  -1.0482936e-01   9.8243150e-01   3.2199489e-01   7.6253771e-01   5.1753383e-01  -5.5383215e-01   6.4747864e-01   2.2620158e-01  -8.0587730e-01   6.9378837e-01  -7.1395171e-02  -6.8238262e-01   9.9381077e-01  -2.0841975e-02  -4.0131862e-01  -7.2193829e-01   1.7976598e-01   8.6139014e-01   9.0461856e-01  -2.4533904e-01   3.1782011e-01  -5.3784752e-01  -9.1670556e-01   1.3425395e-01  -7.5069732e-02  -9.7987064e-01   2.1989112e-02   8.6968560e-01   6.7363361e-01  -8.6854741e-02  -6.9829391e-01   3.4823752e-01   6.0488705e-01   4.6629257e-01   2.8814486e-02  -4.0790103e-01   4.7166847e-01  -1.7863648e-01  -5.1502619e-01   6.1750824e-01   3.7317438e-01   1.5590635e-01   3.9497969e-01   1.8364195e-01   2.2381185e-01   8.9762090e-01  -5.3631243e-01   3.9527786e-01  -6.3665372e-01  -9.6953718e-01   9.5910897e-01   1.5501344e-02  -1.9145886e-01   4.3172946e-01   3.9782425e-01  -4.6283017e-01  -7.4321446e-01  -5.2876327e-01   6.9071141e-01  -1.9301931e-01  -3.2738670e-01   7.3027344e-01   4.7255636e-01   6.1757351e-02   6.1221751e-01   4.2317223e-01  -1.0282895e-02   8.1948636e-01  -6.1328761e-01  -6.0138543e-01  -9.8926513e-01  -8.5814579e-01  -6.1289847e-01   2.9065573e-01   7.1547086e-01  -9.3639906e-01   8.7566203e-01   3.0456816e-01  -9.1054395e-01   1.0390576e-01  -9.4039609e-03  -1.1079360e-01  -4.0032388e-01  -5.4749610e-01   9.0498536e-01   5.5514798e-01   5.5465675e-01   4.6020247e-01   4.3327694e-01  -9.3984562e-01  -6.4470320e-01   8.6100762e-01  -5.7471655e-01  -6.5889024e-01  -5.2782432e-01   7.7125455e-01   5.6606061e-01  -2.0537169e-01  -4.3931827e-01   8.8530792e-01  -5.6634714e-01   1.2173781e-01  -8.2521335e-01   2.7237018e-01   3.1530774e-01   6.1212530e-01  -6.1852161e-01   6.5256334e-01  -8.2129812e-02   5.9419045e-01   5.3285362e-01  -5.0699888e-01   4.5565986e-01  -1.0929087e-02   7.6823989e-01  -7.3748601e-01   2.5283030e-01   8.3978136e-01  -4.8767332e-01   3.4538808e-01   1.7651248e-01   5.9717564e-02  -6.8541805e-01  -2.1492887e-01  -7.6797157e-01  -9.4452148e-01   5.0406274e-01  -7.8161062e-01   5.9764436e-01   7.8198788e-01  -8.5947300e-01   8.2963459e-01  -6.1995516e-01   4.3987633e-01  -2.0562840e-01  -4.0809819e-01   8.7263849e-01  -7.9782365e-01  -4.9726598e-01   7.8926762e-01  -6.0250001e-01  -6.8833333e-01   8.6832868e-01  -7.4166002e-01   5.1890353e-01  -1.6641725e-02  -9.5504860e-01  -7.4586273e-02   7.2415804e-01   5.4619313e-02   2.7658046e-01   2.2128226e-02  -9.9772696e-01  -7.6037170e-01   7.2671553e-01  -2.0448262e-01   2.4887293e-01   8.7786738e-02   4.3004378e-01   2.6257157e-01  -1.3946588e-03  -8.9877257e-01   5.3344523e-01   1.6900626e-01   4.2898075e-01   4.6510756e-01  -6.4200700e-01  -9.7778929e-01   3.2564999e-01   2.1461355e-01   4.2981828e-02  -2.8627986e-01   8.2423426e-01   2.1789455e-02  -1.0319353e-01  -3.2786865e-01   5.2404115e-01  -3.4139451e-01   4.4518866e-01   2.5193455e-01   9.9202164e-01  -4.0632019e-01  -1.3430076e-01   1.1559482e-01   1.1921928e-01   9.2097499e-01   3.4634918e-02  -6.6794590e-01  -8.1338417e-02
