  -2.8802596e-01  -9.1903669e-01   4.3605627e-02  -9.6124016e-01  -7.1426090e-01  -7.7243769e-01   6.2434995e-02   4.5899758e-01  -8.0439600e-02   9.1938800e-01  -4.7679543e-01   7.3257448e-01  -8.0162142e-02  -4.9232625e-01   9.2795987e-01   8.5005744e-01  -1.7453321e-01   3.0501895e-01   4.7352526e-01  -8.0413027e-01  -4.8400082e-01   6.5823157e-01   6.5926947e-01   3.5726425e-01   3.1709348e-01  -8.1467317e-01  -3.1548863e-01   9.4641173e-01  -3.7300467e-01   5.1754518e-01  -4.7665767e-01   1.9450884e-01  -1.0568717e-01  -6.0302194e-01  -4.2469658e-01   6.1206936e-02  -4.9073840e-01   7.8657869e-01   6.4921239e-01   6.1677970e-01   7.6240441e-01  -4.3657805e-01   9.6385826e-01   6.6840621e-01   2.5800360e-01   4.8453694e-01   2.3513261e-02   8.4536105e-02  -5.5279112e-01  -8.3805972e-01   6.5072735e-01   1.8353313e-01  -8.1895052e-01  -2.4158865e-01  -8.6530398e-01   1.4555087e-01   7.4586220e-01   4.2369554e-01   1.5820273e-02   3.1649387e-01  -2.9927059e-01  -8.0923812e-01   7.6646232e-01   8.2808099e-02  -1.9177826e-01  -3.5135938e-01   1.3053370e-01  -3.8594162e-01  -8.2780198e-02   9.8995397e-01   5.2433199e-01  -5.7285510e-01  -3.8002806e-01  -2.8776898e-01   2.1223352e-01  -7.4141304e-01  -8.5430979e-02  -9.7340778e-01   2.3681759e-01   6.9801071e-01  -6.6905472e-01  -3.7966853e-01  -9.9896476e-01  -7.7617290e-01   3.1375558e-01   9.8610829e-01  -6.4469820e-01  -8.6759232e-01   2.0555604e-01  -8.8321006e-01  -6.7833079e-01   4.2458520e-01  -6.5371016e-01   5.0419572e-01  -8.1920298e-01  -8.7000059e-01  -6.6423969e-02   4.0052018e-01   7.7357587e-01  -6.2019729e-01   1.3133412e-01  -1.4607746e-01  -8.2679010e-01   4.6761481e-01  -8.2113149e-02  -8.0610902e-02  -3.3289627e-01   9.8343731e-01   1.7963802e-01   2.0310519e-01  -7.1121818e-01  -8.4205294e-01   1.5271101e-01   8.0743163e-01   1.6771837e-01  -6.3198691e-01  -3.4942768e-01  -8.2979239e-01  -6.9074442e-01  -1.1861216e-01  -9.2318965e-01  -6.8112408e-01   6.1058824e-01  -3.6236382e-01  -4.6998726e-01   7.8216040e-01  -5.5490337e-01   1.6198967e-01  -2.8637795e-01  -1.0091358e-01  -5.9104156e-01   7.7442597e-01  -6.2194666e-01  -4.5630172e-01  -4.2494361e-01  -2.5819128e-01   8.2687731e-01   7.4903317e-01  -1.0748778e-02  -5.8165475e-01  -4.8013815e-01   9.6448509e-01   2.8152071e-01  -5.1413843e-01   4.1100559e-01   4.0761126e-01  -4.8184166e-02  -6.9479268e-01   6.6369458e-01  -4.0016428e-01  -8.4242328e-01   6.5116779e-01   7.1660961e-03  -9.5181052e-01   4.5942598e-02  -3.6815463e-01  -5.3322919e-02   3.7717631e-01  -8.4646622e-01   8.0969965e-01   5.2963055e-02  -4.5829481e-01  -7.3417176e-01  -9.5367718e-01  -3.2967372e-01   8.5727521e-01  -3.3787695e-01  -3.4765237e-01  -5.7586641e-01  -1.0105696e-01  -8.2895348e-01   3.7483896e-01   5.9220136e-01   5.3425407e-01  -8.4939739e-01   9.2839808e-01   7.0103152e-01  -6.2837911e-01  -2.2904182e-01  -2.3894550e-01  -8.2032431e-01  -6.7787085e-01   2.1797025e-01   2.7868243e-01   6.4689985e-01  -1.2990117e-01   4.2965545e-01  -7.5069394e-01  -2.9569614e-01   5.2378428e-01  -9.7715275e-01   5.7037542e-01  -8.5544422e-01   8.7289008e-02  -5.1770110e-01   1.8324571e-01  -2.2905902e-01  -2.2801527e-01   8.9135587e-01  -4.3098087e-01   4.3258558e-01  -5.9730926e-01  -5.1441245e-01  -9.7770399e-01  -1.5930068e-01   2.9336094e-01   1.3523061e-01   7.7670594e-01  -2.4410431e-01  -5.6314186e-01  -6.2213351e-01  -6.8558935e-01  -1.4930921e-01  -3.6143613e-02   5.6477037e-01   5.3227451e-01   5.4892495e-01   8.7128520e-01  -5.7665617e-01  -3.1914766e-01  -3.1085453e-01   7.6625595e-01   3.6752496e-01  -9.8077158e-01  -5.4208888e-01   1.1657717e-01  -9.8663797e-01  -8.9684554e-01  -4.0533993e-01  -7.3452324e-01   6.2516047e-01  -2.2920586e-01  -4.9462390e-01   4.8089019e-01   3.8440918e-01   5.7953308e-01   6.2933035e-01   7.3459094e-01   7.2215052e-01  -2.9112915e-01  -9.0879961e-01   7.7792960e-01   9.0578004e-01  -4.9257975e-01  -1.2836682e-01   4.7485857e-02   3.5905812e-01   3.7789391e-01  -1.0003851e-03   1.7363944e-01   5.9302897e-02   7.7929650e-01   9.8359872e-01  -5.4498645e-01  -3.2046863e-01  -8.4365755e-01  -6.2566445e-01   2.6567183e-02  -3.4859208e-01   9.6562572e-02   6.1511467e-01   3.6603940e-01   4.3048587e-01  -7.5955064e-01   9.9863459e-01   7.4781981e-01   5.3735640e-01   6.9819992e-01  -4.3890454e-01   6.6359491e-01   2.1029138e-01   7.3864528e-01  -2.2458182e-01  -9.9370113e-01  -1.7389086e-01  -5.4876657e-01  -2.5159244e-01  -4.3181608e-01   5.7059571e-01  -6.8698531e-01  -2.2816358e-01  -9.3434520e-01   4.3219208e-01   9.2217401e-01   3.3173454e-01  -7.3972521e-01  -6.2477239e-01  -1.9163587e-01  -1.3909198e-01   1.8999411e-01  -8.8447308e-01  -7.7156698e-01   2.0539435e-01   9.3820062e-01   5.5627328e-01  -7.1642973e-01  -9.3751021e-01   6.5299623e-02   2.0957365e-01  -3.0004445e-01  -4.6527058e-01   6.9802289e-02  -5.3162452e-01  -3.9532465e-02   3.2336134e-01   8.8996943e-02   2.5382355e-01   5.0200994e-03   7.2686794e-01   1.9281532e-01   3.7415560e-02  -9.7814136e-01  -8.6138705e-01   2.1093608e-02   4.4361228e-01  -1.4411699e-01  -2.6489298e-02   3.0694464e-01  -2.9293814e-01  -7.0036207e-01   5.9902416e-01   2.4624991e-02   6.5236412e-01  -1.6242013e-01  -4.3072386e-01   9.8768337e-01   9.0175426e-01   4.8164065e-01   6.7542172e-01   2.1965400e-01   7.5551537e-01  -8.1060041e-02   6.7404300e-01   3.6983572e-01  -7.2089570e-01   9.7550188e-01  -5.3682676e-01   8.8405529e-01   8.9915977e-02   7.1874990e-01   5.3402903e-01   8.7947498e-01  -3.1290375e-01  -8.0164531e-01  -8.9953257e-01   2.1983978e-01   9.2165841e-01   5.2519524e-01  -7.1978522e-01   4.7334362e-01   2.6205610e-01  -9.2439252e-01  -4.9951800e-01  -1.9658008e-01   9.3487344e-02   8.1413212e-01  -3.2600959e-01  -3.4423247e-01  -9.4550844e-01  -2.7549395e-01   4.4455466e-01  -4.6137758e-02   1.7163514e-02  -1.8356516e-01  -1.0947421e-01   6.4192697e-01  -9.5040081e-01  -4.0647587e-01   8.1992147e-01   6.4538475e-01   3.3894752e-01   7.1681946e-01   2.7534202e-01  -2.3020076e-01  -4.4250563e-01   5.5219354e-01  -6.9614856e-02   6.8000569e-01  -2.9684438e-01  -2.2994502e-01   8.9509480e-01  -8.3824695e-01  -2.5780804e-01  -9.0940058e-01   8.3650610e-01   7.2991766e-01   4.6461440e-01   3.1744898e-01   6.3359397e-01  -2.7388792e-01   2.4370587e-01   6.9491163e-01  -1.0993939e-01   8.5261455e-01   8.1389704e-01  -4.6617597e-01   4.5254242e-01  -4.8656076e-01   8.1832621e-01   3.5623079e-01  -3.9166049e-01  -1.3424578e-01   6.2993698e-01  -1.1184858e-01  -7.1365503e-01   1.6674247e-01   8.7736553e-02  -2.8287007e-01   1.7967317e-01   4.7758222e-01   5.7122703e-01   5.7525735e-01  -8.7707188e-01   5.2833965e-01  -9.2533649e-02  -8.5160186e-01  -4.9041411e-01   9.6542071e-01   5.5493266e-01   3.9151192e-01   5.8806425e-01  -2.5064062e-01   1.8239208e-01  -5.6163227e-01   6.0110390e-01   5.8957689e-01   3.6645023e-02   9.3199455e-01   1.2167391e-01  -2.7094945e-01  -7.4181507e-01  -8.1973722e-01   6.6418332e-01  -5.7080248e-02  -2.3219394e-01   7.0365746e-02   5.3726738e-01  -8.9717504e-01   8.9090886e-01   6.7221820e-01   6.4509893e-02  -3.5746241e-01  -8.4861029e-01  -3.4224645e-01   6.3439182e-01   2.5012529e-01   8.3071040e-01  -1.0809484e-02   9.5620974e-01  -6.1945343e-01  -5.9923336e-01  -8.6659121e-01  -4.1039683e-01  -6.6180550e-01  -8.2607693e-01   3.6191523e-01  -7.4492240e-01   7.9496262e-01   1.4292081e-02   4.1050363e-01  -4.8665924e-01   2.0336027e-01  -9.3864536e-01   1.1721682e-01  -4.5981885e-02  -1.2344609e-01  -3.2779195e-01  -7.3956315e-01   6.8583225e-01  -6.6000852e-01  -1.9310854e-01  -8.5260444e-01   1.4538146e-01  -7.4842716e-01   3.9819858e-01   1.4878219e-01  -5.2805856e-02   7.4335500e-01  -6.4304057e-01   5.8749846e-02  -6.5242198e-01   1.4676473e-01   2.1628609e-01   7.6374971e-01   5.8170415e-01   9.2959549e-02  -4.4563980e-01   3.2640448e-01  -2.7167393e-01   6.7019150e-01   2.8030810e-02  -9.5189955e-01   1.3412415e-01  -6.0267866e-02  -5.4231589e-01   1.6910938e-03   6.0116040e-01   9.7124587e-01   9.5990464e-01  -7.2253812e-01   3.3113515e-01  -2.1155023e-01  -5.0835148e-01   8.2536007e-01  -9.8224692e-01  -9.4269154e-01   6.9575373e-01  -6.9463738e-01  -7.5528276e-01  -9.6598282e-01  -5.3082459e-01   1.4580656e-01   5.4705508e-01   9.0999359e-01  -4.6249442e-01   3.7602407e-01  -8.6697874e-01   4.3923260e-01   3.0851452e-02  -7.9124179e-01   4.6026991e-01  -5.6919935e-01  -3.1801126e-01  -1.4771838e-01   6.6601052e-01   9.0221647e-02   3.8552646e-01   5.1521582e-01   8.6946864e-01  -2.0417911e-01   9.1932180e-01   9.2093219e-01  -3.7019312e-01  -7.6385106e-01  -2.0644058e-01   9.1879784e-02   5.2146757e-01   1.2903089e-01  -2.6460421e-01  -9.1589779e-01   7.1422479e-02   2.6104004e-01   3.5539927e-02   8.4303955e-01   3.7499127e-01   5.8461963e-01   3.4822466e-01  -6.4661173e-01   3.3983713e-01  -5.2623408e-01  -4.8362858e-01  -8.1650446e-01  -2.8096257e-01   8.5592272e-01  -2.2390402e-01   2.3082861e-03   1.7030858e-01  -8.9810009e-01  -3.1536806e-01  -8.5258741e-01  -5.2477211e-02  -2.4507274e-01   6.6062075e-01   4.9521401e-01   4.1401765e-01  -9.5728324e-01   2.1556149e-02   3.4479090e-01  -7.0211177e-01  -2.3318159e-02  -4.2268933e-01  -9.7923396e-01   4.7783448e-01   6.2208146e-01  -5.2644789e-01   6.5873896e-01  -5.8545132e-01  -3.0150571e-01  -2.6721679e-01   6.9431810e-01   1.7855793e-01  -6.2742919e-01  -4.5700235e-01  -7.2790760e-01   3.0966682e-01   4.6715421e-01  -1.3237513e-01  -5.0760613e-01  -4.5482790e-02   9.3677577e-02  -6.0485116e-01  -2.9552462e-01  -1.2398265e-01  -5.3560841e-01   1.3557636e-01   1.1856266e-01  -9.4865344e-01   9.6533222e-01  -2.2448354e-01  -1.1963519e-01  -1.9087691e-01   4.7790446e-01  -5.2454369e-01  -6.5409200e-01   6.9374814e-01   3.5017599e-01   6.8643464e-01   7.3839195e-01  -1.9671600e-01  -6.3119008e-01  -2.0971271e-01   6.5610516e-01   7.4916619e-02   4.3733797e-01   9.0781371e-01   2.3602811e-01   5.8068177e-01  -3.7954990e-01  -6.8121723e-01   8.9893274e-01   9.8805138e-01   4.1682434e-01  -2.8777348e-01   5.5641354e-01  -1.1918841e-01  -8.5627228e-01   6.0046108e-01   1.4802499e-01  -2.5105378e-01  -4.1741608e-01  -4.8082101e-01   8.0158418e-01  -5.1393884e-01  -9.3600916e-01   7.5566995e-01  -1.8899554e-01   6.5227231e-01  -3.4787653e-01   7.3300642e-01   7.0737063e-01  -5.3566181e-02  -2.3676070e-01   6.5303223e-01   1.2139784e-01  -6.7002436e-01  -3.7506852e-01   6.0230993e-01  -8.7736750e-01   7.5055025e-01   9.1081615e-01  -1.0006891e-01  -9.1441813e-01  -9.4691245e-01   1.1621754e-01   6.1536223e-02   6.1500379e-02  -6.8450583e-01   2.3169576e-03  -9.5117679e-02   6.9411277e-01  -6.6771192e-01   3.1192150e-01  -3.0913737e-01   3.9548148e-01  -4.6813108e-01   3.6364660e-01  -7.1075158e-01   9.1223922e-01   5.1299564e-01   4.8295854e-01  -2.9563069e-01   2.0771962e-01   2.0385960e-01  -1.8282821e-01  -7.3131246e-01   7.7439537e-01   8.8720298e-01   7.5203158e-01  -3.0058067e-01   4.0268512e-01   6.1113687e-01   5.0588751e-01   8.9643139e-01  -3.8512321e-01   6.0803063e-01   9.1997709e-01  -9.6343955e-01   6.2258655e-01  -8.3133064e-01  -5.9019634e-01   1.7271934e-02   1.1665055e-01   1.5041287e-01  -4.1053773e-01  -2.5121997e-01  -6.5729621e-01   2.8085766e-01  -6.6515533e-01   3.3965213e-01   1.8799551e-01   2.0245198e-01   5.0845923e-01   8.3610635e-02   3.8819914e-01   7.5148238e-01   5.4192402e-02  -2.7965592e-01   3.2943203e-01  -9.8926134e-01   7.3293283e-01   5.9374720e-01  -6.5568416e-01  -6.0385792e-01   2.2793621e-03   8.8310987e-01   9.1770036e-01   8.3767006e-01   4.2154977e-01   4.3922920e-01   8.7346589e-01  -7.6670131e-01  -4.0587599e-01   2.5429420e-01   9.6536185e-01   6.3548632e-01   4.0825149e-01   4.8852566e-01  -7.8242294e-01  -4.8759159e-01   2.1809514e-01   5.3257747e-01   6.7683605e-01  -2.7130426e-01   1.0234581e-02   8.0253957e-01   1.3868714e-01  -3.7523525e-01  -3.7142106e-01   5.4190948e-01   7.3321817e-01   8.3997148e-01   5.7855077e-01  -4.4175770e-01   4.6157309e-01   8.1664887e-01   4.3604546e-01  -2.1847256e-01   1.4340506e-01   4.9918268e-01  -5.4765226e-01   6.5046427e-01  -1.0748817e-01  -1.8486606e-01  -4.0183461e-01   8.2606742e-01   7.8621414e-01   5.3513861e-01  -7.3027940e-01   5.2550896e-01  -8.4932453e-01  -6.7128334e-01   4.2582982e-01  -2.2123714e-01   8.7423063e-01  -4.7284039e-01  -7.4771033e-01   9.2576327e-02   7.1441436e-01   9.4537768e-01  -4.3856285e-01  -3.6674339e-01  -9.7712792e-01  -7.7575002e-01   4.2194261e-01  -8.7206705e-01   4.9093385e-01  -5.6870092e-01  -9.2087727e-01  -4.1403006e-01   9.8685953e-01  -8.5418430e-01  -1.9568239e-01   9.4446277e-01   1.1285956e-01  -7.5097821e-03   1.1469575e-01  -8.2744384e-01   9.9623388e-01  -4.8442862e-01  -3.9092361e-02   2.9388282e-01   9.3592090e-01   6.6520646e-01  -9.6469568e-01  -7.8725072e-01   8.9829770e-02   1.4135946e-01   6.8866864e-01   1.3549562e-01   6.3825610e-01  -1.3322467e-01  -6.1740987e-01  -6.9398731e-01  -6.5851430e-01   3.8978894e-01  -8.1015434e-01  -3.2153049e-02  -9.3322788e-01  -9.5545984e-01   9.1695098e-01   3.5192202e-01   2.9440374e-01  -3.9529815e-01  -7.6834987e-01   9.1789995e-01  -3.8917150e-01   8.6230346e-01   4.1938649e-01  -9.7186056e-01   9.0216587e-01   5.1053882e-01  -7.8756704e-01  -6.6480315e-02   5.3837626e-01  -6.2305009e-02   6.9867313e-01  -3.2609881e-01  -7.6046612e-02   5.1661961e-01  -8.1168848e-01   8.9360881e-01   3.6085964e-01   5.9985891e-01  -7.1927262e-01   9.9001467e-01   4.3594357e-01  -8.1276593e-01   4.2099941e-01  -6.2437094e-02  -1.5430524e-01  -5.0963512e-02  -3.4857576e-01   7.1928345e-01  -4.4080158e-02  -7.8236902e-01  -6.4779618e-01  -9.2255399e-01   3.1739344e-01   8.1282936e-01   1.2563731e-01  -8.4694061e-01  -9.5644045e-01   8.1755437e-01   4.7352419e-01   3.7528148e-01  -2.4800172e-01   2.9290857e-01   1.1793702e-01   3.8782400e-02   5.6531108e-01   9.0451597e-01   6.8523508e-01   1.0415699e-01  -1.0572577e-01  -5.5882796e-01   9.6409972e-01  -3.9842455e-01   6.7902903e-01  -4.5509749e-01   7.9514995e-01  -2.5135223e-01   9.8017013e-02  -8.8971800e-01   3.8119226e-01   9.1491670e-01  -3.0119135e-01  -4.6452136e-01  -8.7750176e-01  -7.2614058e-01   1.4157649e-01   9.7688564e-01   8.7181018e-01   4.3878930e-01  -4.3148627e-01  -6.8955193e-01  -8.0926260e-02   4.1414307e-01  -6.7324907e-01  -2.1261590e-01   2.6513993e-01   4.1595833e-01   7.3476700e-01  -2.2758075e-01  -9.5688740e-01   9.7425783e-01   2.6832273e-01   8.5442360e-01   2.3996985e-01   1.7560892e-01   9.6767233e-01  -3.4724426e-01  -8.1605473e-01   2.8054139e-01  -5.2732612e-01  -8.3877912e-01  -4.9377268e-01  -1.9380985e-01   9.3815467e-02  -6.8785117e-01  -8.4241664e-01   2.7897625e-01   8.6760382e-01   3.9589496e-01  -3.2486233e-01   3.3780603e-01   7.9186295e-01   6.0819979e-01   7.2563398e-01  -7.7377813e-01   2.6089857e-01  -9.9483441e-01   7.6312716e-01  -5.2737694e-01   9.3794803e-01  -8.8782617e-01   3.1241877e-01   6.9250734e-01  -1.0634698e-01   5.9531230e-02   3.9445815e-01   6.9361354e-01   2.2076691e-01  -6.2301912e-01   1.2160660e-01  -7.2077505e-01   3.5951411e-01  -1.8903098e-01   4.9943457e-01   1.0006997e-01   2.7453110e-01   9.0587879e-01  -8.1810719e-01   3.3960726e-01   5.1502086e-01  -7.7611289e-01  -7.6944210e-02   4.6178022e-01   1.7129127e-01  -9.1443549e-01   9.5161796e-01  -2.9967939e-01  -1.8625952e-01  -4.6477158e-01  -7.6486892e-01   4.9329432e-01  -4.0011348e-01  -2.0883653e-01  -8.0439128e-02  -1.6300492e-01   2.0947645e-01   7.3354084e-01  -2.8593503e-01   5.8765991e-01  -6.0623159e-03  -4.7137454e-01  -6.3612763e-02  -2.9016516e-01   5.4258586e-01   8.7870354e-01   8.1648294e-02   1.9957588e-02   9.1805719e-01   6.6538742e-01  -2.8705998e-01   5.6945606e-01  -3.3796910e-01  -8.7097610e-01   6.2508959e-01  -9.8881423e-01  -4.9819517e-02   7.2119313e-01  -7.3584514e-01  -8.8598201e-01   9.8622557e-01  -7.3442698e-02  -8.3683715e-01  -6.1652747e-01  -7.8708436e-01  -5.2842340e-01   1.5633262e-01  -9.1782244e-01  -2.1759933e-01   5.2151760e-01  -1.0176070e-01   8.0114892e-01   9.5982173e-01   5.7205771e-01  -2.0879495e-01   8.7175360e-01   3.7246673e-01
