   5.3662578e-01   7.2424860e-01  -8.3778956e-01  -8.9682631e-01  -1.4098111e-01   9.9314635e-01  -9.2725291e-01  -5.3246138e-02   6.0431409e-01  -1.7188084e-01   2.9765842e-01   9.0379565e-02   9.8225379e-01  -2.0911738e-01   2.2512058e-01  -6.8107252e-01  -9.1730713e-01   4.2312287e-01   3.8009452e-01  -5.2997765e-01  -4.2600798e-01   5.2362507e-01   9.7873120e-01   5.7574038e-01  -6.9302038e-01   4.9218109e-01  -9.9512229e-01  -7.7816477e-01   6.2030444e-01   4.6464963e-01   8.9041682e-01   5.7952661e-01   3.3328127e-01  -9.4805558e-01   7.7653115e-01  -6.2248730e-01   7.8829186e-02  -8.5421198e-01  -5.5866502e-01   1.9926491e-01   4.5032826e-01  -2.2782970e-01   5.5413997e-01  -7.5169700e-01   5.9006658e-01  -9.7829482e-01   7.0644392e-01   2.4939566e-01   2.4005815e-02   9.1322095e-01  -1.9532300e-01  -7.7512754e-01   9.3086643e-01   3.4164905e-01  -2.7549572e-01  -2.4502575e-01  -8.8217075e-02  -3.6205914e-01  -6.1594096e-01  -1.8213357e-01   1.1614280e-03   1.2030325e-01  -7.6455940e-01   7.4153349e-01   3.7839290e-02  -7.5738960e-01   6.2000736e-01   8.1976886e-01  -7.8124104e-01  -2.4380562e-01   4.8929217e-01  -3.0497458e-01  -7.2116935e-01   2.4505988e-01   8.7305080e-01  -1.2862883e-01  -3.9212452e-01  -9.7270325e-01  -4.4024863e-01   7.8525733e-01   2.4004681e-01   8.8047435e-01   7.3050555e-01   8.2549917e-01   6.6672893e-01   7.8259870e-01  -7.8872476e-01   5.7348023e-01   4.2420053e-01  -8.2152194e-01  -7.9674170e-01   2.8314913e-01  -3.6635202e-01   9.7342128e-01   8.2339688e-01  -9.2804667e-01   6.4003454e-03  -6.1844641e-01  -4.7848517e-01  -3.0730440e-01   8.5418105e-01  -6.7056670e-01   8.5250189e-03  -5.8159272e-01  -7.1025855e-01   2.0617481e-01   5.0630146e-01  -4.1111519e-01  -4.1542718e-01   3.8073503e-01  -2.3768593e-01   1.5847379e-01   4.2806009e-01  -3.6600163e-01   4.5818852e-01   7.1896265e-01   5.5391263e-01   6.5186902e-01   8.5871738e-01   6.9277246e-01  -9.5727583e-01  -6.1640099e-01   6.5330483e-01  -2.2321840e-01   3.4401881e-01  -8.3387273e-01  -9.2573264e-01  -2.7231804e-01  -6.0956096e-01   8.1841567e-01  -8.5003564e-01   1.5151097e-01   5.9911712e-01  -3.0824483e-01   7.8216963e-01  -9.4285053e-01   5.8275291e-01   7.2877164e-01  -8.8725862e-01  -9.5663125e-01  -9.7604005e-01  -1.5020628e-01  -4.1794680e-01  -2.5087190e-01   5.3873304e-01   9.3869322e-01   8.3626871e-01   8.0815102e-02  -3.2581575e-01  -5.3695273e-01   8.7482997e-01   4.4330927e-01  -2.5093827e-01  -7.0606340e-01  -1.9347767e-01   8.3405665e-01   8.1640437e-01   3.9805012e-01  -7.5410569e-01   1.9991002e-01  -3.5744739e-02  -9.0282052e-02   8.1088903e-01   5.2933999e-01   7.6030683e-01  -2.2026106e-02  -6.6125961e-01   1.8122638e-01  -5.7843448e-01   5.9216904e-01   3.6417389e-01  -7.2663147e-01   4.2915664e-01   2.2262797e-02   4.7566980e-02   4.8752060e-01   2.4838330e-01   6.4606661e-01  -1.6687924e-01   8.0713204e-01  -2.2386311e-01   1.6042341e-01  -7.9956641e-01  -5.3180242e-02  -6.6926988e-01   5.2666821e-01   8.6661745e-01  -9.9943230e-01   6.4976174e-02  -6.4695983e-01  -1.3905040e-02   1.5237339e-01   9.2090502e-01  -7.4594833e-02  -3.8332236e-01  -8.9311625e-01  -8.3518361e-01  -1.1303720e-01  -6.0175131e-01  -7.0039642e-01   1.2097993e-01  -7.5754541e-01   2.0284935e-01  -9.4467688e-02   3.3438298e-01   2.3914504e-01  -8.8156208e-01   2.1189421e-01   9.5330008e-01  -4.2401129e-01   1.7774049e-01   8.5626640e-01  -3.9290412e-01   7.2664002e-01   6.5773249e-01  -8.3753137e-01  -5.2946245e-01   6.7739053e-01  -2.9393683e-02   9.2519808e-01  -6.6686246e-01  -9.2272175e-01   7.4508934e-01  -3.9553372e-01   7.6504524e-01   5.4698908e-01  -4.4512179e-01  -1.7009158e-01   2.6718691e-01   9.1507577e-01   4.5454730e-01   5.3135584e-01   1.8633521e-01  -9.6649413e-01   9.7188623e-01   3.7424154e-01   4.6730966e-01   5.2874620e-01  -1.0619230e-01   7.1472505e-01   4.1628826e-01   3.5691079e-01   1.0295610e-02   6.1081753e-01   6.0200060e-01   9.9363503e-01   8.7167847e-01   4.5014648e-01   2.9804934e-01  -8.7723793e-01   7.7627950e-03  -1.5850954e-01  -2.6805857e-01   5.2480803e-01   6.0994878e-01  -2.9443803e-01  -5.1922993e-01   3.1658346e-01   9.3094007e-01   7.3491799e-01   8.0663937e-01   8.9790669e-01   6.7264268e-01   4.1765747e-01   6.2321534e-01   2.1812541e-01   5.6356367e-01   7.7556678e-01   4.7202473e-01  -9.6471333e-01   1.5873487e-01  -5.1191342e-01  -1.9749527e-01  -2.0393484e-01  -4.5160093e-01   7.2734911e-01  -2.8277005e-01  -2.0784858e-01  -9.8573143e-01   1.8910059e-01  -7.4341934e-01   9.9210052e-01   6.3031772e-01  -3.6984018e-01  -1.0360704e-01  -2.2167187e-01   1.1190545e-01   1.1739030e-02  -6.5309014e-01   9.3983677e-01   8.7649351e-01  -9.4764685e-01  -2.0425448e-03  -6.6431142e-01  -3.4903373e-01  -8.5156166e-01  -9.4522020e-01  -8.5718344e-01   9.0975487e-01  -3.6517998e-01   2.9131990e-01   4.8105898e-01  -2.1364981e-01   2.0959650e-01  -1.8264587e-01   4.8234404e-01   8.4982429e-01  -2.8899999e-01  -1.7245630e-01   8.1048236e-01  -3.8922392e-02  -2.4654662e-01   2.8641344e-01   9.4894616e-01  -5.5139362e-02  -3.7658137e-01   3.0891926e-01   5.0022039e-01  -4.4953449e-01  -5.0498258e-01   3.7636939e-01  -6.5648095e-01  -7.7975007e-01   3.4126864e-01   2.6491495e-01   2.7547533e-01  -3.4458864e-02  -7.8163890e-01   3.7069118e-01  -6.2802850e-01   7.9711472e-01   8.5076679e-01  -4.3831920e-01  -5.2147833e-01   7.2203965e-01  -7.3594401e-01  -3.9965015e-01  -8.3796712e-01   7.4154681e-01  -4.0858530e-01   4.5781113e-01   3.1703591e-02  -3.5506599e-01   6.0413580e-01  -8.6959305e-01  -5.8371900e-01  -7.2901557e-01   8.8781732e-01  -3.3966275e-01   6.4994863e-01  -1.3746912e-01  -7.3147474e-01  -9.5864487e-01   6.7430142e-01  -5.4079892e-01   4.8838761e-01   5.9034396e-01   4.2355146e-01  -7.8586555e-01   5.4233560e-01   7.3778454e-01   3.1357816e-03   2.7311337e-01  -1.4514711e-01   3.4710510e-01   1.5163251e-01   3.2408248e-01   7.1023925e-01   4.1247623e-01  -1.1401234e-01   1.1344753e-01  -2.1768124e-01  -7.0340661e-01   7.7784284e-01   6.9431213e-01   8.9172675e-02  -3.0196438e-01  -6.0832942e-01   6.9640617e-01   7.1412173e-01  -4.1122699e-02   3.5290798e-01  -4.3839497e-01   1.5899320e-02   7.9834253e-01   6.4030411e-02  -6.6116878e-01  -5.8597028e-01  -7.4043122e-01  -8.3326282e-01  -8.2273136e-02  -6.8875194e-01  -1.5454990e-02  -7.8463767e-01   4.2868980e-01  -4.7716686e-01   8.2436292e-01  -3.7975835e-01  -7.6451914e-01  -2.9348391e-02   9.0659417e-01   9.0579393e-01   5.4340831e-01   9.3777206e-01  -5.2252867e-01  -4.4397654e-01  -8.4217860e-01   5.6388936e-01   1.4757782e-01  -3.5683774e-01  -9.4452402e-01   1.3026068e-01   1.8688432e-01   2.6134328e-01  -2.4827122e-01  -9.0226547e-01  -8.2697558e-01   6.0824354e-01   6.2090873e-01   6.5463837e-01   1.5015719e-01   2.0208568e-01   3.1314895e-01  -5.8125058e-01  -3.9024536e-01   1.7067694e-01   7.7640318e-01  -2.4482222e-01   3.7034308e-01   2.3849168e-01  -3.2367466e-02  -4.7193443e-03  -5.8612653e-01  -2.0039262e-01   2.1843919e-01  -9.4997823e-01  -6.5339774e-01  -6.8191811e-01  -8.3599472e-01   6.9406638e-01   9.4800023e-02   7.5513528e-01   3.2014996e-01   8.6159801e-01  -2.7755177e-01   5.2060253e-02  -4.7928862e-01  -3.0822387e-01  -7.8689342e-01   7.0937854e-01  -2.4058065e-01  -5.7008249e-01   1.2098258e-01   5.1786197e-01   2.2954577e-01   9.4719332e-01  -3.9748281e-01   3.0843369e-01   5.0929709e-01  -5.1541899e-01  -6.8884784e-01   3.7962259e-01  -6.4410028e-01   9.7842753e-01  -5.5190539e-01   3.8840379e-01  -3.7873863e-01  -8.5049425e-01  -7.7808803e-01  -6.8557631e-01  -7.8049921e-01  -3.4576665e-01  -9.0089664e-01  -9.6043077e-01  -3.1967114e-02  -9.3619816e-01  -8.4407426e-02  -6.2372040e-01   3.5567602e-01  -1.8007643e-01  -5.2974713e-03  -7.5796514e-02  -6.6496676e-01   7.2792313e-01  -8.0470874e-01   4.5998808e-01  -1.4097924e-01   6.1893235e-01  -3.5934400e-01  -3.7474533e-02  -4.4640289e-01   4.2994514e-01  -1.7028863e-01   6.7163399e-01  -1.6916991e-01   2.1706512e-01   9.5693163e-01  -2.0335118e-01   9.1965480e-01   4.4656573e-01  -4.1371940e-01  -2.3631638e-01  -4.8481659e-01   2.1975299e-01   9.4354537e-01  -1.8774123e-01   2.4034687e-01  -4.3251296e-01  -6.5459277e-01  -2.5961325e-01  -6.6181663e-01   7.0012536e-01  -2.8474119e-01  -6.0613417e-01  -5.6743164e-03   8.2551996e-01   4.1062934e-02  -6.9621473e-01   2.1269133e-01   8.7663502e-01   3.6369751e-01  -4.5114822e-01   7.9998100e-01  -4.2047864e-01   7.8849070e-01  -4.2837996e-01  -6.6475929e-01   8.7652966e-01  -3.0896727e-01   6.2602182e-01   8.8989305e-01   1.5321674e-02   5.1399966e-01  -7.6834949e-01   2.7249094e-01  -7.9297196e-01  -7.7930937e-01   1.1121309e-02  -7.5178580e-01  -8.1427380e-01   2.0223649e-01   5.4113011e-02   7.8688863e-01   5.9563344e-01  -7.5198402e-01   8.1594281e-01   5.5871003e-01  -8.2388919e-01   7.0130231e-01  -7.2909556e-02  -8.8724509e-01   6.6177553e-01  -3.7163105e-01   1.5556721e-01  -9.0271091e-01  -9.1603756e-01  -8.7687609e-01   9.1259573e-02   4.0252254e-02  -8.1061936e-01  -3.3365110e-01  -4.7798240e-01  -3.8089043e-01   7.8967744e-01  -8.3385642e-01  -9.8936709e-01  -2.3048401e-01  -8.4335711e-01   4.8305313e-01  -5.1058923e-01  -4.7965884e-01   2.9001628e-01  -1.0845205e-01   8.1895873e-01  -5.7304670e-01   2.4500329e-01   3.3213834e-01  -6.2337142e-01  -6.5970799e-01  -6.9867500e-01   3.6246307e-01   3.4354487e-01   1.8664069e-01  -9.5655713e-02  -8.8926321e-01   8.3858437e-01  -4.7505680e-01   4.2710367e-01  -1.0856399e-01  -5.0628045e-01  -6.5091148e-01   2.4531486e-01   6.1134931e-01  -2.9814088e-01  -6.2590821e-01  -4.9213072e-01   6.9464423e-01   5.5482089e-01   3.2789751e-01  -5.5809272e-03   4.5289770e-01   7.0675067e-01   6.5896209e-01   6.1684470e-01  -6.3358488e-01  -1.1634794e-01  -5.5360254e-01   4.9070865e-01   5.0564639e-01   2.5211441e-01  -6.3381632e-01   3.5158049e-01   9.7924012e-01  -5.1892565e-01  -9.7080396e-01   6.1086984e-01   5.8162889e-01  -4.7544890e-01   1.8302312e-01   7.8762846e-01   4.2703978e-01  -2.8475419e-01  -2.0463703e-01   1.1840515e-01  -1.8217026e-02   3.3203435e-01   2.5324356e-01   6.0373241e-01  -5.6185942e-01  -4.0365665e-01   5.9526490e-01   4.0859915e-01   7.4434044e-01   3.8496033e-01   3.4888325e-01  -4.1681859e-01  -8.2118740e-01   2.5771460e-01  -8.2534301e-01  -2.3722641e-01  -6.9628283e-01   4.1709537e-01  -1.0050560e-01  -4.9278913e-01   5.4427085e-01   3.2152554e-01   3.0669680e-01   8.1689737e-01   7.0842903e-01   7.9314940e-01   8.0162524e-01  -7.3930457e-01   8.8491912e-01  -1.9858937e-01   6.4855701e-01  -1.1512776e-01  -9.7313626e-01   4.3706705e-01  -6.9605863e-01   4.2379652e-01   8.1359643e-01   3.4310677e-01   3.6415229e-01  -2.3260099e-01   2.6037190e-01   1.6494561e-01  -6.7683863e-01  -5.7339937e-01   3.7506189e-01   2.9021044e-01   9.2924824e-01  -6.5449328e-01  -7.4123096e-01   3.3250245e-01  -4.1099112e-01   6.8688539e-01  -6.4688082e-01   2.8787719e-01  -2.6053047e-01  -8.9309920e-01  -5.1297117e-01   6.4451594e-02  -3.8338482e-01   2.9050075e-01   4.7196407e-01   5.6119124e-01  -1.3436436e-02  -4.1499607e-01  -2.9868401e-01  -7.0415270e-01   5.1942703e-01  -7.5506004e-01   5.4200869e-01   6.8287057e-01   8.2603580e-01  -8.7093371e-01   3.5214217e-01   3.2825307e-01   4.2009871e-01  -6.7937415e-01  -5.4072337e-01  -7.4059598e-01  -6.8401348e-01   7.6033715e-01  -4.9458493e-01   9.3352888e-01  -4.5710958e-01  -1.5084184e-01  -5.2203159e-01  -3.8345062e-01   2.4459777e-01  -2.2678333e-01   3.8364200e-01   5.0240834e-02   2.3773675e-01  -7.3728097e-01   5.0183034e-01   8.5528562e-01  -3.0509423e-01  -2.2237301e-01  -6.9498982e-01  -1.5846973e-01   4.9718533e-01   3.1375443e-01   6.8680932e-03   9.4365466e-01   9.7835816e-01   7.5402360e-01   5.7866575e-01  -5.6282750e-01   7.3062086e-01  -3.0953225e-01   4.9965789e-01  -5.1798593e-01  -7.4259695e-01   8.4205077e-01   8.0323721e-01  -1.2158356e-01  -8.5919300e-01   2.7828498e-01  -3.0373446e-01   4.4189970e-01   6.7856051e-01  -6.3795932e-01  -2.0613588e-01  -9.1332220e-01  -4.8131364e-01  -3.9289447e-01   9.4883911e-01  -7.2252589e-01  -8.3319177e-01   4.4939071e-01   5.0621179e-01  -4.5343959e-01   7.0435773e-01   8.2213117e-01  -2.5801000e-01  -9.6103790e-01   6.8774115e-01   9.9401135e-01   9.2047429e-01   7.3718930e-01   8.8204364e-01  -4.8504539e-01  -6.5487395e-01   4.6038616e-01  -2.7849051e-01   6.8869008e-01   9.9799913e-02  -9.7920934e-01  -1.0600131e-01  -7.0980615e-01   2.9364865e-01  -5.2320338e-01   8.2444671e-01  -4.6805946e-01   4.8764671e-01  -8.8490781e-01   4.4152791e-02   1.3442204e-01   8.1272862e-01  -7.8690278e-02  -6.8803494e-01   8.7502387e-01  -1.0710520e-01   1.9169531e-01  -7.4768750e-01  -1.3623730e-01  -6.1093376e-01  -6.7739058e-01  -9.0881870e-01   2.5054907e-01   3.5103367e-02  -9.7846995e-01  -1.3150984e-01  -8.2563829e-01   4.9520929e-01   5.3776004e-01  -1.2924975e-01   6.1850121e-01   7.3493774e-01  -9.2084323e-01  -1.5818800e-01  -5.8279736e-01   1.3824711e-01   5.0390271e-01  -9.4208185e-01   1.8568240e-01  -8.1851064e-03   6.5912713e-02   7.8533466e-03  -4.5349571e-01   8.4183892e-01   2.3017876e-01  -8.5704669e-01   6.4484827e-01   1.2227587e-01   7.6347893e-02  -7.9363998e-01   5.9789366e-01   6.2032476e-01  -2.6185604e-01  -3.9806171e-01   7.1890562e-01   7.1072341e-01   9.4219021e-01   4.0955286e-01   2.0327933e-01   6.1892813e-01   1.2770537e-01   8.2284138e-01  -5.1490781e-01  -1.2013589e-01   1.0662056e-01  -3.9883727e-01   2.5459553e-01  -3.9301185e-01  -4.7348056e-01  -9.2850255e-01  -4.3809063e-02  -1.3511106e-01  -8.0497509e-01   3.8639909e-01   7.6919611e-01   3.3663981e-01  -8.1886597e-01   3.9889156e-02  -2.5450776e-01   6.7173418e-01  -8.8187559e-01   2.0790511e-01   2.8445923e-01  -7.5505258e-01  -9.6919744e-01  -1.7183884e-01   2.3624265e-01   4.4202899e-01   3.4968785e-01  -2.2172398e-01   8.6785815e-01  -5.4236163e-01   4.1356355e-01  -4.9357740e-01  -7.2975318e-01  -4.4628310e-01  -9.5447710e-01   6.9509774e-01  -5.9149359e-01   4.9916714e-01   3.1679131e-01   7.8015584e-01  -2.1021108e-01   7.0220327e-01   9.3203839e-01   3.3171543e-02  -1.5300800e-01  -2.1534265e-01   6.7168715e-01  -3.6729253e-01   8.1940382e-01   7.4483866e-01  -9.7079263e-01  -2.6498036e-01   2.9210723e-01  -9.5879067e-01  -8.7839992e-01  -2.2057444e-01   9.8754195e-01  -2.6066808e-01  -4.8629652e-01   9.0237063e-01  -8.2015488e-01  -1.1652817e-01   9.6455086e-01   6.0714904e-01  -7.6146134e-01  -2.2497650e-01   2.0717512e-01  -3.3068236e-01  -1.2694982e-01   8.2006048e-01   9.3108568e-02   4.6643285e-01   7.7302839e-01  -2.8411475e-02   7.8180969e-01  -4.1949705e-01   6.4751608e-02   1.3253443e-01   1.9482306e-01   9.9765306e-01   6.4387232e-01   7.6208493e-01   1.6720261e-01   8.3205091e-02   8.3869955e-01   9.0423899e-02  -3.5562623e-01   2.2940415e-01   9.4131541e-01  -3.0511989e-01  -1.8707194e-01  -5.0863264e-02   3.9906635e-01   8.2206550e-01  -6.2040952e-01   8.8961428e-01  -2.0720284e-02   9.7065816e-01  -6.8733520e-02   7.8986843e-01  -1.1183733e-01  -2.1949725e-01   3.9794668e-01  -4.2144251e-01   4.1914173e-01   6.6155030e-01  -5.2052831e-01  -7.2176170e-01  -3.4743876e-01  -7.5499191e-01  -9.7663339e-01  -3.0458281e-01  -5.6914622e-01   9.7494895e-01  -1.4772201e-01  -9.0389459e-01   9.6715546e-01  -4.5725537e-01   8.8523020e-02  -7.5559407e-01  -5.4654688e-02   5.5700271e-01  -5.3993101e-01   1.4340811e-01  -7.1086106e-01   9.0236433e-01  -7.1216689e-01   4.8092218e-02   7.0980159e-01   4.6844574e-01  -8.7242564e-01  -5.2107501e-01   9.4580122e-01  -8.0607350e-01  -9.8526257e-02  -3.4323901e-01  -7.9799010e-01   9.8386644e-01   8.5137816e-01   2.7033453e-01  -2.4250302e-01   7.9535823e-01  -7.1876218e-01   3.9628969e-01   4.4104784e-01   3.5016238e-01  -6.8489874e-01   7.4873222e-01  -3.2200042e-01  -8.4627259e-01   4.1866456e-01   6.7416455e-01   3.0679495e-01  -1.7044794e-01  -4.1602211e-01  -6.6591440e-01   3.4101946e-03   8.1438514e-01   7.4241011e-02  -3.8493316e-01  -1.8932789e-01   5.0788537e-01   7.9503197e-01  -1.2824068e-02  -8.0196706e-01   4.0320291e-01   7.1240703e-01   6.6247292e-01   3.2470121e-01
