  -4.9897750e-01  -4.4738247e-01   7.1898960e-01   8.2012081e-01  -8.3700453e-01  -9.9102299e-01  -6.7662462e-01   4.7011769e-02  -2.0030593e-01  -6.8116379e-01   9.4536098e-02   2.5868113e-01   4.6191270e-02  -6.4632517e-01  -9.3720824e-01  -1.0466524e-01  -4.2342525e-03  -9.0261712e-02   9.4129500e-01  -6.9726509e-02   9.3616556e-01  -4.9128466e-02   8.7623815e-01   2.6030402e-01  -2.5563089e-01  -7.8419149e-01  -5.8110613e-01  -6.5503809e-01   3.4587529e-01   4.9004462e-01  -6.8024216e-01  -3.5291653e-01  -1.7766646e-01  -7.9243360e-01  -9.9864026e-01  -9.9787351e-03  -6.7365221e-01  -9.9933611e-02   4.5425136e-01   4.7840572e-01  -2.6551289e-01  -5.1050426e-02   3.2964744e-01   2.4255882e-01   7.9421414e-01   6.4536348e-01   2.7939540e-01   6.8790712e-01  -9.8197995e-01   8.1511245e-01   6.7647180e-01   6.7380723e-01  -1.0773712e-01  -8.3168730e-01   9.7240426e-01   9.2545456e-01   3.7375333e-01   2.3177612e-03   6.8971062e-01   5.0309605e-02   8.6259951e-01   5.3048706e-01   1.6987526e-01   2.6183642e-01   8.2577605e-01  -6.0846183e-01  -2.5022678e-01  -5.1720341e-01  -5.8830618e-01  -2.5928207e-01  -1.4586354e-01   8.1227722e-01  -8.4484219e-01   9.8876271e-01  -6.2633521e-01   7.0628727e-01  -8.8583966e-01  -6.8690315e-01   2.5430404e-01   5.1514504e-01  -9.2849144e-01   2.5759553e-02  -6.4725859e-01   2.7463302e-01   8.7590032e-02   9.0023047e-01   3.5344034e-01  -2.6362445e-01  -1.5686059e-01  -2.3088251e-01  -7.7454707e-01   4.6437967e-02  -5.0389242e-01  -8.6507491e-02   2.3538389e-01  -1.5827787e-01   1.5515934e-01   5.8373833e-01  -8.6725461e-01   6.6496361e-02   3.2933371e-01  -5.5412622e-01  -5.0942479e-01   7.4854342e-01  -7.9539111e-01  -4.0443862e-01   5.8670939e-01   6.7773220e-02   4.0973505e-01  -5.6000669e-01   6.8063709e-02   5.3159936e-01   5.5483967e-01   5.4504510e-01   3.2225414e-01   9.7617421e-01   5.8504412e-01   1.7118191e-01   5.0598387e-01   2.3095627e-01   1.2590952e-01   9.1443890e-01   7.0830780e-01   4.4905408e-01   8.9205671e-01   6.1003927e-01   2.7474496e-01  -3.4574627e-03   9.3055469e-01   1.7881559e-03   3.7180662e-01  -2.8456498e-02   9.3377323e-01  -6.3781684e-01  -9.6881963e-01   4.0387437e-01  -5.0452311e-01  -1.9504450e-01   5.9585520e-01  -8.4886715e-01   6.0821110e-01   1.9792106e-01  -5.3876917e-02  -3.4199985e-01   6.9025530e-01   6.6092331e-01  -3.8081431e-01  -7.8647859e-01   2.7958648e-01  -9.0712867e-01   7.4205481e-01  -7.2832560e-01  -7.1016743e-01   4.1639706e-01   1.0743231e-01   8.4395224e-01   9.2563101e-01   6.2819419e-01   7.2527914e-01  -8.9968339e-01   3.1626628e-01   9.0565483e-01  -5.9183184e-01  -3.3728601e-01   2.8037178e-01  -5.3087164e-01  -2.5817469e-01   3.1877034e-01  -2.2782516e-01  -2.1446161e-01   1.9522267e-02  -3.4685021e-01  -8.6406381e-01  -4.5156511e-01  -2.7818052e-01  -5.6728456e-01   6.6278048e-01   7.9296221e-01   4.9336845e-01   5.6241743e-01   9.7080461e-01  -4.9095892e-01   3.3787778e-01  -4.0527490e-01  -2.6586679e-01   6.4905480e-02  -2.2126604e-01   6.8566669e-01  -6.7007334e-01  -8.7980477e-01   5.2163178e-01   9.6901003e-01  -4.4673523e-01   8.0317294e-01   4.0489784e-01  -9.6753889e-01  -8.4335778e-01  -4.1414080e-01   4.2343805e-01  -7.6830148e-02  -5.5746499e-01  -1.7990749e-01   6.6845249e-01   5.7970086e-01   6.5863256e-01   3.9575895e-01   2.6606853e-01  -1.9955422e-01   6.2296572e-01   5.1437248e-01   1.1307622e-01  -5.7337876e-02  -2.0838122e-01   3.6732060e-01   1.5616122e-01  -1.7551227e-01   5.3678329e-01  -5.7334478e-01   6.4868411e-01   8.7569376e-01  -1.5736981e-01  -8.4918345e-01   5.4101935e-01   6.1456223e-01  -2.6490930e-01   6.4197864e-01  -4.6467607e-01   4.6245481e-01   7.0544886e-01  -5.0480641e-01  -2.8390975e-01   3.4591075e-01   1.9060294e-01   1.7774623e-01  -3.2148483e-01   9.7743467e-01   1.3538704e-01   4.7323094e-01   7.5281310e-02  -6.2357748e-01   6.4974571e-02  -7.9517931e-02   2.7388154e-01   5.3971920e-01   2.1605420e-01   4.4683155e-01  -5.3085816e-01  -3.2597774e-01   5.1729782e-02   2.9016958e-02  -3.8435356e-02  -5.5376152e-01  -6.1423482e-01   5.9203060e-01  -2.9874382e-01  -9.6271686e-01  -6.9488282e-01  -2.3679464e-01  -5.6508344e-01  -8.5852437e-01   3.2840445e-01  -9.1172822e-02   4.4648451e-01  -9.0584088e-01  -8.2086734e-01  -8.2915268e-01  -2.7851198e-01  -2.5005978e-01   8.3512707e-01   1.1483300e-01   9.9355182e-01   4.8371435e-01   9.5054548e-01   4.6224544e-01   2.8557022e-01   6.5553395e-01   2.7390112e-01  -5.0727875e-01   2.0145558e-02  -7.9521894e-01   8.2076080e-01   7.3732107e-01  -5.5244645e-01   3.8552140e-01   6.9392148e-01  -4.1037514e-01  -1.9590385e-01  -1.2547637e-01   7.2748372e-01  -8.1848191e-01  -7.7727116e-01   4.8224550e-01   3.1052915e-01  -7.0862799e-01   8.1175849e-01   3.7210877e-01   3.5731901e-01  -9.5535616e-02   7.8436825e-01  -1.2535472e-01   5.8944432e-01  -3.9344058e-01  -8.7158115e-01  -2.7239305e-01  -9.1549013e-01  -7.3951126e-01  -3.4831260e-01   6.8070406e-02  -1.7056232e-02   1.2603899e-01   8.0267787e-01  -6.8717549e-01   2.1118600e-01  -5.6704608e-01   8.7667413e-01  -1.3336815e-01   6.0005681e-01   9.8645569e-01  -7.4147904e-01  -3.3239060e-01   5.8108851e-01   3.6865724e-01  -9.4211876e-01  -6.6683878e-01   4.0963324e-01  -2.3226898e-01  -3.8955124e-01  -2.3103575e-01   7.8778857e-01   1.1539407e-01   2.1043803e-01   9.3823628e-01  -8.6638680e-01   4.0890597e-01  -1.4338131e-01   1.5773727e-01   1.6975133e-01  -8.5083055e-01  -7.7179666e-01   4.0338358e-01   1.9897034e-01  -6.1662304e-01   1.7682263e-01   4.6612318e-01   5.9865036e-01  -7.5327417e-01   5.1098284e-02   6.3660632e-01  -1.5533132e-01   5.1027736e-01  -8.7980301e-01   3.0397652e-01   6.6460953e-01  -3.5930828e-01  -3.8676112e-01  -6.2983097e-01  -2.8723999e-01  -7.3405711e-01   2.4401451e-01   3.4687245e-01   2.0445145e-01   9.6972397e-01   3.1970185e-01  -9.4549298e-01  -3.6535394e-01  -2.7537004e-01  -3.3868022e-02  -3.7509678e-02   7.3854693e-01   2.2843624e-01   9.3098886e-02   6.3806727e-02  -8.8025546e-01  -8.5350126e-01   2.0011232e-01   1.9706602e-01   8.7802622e-01   2.6598200e-01   4.4378434e-01   5.9086136e-02  -7.2776161e-01   3.3532315e-01   1.2937581e-01   7.8396873e-01  -5.2834693e-01  -8.6705045e-01   8.9765452e-01  -9.1810013e-01   1.5583478e-01   6.3502646e-01   5.7411211e-01   8.0145141e-01  -5.1376266e-01   1.9530130e-01  -2.6991710e-01  -2.4670948e-01   4.8510418e-01  -4.2351348e-01   6.6600346e-01  -8.9809274e-01   3.3073787e-01  -6.7640251e-01  -6.8959455e-01   7.4446482e-01   6.2425141e-01  -5.1581393e-01  -1.8637074e-01   5.5498814e-02  -7.7303395e-01  -8.7386365e-01   1.9962672e-01  -7.2769423e-01  -7.0207922e-01  -7.2456981e-01   7.3694854e-01  -6.9048094e-01  -7.9181568e-01   3.5333678e-02   1.5298786e-01   7.7782899e-01  -2.4413151e-02  -9.4914777e-01   7.7299748e-01   8.8634888e-01  -3.3110366e-01  -5.7067600e-01   3.5660477e-01   4.2524949e-01  -4.3747275e-01  -7.1365967e-01   7.6257436e-01  -2.4729708e-01   6.7150369e-01   1.5746606e-02   3.1491320e-01   3.5511106e-01  -2.1684292e-01   9.1758537e-01  -4.4495502e-01   7.7776384e-02   1.7247028e-01  -9.9294674e-01  -9.3784263e-01   2.5450555e-01   7.8335952e-01   6.2446285e-01   3.8089091e-01   2.0902677e-01   2.7116424e-01   2.4032806e-01  -7.1190090e-01  -4.7809127e-02   7.9864665e-02  -2.5803977e-01   7.7639554e-02   6.9898024e-01   8.8505247e-01  -6.7802981e-01   6.2707988e-01  -1.9445489e-01   2.7007314e-01   6.5801479e-01   7.4320363e-02   3.6091636e-01   4.4463028e-01   7.3620866e-01   7.1270732e-01  -7.3892422e-01  -5.1904020e-01   4.4458600e-01  -8.1521841e-01   1.2648972e-01   1.9751174e-01  -8.1898653e-01   1.7734338e-01   7.7789956e-01  -1.9522877e-01   5.3178819e-02   1.2211294e-01  -5.0800518e-01   1.9313123e-01   4.5309809e-01  -2.2941589e-02  -9.9557537e-01   9.4909816e-01  -5.4121589e-01   5.6340306e-01  -1.5703138e-01   6.3647149e-01   7.2358256e-01   6.3011410e-01   7.1773235e-02   6.7630126e-01   1.3730046e-01   2.2845064e-02   4.9676862e-01  -3.7915786e-01  -6.4248799e-01   9.6783042e-01   8.0029925e-01  -1.5447822e-01  -2.3834174e-01   3.6595470e-01   6.9308349e-01   1.5240306e-01  -4.2231493e-01  -9.5341393e-01  -9.8441237e-01  -9.9915287e-01   4.4810335e-01  -8.4955160e-01  -5.0408294e-01  -8.9776474e-01  -9.6263879e-03   5.6289967e-01   3.0779872e-01  -5.8773555e-02   7.6720301e-01   9.7789768e-01   7.6776312e-01  -3.7691789e-01   9.4923308e-01  -7.7417731e-01   8.6969094e-01   1.8194624e-01  -3.1597204e-01  -8.3036462e-01  -3.7312760e-01  -8.5745196e-01  -2.6803890e-01   5.6070517e-01  -8.8702673e-01   3.1154357e-01  -9.5214790e-01   1.1719234e-01  -6.7490544e-01   2.2549132e-01   3.2547730e-01  -3.5925925e-01  -2.2019472e-02   6.1144221e-01  -7.0585961e-01   8.0735642e-01  -9.6666638e-01   5.1016573e-01   1.1232521e-01  -8.1301934e-01   6.3600230e-01  -5.3311732e-01   8.5564890e-01  -8.1084608e-01  -9.6587045e-01  -3.8526620e-03   5.8569447e-01   3.5760259e-01  -3.0481134e-01  -6.0465412e-01  -9.2334343e-02   2.1940212e-01  -7.7078106e-01   2.3302365e-01  -8.6922312e-02   9.1978430e-01  -1.1896634e-01   4.8445049e-01  -9.4272429e-01   9.8600922e-01  -9.2473042e-01  -9.8559119e-01  -8.0188561e-01   4.0119719e-01   4.0517291e-01   5.8037158e-01  -6.6084587e-01  -3.2320046e-01  -7.1770834e-01   9.8589867e-01  -1.8506828e-01   1.8973281e-01   4.8642807e-01   4.9142635e-01   6.5531414e-01   5.8727765e-01  -1.4032034e-01  -7.4151144e-01   1.7885150e-01   3.4117010e-01  -5.7284034e-02  -1.1669457e-01   2.4615976e-01  -5.2990462e-01  -6.7083561e-01   3.1750541e-01  -9.6853985e-01   2.7497086e-01  -6.4522482e-01   6.4758823e-02  -1.9361437e-01  -8.8518031e-02   3.0370566e-01   6.9717785e-01  -8.6879749e-01   8.3884905e-01   7.9194462e-01   8.6805400e-01   6.5011619e-01   4.6601023e-01   1.1644564e-01   6.3990015e-01  -3.3593544e-03   8.9812633e-01   9.5895747e-01   5.3585559e-01   1.8599441e-02  -2.0543044e-01   8.6513101e-01  -3.7992504e-01   5.3753463e-01  -7.4556010e-01  -3.2010607e-01   6.1516514e-01   5.2807649e-01  -3.0171683e-01  -3.3294799e-01  -4.1755368e-01   4.6493470e-01  -2.5111491e-01   1.3407258e-01   4.5629456e-01  -1.3586279e-01  -6.7259275e-01  -7.5815213e-01   6.9360416e-01  -6.8552590e-02   7.5591570e-01   7.5948077e-01  -6.8666055e-02  -9.5815857e-01   4.9872037e-01  -6.9476938e-01  -8.0760076e-01  -7.2686259e-01   9.7341057e-01  -3.0416795e-01   2.1122988e-01   2.4080489e-01  -6.5897713e-01  -4.2367211e-01   7.2921246e-01   1.0019730e-01   4.9786742e-01   8.5696119e-01   2.3308765e-01   4.5576586e-01   2.0782302e-02  -5.4714496e-01   7.7962610e-01  -6.3165784e-01   1.5736117e-01  -6.5833268e-01  -3.3231855e-01   9.2973974e-01  -6.2322480e-01   5.1553898e-01  -9.5110127e-01   2.7907232e-01   7.6182147e-01   8.1908351e-02   4.6458321e-01  -8.9653497e-01  -7.2977119e-01  -1.5729746e-01  -4.6937694e-01   9.7562492e-02  -7.6936029e-01   4.4619590e-01   3.8769132e-01  -6.4031956e-01  -8.6317598e-01  -2.0059195e-02   1.5636812e-01  -1.7234299e-01   5.1698332e-01  -4.8929214e-01  -3.4921842e-01   8.0118264e-01  -5.0536618e-01   9.0536030e-01   2.6567658e-01  -6.2440461e-01   2.2796713e-01  -8.2674140e-01   5.5408283e-01   2.7808877e-01  -2.3444135e-01  -3.4329052e-01   5.7584751e-01   5.7815815e-01   2.2118252e-01   2.1779404e-01  -2.5379222e-02   4.8402077e-01   5.8332612e-01   8.4246884e-01  -6.2484312e-01   6.2532808e-01   8.2141362e-01  -4.1709146e-01   4.3246405e-01  -9.1304841e-01   4.1883793e-01   9.5233549e-01  -4.1778910e-01   3.3178536e-01  -3.2530908e-01  -6.6152865e-01   4.8849091e-01   7.4463247e-01  -6.3516907e-01  -4.3613575e-01   8.4491682e-01  -9.8026080e-01   9.5378677e-01   3.2453315e-01  -2.9226241e-01  -9.6551790e-01   3.0828482e-01  -3.5904097e-01   9.0221837e-01   1.6680590e-02  -6.0047345e-01   8.9255471e-01  -4.3045132e-01   6.5794392e-02   1.7381750e-01   4.8147944e-01  -2.7418606e-02  -6.7441824e-02   4.7899977e-01   4.7332234e-01  -6.2563245e-01  -2.5379241e-01   6.4134437e-02   4.3674674e-01  -1.0984117e-02   2.2896341e-01  -4.9845031e-01  -1.1799392e-01   3.7677247e-02  -8.7078904e-01   4.9552824e-01  -7.7811555e-01  -7.1734400e-01  -7.1096762e-02  -1.8792497e-02  -8.6299971e-01   1.0461552e-01  -7.9786142e-01   9.5912482e-01  -7.7043388e-01   8.4790382e-01  -8.5692864e-01   3.6995779e-01   7.2030051e-01   2.0350478e-01  -2.2960731e-01  -1.3837044e-01  -5.1904861e-01   7.6004884e-01   4.6433917e-01   2.9007801e-01   6.7462187e-01   8.2352862e-01   3.9151896e-02  -8.4474400e-01   4.4428948e-01   7.8935083e-01  -6.2636902e-01  -3.9382513e-01  -8.9962601e-01   3.4361130e-01  -2.3680359e-01   4.3995688e-01   5.9234967e-01  -1.8450289e-01  -2.1684220e-01   9.3475599e-02   1.7737394e-01   3.2410760e-01  -2.2391112e-02   1.4615176e-01   4.6276107e-01   4.2778360e-01  -5.4501100e-01  -2.8403043e-01  -8.0133187e-01   5.2735540e-01   4.5481977e-02  -3.3592723e-01   7.6653909e-01   7.8000231e-02   9.4760353e-01  -6.9514029e-01  -8.5888348e-01   2.7320914e-01   1.0321854e-01   1.7372781e-01  -7.4935927e-01   7.9511989e-01   5.4825101e-01  -7.9543180e-01   8.7724504e-01   4.4009993e-01   6.4990341e-01   3.4946911e-01   4.0326791e-01   3.7923989e-01   5.2764313e-01   4.3539751e-01   6.8350613e-01  -6.6347589e-01   6.7880733e-01  -3.1896862e-01   3.3158689e-01  -3.1614395e-02   4.0562991e-01  -7.6349333e-01  -7.9956241e-02  -5.7441257e-01   1.7768996e-01  -6.4378984e-01   9.4033589e-01   2.2101506e-01  -3.6240865e-01   6.5763674e-01  -4.9149389e-01  -6.8749305e-01  -6.3643991e-01   2.6357674e-01   4.9221660e-01  -2.3755214e-01   3.4203381e-01   3.0955424e-01   2.7785347e-01  -4.4130741e-01  -2.9741090e-01  -7.4991062e-01   7.0963718e-01   5.8224509e-01  -5.3706325e-01  -4.6230814e-01  -9.9155950e-01   2.3730340e-02  -7.9011976e-01   1.3950315e-01   8.6428817e-01  -2.5903950e-01   3.5353726e-01   7.7815381e-01  -7.6454329e-01  -7.7079000e-01  -8.9185223e-01   1.2510800e-01   4.6014690e-01   9.7051869e-01  -4.5125996e-01   9.4629037e-01  -9.8001234e-02  -6.8594757e-01   9.9435733e-01  -6.9293153e-01   4.7518033e-02  -6.5178658e-02   7.0173545e-01   7.7638115e-01   7.4062941e-01   8.2491819e-01   4.1508964e-01  -1.8601475e-01  -4.2938311e-01  -1.7945699e-01   3.7557807e-01  -9.8708215e-01  -5.4187296e-01  -7.8251406e-01  -3.0370240e-01  -3.4352012e-02  -2.2701342e-01  -6.7409239e-01  -6.5532938e-02   7.3158040e-01  -4.1568420e-01   8.4238248e-02  -2.1127947e-01   9.3125718e-01   7.4134639e-01   3.0820758e-01   6.8665417e-01  -8.6005211e-01   3.2229683e-01  -9.3047190e-01  -1.7567992e-01   8.9435829e-02  -6.5452323e-01   3.5569158e-01   2.2065835e-02  -3.9681137e-01  -5.7209152e-01  -3.2985445e-01  -2.8394742e-01   4.8726050e-01   3.7635004e-01  -3.9598994e-01   6.1029350e-01  -5.0072714e-01   1.2239537e-01  -6.9825291e-02  -3.2378826e-01  -7.9864312e-01  -3.8167672e-01   9.9079851e-01   5.2738442e-02   8.9339238e-01  -4.7446833e-01   2.3187072e-01  -1.9153484e-01   8.5661994e-01  -6.5007732e-01   9.0190415e-01  -9.6510084e-01  -5.9451266e-01  -9.7899156e-01  -6.4747053e-01   2.3134142e-01  -5.7814586e-01   1.2596716e-01   5.4410151e-01   8.1163293e-01  -2.1065090e-01  -1.2049665e-01   2.3673052e-01   8.9459112e-01   9.8206747e-01  -6.3732942e-01   7.4265652e-01   7.5492987e-01  -6.7695215e-01  -4.9694928e-01   3.2547514e-01   7.4289389e-01  -6.5178063e-01  -4.8082229e-01   7.1849360e-01  -5.3312933e-01   8.8271541e-01   4.8161992e-01  -1.4719409e-01  -7.2865176e-01  -1.6487249e-01   4.9439518e-01  -3.2664083e-01   1.4321291e-01   5.0601359e-01  -7.5022447e-01   1.7480877e-01   6.6780968e-02  -1.4602647e-01  -3.0454443e-01   8.0443956e-01  -5.9057093e-01   7.5889166e-01   6.5187748e-01  -2.0916331e-01  -9.3729438e-01   8.3518574e-01   7.3973471e-01   8.8211202e-01  -2.6918160e-01  -2.3911071e-01   6.7709458e-01   7.5665244e-01  -6.3481674e-01   8.2849899e-01  -8.4871274e-01   1.2404931e-02  -7.5102699e-01   5.3293738e-01  -1.4030016e-01   1.6103053e-01  -6.2509711e-02  -2.9970324e-01   6.9928002e-01   3.5575266e-01  -8.4704372e-01  -3.2232800e-01   5.2754813e-01   1.9344222e-01  -3.4951887e-01  -8.7366661e-02   9.9511524e-01
