   9.7655502e-01  -6.6513208e-01  -5.9926675e-01   1.9449541e-01  -8.1250140e-01  -8.6117509e-01  -3.9329270e-01  -8.7482313e-01   8.1454364e-02  -5.3477431e-01  -4.4632652e-01  -3.8650120e-01  -2.1006702e-01   2.4745305e-01   1.9421124e-01  -9.0879584e-01  -9.3749021e-01  -4.5162372e-01  -1.6358623e-02   5.8447308e-01  -1.2844655e-01   7.4113476e-01   9.0838645e-01   2.8492922e-02   9.2892239e-02   1.3320415e-01  -3.1153036e-01   6.0710469e-01   4.1586012e-01  -8.0354938e-01   2.8906778e-01  -3.7846713e-01  -4.6467574e-01   9.1273765e-01   4.8970525e-01   8.6697387e-03  -3.7417937e-01  -2.2261442e-01  -1.3623443e-01   8.2731250e-01  -6.1309530e-01  -5.3987321e-01   9.6089252e-01  -4.4414959e-01  -1.9246199e-02  -4.0976148e-01  -7.1872662e-01   1.1539859e-01   2.2433623e-01  -9.5375012e-02  -9.2621150e-01  -7.8579498e-01  -2.5515703e-01  -1.3951370e-01  -1.8809819e-01  -4.6188870e-02   2.2440653e-01   5.7082169e-01   5.1666050e-01   2.0835938e-01  -1.2033253e-01   4.8313773e-02   1.2164982e-01  -6.7030768e-01   2.0761450e-01  -1.5709468e-01  -5.1087941e-01   2.6847835e-01   3.7999858e-01  -5.9610743e-01  -9.0491697e-01   5.5839910e-01  -1.4898887e-01  -9.6031069e-01  -1.2936367e-01  -4.6719245e-01  -2.9602350e-01   1.6605057e-01   3.5636604e-01  -9.4856894e-02   9.3046589e-01   2.3597054e-01  -9.0789217e-01  -7.8527140e-01   5.5791259e-01  -7.5922447e-02   5.5190620e-01   3.5684445e-02   1.4220579e-01  -5.3728748e-01   1.2207301e-01   6.7451351e-01  -6.1220668e-01  -5.9088724e-01   3.2323161e-01  -1.1608433e-01  -1.7411379e-01   3.3098276e-01   8.4678020e-01  -2.5246561e-02  -5.5095005e-01   5.2126506e-01   7.2205419e-01   1.7410727e-01  -1.3649478e-01  -9.1024041e-01  -5.3569988e-01   3.7194008e-01  -9.0556673e-01  -7.3592118e-01  -4.4201914e-01  -2.0244116e-02  -6.7725860e-01  -4.8203543e-01  -6.0351722e-01  -6.2838055e-01  -8.5678311e-01   9.3463360e-01  -9.2880828e-01  -5.5411065e-01  -4.8157837e-01  -4.3679636e-01  -6.9591418e-01  -2.2792781e-01   6.0709391e-01   7.1178461e-01   9.6576184e-02   4.6028791e-01  -6.7260071e-02  -3.3777623e-01   6.5897789e-01   8.6714945e-01  -6.0529168e-01  -2.2608134e-01   3.5546418e-01   5.3231201e-01  -6.4955804e-01  -3.5084223e-01  -1.8752042e-01  -4.9881969e-01  -1.2225470e-01  -5.5857590e-02   7.0333440e-01  -1.3675498e-01   5.5147970e-01  -2.2292578e-01  -5.0042270e-01   3.2432490e-01  -2.4658275e-01  -6.3057808e-01  -8.5311623e-01   5.8025157e-01  -2.9657935e-01   2.5957837e-01  -1.8115144e-01  -9.1247507e-01   1.6873306e-01  -8.4809355e-01   4.3143888e-02   6.4035106e-02   8.1194121e-01  -3.1268985e-01   5.4357560e-01  -7.6353640e-01   6.9519933e-02   8.8882972e-01  -2.5587560e-01   8.0987936e-01  -8.7524312e-01   7.6995102e-01   4.6652328e-01  -1.7131661e-01  -9.6258208e-01   8.1894923e-02  -8.3619308e-01  -5.7752301e-01  -2.6608600e-01   1.5036794e-01   2.2069701e-01  -1.7750681e-01  -1.6032248e-01  -4.0468916e-01   4.1202211e-01  -6.6251401e-01  -8.8894516e-01  -8.8822828e-01   7.6345749e-01  -8.4367118e-01   3.0939459e-01   9.6258112e-01   2.3234356e-02  -9.6869532e-03   1.4565492e-01  -6.2426322e-01   5.5915020e-01   8.0965316e-01   8.4985276e-01  -4.8774930e-01  -9.9307162e-01   2.7569810e-01  -9.7135709e-01  -2.1755767e-01  -6.3258775e-01  -7.8219014e-01  -7.9392385e-01   2.8041360e-01   2.4474892e-01  -6.4308662e-01   6.1620334e-01  -3.3446630e-01   4.7828344e-01  -5.4309103e-01   3.3706616e-01   4.4622813e-01   7.1008042e-01   9.9820862e-01   5.4518242e-01  -9.1698141e-01  -5.3034750e-01   9.1710114e-01   3.5793905e-01   2.3648522e-01  -1.2138971e-01  -4.4934373e-01   1.3130400e-01  -6.6390206e-01   4.2139450e-01  -6.9290993e-01   6.9418481e-01   2.4587496e-01  -9.0150211e-01  -8.3758761e-01   1.8531545e-03   6.3968230e-01  -1.6795407e-01   2.2590702e-01  -3.4543614e-01  -7.4204648e-01  -8.6495326e-01   2.2836729e-01  -4.7966434e-01  -3.9007568e-01  -2.1055143e-01   6.9005433e-01   5.8255687e-02  -4.6786464e-01   3.5402528e-01  -6.3715530e-01  -3.6189978e-01  -2.7970022e-01  -9.2026648e-01  -9.3095773e-01  -7.6583731e-01  -1.8463821e-01  -1.1548519e-01   8.6587000e-01   7.8114682e-01   6.2437445e-01   4.6458453e-01  -5.2636551e-01   7.2384746e-01   7.2512458e-01  -6.1885083e-01   5.7114682e-01  -6.8230057e-01   5.8868123e-01  -3.8554360e-01  -8.1627282e-01  -6.8897155e-01   6.4594661e-01  -7.4883231e-02  -1.4124984e-01  -3.1977048e-01   4.4527255e-01   2.8252032e-01  -3.9902655e-01   7.4081635e-01   4.9289475e-01  -3.4051202e-01  -3.6855430e-01  -9.2090021e-01  -2.9390465e-02   3.3972187e-02  -8.8832578e-01  -9.5806492e-01  -3.3993227e-01  -2.5917538e-01  -8.6414450e-01   5.1358073e-01   4.7499960e-02  -7.6796519e-01   7.8552626e-01  -9.8605366e-02  -4.2055282e-01  -1.5531608e-01  -1.1728805e-01   6.7932835e-01  -3.9218047e-01  -2.7247145e-01   8.3680458e-01  -4.1702987e-01   4.6944273e-01   4.1019245e-01   9.2679533e-01   8.4874774e-01   5.1951447e-04  -7.4174006e-01   5.6633684e-01   1.7326856e-01   3.0251102e-01  -1.3636275e-01   2.3957480e-01   8.6388279e-01  -6.0904531e-01   7.5788786e-01  -1.5249587e-01  -9.6999481e-01   1.3230792e-01   3.3272412e-01   5.1058767e-01  -9.0656782e-01  -7.4325994e-01   9.4343019e-01   3.9228039e-01  -2.2407508e-01  -3.6954130e-01   3.4094814e-01  -5.8637579e-01  -2.4979089e-01   9.9333438e-01   6.1122703e-01   6.9957877e-01  -2.5337552e-01   4.5515996e-01  -4.0264925e-01  -2.0776915e-01  -3.7695216e-01   3.4852535e-01  -8.2361610e-01  -2.1587225e-02  -4.6149901e-01  -4.9021778e-01  -2.5317135e-02   4.9683644e-02  -7.4942464e-02  -8.1744107e-01  -3.1651041e-01   5.2734544e-01   9.8238201e-01  -2.4328849e-02   5.4694354e-01   4.0935478e-01  -4.8944094e-01   1.5824058e-01   3.8895600e-01  -9.1976537e-01  -7.8928046e-02   4.7062332e-02  -3.1389349e-01  -7.9043404e-01   9.7543085e-01  -1.0991027e-01  -3.6099394e-02  -5.4020041e-01  -4.1008363e-01  -1.0839430e-01   5.5865672e-01  -9.8221292e-01   3.9856034e-01   2.4059116e-01   5.5530065e-01  -4.1254022e-01  -7.4194533e-01  -5.9615676e-01   7.7252336e-01   5.4788076e-02  -6.5900900e-01  -2.5903092e-02   4.1184596e-01   1.9373586e-01  -1.2815028e-01   3.3378974e-01  -3.7884136e-01  -4.0864096e-01   2.5478596e-01  -5.5923320e-01   6.2892584e-01   2.3288146e-01  -7.6537454e-01  -7.8707795e-01   9.6843088e-01   4.2508441e-01  -2.1379981e-01  -6.5523617e-01   2.4381241e-01   1.5557179e-01   2.3571848e-01   5.9128529e-01   7.3687118e-01   4.5025480e-01  -2.6534680e-01  -7.7297667e-01   2.1197588e-01  -1.3602664e-01  -5.5768751e-01   9.1924070e-01   4.1585329e-01  -2.3172963e-01  -3.9887330e-01   2.2249219e-01  -8.3851911e-01  -3.4956102e-01   2.2508554e-01   4.6834501e-01  -7.9456373e-01   6.9196578e-01   7.6438957e-01  -1.1816390e-02   8.3963674e-01   3.3791020e-01  -3.4099001e-01   9.9886504e-01   2.3153965e-01   4.5976045e-01   8.5256903e-01  -8.4697908e-01  -4.1734645e-01   1.2098091e-01   5.8781168e-01  -6.3297301e-02   8.9523588e-01  -8.3549260e-01   9.5413801e-01  -7.5878581e-01  -1.1997420e-01   6.7671859e-01   5.2485551e-01   1.3963213e-01   1.8979245e-01   8.3798522e-01   9.2628598e-01  -2.7181079e-01  -2.2431780e-01  -5.7941075e-01  -2.3898936e-02   1.2039289e-01   2.8802728e-01   1.7071978e-01   7.3454724e-01  -7.6585883e-01  -9.2479430e-01  -6.0111434e-02   5.3815951e-01   3.5439511e-01  -4.5924790e-01   6.1160900e-01  -5.0428093e-01  -9.0868026e-01  -5.2307968e-02   8.6312734e-01   8.9424853e-01   7.7184730e-01   7.4165500e-01  -9.9826287e-01  -2.0018348e-02  -9.4408196e-02   5.6431445e-01   1.8435931e-01  -6.4820671e-01   7.0283225e-01   9.0954112e-01   4.9602210e-01  -7.5293390e-01  -3.4441640e-01  -8.6604041e-02  -1.3537858e-01   4.5167744e-01   3.8030912e-01  -4.9401598e-01  -6.0283659e-01   7.5229879e-01   7.0239355e-01  -9.3016396e-01   1.1415616e-01  -9.5858635e-01  -2.0298318e-01   5.3992166e-01  -4.7722787e-02   9.6118786e-01  -5.3670747e-01   1.4414804e-01  -5.6922690e-01   1.4002927e-02  -2.7279812e-01  -7.0544882e-01  -1.5988151e-01   5.1055401e-02   2.6741052e-01   5.9476381e-01   4.7251385e-01   9.7396923e-01  -4.4262631e-01  -7.2079305e-01   3.4294439e-01   3.5064869e-01   9.6964277e-01   9.3918494e-01   3.4140257e-01  -9.7823032e-01   5.5402362e-01   6.7905227e-01   1.5125220e-01  -3.7497223e-01  -5.9603078e-01  -3.7336919e-01  -6.8731061e-01  -3.4406985e-01  -1.3928639e-01   1.3310772e-01  -6.0169855e-01  -1.5119180e-01  -2.0178113e-01   1.7973208e-02   9.0542828e-01  -2.2977486e-01   7.0525125e-01  -2.5660806e-01  -5.2088968e-01   1.4200626e-01   2.7372382e-01  -2.0233466e-01   9.0547219e-01   8.7094215e-01   9.0424642e-02   8.3989587e-01  -9.9567329e-02   5.6350900e-02   1.4744580e-02   7.6294292e-01   7.9395338e-01  -2.8295038e-01   6.8498727e-01   4.6949818e-01   6.2457561e-01   2.4813862e-01  -1.4279283e-01   2.7714100e-01   7.0628263e-01  -6.7948143e-01   9.7466251e-01   5.2631516e-01   5.4281637e-01   2.0280393e-01  -4.5294467e-01   7.1469855e-02  -9.4482131e-01  -9.4193837e-02   1.7125167e-01  -9.2581097e-01   2.8151988e-01   1.5714572e-01  -6.5003327e-02  -2.4014427e-01  -7.9917873e-02   3.6078595e-02   6.6275387e-01  -1.4506637e-01   5.0823441e-01  -3.3974100e-02  -8.2359105e-01   6.7172251e-01   8.7732179e-01  -4.2041674e-01   7.6483969e-01  -4.6115786e-01   3.9781639e-02   7.8385751e-01   3.8878908e-01   4.5858204e-01   4.7142024e-01  -9.6826230e-01   7.2746585e-01  -9.7292015e-01  -2.8785855e-01  -2.5773152e-01  -2.0442842e-01   1.2719174e-01  -1.7781089e-01  -9.8117154e-01  -4.3454122e-01   1.7756183e-01  -7.9200739e-01  -5.9079505e-02   4.9556973e-01  -6.0620520e-01  -5.3159249e-01   8.5137833e-01   4.9070268e-01   5.8272953e-01  -9.2431491e-01   9.2729101e-01   9.6905314e-01  -1.7545248e-01   8.3666348e-01  -5.6397265e-01   2.4903257e-01  -4.5385014e-01   5.8446979e-01   7.8065115e-01   7.9204621e-01  -8.0786056e-01  -4.8662716e-01   2.7522638e-01   7.8889509e-01   8.6737119e-01  -4.1330378e-01   7.1862211e-02  -8.6077883e-01   2.4058695e-01  -3.2097338e-01  -4.5679937e-01   8.4516980e-01  -5.8826117e-01   6.1675039e-01   4.3523948e-03  -9.2568250e-01   9.9537631e-01   8.2552482e-01   3.0943232e-01   2.4256710e-01  -6.9797255e-01  -4.0338370e-01  -9.1771942e-01  -3.6251210e-01   6.2974032e-01  -9.2858097e-01  -3.2962664e-01  -8.0004735e-01  -4.6343231e-02   2.5081112e-01  -1.0619196e-01  -9.9885230e-01   9.0356447e-03   4.0139964e-01   5.7125397e-01   6.0676272e-01  -3.9689594e-02   9.8840850e-01   7.5615635e-01   9.6710869e-01   8.3783825e-01   7.5199213e-01   9.8538471e-01  -6.9520633e-02   3.5499611e-01  -7.8924648e-01  -9.1991723e-01  -3.8913560e-01   3.0576198e-01   1.4307208e-02   8.9578830e-01   7.4461244e-01  -1.2471661e-01   2.6911684e-01  -1.1811216e-03   5.6307943e-01   1.7335089e-01  -4.5206516e-01  -2.9330455e-03  -8.8990222e-02   1.3435844e-01  -1.1229881e-01  -6.8684372e-01  -3.6359922e-01   4.2051673e-01   4.7461591e-01  -5.1422549e-01   8.2688751e-01  -1.1873554e-01  -7.3524966e-01   9.7941531e-01   5.9894030e-01   6.2334670e-01   7.8092599e-01  -4.7044211e-01   7.2854853e-01  -9.3144743e-01   2.2077631e-01   1.8034036e-01  -4.4029803e-01  -6.0111428e-01   7.5837983e-01  -1.6872163e-01   8.7806028e-01  -6.2157960e-01   4.4690301e-01  -1.2820934e-02  -8.8037444e-01  -9.9865450e-01   2.8225995e-01  -5.4149885e-01   3.3241582e-01   6.8913056e-01   4.2575791e-01  -7.7903257e-02  -9.9592522e-01  -8.9114209e-01  -8.6112880e-01   1.6226460e-01   1.8663535e-01  -2.9422628e-01   6.7210756e-01   2.8282281e-01  -7.7924234e-01  -6.0965952e-01  -5.6154298e-01  -4.1510550e-01   8.2413799e-01  -8.3327185e-01  -4.9042135e-01   9.0191445e-01  -8.9457668e-01   8.5423421e-01  -9.5062933e-01  -4.3771971e-01   5.1056409e-01  -8.8102852e-01   6.1907217e-02   2.1397846e-01  -3.3657803e-01   9.4121537e-01  -5.0380716e-01   4.1188877e-01   7.5411481e-01  -5.0520407e-02   4.5726064e-01  -7.3713971e-01   5.2112587e-01   8.4562491e-02  -7.7194027e-01  -6.1115187e-01  -6.1161022e-01  -9.4030619e-01   6.0743992e-01  -1.0591830e-01  -1.6956812e-01  -1.2618185e-01  -3.3818934e-01  -6.5764936e-01   9.2605616e-01  -8.7783725e-01   6.0892081e-01  -1.1443420e-01   2.8698779e-01   3.0819215e-02   5.1581350e-02  -7.9858521e-01   5.0238793e-01   9.1220590e-01  -8.3915864e-01  -7.4969930e-01   5.2148827e-01  -4.4694991e-01  -8.6482912e-01   9.4631445e-01  -5.3999416e-02   4.8370334e-01  -7.4908501e-01   2.6644035e-01  -8.6540247e-01   3.6161292e-01   7.6592702e-01   1.2404962e-01   4.2957603e-01  -8.7036351e-01  -9.7491805e-01  -6.4259396e-01  -7.9111094e-01   7.1634565e-02  -1.8999331e-01  -5.9828751e-01  -4.0284027e-01   8.5185870e-01  -7.0573264e-01  -8.1075088e-01  -1.9423840e-01   5.7516825e-01  -2.4614332e-01  -3.9794939e-01   5.7959226e-01  -2.9055492e-01   4.0296596e-01  -6.1313587e-01  -1.3882719e-01   8.6165932e-01   4.3437423e-01   5.4202905e-02   8.7570829e-01   3.6930735e-01   8.3110407e-01   9.3672486e-01   8.2157409e-01  -7.8257126e-01   1.6349894e-01  -1.4926211e-02   8.5380154e-01  -4.1093529e-01   7.8321407e-01   9.1551445e-02  -7.1267781e-01   3.6242416e-01  -4.5893121e-01   6.0703114e-02   7.6510696e-01   5.1551730e-01  -9.2202551e-01   1.2529060e-01  -1.5689350e-01  -5.9498109e-01   6.1401694e-02  -4.4744460e-01   4.8884558e-01  -5.3084965e-01   4.2354497e-03  -8.2874622e-01  -3.4865952e-01   2.0287060e-01   2.4908751e-01  -8.1428748e-01  -4.6503769e-01  -7.8507469e-01  -8.2805397e-01  -3.2158715e-01   4.3953152e-01  -3.1887070e-01  -1.8642651e-01   7.8190864e-01  -8.6409037e-01   1.5345778e-01   8.4484654e-01   3.6089988e-02   8.5506700e-02   3.0452894e-01   7.7520722e-01   2.4926376e-01  -7.3098330e-01  -7.7351595e-01  -1.6549947e-01  -6.4298404e-01  -1.8836177e-02   2.2980741e-02  -3.9392456e-01   2.6447111e-01   6.3859145e-01   1.4806327e-01  -9.6720983e-01   5.9907152e-01  -5.9117689e-01  -9.5211553e-01   7.2198409e-01  -7.6289115e-01  -6.9544389e-01   9.3682946e-03   1.7820163e-02   8.3556314e-02   8.8037762e-01  -6.9857005e-01   3.3981380e-01   1.2006060e-01   3.3800404e-01  -2.2790399e-01   4.9302724e-01  -2.7491126e-01  -6.6825041e-02   2.6808885e-01   4.9132209e-02   7.5685313e-01  -5.1146322e-01   6.0370526e-01   7.9299108e-01  -8.6553134e-01   8.4617262e-01  -8.9310562e-02  -6.6189805e-01   2.3629241e-01   1.9447051e-01   3.0655151e-01   6.6386939e-01   2.0703243e-01  -5.2585878e-01   2.9372891e-01   4.1720322e-02   1.0049835e-01  -8.0480570e-01  -9.9363525e-01  -8.1808156e-01   7.7369631e-01   8.0999765e-01   1.8584387e-01   5.4424027e-01   6.8106492e-01  -5.4858316e-01  -6.5382205e-01   4.0031522e-01  -8.0032626e-01  -7.6312211e-01  -3.0688272e-01   1.0999948e-01   9.0302655e-01   8.6721910e-01  -7.1718925e-02  -3.6498675e-01  -8.8562893e-01  -4.8340547e-01   5.5373925e-01  -5.9289009e-03  -5.6331522e-01  -3.5984036e-01   1.3730230e-02   3.4801915e-01  -9.0072885e-01  -4.8153082e-01  -8.8558477e-01   5.3724438e-01   1.7191727e-01  -3.2929660e-01  -2.6139719e-02   1.2231318e-01  -6.4807406e-01   1.2149104e-01   3.0426356e-01   7.7387555e-01   4.2822395e-01  -3.7490450e-01   3.7637010e-01  -3.3032941e-01  -2.5065036e-01   4.4851449e-01   8.5982669e-01   8.6180392e-01   1.2254885e-01  -4.2001777e-01   1.6043240e-01   3.4818296e-01  -1.8553142e-01  -5.6441277e-01  -7.7753126e-01   7.9529058e-01  -9.3458851e-01   3.4873993e-02  -7.0368235e-01   1.3501803e-01   2.1349590e-01   4.1049019e-01  -5.8844721e-01  -8.0830991e-01   3.8333369e-01  -3.6968353e-01  -8.6971906e-01  -5.9283404e-02  -2.5861726e-01  -1.8635806e-01   1.4388216e-01  -3.4270935e-01   2.1605444e-01  -6.2284013e-02  -3.0870530e-01  -1.8149507e-01   1.5321247e-01  -8.2788895e-02  -2.8865232e-01  -4.7455847e-01   2.8226598e-01  -8.4276430e-01  -7.0273584e-01  -2.7775268e-01   8.7602364e-01  -3.8895927e-01   2.6964730e-01   6.0043270e-01  -6.4808665e-01   1.8119723e-02   7.1319208e-01   1.8299723e-01   7.3283783e-01   8.8185812e-02  -1.1199864e-01   5.1499764e-01  -4.8582165e-01   2.1868130e-01  -5.6600423e-01  -6.0000803e-02   5.5861254e-01   8.6391719e-02  -8.8830262e-01   3.7632840e-01  -8.8980349e-01   4.8629060e-01  -9.5284690e-01  -6.6806482e-01
