  -2.1363718e-01  -5.5003110e-01  -5.5146427e-01  -5.8728048e-01  -5.4806294e-01   4.2182777e-01  -4.8514436e-01   8.2563600e-01   9.6287852e-01  -5.2316712e-02  -2.0004635e-01   1.9308614e-01   3.3826908e-01  -4.4875891e-01   7.5176725e-01  -8.9074502e-01   6.9579114e-01   7.8735267e-01  -1.7318909e-01   6.2770495e-01  -8.7567303e-01   9.4762744e-01   6.7546141e-01  -6.5521012e-01  -6.3383548e-01   9.6447862e-01  -2.3120564e-01  -6.6324190e-01  -8.6771237e-01   3.0126591e-01   6.3356400e-01   9.6652711e-01  -3.7165307e-01   4.3024199e-01  -9.5347429e-01  -7.0614736e-01  -6.6544354e-01   4.8839663e-01   9.7306754e-01   5.1404860e-01   7.6322487e-01   1.4705993e-02   8.5357793e-01   8.0024200e-01  -7.3434604e-01  -3.1749808e-01   1.2237800e-01   9.4690590e-01   7.6827897e-01  -5.7371185e-01  -4.6438188e-01   1.7207142e-01   3.9550452e-01   5.2442663e-01   5.8549427e-01  -7.7730850e-02  -1.0211366e-01  -4.3764973e-01   7.4360184e-01  -9.3120777e-01  -9.3825973e-01  -8.6306494e-01   4.5359119e-02   5.9075431e-02  -4.7386112e-01  -1.9537973e-01  -2.8648843e-01   3.7417243e-01  -1.4384435e-01  -6.8041618e-01   4.7407325e-01   1.2622997e-01  -6.9402952e-01  -8.7213642e-01   3.0407231e-01   4.7606687e-01  -2.3365048e-01   9.8037989e-01   2.8125087e-01   9.0533964e-02   7.7344345e-01   7.0847740e-01   4.2677239e-01   8.2694812e-01  -5.1137666e-01   3.2883364e-01  -7.3141707e-02  -3.1092350e-01  -5.6831810e-01  -2.3747756e-01   6.0880205e-01  -3.5363303e-01   3.7741175e-01   6.3358730e-01  -8.9016263e-01   5.8391855e-01  -3.3312150e-01   1.0689995e-01   7.7458047e-02   6.5676881e-01  -7.7851643e-01   2.2320691e-01   8.2044165e-01   4.0834227e-01  -7.2401215e-01  -8.7653565e-01  -1.4615015e-01   5.5343404e-01  -2.2683374e-01  -8.9347500e-02   3.7815462e-01   6.8359022e-01   8.1895532e-01   8.2200104e-01   4.6619195e-01  -8.2186741e-01   3.9324262e-01  -8.5718809e-01  -2.6043700e-01   5.8214422e-01  -7.7976874e-01  -8.7783630e-01  -7.9168600e-01  -6.9240066e-01  -1.1002712e-01  -1.5181209e-01   4.2733469e-01  -4.2468230e-01  -6.3468001e-01  -8.1155954e-01   7.4127863e-01  -7.7190837e-01  -2.3439353e-01   1.3009993e-01  -7.6781902e-01  -9.5408107e-01  -8.4812909e-01   8.4044316e-01  -5.0691986e-01  -5.0211907e-01  -5.3036684e-01   1.5425228e-01  -6.5225471e-01  -3.2816203e-01   6.4115172e-01  -8.7518881e-01   1.2397556e-01  -7.3972186e-02   5.9991887e-01  -7.8122401e-01  -1.9128927e-01  -6.7701910e-01   9.5191868e-01  -7.0683350e-01  -5.0724391e-01   7.0523995e-01   4.3553115e-01  -4.9782505e-01   3.3411685e-01   4.2476725e-01   3.3534328e-01   6.0680955e-01   8.5311556e-01  -5.3749437e-01  -1.9367747e-01  -9.5784507e-01   4.1405661e-01  -9.0691734e-01  -5.5385321e-01   6.9719457e-01  -6.0605756e-01   3.6041652e-01   9.1500181e-01   6.5376629e-01   2.7245990e-01  -1.5739168e-01  -6.2075969e-01  -5.8957007e-01  -9.3485872e-01  -7.8521111e-01  -4.6054504e-01   4.9476449e-01   1.1253563e-01  -4.8046327e-01   6.3174809e-01  -3.7703110e-01  -7.5646625e-01  -5.1826128e-02  -4.8937922e-01  -6.2569963e-01   1.3419214e-01   1.9839588e-01   5.9206970e-01   3.3457010e-02   6.0584318e-01   9.5493686e-01  -6.1347976e-01  -6.2490987e-01   9.5052062e-01  -4.2452372e-01   8.3821882e-01  -5.2379483e-01  -2.4480544e-01  -7.3465726e-01   6.6308292e-01  -3.2074676e-01  -4.8028950e-01  -1.4627666e-01  -2.1989390e-01   2.7831716e-01   4.8254570e-02  -3.3406048e-01  -7.5939366e-02  -2.0302637e-01  -2.6657776e-01  -2.5201476e-01   6.0255589e-02   8.0781703e-01  -2.7603614e-01  -5.9634214e-01  -8.8209787e-01  -1.8590218e-01   7.8944932e-01   7.3390669e-01   3.9621393e-01  -3.8547840e-02   5.1469666e-01  -5.2042660e-01  -7.0310225e-01  -6.2325463e-01   4.5876469e-01   8.0175584e-01  -8.6464633e-01   4.1603232e-01  -9.1053238e-01   4.5880026e-01  -6.9443435e-01   9.7746663e-01  -1.6258767e-01  -4.4729355e-01  -6.4150872e-01   5.2775606e-01   2.4312812e-01  -1.0092807e-01   7.0050123e-01   1.3917160e-01   9.7627063e-01  -6.2235399e-02  -8.8824628e-01   8.0085900e-01   2.0738124e-01   4.2971308e-01   5.1755284e-01   1.0132321e-01  -2.1409235e-01   9.1645995e-01   9.8550841e-01  -1.5223960e-02   4.3840884e-01  -5.7394520e-01  -7.2380654e-01   3.7109788e-01   9.4666087e-01  -8.7465721e-01   2.2734436e-01   8.2919891e-01  -2.5699295e-01   2.0350336e-01   3.5194243e-01  -8.3949111e-01  -6.8444460e-01  -8.9458804e-01   1.6066698e-01   5.4672112e-01  -8.3749899e-01   5.5481202e-01   7.6724098e-01  -7.4176977e-01  -5.0543212e-01  -9.8143992e-01  -6.4927063e-01  -7.8106922e-01   4.3659215e-01   4.2615556e-01  -6.3337051e-01  -9.5884156e-01  -2.6494847e-01  -9.3062451e-01  -8.1166443e-01  -8.3209662e-01   2.8235702e-01  -9.8854914e-01  -6.2518511e-01   9.7686511e-01  -8.0070881e-01   8.8545272e-01  -5.3814373e-01  -9.8197548e-01  -6.7839692e-01   2.6600140e-01  -4.6507441e-01   9.5156146e-01  -7.7755893e-01  -3.7024931e-02   4.7969154e-01   5.8258219e-01   7.1656767e-01  -4.8796492e-01   4.7631120e-01   4.8363696e-01   5.3871277e-01   5.6518966e-01  -7.8912852e-01  -6.4269123e-01   7.9203155e-02   6.6271876e-01  -7.4068174e-01  -2.4808032e-01   3.8361281e-01  -3.8989633e-01  -7.7029090e-01  -8.9685326e-01   6.5051351e-01  -7.7249149e-01   4.4484733e-01  -7.2600780e-01   9.8127395e-02  -7.3584353e-02   8.8055609e-02  -2.6362897e-01  -3.5983491e-01   7.2272559e-03   8.1609456e-01  -3.9455722e-01  -8.7966504e-01   9.4045021e-01  -5.6910016e-01  -3.4871620e-01   2.2333033e-01  -8.7653751e-01   3.0960165e-01   1.7608219e-01  -8.7156734e-01   4.6283870e-01   1.6610468e-01   3.8895816e-01  -6.6377890e-01   2.0917567e-01  -3.2893764e-01   7.6354724e-01  -5.6368197e-01   6.7641726e-01   2.2040670e-01   7.1640690e-01   5.4648143e-01  -8.7461242e-01   8.9169138e-01  -9.1574882e-01   7.9051057e-01   8.5810832e-03   4.4181641e-01   4.5722145e-01  -7.8400349e-01   8.5567563e-01   6.7686114e-02  -6.3624093e-01   4.7522677e-01  -1.6627813e-01  -1.5681474e-01   6.2604154e-01   4.8095599e-01   3.7267302e-01  -1.9803592e-02  -1.2271119e-01  -6.5864353e-01   8.7121696e-01   3.4898233e-01   2.2753798e-02   5.1623559e-01   7.5956447e-01  -6.5258011e-01   1.0573611e-01   9.9338165e-01   6.6938667e-01   5.8637635e-01   4.4361740e-04  -6.6839635e-01   1.6370872e-01  -8.6849169e-01  -2.0226015e-01   4.8178737e-01   2.5776632e-01  -9.1930842e-01  -6.9555894e-01  -8.2483788e-01  -2.3343618e-01   8.7476321e-02   7.9981608e-01   6.3432113e-02   9.2578464e-01  -3.3160389e-01   8.6427706e-01   4.0873006e-01  -1.4803715e-02  -8.5975112e-01  -4.0531994e-01  -4.0070186e-01   9.2325220e-01   7.5516355e-02  -2.3487110e-01   4.8918997e-01  -3.8932673e-01   8.4768915e-01   5.6337402e-02  -9.0714859e-01   6.8069749e-02  -8.6256798e-01  -5.2710169e-01   4.2183216e-01   8.7852511e-01   4.5591339e-01   5.7133648e-01  -2.9761622e-01   6.9445561e-02  -1.7025901e-01  -4.3728810e-01   4.8273926e-01   3.5484508e-01  -2.6438869e-01  -7.1200633e-01  -7.3136089e-01   4.6031127e-01  -7.9945511e-01   6.5046685e-01  -9.7749639e-01   4.3372257e-01   7.4319372e-01  -4.2743082e-01   9.5664153e-02   2.7284433e-01  -4.2785253e-01   6.9630341e-01   7.7645268e-01  -1.0780336e-01  -2.0144549e-01   3.1143634e-01   5.6671054e-01   6.9370521e-01  -4.4874611e-01   8.9694788e-01   1.2393565e-01   4.9402048e-02  -6.2109931e-01  -9.5285433e-01   5.0139304e-01  -4.8625008e-01  -9.2469842e-01   4.5755067e-01   5.5121523e-02  -5.0349229e-01   8.3276785e-01   4.8473791e-01  -1.6981072e-01  -6.7448858e-01   2.0591700e-01   9.4018652e-01   1.9872493e-01   6.4779871e-01   1.0118370e-01  -8.7026708e-01   8.2558558e-01  -5.2856981e-01  -3.2840442e-01  -1.6801765e-01  -8.2799193e-01  -9.3161106e-01   5.3005112e-01  -4.6942032e-01   9.7681986e-01   7.5084706e-01  -8.3317906e-01   5.2310782e-01  -3.2491991e-01   5.5340434e-01  -1.4461861e-01  -3.8274531e-01   9.1695942e-01  -4.2076830e-01  -2.8002311e-02   3.8138079e-02   9.7812866e-03  -5.1114502e-01   2.7879218e-01   1.2883553e-01  -4.7848830e-01   6.9161811e-01  -6.0441550e-01   7.0367956e-01  -4.4138491e-01  -2.4983652e-01  -5.6575472e-01   6.7279675e-01  -5.3090858e-01  -7.0360202e-01   7.4930626e-01   6.9578345e-01  -2.6340775e-01  -3.2846298e-01   1.1521851e-01  -9.8151129e-01  -8.4967677e-01  -8.0020852e-01   3.0975899e-01   7.2445348e-01   1.1174431e-01  -3.7734818e-01  -9.5986800e-01   6.0629560e-01  -2.5000420e-01  -4.2061194e-01  -4.9214187e-01   8.1198140e-01  -8.9685220e-01  -8.6758787e-02  -9.8749333e-01   6.8597878e-01   8.0193189e-01  -2.8566246e-01   2.7935991e-01  -8.6509774e-01   3.6101297e-01   4.5493734e-01  -9.0789679e-01  -3.3084683e-01  -4.5297906e-01   9.7020601e-01  -6.2260261e-01   6.6611427e-01   3.3121208e-01  -9.3791606e-01   1.3224377e-01   3.5927194e-01  -7.7430042e-02  -8.7804081e-01  -2.7901471e-01   4.9686961e-01  -5.7894924e-01   7.8761901e-01   6.8972362e-01   7.4733326e-01  -2.0441196e-01  -9.0953845e-01  -9.9656615e-01   6.2914801e-01  -9.3595788e-01   5.2221570e-01  -2.3134599e-01   1.4249745e-01  -9.1524346e-01   2.9450280e-01  -6.6088519e-01  -1.9883338e-01  -3.3327310e-01   8.5151046e-02   5.1141759e-01   1.2515992e-01  -4.7506491e-01   6.4108416e-01   4.9919560e-01   2.3682846e-01   3.5875582e-01  -2.7199969e-01   9.7415828e-01   3.0037402e-01  -6.6759629e-01   7.0283381e-01   8.2351130e-01   1.2632800e-01   3.1987711e-01   7.9980904e-01  -6.0469340e-01   2.7987565e-03  -2.7944219e-01   7.7265565e-01   9.6641349e-01  -5.6048199e-01  -4.4562448e-01   3.4518852e-01   9.4886321e-01  -9.8339769e-01  -6.6130472e-01  -2.0388072e-01  -8.4022488e-02   4.7909978e-01  -8.9567882e-02   9.7252278e-01   9.1047912e-01  -8.0144174e-01  -3.6992768e-01  -4.1487866e-01  -7.4516334e-01  -3.0941408e-01   9.7702011e-01   3.4719383e-01  -7.3483238e-01   9.0367779e-01  -2.7340774e-01   1.1894509e-01   9.8381845e-01   7.3771079e-01  -7.3242697e-01   7.3622799e-01   3.3422070e-01   5.0930611e-01   1.7276587e-01   5.9121039e-01   7.5088728e-01   3.9036176e-01   7.2640204e-01  -2.0110064e-01   5.0655101e-01  -8.2185532e-01   5.5898561e-01   8.1940523e-01   2.6812461e-01   4.5818678e-02  -7.5053994e-01  -5.9991231e-01  -6.2512073e-01   5.9619010e-01  -8.0616061e-01  -3.6885563e-01   5.6388772e-01  -3.1739136e-01  -3.5169217e-02  -9.1806926e-01   5.9534706e-01   2.3155882e-01  -6.8434619e-01   2.5965601e-01  -3.8310114e-01   3.1608807e-01   8.8394725e-01   5.0751537e-02   6.3593698e-01   8.6223683e-02   2.3689326e-01   3.7684818e-02   7.9315322e-01   6.9118466e-01  -9.5685414e-01  -9.2403244e-01   4.6761835e-01  -7.5574745e-01   2.2146927e-01  -3.4376653e-01  -5.6096039e-01   2.9501436e-01   1.0339472e-01   7.9537187e-01   9.7306999e-01  -9.8268199e-01  -2.4965360e-01  -8.4067338e-01   3.9440006e-01  -3.0054220e-01  -4.0693167e-01   5.8045008e-01  -1.3541810e-01  -4.7430421e-01  -1.3003141e-01   2.6583472e-01  -6.2712317e-01  -7.7022550e-01  -7.0162301e-01  -7.9482108e-01  -9.5581664e-01   1.7402087e-01   1.8578887e-01   2.1762264e-01   8.9268367e-01   3.3747058e-01  -3.6604151e-01   9.9456291e-01   4.7166697e-01   6.8659059e-01  -8.6046520e-02   3.3328724e-02   8.6211534e-01   6.8122893e-01   6.1304582e-01  -8.2174746e-01   7.5277317e-01   2.9519659e-01  -1.1486951e-01  -4.4946531e-01  -5.3988818e-01  -2.5692506e-01  -5.8641849e-01  -3.6379574e-01  -7.2680680e-01  -7.4436702e-01   3.0154910e-01  -8.8111802e-01  -5.4791234e-01  -2.6566972e-01   9.4042337e-01   1.1704479e-01  -1.9400735e-01   9.0778231e-01   3.7140204e-01   3.5963565e-01  -9.7455888e-01  -8.9899858e-01  -8.6331621e-01  -3.4718654e-01  -4.7067134e-01   4.3177852e-01  -7.5133812e-01  -3.1923472e-01  -3.2188716e-02   3.2013792e-01   9.8661695e-01   3.9686178e-01   3.3843676e-01   1.5198746e-01  -1.5888243e-01  -3.6776016e-01  -7.4811912e-01   6.7493192e-01   6.8116927e-01  -9.4401845e-01  -6.7132502e-01  -7.5075016e-02  -3.0760774e-01   1.6012949e-01   2.4673278e-01  -5.8606675e-02  -4.4593757e-01  -3.0726800e-01  -9.4327660e-01   9.3175178e-02   9.3495331e-01  -1.9491587e-01   8.1803499e-01  -1.5551544e-01  -6.1403985e-01   4.2477347e-01  -4.8707286e-02  -3.8166683e-01   2.8422286e-01   2.5010262e-01   8.9283007e-01   6.7431427e-01   7.3456838e-01  -1.8727895e-01  -8.3863185e-01   2.4759672e-01   7.5694470e-01   7.1587486e-01  -2.4529270e-01   3.6430317e-01   8.8872798e-01   1.8198285e-02   8.0112815e-01   8.0902290e-01  -2.8121219e-01   8.3776160e-01  -7.7188534e-01  -9.3550512e-01   7.5363729e-01  -5.7236108e-02  -2.0185184e-01   4.6786429e-01   9.9074251e-01  -8.8015855e-01   2.4962081e-01   5.4124336e-02  -6.4166544e-01  -7.7184740e-01   5.1278680e-01  -4.7565089e-01  -8.8493870e-02  -7.3056994e-01  -5.0762811e-01   9.3161832e-01   2.0874392e-01   5.1000286e-01  -3.2972851e-01   8.4574873e-02   2.0933471e-01   2.3814199e-01  -3.5312654e-01   9.2396678e-01   8.5780709e-01   5.5418593e-01  -8.2679873e-01  -3.4555093e-01  -7.5999770e-02  -8.0430764e-02  -7.6665843e-01   9.9222202e-01   7.2236852e-03  -5.1844632e-01  -2.6912008e-01   5.4399119e-01   1.2497455e-01   3.2455824e-01   2.5278929e-01   6.7614021e-01  -6.2439063e-01  -4.8269975e-02  -7.2139818e-01   4.3514215e-01  -4.0584214e-01   9.7141256e-01  -5.2170544e-01   9.1353406e-01  -9.6304327e-01   9.6665663e-01   5.0778578e-01  -2.1901983e-01   9.3585800e-01   8.6722465e-01  -8.6985666e-01  -8.9603569e-01  -8.9788420e-01   2.7596094e-01  -6.1816417e-01   2.9954780e-01   7.1123318e-01   5.0335929e-01  -8.5102348e-01   1.7925305e-01   2.9047822e-01  -4.9771630e-01  -3.3845769e-01  -8.8728643e-01  -9.6451145e-01  -3.5279054e-01  -7.3113531e-01  -2.2756473e-01   6.9587994e-01   6.2563401e-01  -1.9976939e-01   1.0389111e-01   6.0535612e-01  -6.9796530e-01  -6.9276158e-01  -1.4304053e-01  -2.4207277e-01  -1.2187503e-01  -7.9124242e-01  -3.6121639e-01   7.1479155e-01  -8.2484866e-01  -9.0351978e-01   7.9545459e-01  -6.7256957e-01  -6.1700035e-01  -1.3329971e-01   8.9227222e-01  -8.5323377e-01  -8.0628310e-01  -3.9602741e-01  -2.5672291e-01   8.2474347e-03   9.7638945e-02  -8.2026124e-01  -5.6469715e-02  -1.2203028e-01   3.9283353e-01   6.2932769e-01  -2.2510613e-01  -4.3265389e-01  -2.3141579e-01  -2.6480192e-02   7.0345343e-01   8.4684310e-01   5.1064792e-01   6.9512320e-01   2.3371053e-01   5.8960528e-01  -4.5437784e-01  -3.6951585e-01  -2.9196225e-01  -9.7436168e-01   5.9023969e-01  -5.4847744e-02  -9.1797167e-01  -2.7764526e-01   1.9628796e-01   8.4489772e-01  -7.1152625e-01   3.6931244e-01  -3.1222728e-01  -5.5615128e-01  -4.7326322e-01  -2.3215522e-01  -1.6688529e-01   7.4794223e-01   5.6072527e-01   1.5984155e-01   1.9149993e-01   2.7357329e-01   9.5714368e-01  -7.8090753e-01  -7.1888309e-01   2.9889927e-01   1.0348396e-01  -9.4346066e-01   3.5539473e-01   4.2970928e-02  -1.8096308e-01   2.3812479e-02   2.2985742e-02   7.1964587e-02  -2.8846100e-01   3.4828594e-01  -8.3256865e-01  -1.8817659e-01  -7.6434652e-01   8.4444560e-01  -9.5328065e-01  -3.2447064e-01  -8.3715697e-01  -7.0839653e-01   7.5235426e-01   1.1334947e-01  -7.8988503e-01  -6.9151494e-02  -5.8889837e-01  -2.7204971e-01  -5.9427453e-01   3.8131725e-02  -6.1577662e-02  -5.7710708e-01  -2.3475012e-01   9.7289819e-01  -8.1205122e-01   3.2307012e-01   9.7521064e-01   6.6918086e-01  -9.9895902e-01   3.8782227e-01   9.4308053e-01   8.6973130e-01   1.9688169e-01  -2.1513552e-01  -8.1053921e-01   6.0592460e-01   3.8692314e-01   7.3465749e-02  -1.6576898e-01   5.8653083e-01  -9.1928553e-01   7.6186077e-01  -6.8626491e-01   7.8702454e-01   3.1551735e-01   6.9041558e-02  -8.7867413e-01   5.2103312e-01   8.5780066e-01   9.3004936e-01   5.1580610e-01  -7.2121045e-01  -2.6078575e-01   2.2548766e-02  -5.0779304e-01   4.5073893e-01  -2.3803808e-01   7.5946161e-01   3.4422352e-01  -6.4118523e-01   2.2963117e-01  -5.8212245e-01  -7.4985222e-01   7.8150866e-01   3.0630163e-01   6.2288871e-01   4.5213531e-01   7.9053705e-01  -3.0930615e-01  -4.8588296e-02  -1.6451980e-01   7.4494562e-01  -3.0329755e-01   4.8829169e-02  -5.4475396e-03  -4.5986423e-01  -5.0467697e-01   3.0607170e-01   1.8198321e-01  -2.2435850e-02   1.8141776e-01  -8.3448367e-01  -7.6897569e-01   8.2513443e-01  -1.5808465e-01
