  -4.6053624e-01   8.8556150e-01   2.6607381e-01  -4.1380052e-01   6.0318797e-02   1.4000546e-01   9.3631462e-01  -4.5322614e-01   7.1842710e-01   6.1623355e-01  -9.8338706e-02   3.1305167e-01  -8.9106160e-01   7.3570427e-01   8.4623337e-01   3.3923256e-01  -3.4316506e-01   2.9758641e-01   7.8202133e-01   9.4951540e-01   8.1235807e-01   7.8870147e-01  -3.0872112e-01   4.3405543e-01   6.3128744e-02  -8.6772776e-02   8.0531674e-01  -3.8677194e-02  -3.6701782e-01  -7.4955806e-01   3.8388477e-01   5.7994747e-01   5.6276654e-01   5.8502365e-01   3.4457116e-01   1.9003880e-01   6.3095874e-01   7.9474342e-02   3.1783757e-01  -9.9353733e-01  -5.7603416e-01   2.5554329e-01   7.1695822e-01  -8.2987765e-01  -9.7278366e-01   7.0064563e-01   8.3360640e-01  -7.8475202e-01   3.9191110e-01  -6.0000426e-01   4.3358208e-02  -3.9472262e-01   6.8220644e-01   5.2746972e-01  -3.4539118e-01   4.5241859e-01   2.7383165e-01   8.2299426e-01  -5.8521586e-03  -1.7664469e-01   7.3673487e-01  -4.0177708e-01   5.6615260e-01  -8.9544401e-01   7.8967981e-03  -3.4625327e-01  -9.5208199e-01  -9.0391022e-01   8.8127771e-01  -5.0887448e-01  -3.1089137e-01  -5.8023944e-01  -2.0884435e-01   9.3911745e-01   4.2779369e-01   4.9157389e-01   1.3624967e-01   2.2939443e-01  -3.9230438e-01  -8.5402474e-01   9.0882876e-01  -5.2747921e-01   4.6112206e-01   5.8411053e-01  -6.8427012e-01   9.0438293e-01   5.2111910e-01  -6.4565282e-01   6.4679946e-01   1.0512102e-01   3.7347492e-01  -4.5370054e-01  -5.0520836e-01   1.3269430e-01   3.3890484e-01  -4.9051281e-01  -6.1804795e-01  -4.1739826e-01  -6.4729193e-01   1.0968708e-01  -2.8317160e-01  -2.9026272e-01   9.8210140e-01   2.8596902e-01  -4.3763713e-01   2.0586601e-01   1.4400517e-01  -7.9680125e-02   4.2772692e-03  -4.5463220e-01  -1.2112770e-01  -8.6072395e-01  -9.1979833e-01  -6.3512826e-01   9.0291383e-01   9.4748211e-01  -7.6916302e-01  -9.1961236e-01   3.7262909e-01  -5.2634296e-01   3.0889666e-01   5.6048532e-01   3.4019606e-01   2.2131432e-01   1.3180411e-01   5.9340491e-01   2.9118757e-01   5.1743488e-01  -9.0240911e-01   6.1639743e-01   6.7559217e-01  -1.7142479e-01  -1.5565898e-01  -9.5843116e-01  -6.7631075e-01  -6.4236878e-01  -9.8809478e-01  -9.3212922e-01   7.2448818e-01   2.9659483e-02  -6.1336642e-02  -9.1393297e-01   3.7688151e-01  -8.3952957e-02   9.2154061e-01   4.1474613e-01  -5.5126293e-01  -2.4966989e-01   9.6394848e-01  -1.7157672e-01  -5.1162490e-01  -1.0239946e-01  -8.8855996e-01   5.2453691e-01  -5.0638827e-01   9.6876815e-02  -8.7150787e-01   2.6620793e-01  -3.6325182e-01  -8.0916572e-01  -1.4342428e-01   5.2636953e-01   4.2510517e-01   2.2344176e-03  -3.9024338e-01   3.3949705e-01   4.3104320e-01  -4.2708356e-01  -9.9963078e-01   6.1441967e-01  -9.5245791e-01   1.2559817e-01  -7.1516861e-01   4.4805938e-01  -1.1159291e-01  -8.0059366e-01  -2.0976984e-01  -2.3835851e-01  -4.0551169e-01  -8.4628714e-01  -6.9432944e-01  -1.2547920e-01   1.8405755e-01   4.8831945e-01   3.3446448e-01  -2.8938571e-01   1.5163042e-01   6.5038096e-01   7.0664035e-01  -2.1899482e-01   7.9940102e-02  -2.7327435e-02  -5.7496694e-01   8.8018777e-02   8.8900999e-01   1.2340372e-01   8.6208971e-01   8.1108555e-01   1.1679695e-01  -9.6784013e-01   1.2584881e-02  -3.5618949e-02   2.7388805e-01   8.8400739e-01   7.1505884e-01   1.5523335e-02  -4.9308081e-01   6.9503856e-01   3.3159030e-01  -8.7621811e-01   1.5307008e-01  -4.5367614e-01  -9.9384849e-01   7.2903799e-01   9.2666033e-01   5.7102775e-01   3.9035530e-01   2.5766843e-01   2.3150245e-01  -7.1390373e-01   8.9668844e-01   9.4291918e-01  -7.1196785e-02   3.3203512e-01  -5.4183024e-01   1.1872808e-01  -9.8782723e-01  -9.2852523e-01   9.4840080e-01   5.9826879e-01  -9.1631571e-01  -5.6016605e-01   1.0883074e-01   9.4431521e-01   1.9164950e-01   9.1753907e-01  -3.0260547e-01  -9.9211895e-01  -3.9809894e-03   6.0965414e-01   1.1802272e-01  -1.7337741e-01  -8.6027311e-01  -6.0314792e-01   6.4112789e-01   2.6776871e-01  -7.4853594e-01   4.6552986e-01   2.5790567e-01  -7.2579870e-01  -5.9042830e-01  -1.9644177e-01  -1.9542637e-01  -6.1641538e-02   1.1970892e-02   7.6622125e-01   2.0542322e-01  -6.5896810e-01  -6.6939482e-01   4.1496809e-01  -1.9748158e-01  -4.0185076e-01   7.4309719e-01   1.8495020e-01   9.0348181e-01   8.1771919e-01  -2.8717455e-01   4.6691849e-01   4.8946269e-01  -4.4874469e-02  -9.0180799e-01  -8.1050765e-01  -6.8864875e-02   4.0238218e-01  -3.5485550e-01  -7.6324841e-01   2.8054495e-01   7.4157048e-01  -7.5518017e-01   4.6598175e-01   8.1200987e-02   4.1938796e-01  -7.6482436e-01   6.0226764e-01   1.6746431e-01   4.6254387e-01   9.0299290e-01   7.3128614e-01   8.8283903e-01   3.0029310e-01   1.9337013e-01  -9.7005185e-01  -5.9682167e-01  -8.8839836e-01  -8.2281737e-01  -5.1209900e-02   1.0865789e-01  -7.2417961e-01   7.3046745e-01  -5.6512509e-01   6.3828226e-01  -1.3516203e-01  -1.9151422e-01   6.1490177e-01  -7.9162863e-01  -8.4367020e-01  -9.6129044e-01   2.8738908e-01   4.5021088e-01   5.2248509e-01   2.9274779e-01  -1.0891784e-01  -2.4590726e-01  -9.8558551e-01  -4.5941283e-01  -1.1150204e-01   7.5416698e-01  -3.1096113e-01   2.4056960e-01   3.7604086e-01  -4.3504958e-01   7.6824443e-01   5.5605767e-01  -1.4336745e-01  -3.1254570e-01   6.6963532e-01  -4.5594341e-01  -7.7709206e-01  -2.1489946e-01  -1.5892853e-01   8.4306140e-01  -7.1115208e-01   9.7110977e-01  -7.1901639e-01  -6.1157046e-01  -8.2077368e-01   3.5295646e-01  -1.6608985e-01  -6.7726432e-01  -7.6882527e-01  -7.9941819e-01   9.3171984e-01   7.1918671e-01   1.1336536e-01  -6.6058368e-01   3.2590374e-01  -7.3737519e-01  -8.7214000e-01  -4.2311729e-01   1.2040401e-01  -8.2216866e-01   8.8952749e-01  -8.5987518e-01   5.2404510e-01  -3.2081036e-01   3.5305242e-01  -2.2381473e-01  -4.6408809e-01  -1.9595049e-01  -3.3810731e-02  -9.8993221e-01  -6.8132226e-01   4.8529218e-01  -5.6131962e-01  -5.6504635e-01  -4.7473230e-01   9.3116147e-02  -4.4901943e-01  -4.7564169e-01   6.8450975e-01   7.0855567e-01  -9.2168650e-01   1.3458857e-01  -3.5126423e-01   8.6866744e-01   7.9017243e-01   5.9745193e-01   3.2717031e-01  -3.1558995e-01  -2.0448110e-01  -7.7583003e-01   8.9584309e-01   3.0604965e-01   9.5856519e-01  -2.1441447e-01  -4.0564122e-01  -2.7808035e-01   5.5348160e-01  -1.3992069e-01  -1.6914680e-01  -3.3434915e-01  -1.0164975e-01   7.9491062e-01   5.6850800e-03   1.0605396e-02  -2.9495535e-01   3.6070445e-02   7.7040924e-01   4.5605065e-01   9.7759329e-01  -1.4675915e-01  -8.8677545e-01  -3.3340982e-01   5.3353784e-01   1.1849582e-01  -7.8941676e-01  -5.5963007e-02   6.1606218e-01   1.0142462e-01  -5.4241980e-01   1.1495796e-01  -7.7569402e-01   5.2460043e-01   4.5163430e-01   2.1129374e-01   4.5463383e-01  -5.4384037e-01  -3.5089624e-02   3.7308048e-01   3.9199328e-01   1.8576126e-01  -5.6118934e-01  -7.3874203e-01   8.2178946e-01  -7.0705190e-01  -5.1930423e-01  -3.7119855e-01  -2.4874865e-01  -5.9997092e-01  -2.1652990e-01   6.1038549e-02   2.4201093e-01  -6.1674526e-01  -7.1401146e-01   8.4887264e-01   1.0820678e-01   6.6111773e-01  -6.3805026e-01   8.6768042e-01   2.8089507e-01  -3.9654103e-01  -8.6462133e-01  -3.0722880e-01  -1.3486531e-01  -4.0287423e-01   6.0454216e-01   2.4206109e-01   3.1253629e-01  -6.1109004e-01  -3.7713269e-01  -5.1748122e-01   5.5671677e-01   1.2620614e-01  -5.7017845e-01  -1.6061891e-01  -3.1762810e-01  -3.5904026e-01  -7.8172176e-01  -4.8769449e-01   8.0441685e-01  -9.9943034e-01  -6.9421563e-01   8.0311226e-01  -2.4577485e-01   5.3984750e-01  -5.1762558e-01  -9.0319881e-01  -5.6346849e-01  -6.0305995e-01   3.3742134e-01   1.0164994e-01   2.8114113e-01  -8.6709440e-01  -1.0503524e-02   7.4624897e-03  -9.5571179e-01  -9.2088471e-01   4.6437654e-01  -3.3043388e-01   6.5634510e-01   7.8077088e-01   8.3149219e-01   4.3843895e-01   4.6845861e-01  -3.8104530e-01  -2.6716800e-01   3.8497918e-02   6.5224346e-02  -8.9852944e-01   3.4372797e-03   1.0747963e-01  -3.6206312e-01  -9.4563335e-01  -2.6339244e-02  -8.6886598e-01  -2.4558866e-01  -7.3184815e-01  -1.7367999e-01  -7.0030563e-01   2.9856185e-01   4.6349316e-01   9.0219414e-01  -1.3178490e-01   8.1938634e-01   8.1378727e-01   7.2483203e-01  -9.6951811e-01  -2.5461619e-02   6.1154023e-01  -4.3559653e-02   7.2546962e-01   3.1179142e-01  -6.0645938e-02  -8.5384748e-02   4.4913511e-01  -9.8578166e-01   6.6406742e-01   1.4135796e-02   5.4981373e-01  -4.1748283e-01   4.5596419e-01   9.9259772e-01  -9.3020896e-01   9.7930496e-01  -4.5329513e-01   5.6544143e-01   3.7868581e-01   3.4376070e-01  -8.8227955e-01  -7.2664117e-01   4.5207471e-02  -9.6327726e-01  -8.8462000e-01   9.6314766e-02  -6.8240452e-01  -9.5840359e-01  -3.1532810e-01  -3.5220757e-01  -2.8430802e-01  -1.4083197e-01   6.8728749e-01  -9.8281528e-01  -5.4885176e-01  -2.9348963e-03   9.1286090e-01   2.9686256e-01   4.2491904e-01   1.6044100e-01  -3.3931868e-01  -7.7862174e-01   8.9455451e-01  -9.9660389e-01  -2.0660609e-01  -8.7375459e-01   3.2279582e-01   6.2467972e-01  -2.0435455e-01  -4.0626007e-01  -5.9042418e-01   7.4823120e-01  -2.6346842e-01   2.8780525e-01   2.4819205e-01   4.8964730e-01   3.9253291e-01  -9.5070887e-01   3.9744219e-01  -6.1157839e-02  -5.8365673e-01  -4.0591416e-01   4.1026022e-01  -5.3726618e-02  -7.6980764e-02   1.4749219e-01   4.8094769e-01  -2.2183595e-01   1.9931740e-01  -5.0347893e-01  -9.8104836e-01  -4.7297201e-01   1.9628330e-01  -3.1980781e-01  -2.4900779e-01  -2.0411871e-01  -1.8163037e-01   8.2108244e-01  -6.1227749e-01  -5.2875648e-01   2.5076534e-01   1.8460311e-02   4.4030782e-01   5.0635071e-02   1.1876011e-01  -8.5576017e-01   6.2329326e-01   2.3994265e-01  -5.8219083e-01  -2.9491918e-01  -7.2721498e-02   7.9419899e-01  -6.1551646e-01   8.4582482e-01  -2.4192109e-01   2.4419701e-01  -7.2822610e-02   5.6870163e-01  -4.5525890e-01   6.1781922e-01  -6.4833375e-02  -6.1763138e-01   1.6463716e-01  -3.6288081e-01  -2.4283244e-01   3.2318341e-01  -5.7649893e-01   7.0122610e-01  -8.9570904e-01  -2.2833891e-01  -9.2431805e-02  -8.0496604e-01   8.8564921e-01   2.9311231e-01   2.3094730e-01  -9.4743167e-01   3.6618905e-01   2.3187249e-01  -6.3280264e-01  -5.0912928e-01   3.4147401e-01  -6.2699770e-01   7.7991292e-02  -1.5042324e-03  -7.9173753e-03   7.8375204e-01   4.5354982e-01  -6.7408769e-01  -6.0832606e-01  -5.9300903e-01  -8.8338779e-01  -8.5221987e-01  -1.4696146e-01   4.0761968e-01   5.8172661e-03  -6.1514443e-01   7.3411581e-01   4.8440361e-01   4.6496832e-01   2.3105605e-01  -6.8189962e-01   6.0925243e-01  -3.6445132e-01   1.3363658e-01  -3.5235354e-02   6.1506561e-01  -1.0010028e-01   1.7822975e-01   7.7645329e-01   1.7135602e-01  -9.4022852e-01   7.6512407e-01   5.3394191e-01   1.1225715e-01   6.1120646e-01  -8.9692529e-01  -7.9164161e-01  -7.2444074e-01   4.6914401e-01   3.4253505e-01   5.1514672e-01   5.2645048e-01   9.8043288e-01   2.1574859e-01   2.5990920e-01  -2.1053210e-01  -2.0165560e-01   7.2712211e-01  -6.6146845e-01  -3.3328580e-01  -9.8757427e-01   2.3848670e-01   5.6945738e-01   1.7743455e-01  -9.7736742e-01  -5.9353762e-01   9.3827911e-01   5.6677664e-01   5.9412251e-01   5.3284876e-01  -9.1253358e-01  -1.1784341e-01   2.3821977e-01   1.4893937e-02  -6.8159062e-01   7.5414797e-02  -2.3763621e-01  -8.6168459e-01  -6.5304581e-01  -8.9955782e-01   3.7108050e-01  -4.4390026e-02   8.8331680e-01   6.2647227e-01  -1.0218877e-01   9.7361408e-01  -4.5140958e-01  -6.0604039e-01   3.2201599e-01  -6.2067257e-01  -3.7399786e-01  -3.6317760e-01   9.0030556e-01  -2.9332830e-01   5.1334031e-01  -7.2573036e-01  -3.6674791e-01   7.9363459e-01  -4.8552609e-01  -4.5233945e-02  -6.3213359e-02  -2.0013166e-01  -9.8161119e-01  -7.7048381e-01  -4.4942949e-01   7.8873864e-01  -2.0524810e-01  -8.0274381e-01  -2.7692766e-02  -9.9475320e-01   4.2536053e-01   3.9511025e-01  -4.1052922e-01  -7.3193234e-01   2.6711198e-01   8.2915110e-01   6.4397297e-01  -3.9637529e-01  -5.0879138e-01  -4.2046530e-01  -5.8899968e-01  -3.2472078e-01  -6.5213522e-01  -6.7733809e-01   1.6221449e-01   4.0499286e-01  -4.2192106e-01  -4.1364771e-01  -7.6928263e-01   8.2259120e-05   2.1427346e-01   1.8304369e-01   7.2032521e-01  -8.2296843e-02   9.6584002e-01  -9.9712329e-01  -4.5094050e-01   5.0933110e-01  -4.0973158e-01   3.4681561e-01   1.0036621e-01  -2.0710575e-01  -7.1844259e-01  -6.0088638e-01   1.9857234e-01   7.5870912e-01  -6.3798510e-01  -9.2263136e-02   8.8468321e-01   6.3326155e-02  -4.0653707e-01   9.4050590e-02  -6.8853260e-01  -9.7737201e-01   2.9922133e-01   9.5348810e-01   4.7978673e-01  -2.5165212e-01  -5.1293002e-01   4.9842597e-01   2.7638124e-01   3.7064725e-01   3.6754490e-01  -5.8756701e-01  -5.2468971e-01   2.6957827e-01   7.6890026e-01   1.6365595e-01  -1.1961604e-01  -8.6726304e-01   2.9342266e-03   1.2606886e-01  -8.2425784e-01   5.2231979e-01  -7.5239567e-01  -7.1420535e-01  -4.2465036e-01   3.4106707e-01   3.5735804e-01   9.0319544e-01  -9.3191071e-01  -6.1044440e-01  -2.7987563e-02   4.0298998e-01   4.7018321e-01   7.5306440e-01   1.9296839e-01  -6.9781220e-01  -7.9590609e-01  -3.0262479e-01  -9.6134027e-01   6.1966029e-01   5.2021475e-01  -3.7672223e-01  -5.6958907e-01  -3.0479589e-01   2.0519965e-01   3.8406699e-02  -3.7212367e-01  -9.3859254e-01  -9.6296837e-01  -5.1066570e-01  -6.6706694e-01  -9.3448895e-01   3.3566663e-01  -7.1713173e-01   5.1099550e-01  -1.8069745e-01  -6.8351346e-01  -9.8934751e-01   8.5172367e-01   7.6878819e-01   6.7672797e-01  -2.8785335e-01  -9.0801825e-01   4.7745052e-02  -5.9150790e-01   3.1754482e-01   1.4963182e-03   8.4762509e-01   8.0216720e-01   8.7212046e-01  -1.4038430e-01  -6.2573559e-01  -9.2496342e-01   6.4612526e-01   4.1001152e-01   9.3604322e-01  -5.8522023e-01   3.4362547e-01   5.9556219e-01   4.0677724e-01   8.0654861e-01  -3.5980337e-01  -1.7260645e-01  -7.4048444e-01   3.6170081e-01  -3.3598481e-02   6.2347994e-01   5.4822459e-01  -9.0732352e-01  -8.6707269e-01   6.6391735e-01   1.8556568e-01  -7.5107699e-01  -1.2283727e-01   9.1818414e-01   5.2318304e-01  -9.4633655e-01   4.8517994e-01  -5.8118824e-01   8.2616362e-01  -3.0337836e-01   1.8423742e-01   3.5403202e-01   5.3430690e-01   5.2204992e-01  -2.7922511e-03   7.4415276e-01  -8.6567001e-01  -3.6582754e-01   8.3454898e-01   4.6028806e-03   6.2033322e-01   6.2709160e-01  -7.0629055e-01  -8.0485417e-01  -1.3133517e-01   4.6537307e-01  -9.0263341e-01  -9.4872093e-01   7.5147599e-02  -2.0041729e-01   2.5710954e-01  -6.6693309e-01  -7.1564854e-02  -1.3226228e-01  -9.4101218e-01   6.8847228e-02  -6.0017449e-01   3.1200769e-01   3.7438311e-01   2.4690385e-02  -4.1591174e-01   3.4293498e-01   6.7981830e-01  -7.7450495e-01   4.7588469e-01  -9.1889675e-01  -3.6758305e-01   7.3868742e-02   3.7410408e-01  -4.8239116e-01  -9.4646957e-01   5.3053893e-01  -3.9352834e-01  -5.2687490e-01  -5.8739177e-01  -9.2208309e-01  -7.1144878e-01  -2.1297224e-01  -9.2352777e-01   6.2511087e-01  -8.9716964e-01   6.3326355e-01   3.1769001e-01   3.8859965e-01   9.8542258e-01  -7.8170318e-01  -4.7169388e-01   7.4739251e-01   1.5538265e-01  -5.5844010e-01  -5.4334835e-01   6.2816027e-01   6.6967709e-01   2.7491378e-01   1.9846321e-01   3.2601972e-01  -1.9934372e-01  -2.4256372e-01  -8.9487500e-01  -4.9615319e-01   9.7042735e-01   5.5082272e-01   2.4065898e-01   4.8671734e-01   1.8573095e-01  -6.5700177e-01  -6.6447712e-02   9.9050940e-01   4.2749144e-01  -5.9865260e-01  -8.3481766e-01  -9.2849919e-01   9.0961862e-02  -9.1866939e-01  -2.0679947e-01   2.6495033e-02  -5.0865010e-01   5.0078790e-01   7.2905063e-01   9.0852925e-01   9.5647261e-01   8.4886780e-01   5.4915488e-01   9.6760421e-01  -2.2604724e-01   4.0828129e-01  -5.8482598e-01  -7.0096029e-01   6.8441930e-01  -9.8156434e-01   3.1639301e-01   5.8303285e-02   8.4612512e-01   6.0846359e-01  -9.0486079e-01   1.3867358e-01  -3.2361127e-02   7.0101971e-01   2.1272821e-01   6.3330356e-01   7.3763103e-01  -1.4186404e-01   5.3370650e-01   8.5403192e-01  -7.1491365e-01  -7.6770146e-01  -8.4878690e-01  -3.6376905e-01  -2.2004879e-01  -3.6242065e-01  -3.7295335e-01  -8.1490468e-01  -8.6922094e-01   3.5698778e-01  -2.1360451e-01  -7.0941111e-01   6.6742161e-01  -4.7893008e-01   1.3911123e-01
