  -7.4362036e-01   5.9791016e-01   9.1617145e-01  -4.4575221e-01  -2.6845262e-01  -1.3592596e-01   1.5039335e-01  -6.3800082e-01  -7.0460655e-01  -4.1492831e-01   6.6090709e-02   3.3838979e-01  -4.8728553e-01   8.3549576e-01   9.2776712e-01  -5.4138290e-01  -1.8877452e-01   5.1898603e-02  -5.8591789e-01   2.2577780e-01  -3.1748096e-01  -3.6124266e-01  -2.9354827e-01   5.0646553e-01   7.6253309e-01  -2.5930545e-01  -6.3507914e-01   7.8280185e-01   3.3047153e-01   2.4149352e-01   2.4764503e-02  -4.7585822e-01  -1.6699533e-02   4.3928146e-01  -8.9898337e-01  -8.0507097e-01   4.4189586e-01  -2.5096757e-01   8.5166565e-01   4.9031919e-01  -5.6214080e-01  -3.9104169e-01  -8.9678605e-01   6.8333480e-01  -3.4460864e-01   3.6908247e-01  -4.0234833e-03  -1.2467911e-01  -2.6400616e-01  -3.0085991e-01   3.3374912e-01   8.8269699e-01   3.7928149e-01  -5.7585002e-01  -8.1081435e-02  -2.1221991e-01  -3.7947334e-01   4.8933311e-01   6.6155314e-01  -6.0732583e-01   6.1884122e-01  -1.5899840e-01   1.9733466e-01  -9.2558328e-01   1.6065585e-01   2.8480594e-01  -9.6437545e-01   7.5136606e-01   5.6703160e-01   8.7160679e-02   7.7295146e-01  -5.4724443e-01   4.2264601e-01   5.6526202e-01  -7.1691801e-01  -5.2339318e-01   2.0777605e-01  -4.9854450e-01  -3.7842945e-01  -4.3962245e-01   2.7779024e-01   1.9521597e-01   9.4291688e-01   7.3534876e-02  -7.9774220e-01  -6.0241309e-01   7.3283091e-02  -8.7527150e-02   9.1988100e-01  -8.7497612e-01   8.1748991e-01  -3.8785816e-01   8.8730045e-01  -1.0085688e-01   9.6874589e-01   7.5931993e-01   1.0415003e-01   5.5822885e-01  -2.2435450e-01   3.9622807e-01  -4.2438940e-02   4.8794268e-01   6.7290772e-01   2.6131174e-01   2.3898719e-01  -5.3557189e-01  -3.6937003e-01  -5.5370074e-01   8.3120499e-01  -6.4865685e-01  -8.4553600e-01  -6.1999860e-01   5.4433148e-01  -7.2912112e-01  -8.6972024e-01  -6.9813847e-01  -3.6278017e-01   6.3193081e-01   8.1945979e-01   7.1977240e-01  -2.9737388e-01  -8.1166639e-01  -5.5579817e-01  -5.3245767e-01   5.4086314e-01   4.7191917e-01  -8.1588059e-01   8.2644036e-01  -5.3736715e-01   7.9597824e-01   5.1413685e-01   3.1046175e-01   2.4480514e-01  -9.0397039e-02   6.1331596e-01  -7.0337140e-01  -2.2333216e-01  -6.2075801e-01   8.0030550e-01  -1.2138717e-01  -1.1670470e-02   4.1858222e-01  -2.7510929e-01   8.3454382e-01  -4.8019695e-01  -3.4355000e-01  -3.9539129e-01   4.2460813e-01  -9.9457220e-01  -9.8316216e-01   6.6628323e-01   7.6153984e-02   2.2967125e-01  -1.8859804e-01   2.4136607e-01   9.4788120e-01   7.3960529e-01   1.7852969e-01   3.2012770e-01  -6.8068239e-01   8.2902774e-01  -5.4322288e-01   7.5780188e-01   3.4834324e-01  -7.4581692e-02  -9.7669317e-01  -4.6900520e-01  -9.1249735e-01  -2.2426261e-01  -2.1082288e-01  -4.8581158e-02  -2.4236630e-01  -7.7902400e-01  -5.2721122e-01   7.6343804e-01  -4.1171717e-01   6.4301830e-01  -5.6743972e-01   5.4342402e-01  -5.3292341e-01  -8.6718020e-01  -3.9347695e-01  -3.3233480e-01   4.7152650e-01  -1.0008447e-02   7.7126258e-01  -8.0243323e-02   3.9751481e-01  -5.6337783e-01  -4.7938974e-01   9.1165235e-01   4.9478221e-01  -8.0121494e-01   7.7813895e-02  -6.2506593e-01  -9.0179334e-01   6.3872887e-01   2.9153024e-03  -9.0637818e-01   6.6545678e-01  -2.3024096e-01   4.7220856e-01  -2.6067927e-01  -1.4450602e-01  -1.9180247e-01   6.5870879e-01   1.7403369e-01   6.3929588e-01   7.1623288e-02   2.8152915e-02   1.7558913e-01  -7.9437343e-01   4.1358112e-01   4.3100999e-01  -7.2525649e-01  -8.3262751e-01   3.6598489e-01  -3.3752706e-01  -2.6239780e-01   3.4450675e-01   9.6070404e-01   7.9506780e-01   4.5728155e-01  -8.8850727e-01   3.6427226e-02  -6.9515911e-01   3.0565359e-01   7.4800643e-01  -1.1615678e-01  -2.6575361e-01  -5.8050645e-01  -6.1182210e-01   5.1105081e-01   2.6693469e-01  -6.8236799e-01  -7.6501329e-01   3.6075657e-01  -8.3184212e-01   2.8366235e-01   7.3033562e-01   5.2946998e-01  -6.1655697e-01   6.7044483e-01   7.8331754e-01  -6.1595802e-01  -1.8988453e-02   5.7415497e-01   3.9569758e-01   2.9454319e-01   3.1056569e-01   2.3949633e-01  -3.6490457e-01  -3.1562520e-01   4.9299172e-01   9.1062600e-01  -9.4374089e-01   5.3684560e-01  -1.4803315e-01   4.3817490e-02  -3.7418936e-01  -9.5226396e-01   1.2339710e-01  -6.6050388e-01  -7.1830720e-01  -6.9807534e-01  -7.0124719e-01   2.9798173e-01   9.6867859e-01  -9.8541732e-01  -3.4205214e-01   4.9606830e-01  -7.7848475e-01   9.1291008e-01   3.4255072e-01   3.1680024e-01  -5.8609358e-01  -6.7420710e-01   5.6866977e-01  -1.4941068e-02  -5.4945055e-01  -7.9841882e-01  -9.5318800e-01   6.9298859e-01  -3.3970261e-01  -5.9283442e-01   1.6075698e-01  -4.6002698e-01  -8.5088638e-01  -2.3252742e-01   1.6866662e-01  -4.6823498e-01   8.9072959e-01   5.3713813e-01  -5.2445906e-01   3.3353734e-01   2.8116309e-01   1.1228901e-01   4.6739863e-01  -2.4518700e-01  -5.9707224e-02  -7.8348844e-02  -8.7794450e-01  -5.8863769e-01   3.3860189e-01  -5.9152116e-01  -1.5312771e-01   9.9144690e-01   5.4716668e-01  -8.7349172e-02  -1.3442735e-01  -1.2496128e-01   3.6450623e-01  -7.0217699e-01   9.5595490e-01  -1.9062409e-01   7.3898439e-02  -9.1429400e-01  -7.3284215e-01  -1.2335017e-01   7.6862931e-01   8.0778517e-01  -8.6215472e-01  -1.8080116e-01   4.8104064e-01  -9.3798658e-01   5.7620698e-01  -8.9875649e-01   9.4006476e-01  -8.6286360e-01  -7.5548547e-01  -1.3002306e-01  -4.2178560e-01   8.0388332e-01   7.9639502e-02  -5.6391393e-01   9.4123041e-01  -4.8693261e-01   3.5398367e-02   9.7023488e-01  -5.7002321e-01   4.2793285e-01  -1.0506933e-01   8.2291862e-01  -1.7495381e-01   3.4799608e-01   4.9322428e-01   6.4414840e-01   9.6869644e-01  -5.3480683e-01   4.1998224e-01   2.6432908e-01   4.4214981e-01  -2.7357662e-01  -3.0335978e-01  -1.9138389e-01  -9.0125895e-01   1.7604874e-01  -7.2188183e-01   5.7095663e-01  -9.6404766e-01   5.7619333e-01  -5.3354256e-01  -9.8144388e-01  -8.6795353e-01   5.0061445e-01  -5.2044921e-01   6.0235188e-01   8.0371073e-01  -6.4308594e-01  -2.8626720e-01  -9.6630708e-01   6.3950373e-01   7.6963443e-02  -7.1966731e-02  -6.3389970e-01  -3.5580795e-01  -6.9828430e-02  -3.3901596e-02   3.0751349e-01   4.6164115e-01   5.0765132e-01  -9.4766488e-01   2.7135413e-01   1.3942166e-01   5.2921060e-01   5.7937135e-01  -2.5251824e-01  -6.5319731e-01   9.3868794e-01  -7.0152958e-01   8.3793666e-02   4.4818004e-01   1.7345816e-01  -5.0116557e-01  -2.5474533e-01   9.6397702e-01   6.1732489e-01   1.7542011e-01  -8.7693754e-01   8.0974958e-01   5.0136601e-01   2.1858327e-01   5.0644678e-01  -5.2528495e-01   7.3886382e-01  -4.2755520e-01   1.1366089e-01  -6.5117515e-01   5.7907972e-01  -8.4660052e-01   2.9614678e-01   3.9982982e-01  -5.3595322e-02   8.2525108e-01  -4.9926105e-01  -1.3206774e-01   4.5293042e-01   9.3190848e-01  -9.7414818e-01   5.1836416e-01  -2.9801645e-01   9.4093924e-01  -2.6567776e-01   7.9152905e-01  -8.5807053e-01   6.5158523e-01  -6.5660192e-01   7.5139633e-01  -7.9199999e-01   9.6840486e-02   1.3612452e-01  -1.2846970e-01   5.5982220e-01  -4.6987915e-01  -7.3517774e-01  -4.2825122e-01   6.7716879e-01  -4.2046201e-01   7.3524195e-01  -5.9548792e-01  -2.7163843e-01  -7.2863960e-01  -6.2626667e-01   6.6218243e-01   5.7917817e-01   8.7661337e-01   4.7520982e-02   2.8399204e-01  -4.9538800e-01   3.8239822e-01   5.2419355e-01   8.1831107e-01  -7.5211722e-01   6.0657312e-01   1.1331734e-01   6.1705128e-01   4.3399580e-01  -9.1354788e-02   4.8489339e-01   9.2040307e-01   5.0908902e-01   6.1586184e-01  -9.7827100e-01   1.3490721e-01   3.2645592e-01   7.7319417e-01   6.1110150e-01  -3.7405458e-02  -5.1624869e-01   4.8371032e-01  -9.8327701e-02  -9.0719953e-01  -7.0929977e-01  -9.3226895e-01   5.3593921e-01   2.5892214e-01  -7.8044962e-01  -9.7553704e-02  -2.8523268e-01  -6.0347513e-02  -8.5765462e-01   3.3390906e-01   8.3065024e-01  -7.0968056e-01   5.0611499e-01   3.8149456e-01  -9.6215334e-01  -9.9129989e-01   3.9777903e-01  -2.2901806e-01   9.4724169e-01  -6.6317903e-01  -7.7853040e-01  -4.6094226e-01   2.4101609e-01  -8.7290359e-02   1.7857942e-01   5.7950708e-01   7.5610128e-01  -4.4089016e-01   9.2340675e-01   1.7511259e-01  -9.2107001e-01  -2.2594399e-02  -2.5389752e-01   4.8760495e-01  -9.1614001e-01   8.0896126e-01   9.2632124e-01   3.0889009e-02   6.4975842e-01  -3.6213786e-01   7.7003051e-02  -8.5602316e-01  -8.8528976e-01   2.1236277e-01  -5.8392561e-01  -1.7463467e-01  -8.0446347e-01  -8.8214621e-01   7.4336079e-01   6.0392947e-01  -5.8739573e-01  -5.0937393e-01  -6.0546920e-01  -9.9760163e-01  -2.1701793e-01  -5.4184509e-01  -7.2507212e-01  -4.3469732e-01  -4.3334431e-01   6.5941613e-01   3.8885117e-01   3.7780592e-01  -3.5259895e-01   9.3055364e-01  -5.4348723e-01   3.6846532e-01   9.6449702e-02   1.3320603e-01  -7.7757833e-01  -9.1736639e-01  -9.3906766e-01  -6.9495688e-01   9.4816984e-01   1.2546652e-01  -5.1410750e-01   3.3717871e-01   8.5732694e-01  -3.5079690e-01   3.5225206e-01  -6.8860025e-01   4.6254233e-01   8.1312058e-01   7.5230392e-01  -8.9156911e-01   4.1590963e-01   9.6275281e-01   2.7160906e-01   9.1899164e-01  -5.4579259e-01   6.4067396e-01  -3.0098587e-01  -1.7082087e-01   1.9293006e-01  -3.6208050e-01   5.9720591e-01  -6.9370050e-02  -9.7607733e-01  -8.6458094e-01  -5.6227019e-01   4.1162775e-01  -3.8120896e-01   6.2890494e-01  -6.0184832e-01   7.4797607e-01   7.5379964e-01   1.2538699e-01  -7.1276669e-01  -9.2421326e-02   4.0421187e-01   8.0079916e-01   6.6193410e-01   5.0664787e-01   5.7610770e-01   6.5878749e-01  -7.7855385e-01   9.1306010e-01  -2.3062479e-03  -1.3682591e-02  -9.1244170e-01  -4.3976139e-01   5.2358647e-01   3.9041482e-01  -7.8811059e-01  -6.1248141e-01   9.5545699e-01   2.2270803e-01  -6.6231186e-01   8.7621608e-01  -6.7312014e-03  -4.1174865e-01   5.5212387e-01  -9.9691443e-01   8.3393875e-01  -8.6005701e-01  -5.4516984e-01   4.1497098e-02  -4.2324113e-01   2.5839041e-01  -5.3445386e-01   6.8884729e-01  -6.5261605e-01   8.7540614e-01  -9.1437953e-04   8.3179655e-01  -8.9130794e-01  -8.9122687e-01   8.2273814e-01   2.7065565e-02  -4.4305020e-01   9.4604617e-01   7.2163635e-01   4.7611325e-01   9.3850544e-01   2.6391400e-01  -5.9054439e-01  -4.2896568e-01   1.3663428e-02  -1.0754942e-01  -7.6507414e-01  -6.8758583e-01  -6.5802162e-01   4.7685360e-01  -1.1206495e-01  -4.0235697e-01   8.7577062e-01  -6.1561322e-01   5.5159742e-01  -3.4047334e-01  -1.1534168e-02   8.4915029e-01  -8.4176694e-01  -1.9295152e-01  -5.5994265e-01  -4.8121274e-01  -6.3963173e-01   8.9251103e-01  -8.3851550e-01  -9.8634145e-02   7.2737726e-01   3.1279700e-01   5.1858385e-01  -7.5827224e-01  -5.1955013e-01   2.8379668e-01  -2.8039781e-01  -5.7381609e-01  -7.6718077e-01   8.7232252e-01   2.5465500e-01   7.8176888e-01   6.6642310e-01  -4.4246109e-01  -2.3841842e-01  -7.1456073e-01   7.2034777e-01  -2.7559348e-01  -1.7324391e-01  -8.3521429e-01  -4.9638663e-01  -9.6225352e-01  -8.5492151e-01   4.5333576e-02  -5.9937322e-01   4.0498988e-02  -2.4681148e-01  -7.0968187e-01   8.3113960e-01   5.8681436e-01  -3.5812089e-01   3.1873482e-01  -2.8789086e-01  -9.9986885e-01   9.2060673e-01   5.3236335e-01   6.3694378e-01   8.6286177e-01  -2.7624180e-01  -9.7032786e-01  -6.8342853e-01  -1.7070350e-01   2.5971529e-01  -6.0260165e-01  -5.7828788e-01   6.8006743e-01   1.4814955e-01  -6.3463888e-01   1.7483025e-01  -2.8174758e-01   1.3561985e-01   7.6423977e-02  -2.6890782e-01  -1.4421009e-01  -7.6104348e-01   7.8080729e-01  -6.4142623e-01   9.0580912e-01   7.5765576e-01  -3.6892538e-01  -9.1963714e-01  -5.0872890e-01  -7.4127149e-01  -2.0792960e-01   9.0025440e-01   7.8288053e-01  -2.6360188e-01  -4.7770031e-01   4.6723426e-01  -5.7576038e-01   1.7381671e-01   2.0259124e-01   8.6602694e-01   6.9890419e-02  -2.5332557e-01  -3.1903310e-01  -3.5114282e-01  -2.2988722e-01   5.7947576e-01   3.7995305e-01   8.3027751e-01  -7.3304219e-01  -3.9377423e-01  -1.9214016e-01   7.7620523e-01   4.8054636e-01  -2.5211953e-01  -7.4894014e-01   9.1208995e-01   7.1478079e-01  -6.9487550e-01  -7.0375641e-01   6.8417411e-01   2.5720056e-01   7.1394820e-01  -6.4021455e-02  -7.2091302e-01   6.3568571e-01   4.7829078e-01   2.1916257e-01   4.3291059e-01   9.9484890e-01  -1.2030874e-01   8.5107059e-01   4.4112213e-02   4.8070603e-01  -6.6887075e-01   7.7914743e-01   1.0678928e-01   5.3667541e-02   8.2787303e-01  -3.9271513e-01  -8.2494999e-01   1.7399664e-01  -5.3823944e-01  -3.3089394e-01  -6.2151838e-01   6.2037863e-03   4.4112312e-01   1.7216418e-01  -9.5251330e-01  -7.3338661e-01  -1.0154526e-01   3.6204956e-01   1.9087192e-01  -9.6934077e-01  -4.9386335e-01   4.5957389e-01   8.3878671e-01  -8.2008369e-01   1.8393248e-01  -5.2793892e-01   4.5279386e-01  -8.0778454e-01   4.5147987e-01   5.1730810e-01   2.5736183e-01   4.6069338e-01  -1.4264361e-01  -2.8141046e-01   6.5526365e-01  -3.2565017e-01   7.0118125e-01  -6.0587264e-01  -1.2528257e-01  -9.4601947e-01  -9.4609122e-01  -9.2401799e-01  -6.4898795e-01   9.9509928e-01   9.7655421e-01   7.2363674e-01  -5.4360866e-01  -5.8933307e-01   6.7805803e-01  -9.9254922e-02  -4.4141417e-01   6.7491761e-01   5.6066170e-03  -5.0413982e-01   8.3920773e-02  -2.0518970e-01  -8.2748281e-01  -2.0258101e-01   3.9983958e-01  -5.4611710e-01  -6.0933402e-01  -7.6056006e-01  -5.7564619e-01   9.6833966e-01  -2.8689295e-01   1.0221701e-01   5.4369114e-01  -6.5572912e-01   4.6755040e-01  -1.0150599e-01   9.6890239e-01   1.1869079e-01   9.0195767e-01  -7.1941454e-01   5.6072149e-01   2.8362749e-01   7.6974204e-01  -1.9579485e-02   5.2809481e-02   3.9416584e-01  -4.2488670e-01  -6.7764500e-02  -5.0568907e-01  -1.4122140e-01  -2.9225015e-01  -6.6476507e-01   2.6930511e-02   3.0408423e-01   6.4374851e-01   2.8034112e-01  -5.2811178e-01   8.7460905e-01  -2.6134632e-01  -2.5650642e-01   2.9910763e-01  -6.2280382e-01  -7.2037718e-01   2.7336252e-01  -9.8564112e-01  -3.7128385e-01  -9.4111201e-01   4.5320517e-01  -8.8565354e-01   3.5134243e-01   8.3814335e-01   9.5623468e-01  -2.4878253e-01   1.3599486e-02   2.2665622e-03  -6.7084991e-01   7.6755870e-01  -8.8802030e-01   8.8542542e-01  -6.6806528e-01   6.0964047e-01  -4.3724330e-01   2.9292399e-02  -5.8474749e-02  -6.5112765e-01  -2.0093134e-01   9.4291295e-01  -8.5575828e-01   6.3632773e-01  -2.5524845e-01  -6.4229075e-01   4.0269129e-01  -7.6946507e-01   6.2902997e-01   8.2276353e-01   9.4217714e-01   7.2433092e-01   6.9716846e-01  -5.9774317e-02   1.8855417e-01  -6.6959609e-02  -1.5884532e-01   2.8942476e-01   2.5584498e-01  -7.3128727e-01  -7.5610849e-02  -2.6090809e-01  -9.9474875e-01  -7.9244635e-01  -5.9833199e-01  -5.9647946e-01   3.0655273e-01  -5.5127568e-01  -1.1612185e-01  -7.0283432e-01  -5.5070304e-01   6.0218324e-01  -8.5847127e-01  -8.7322051e-01  -1.5207666e-01  -9.0083843e-01  -7.6089696e-01  -5.6913073e-01   7.3235209e-01  -3.6819561e-01  -6.3572497e-03   5.3281651e-01   4.5584440e-01   4.9311540e-02   6.3560589e-01  -5.2572590e-01  -8.3158022e-01   3.3916695e-01  -3.4253505e-01   5.8738417e-01   5.4291401e-01  -2.8261067e-01  -3.9372914e-01  -4.0275072e-01   7.7912065e-01   1.9222203e-02   3.0663911e-01   9.9759454e-01   4.4399448e-01  -9.5475084e-02   7.0693492e-01  -7.9432613e-02  -8.0612229e-01   1.0780943e-01  -6.1836222e-01   6.8967406e-01   1.1318557e-01   7.8159316e-01  -4.2428725e-01   2.1681122e-01   8.1712062e-01  -2.5279951e-01   1.3746593e-01   2.1516777e-01  -4.2911544e-01   6.7088067e-01   5.5289655e-01   3.5792556e-01   5.2015330e-01   4.1282995e-01   2.0209951e-01  -2.5294480e-01  -2.9610128e-01   2.1814748e-01  -2.2707339e-01   9.7928355e-01   7.3695400e-01   2.4488165e-01  -1.6112798e-01  -8.9837913e-01   5.1685549e-01   6.8766698e-01  -4.5813550e-01   5.9785722e-01  -5.0733519e-01  -2.8402677e-01  -7.7939369e-01   7.3286317e-01   6.1868298e-01  -5.2474182e-01  -8.1508301e-01   7.2461372e-01  -9.1910179e-02   9.1343086e-01  -3.8721164e-01  -7.1444640e-01  -9.9294840e-01   7.8795643e-01   7.8458381e-02   8.8610565e-01  -3.6632722e-01   4.2081166e-01  -9.6269821e-01  -1.7850539e-01  -7.5525092e-01  -2.2686397e-01   1.5701670e-01  -4.4413962e-01  -7.3184010e-01  -5.7869073e-01   8.7701506e-01  -6.2344606e-01   6.4191156e-01  -6.4979494e-01   6.6675926e-01
