   4.3017150e-01  -9.9410542e-02  -8.6624173e-01   8.1233437e-02  -3.7098319e-03  -6.0769402e-01   8.1139270e-01   8.6439539e-01  -1.2258302e-02   3.3128743e-02   8.6178816e-01  -1.8329667e-01  -8.1247454e-01   7.7584340e-01   1.3231719e-02   5.3399618e-01  -9.6600780e-01  -2.8578679e-01   9.7214537e-02   5.5908910e-01  -4.2833751e-01   5.1776867e-01   4.4828699e-02  -8.2452449e-01  -7.5710081e-02   2.3583867e-01  -2.2520411e-01   2.9551604e-01  -1.0010879e-01  -3.7941045e-01   4.7108159e-01  -9.7432701e-01  -4.9749137e-01  -2.6116852e-02   6.9597479e-01  -9.7122691e-01   2.8963834e-01   9.6440375e-01  -6.7829019e-01   4.8108852e-01  -3.3651979e-01  -8.9935858e-01  -9.0506185e-02   9.4683155e-01  -5.1621043e-01   1.6527280e-01  -4.0652497e-02   9.9509326e-01  -2.5713812e-01  -1.9793803e-01  -4.7681992e-01   6.6682949e-01  -3.6388187e-01   2.3278819e-01  -4.0160676e-01  -3.2243870e-01  -3.6798819e-01  -2.8118018e-01  -8.2073059e-01   4.9137633e-02  -3.9576088e-01  -7.4771090e-01   3.0240696e-01  -6.1101646e-02  -8.7327006e-01   9.7144322e-01  -4.0537740e-01  -1.6837024e-01  -2.7093980e-01  -8.6118109e-01   8.4164316e-01   5.6330950e-01   4.0469813e-01  -3.3873053e-01   2.9248639e-01   2.7256523e-01   5.3005856e-01  -3.1443730e-01  -5.2448914e-01   8.9718635e-01   7.2256968e-01  -7.3366530e-02  -6.3406301e-01   2.8141030e-01  -8.5039627e-01   3.7556048e-01   9.2486946e-01   9.6103811e-01   8.0685911e-01  -9.7317753e-01  -5.1550358e-02  -6.2924302e-01  -2.1340289e-01  -8.5872863e-01  -2.3588594e-01  -2.3551023e-01  -4.9318175e-01  -9.8941149e-01  -2.8608686e-01  -1.2001170e-01  -1.4442464e-01   2.8340592e-01   5.1539095e-01  -3.2042930e-01  -3.3437020e-01   8.1841517e-01  -9.2230279e-01   4.4620316e-01  -1.2173623e-01  -4.1259725e-01  -6.7261504e-01   6.1743853e-01   6.5535739e-01   7.6163084e-02  -3.4106264e-01   1.0710508e-01   9.3170463e-01   1.4957462e-01  -6.2781342e-01  -7.8759966e-01   4.1406732e-01   5.6591227e-01   4.9844685e-01   1.6008872e-01  -3.3466520e-01   8.9447736e-01  -9.5847909e-01   3.7986700e-01  -1.5266964e-01  -8.2589459e-01  -4.7997610e-01   6.2101950e-01   7.0892193e-01  -1.2609869e-02   2.6276980e-02   1.2347140e-01   4.1287042e-01   3.2552443e-01   1.6307628e-01   4.8523082e-01  -7.9899499e-01   6.5667662e-01  -2.6354521e-01  -3.0121135e-01   9.1383123e-01  -8.3743216e-01   1.4543997e-01  -7.4584063e-01  -4.4575996e-01  -7.7986487e-03  -8.8111750e-01  -4.2827783e-01  -4.2855293e-01   8.3928911e-01  -5.1422316e-01   9.5543441e-01   2.4785500e-01  -4.2851752e-01   6.7348735e-01  -5.0105977e-01  -4.6153935e-01  -7.3009356e-01  -7.8213481e-01  -9.9863336e-01   4.8990306e-01  -2.8396146e-01  -2.0366996e-01  -9.0795211e-01   4.3075226e-01   5.4347486e-01  -5.5744703e-01   8.6565072e-01  -5.0083584e-01   7.2936214e-01   3.9920542e-01  -1.9725235e-01   4.3243700e-01  -7.5701093e-01  -2.2794705e-02  -1.2097329e-01   7.7018582e-01   6.2407971e-01   3.9639037e-01   8.2720322e-01   8.2457586e-01   3.9023392e-01   6.8785865e-01   9.7649869e-01   5.5793624e-01   5.6612481e-01   9.4054968e-01  -3.7796734e-01   1.1406788e-01  -4.6302692e-01  -7.2943701e-01  -2.6203636e-01   2.3594065e-01  -7.0950952e-01   4.5729458e-01   8.6910277e-01   5.2604593e-01   8.0904704e-01   8.7795122e-02  -1.6487715e-02   8.7738561e-01  -1.2310807e-01  -2.2048943e-01  -7.0919165e-01  -2.7318308e-01  -9.6828577e-01   7.8063547e-01  -8.6228320e-01   2.7140927e-01  -3.0554244e-01  -5.9730377e-01   4.3318131e-01  -4.6100989e-01   9.7873486e-01  -7.1373851e-01   8.2816985e-01   5.6574550e-01  -1.3412391e-01   2.1931031e-01  -8.6130521e-01   2.9032306e-01   6.1670953e-01   2.7427601e-01   9.8206191e-01  -4.2586091e-02  -4.0643821e-01   4.1352023e-01   9.4138597e-01  -3.8267955e-01  -3.7595337e-01   7.8970752e-01  -1.7042565e-01   4.3535060e-01   5.2090252e-01   6.1046813e-01  -4.8818030e-01   8.7733519e-01  -8.4086483e-01  -6.3000034e-01  -4.3777502e-01   1.8089607e-01   1.8054045e-01  -5.9185182e-01  -7.1840642e-01   2.1810003e-01  -7.9732197e-02  -4.3076604e-01   3.8717609e-02  -8.1984763e-01   4.6699493e-01   6.0250859e-01  -7.4336551e-01   6.9459514e-01   4.6149626e-01  -5.3334230e-01   3.9438626e-01   5.2053743e-01   9.2005584e-01  -9.7859142e-01  -1.1586612e-01   6.0083047e-02   3.5833970e-01   8.3967340e-02  -3.6825075e-01  -6.2027186e-01  -7.6101248e-01   8.0793154e-01  -6.6992150e-02  -9.0573803e-01  -7.6733010e-01   7.1798728e-01  -6.4211499e-01   9.5648029e-01  -3.7596463e-01   8.6991832e-01   9.8762898e-01  -1.6125618e-01  -6.1859800e-01  -7.6592486e-01  -7.8781853e-01  -4.5390195e-01   5.7743780e-01   1.5432251e-01   4.0237966e-01   1.9586909e-01   3.0160812e-02  -8.9408154e-01   2.4262893e-01  -7.4750960e-01  -3.4906579e-01   4.8387217e-01  -5.5043889e-01   7.9642680e-01  -8.0780558e-02   8.0766368e-01   9.3261640e-01   3.2617477e-01   5.3708711e-02   3.1188764e-01  -9.9038834e-01   5.3255076e-01   2.1442943e-01  -9.3897142e-01   8.5571704e-01   3.6134592e-01  -3.7264751e-01  -9.6627370e-01   5.0962663e-01  -9.2632168e-02   1.5333358e-01  -4.1546716e-02  -9.6493263e-01  -1.0339629e-01  -1.2467668e-01   8.7109041e-01   5.7889143e-01   3.5950489e-01  -4.2712962e-01   3.9352272e-01   5.7634001e-02  -2.8245232e-01  -8.8391332e-01   6.4682016e-01   6.2771340e-01  -4.2935698e-01   3.2698493e-01  -3.6944801e-01   9.3639374e-04   3.6296628e-01   1.5912431e-01  -9.5268719e-02  -2.5735199e-01   5.7868307e-01  -4.4292950e-01  -6.9290995e-01   9.0547056e-01   1.3880639e-01  -9.6760651e-01   7.0769567e-02  -7.0653370e-01  -7.5672447e-02   8.1315928e-01   8.1805893e-01  -2.5976602e-01   1.9650721e-01   5.1348874e-01   4.7707115e-01   5.8008100e-01   4.8653804e-01   2.8075346e-01  -6.1153339e-01   6.9440120e-01   7.3920374e-01   3.8939544e-01   5.4253399e-01  -1.3103329e-02   7.3791657e-01  -7.8564144e-01  -3.9575041e-01  -5.4394511e-02  -8.1922835e-01  -9.1757611e-01   9.3149405e-01  -9.2083078e-01  -9.0933299e-01  -9.0799781e-01  -1.8190624e-01  -9.5368248e-01   3.7424443e-01  -1.6608304e-01   8.6517590e-01   4.0521185e-01  -9.6611324e-01  -6.5691099e-01   6.7133576e-02   6.0115766e-01  -6.4138741e-01   6.8552561e-01  -5.3412054e-01   7.8663139e-01  -8.0179946e-02   7.4561164e-01  -5.5609197e-01  -5.2905131e-01  -7.0710060e-01   8.7825967e-01  -4.2901193e-01   5.8290732e-01  -2.7236421e-01  -8.7474346e-01  -3.4940869e-01  -6.2824062e-01   3.1707816e-01   8.1895802e-01  -1.2604880e-01   8.1796974e-01  -2.1100279e-01   9.3035934e-01   4.9584079e-01  -2.8889476e-01   2.9624937e-01  -4.5245624e-01   6.4763001e-01   9.7064234e-01  -7.9724046e-02   8.2296316e-01  -7.6310157e-01  -6.9309468e-01   9.1965748e-01   1.1735707e-01   1.4477653e-01   1.6633397e-02   6.6948839e-01   3.4329108e-01  -8.3301389e-01   2.3291819e-01   9.5924740e-01  -5.3026271e-01   9.1766213e-01  -9.3620004e-01   3.6300664e-01   4.8263916e-01  -3.8293969e-01   3.1336906e-01  -8.2973591e-01  -3.3240097e-01   1.3767033e-01  -6.8141704e-02   3.8180673e-01  -2.7135627e-01   6.3385553e-01   1.9798265e-01   6.6925414e-01  -9.8499899e-02  -1.0825913e-01   6.1408050e-01   6.9551468e-01   3.9931819e-03  -4.3371091e-01  -7.3533457e-01  -5.8037205e-01  -1.7414260e-01  -1.1380697e-01   3.6389533e-01  -2.4833828e-01  -7.7271139e-01  -7.6795591e-01  -4.3437042e-01  -6.6047101e-01  -5.1489461e-02   1.2820213e-01  -9.5243308e-01  -9.2364048e-01   3.0402492e-01  -3.2209583e-01  -6.0426105e-01  -8.9394215e-01  -4.6218769e-01   4.3007360e-01  -8.2935581e-01   3.8999759e-01   2.3045015e-01   3.7842253e-01   2.8685825e-01   2.7261845e-01  -9.8980916e-01  -8.3250391e-01  -7.7648172e-01   5.4788629e-01  -5.9390960e-01   6.2075552e-01   4.6525802e-01  -7.8540034e-01  -7.4100027e-01  -7.2943341e-01  -3.1579947e-01  -9.4071243e-01  -6.0755112e-01   1.1329143e-01  -8.9853463e-01  -8.1549743e-01  -8.3975504e-01   2.9505992e-01  -6.2510888e-01  -3.5178321e-01  -5.8784915e-01  -6.7217582e-01  -6.1629896e-01  -6.1711231e-01  -7.0055536e-01  -2.4320909e-01  -7.9124630e-02   9.0858600e-01   5.8531263e-01  -4.1608470e-01  -4.2326298e-01  -1.6460189e-02   1.1099407e-01   7.3635069e-01   5.0521075e-02  -8.3493448e-01  -2.2283829e-01  -6.9599949e-01   1.7621124e-01  -9.1908048e-01   2.8638288e-01  -3.6217115e-01  -6.8262084e-01   6.4791682e-01   6.7723818e-01   2.4163714e-01  -6.6908989e-01   3.5315206e-01   7.2887023e-01   6.7001690e-01   7.8838167e-01  -9.1970439e-02   4.1080065e-01   8.2111387e-01   7.9965068e-01   2.7983161e-01  -3.7236811e-01   8.1739943e-01  -5.0911335e-02   4.6295807e-01   1.1793283e-01   9.3765367e-01  -8.0399230e-01   4.5563644e-01  -2.0629941e-01   5.6489569e-01   3.6345238e-01   1.8102305e-01   6.8377450e-01   4.0978652e-01   1.1413017e-01   2.3614775e-01  -6.9744900e-01  -9.8298135e-02   7.4777003e-01   2.3271789e-01  -9.4203232e-01   3.9569537e-01  -8.2116243e-01   8.4390862e-01   2.6154857e-01  -8.0879302e-01   5.1842448e-01   3.8686867e-01   6.0191654e-01  -5.0865667e-01   8.3559562e-01   6.2186994e-01  -7.8518750e-01  -7.4173017e-01  -8.7739415e-01   7.0974602e-01   9.6070547e-01   8.4285699e-01   2.6952869e-02   7.6774045e-01  -5.9663726e-01  -9.5236020e-01   4.3514317e-01  -6.0737008e-01  -8.4116057e-01   9.5014044e-01  -1.0277685e-01   1.4128567e-01  -8.0626141e-01   4.9552872e-01  -8.6043395e-01   2.2825225e-01  -3.5019208e-01  -1.3914255e-01  -1.2316183e-01  -5.4460820e-01  -7.3118884e-01   7.7923956e-01  -6.7527886e-01  -4.9994456e-01   7.1119335e-01  -1.2810740e-01  -6.9802852e-01   6.0801112e-01  -9.2911871e-02   2.2642946e-01  -7.1954995e-01   5.4641945e-01   2.4292477e-01  -8.0586947e-01   9.0963295e-01   1.6369132e-01  -6.8093731e-01  -3.6836575e-01   2.9361315e-01  -5.7835476e-01  -8.5157441e-01   9.9144927e-02   9.8292581e-02   4.2704404e-02  -2.1018793e-01   3.5023466e-01   6.3097516e-01  -3.1261212e-02  -3.4127068e-01  -8.9510863e-01   9.2233297e-01   5.2725773e-01   5.6374831e-01   5.2274693e-01  -8.2230820e-01   1.7067830e-01   1.2749737e-01   3.7070219e-01  -5.6361889e-01   3.2461629e-01  -7.2108921e-01   2.6784972e-01  -1.7557413e-01  -6.9929147e-01   4.8689729e-01   9.1127295e-01   8.6631266e-02   2.4788118e-01   3.1967594e-02  -9.7138107e-01  -5.9422937e-01   6.6975402e-03   6.0749896e-01   7.2096039e-01   5.3655492e-01  -9.6129604e-01  -1.0771698e-02   8.7699375e-02  -9.1371581e-01   8.4008157e-01   6.0041442e-01   9.3568427e-01   8.7229331e-01   2.8920697e-01   5.2361246e-02   6.3613054e-01  -8.9539002e-02   1.7827949e-01  -4.4530615e-01  -8.4348704e-01  -3.0344050e-01  -2.5291744e-01   4.1271923e-01   2.4683862e-01  -8.9763011e-01   9.3590571e-01   6.4735528e-01  -1.4730820e-02   5.7617154e-01   7.3501394e-01   9.2345697e-01  -2.6815636e-01   1.0510039e-01   2.3392760e-01   4.7860664e-01  -6.3956551e-01  -5.3555835e-01   3.2575724e-01   3.2129576e-01   1.9764336e-01   6.8578035e-02   9.8077267e-01  -5.8687937e-01  -5.4313428e-01   2.3944304e-01  -9.6254518e-01  -5.9737877e-01  -6.7254440e-01   3.0013691e-01  -4.4540950e-01  -4.6732742e-01  -8.1577480e-01  -2.5561279e-01   7.2379594e-01  -5.0540096e-01   2.2395317e-02   7.3394860e-01  -7.8153742e-01  -2.9615061e-01   2.3335940e-01   9.2792124e-01   2.8340949e-01   9.3400799e-01   3.5880759e-01  -9.3993847e-01   8.0971195e-02   9.6166673e-01  -4.2549209e-01  -7.5723332e-02   2.6057558e-01  -1.4183252e-02  -3.0086549e-01   3.8010806e-01  -8.7411470e-01   8.4765858e-01  -9.8228693e-01   7.9463544e-01  -2.1753456e-01   3.2700365e-01  -3.4125010e-02   1.0031704e-01  -1.5845174e-01   5.4233823e-02  -5.8336627e-01  -7.7647272e-01  -5.4493488e-01   5.2885666e-01   4.1926156e-01   2.9797551e-01   1.3828960e-01  -7.0330852e-01   6.7004541e-01   1.5704406e-01  -4.8513559e-01  -6.7697926e-01  -3.6239122e-02   5.8717409e-01   5.5132015e-01   8.1104560e-01  -7.5400192e-01  -8.8948930e-01   6.2585344e-01   9.6114233e-01   9.9374433e-01  -5.0396331e-01   9.9014549e-01  -5.7876087e-01   7.0293264e-01   6.0882407e-01  -8.9363031e-01   9.8019776e-01   2.1679242e-01   1.1048342e-01  -9.0422466e-01  -8.7442909e-01  -3.9857695e-01  -4.2831539e-01  -1.5531446e-01   3.6295132e-01  -4.2979295e-01   7.2943485e-01   4.3664508e-02   4.1288808e-01   5.5122183e-01   7.8080114e-01   8.0226405e-01   1.6977968e-01  -5.3553306e-01   6.8149306e-01   9.4776632e-01  -2.2896356e-01  -4.1214153e-01  -3.2571953e-01   6.7009843e-01   2.5163715e-01   3.0675488e-01  -3.6466402e-01  -1.8531409e-01  -1.2695736e-01  -8.9521449e-01   6.6206811e-01   2.8201474e-01  -8.4935109e-01   1.3717810e-01   3.4114722e-01  -2.4884210e-01   4.1477185e-01  -5.4017869e-01   6.7698686e-01   2.5244211e-01  -8.0116593e-02  -1.9182349e-02   9.6953522e-01  -2.4154721e-01  -8.1637730e-02  -2.5401551e-01  -3.4688410e-01   1.8841266e-02  -1.4403181e-01   6.0848003e-01   2.4455980e-01   8.2410128e-01   7.9795892e-01   8.6705691e-01   5.6740427e-01  -4.7272554e-01  -9.4056554e-01   5.0036761e-01  -4.2803613e-01  -4.5449825e-02  -8.1818222e-01  -6.0348774e-01  -4.3335069e-01   3.6013689e-01  -4.9502670e-02   7.6188528e-01  -2.1959257e-01  -5.3987345e-01  -9.0512043e-01   9.8639618e-01   7.6409743e-01   7.8103070e-01   4.6808531e-01   3.4068466e-01  -4.4030732e-01  -3.9747189e-02  -9.1388035e-01   9.0737364e-01  -9.9245814e-01   2.8404560e-01   8.9410758e-01   5.3500973e-01  -6.7664370e-01   8.9222839e-01  -7.5073166e-01   9.0544068e-01   9.3935644e-01  -1.1223893e-01   5.7763144e-01  -5.0540203e-02  -5.6122159e-01  -5.8914669e-01  -4.5237224e-01  -6.3576253e-01   7.9546918e-01  -3.4123029e-01  -1.9535470e-03  -8.9211429e-01  -7.6124952e-01  -4.9176529e-01   7.3743598e-01  -5.3143888e-01  -4.5745243e-01  -9.4523204e-01  -4.9705458e-01   7.1721720e-01   8.3549527e-01  -8.1468795e-01   2.2855363e-01  -5.8856141e-01   8.5023729e-01   9.8709484e-01  -9.5630855e-01  -3.1046248e-01   5.0591459e-01  -1.2856137e-01  -4.9907611e-01   4.5783696e-01  -8.3674768e-01  -2.0416707e-01  -2.8984962e-01   6.4486067e-01  -3.8966632e-01  -2.7774428e-01   6.3872893e-02  -3.9864705e-02   4.3853717e-01   4.2691150e-01  -7.7296561e-01   6.4293048e-01  -9.9407557e-01   8.7535153e-01   7.5898015e-01   5.1792791e-01   9.7964690e-02  -1.5482501e-01   6.7104262e-01   8.3860616e-01   9.1762624e-01   9.6632088e-01  -8.1112859e-02  -6.4253439e-03  -8.8522179e-01  -9.9802940e-03  -4.1539900e-01  -7.2412028e-01   4.1701688e-01  -7.7767401e-01   9.1856225e-01   8.3092891e-01  -1.7378150e-01  -7.7824081e-01   4.1454618e-01  -8.9442767e-01  -7.4111552e-01  -3.8842562e-01   7.2762789e-01   5.4627195e-01  -8.9674581e-01  -5.5698641e-01  -6.2343415e-01   2.4890554e-01   5.5266071e-01  -9.0202505e-01   1.0085907e-01  -9.9244863e-02   3.7408623e-01  -7.8535423e-01  -7.7105392e-01  -4.9104238e-01  -8.7982971e-01  -1.8946016e-01   1.2118929e-01   8.7496246e-01   2.7234099e-01  -4.8705775e-01  -6.5104821e-01  -6.7185465e-01  -8.5858356e-01   2.6931753e-01  -1.1029960e-01   7.7829480e-02   2.6283613e-02  -4.7625171e-01   7.3987977e-01   9.9545062e-03  -7.3287786e-02  -2.1040672e-01  -9.6382883e-01  -4.7589829e-01   8.8310253e-01  -8.6072640e-01   8.7296517e-01  -6.0281438e-01  -8.9123063e-01   4.3002311e-02  -5.0425058e-01  -8.2183633e-01  -6.9445942e-01   6.7094443e-01   1.3881754e-01  -8.6978596e-01   5.7844482e-01  -9.9125291e-01   8.1446576e-01  -3.1332102e-01   2.6360499e-01  -6.0293404e-01   5.5321728e-01  -3.1032409e-01  -8.3911469e-02  -9.2532955e-01   4.1627694e-01   8.4571612e-01   3.9083288e-01  -5.6683546e-01  -3.2427624e-01  -9.1071378e-01  -7.2476168e-01  -7.3640164e-01   6.5577694e-01   8.6856914e-01  -4.4819036e-01  -5.4301057e-01  -8.6521210e-01  -7.4963221e-01   7.5267727e-01   8.8635784e-01  -9.3134803e-02  -6.1723984e-01  -6.4608728e-01   5.0539108e-01  -5.9911276e-01  -1.1355086e-02  -9.1847817e-01   9.0976992e-01  -1.4413082e-01  -9.7641969e-01  -2.8098376e-01   1.1594263e-01  -6.1209969e-01   5.8063395e-01  -6.3731555e-01  -1.4125178e-01  -4.9771377e-01  -2.4673032e-01   1.7077761e-02  -3.3603178e-01   6.5391560e-01  -9.9197187e-01   2.0596151e-01  -7.2170526e-01  -7.6282924e-02   5.8151118e-01   9.9582958e-01   2.3743713e-01  -4.0348739e-01  -8.8314838e-01   3.2426751e-01
