  -5.3581673e-01   3.2924393e-01  -9.9342559e-01  -7.4979182e-02  -8.9672315e-01  -1.7636033e-01  -7.6522006e-01   4.8345083e-01   9.1421796e-01  -7.3763139e-02   8.8037720e-01  -1.6582184e-01   7.4487749e-01  -9.9911737e-01  -9.1124582e-01   1.2293112e-01   1.1375307e-01  -3.8315802e-01   9.6510970e-01  -1.8935157e-01   9.0185278e-01  -7.1629241e-01  -9.8892959e-02  -7.5333493e-01   1.9312954e-01   3.0671269e-02   4.3182263e-01  -3.3654358e-01  -3.6926992e-01  -3.9409459e-01   1.0637669e-01  -1.3016157e-01   5.8819232e-01  -8.8019417e-01  -7.7869889e-01   2.9333757e-01   1.3207130e-01  -8.2304204e-01  -6.9973627e-01   5.5900505e-02  -4.4712894e-01  -5.6833294e-01  -2.7378231e-01   7.1536233e-01  -4.9476197e-01  -8.1803670e-03  -5.7792253e-01  -5.9166409e-01  -8.5170278e-01  -6.3476987e-01  -1.2410398e-01  -8.6219746e-01  -1.1756868e-01  -8.2069158e-01   7.9237059e-01   8.7041018e-01  -5.2371606e-01  -7.4890943e-01   5.8114373e-01  -2.7202127e-01  -5.8710018e-01  -5.4742441e-01   9.8518123e-01   5.6066028e-02   6.4893132e-01   9.1912927e-01   9.5719393e-02   3.1994164e-01  -2.7460213e-02   7.9731042e-01  -7.2016519e-02  -9.7139287e-01   6.3527840e-01  -3.4251043e-01   8.8977952e-01  -2.4090401e-01   5.6556178e-01   1.5751145e-01  -9.6382261e-01  -7.3352613e-01   5.4900621e-01  -9.6227601e-01  -4.8009840e-01  -4.7645376e-01  -3.1692860e-01   3.5886642e-01  -7.0343418e-01   5.3418342e-01   1.8868534e-01  -4.7997968e-01  -5.6675877e-02   8.2246290e-01  -2.9099599e-01  -5.6400971e-01   2.4826268e-01  -9.2976985e-01  -5.5459192e-02  -3.7150698e-01  -3.6066620e-01  -8.8190289e-01  -9.3555133e-01  -8.0977016e-01  -2.3711940e-01  -2.4451330e-01  -2.4347784e-01   2.8115749e-01  -7.3834380e-01  -8.0732591e-01  -6.4298093e-01   2.5103174e-01   4.4832249e-01   9.6452103e-01  -2.8178850e-01   4.0135069e-01  -3.8694095e-01  -2.0975527e-01   3.8414313e-01   1.6161649e-01  -6.0421240e-01   4.9049050e-02   2.1977339e-01   8.1886867e-02   1.5896724e-01  -3.0767612e-01  -1.9167351e-01  -9.5199410e-01  -8.4229724e-01   2.0708693e-01  -9.7692592e-01  -5.4857327e-01   9.4502088e-02   9.9942820e-01   4.3306152e-03  -3.3538317e-01   5.9999671e-01  -5.0582163e-02  -1.8213887e-01   2.6609914e-01   9.7215051e-01  -2.1990507e-01  -6.9534364e-01   6.2021638e-01  -3.4752296e-01  -7.7142355e-02  -1.9522791e-01  -3.9692965e-01  -3.9142304e-01   7.7859592e-01  -3.9555957e-01   8.7671639e-01   1.5020763e-01  -9.7236921e-01  -6.3849197e-01  -2.2729755e-01   8.6451269e-01  -6.5766154e-01  -3.5326773e-01   6.4239943e-01  -4.7895040e-01  -9.4300845e-01   7.8219726e-01  -7.9756892e-01   9.3531152e-01  -4.6443689e-01   5.3012933e-02   9.3921535e-01  -2.7988301e-01   3.9201897e-01   8.3500400e-01  -3.4358560e-01   5.3392948e-01  -4.0364139e-01   5.4768601e-01  -5.7811704e-01   9.3457717e-01   6.2126697e-01   3.4898890e-01  -5.5238896e-02  -8.4590407e-01   1.6153209e-01   8.4431929e-01   3.9811770e-01  -3.7553454e-01  -2.6647187e-01  -1.9705950e-01  -7.1017251e-01   5.7044961e-04  -3.2774316e-01   7.2843273e-01   4.3203482e-01  -5.3305544e-01   9.9960538e-01  -8.4241189e-01  -3.5249825e-01   7.2126547e-02  -3.2732823e-01   4.7323610e-01   8.2880330e-01   2.6555774e-01   2.7332260e-02  -5.7856523e-01   4.6731723e-01  -1.4835421e-01  -9.5593829e-01  -4.3545669e-01  -6.2685933e-01  -8.3521398e-01   4.0576351e-01   4.1249582e-01   2.1775709e-01  -9.1372430e-01  -6.4982089e-01   1.9393937e-01   4.7731216e-01   3.8453583e-01   9.4368933e-01   3.2759443e-02  -3.7212595e-01   3.5589992e-01   1.2320206e-01  -6.5655785e-01   8.3554839e-01  -6.3644406e-01  -1.8001780e-01  -2.4641317e-01  -5.3097784e-01   5.1174542e-01   4.5819952e-01  -4.3082630e-01  -8.0774590e-01  -4.6546993e-01   6.5812941e-01   6.8606065e-01   8.1596073e-01   3.4608373e-01   9.7597839e-01  -9.2722801e-01  -4.8459785e-01  -7.0750341e-01   9.8452058e-03   2.8795284e-01   7.2012434e-01   4.7677611e-01  -3.9876391e-01   6.3643638e-01  -9.7067272e-01   9.9576211e-01   3.1852153e-01  -1.0217021e-02  -4.1810049e-01  -3.0778564e-01   4.6792287e-01   2.7159326e-01  -3.6746945e-03  -9.5573278e-01  -8.0305203e-01  -1.7784523e-01   9.5290364e-01   8.0564967e-01  -8.8844155e-01  -8.5049990e-01  -3.3421378e-01   5.6277742e-01   8.0001837e-02   2.3373051e-02   3.0694226e-01  -3.2880645e-01  -2.0091888e-01  -1.7207135e-01  -7.9325465e-01   1.2338206e-01  -7.1074620e-01  -6.1542000e-01   4.5581834e-01  -9.7684732e-01  -4.4677692e-02   1.2527524e-01   7.7588200e-01   6.5277728e-01   4.4205878e-01   5.9986098e-01   6.1633134e-01   3.4528637e-01  -8.4810073e-01  -5.2663400e-01   9.7288479e-01   1.5977822e-01  -4.8474299e-01  -9.6940739e-01  -5.0915689e-01   2.2440268e-01   6.9221611e-01   1.3851976e-01   2.9024403e-01   6.6054811e-01  -5.9508198e-01   3.9432832e-01  -7.7911358e-01  -3.7171668e-01  -3.7831450e-01  -9.4005796e-01   2.8935886e-02  -9.4512825e-01  -8.0720944e-01  -3.3358715e-01   6.3743771e-01  -6.5177316e-01  -4.9811604e-01  -1.0010716e-01   2.6643284e-01   2.9166185e-01  -4.3145250e-01  -5.6516983e-01   7.2126234e-01   2.4120320e-01  -4.6891696e-01  -1.1068663e-02  -5.5856734e-01   6.2747628e-01   7.5877022e-01  -6.1872306e-01  -5.3368245e-02   6.4188785e-01   3.7501891e-01  -8.4315700e-01   3.1892604e-01  -2.4519346e-01  -6.6141311e-01   6.9080928e-01  -5.8053764e-01  -7.0546998e-02  -2.0262815e-01   7.2675128e-01   1.6675824e-01   8.9503676e-02  -7.0821368e-01   6.6018931e-01   3.3102755e-01  -4.1126901e-02  -5.7997571e-01   7.6822631e-02  -4.6508239e-01  -2.7330277e-01  -7.0169511e-01  -6.3570306e-01  -9.8418504e-01  -8.6099546e-01  -2.7639940e-01   6.2794040e-01   5.4392219e-01   8.8166365e-02   3.6594215e-01  -5.9337054e-01   2.1591564e-01  -1.1274992e-01   8.0958402e-01  -9.1114017e-01   8.7010602e-01  -6.3889004e-02   1.1779663e-02  -7.3646021e-01   3.8113997e-01  -9.1550874e-01   9.0608269e-01  -6.2537445e-01   4.4352033e-01  -8.7828488e-01   9.7798623e-01   5.9070407e-01   4.5645240e-01  -9.7757257e-01   2.4340451e-02  -2.4989030e-02   8.2636644e-01   6.8037681e-01   2.5752929e-01  -5.9609759e-02   7.3756694e-01   1.2871231e-01   1.8607065e-01   4.2701840e-01   5.2628764e-01   6.2116454e-02  -4.2427731e-01   2.6068082e-01   4.9716590e-01  -6.8226431e-01  -1.2124299e-01  -2.0731115e-01  -2.6155259e-01  -4.7209126e-02  -9.0479189e-01  -2.4791654e-01   7.6707157e-01  -6.3069313e-01  -5.0740264e-01   3.9910244e-01   2.2461016e-01  -4.9779268e-01   7.8761413e-01  -2.5267816e-01   2.5729689e-01   9.9202990e-01  -4.2644245e-01  -7.1105121e-03  -8.9286391e-02   8.6468400e-01  -1.0656959e-01  -5.6841069e-01  -3.7323412e-01  -9.9830706e-01  -5.8935268e-01  -4.7771235e-01  -7.5374846e-02  -4.9169449e-02   2.2385970e-01  -8.2820067e-02   5.1847128e-01  -5.1579936e-01  -3.0607790e-01  -2.4219306e-01   4.1163192e-01  -9.3723523e-01  -8.9892450e-01   8.4911021e-01   2.2839649e-01   2.3199655e-01  -9.3553640e-01   8.3927623e-01  -9.3694630e-02  -5.1936550e-01   7.3538667e-01   5.1984183e-01   7.5028321e-01   1.7805213e-01  -3.9136585e-01  -2.7665765e-01   2.0945541e-01   4.2107949e-01  -4.3630527e-01  -9.3516026e-01   4.1295004e-01   6.2696539e-01   9.8584768e-01   4.7367891e-01   2.9456124e-01  -7.6756550e-01  -4.1769410e-01  -4.8422486e-01   1.6696527e-01   6.9577891e-01  -9.6993680e-01   7.0742731e-01   9.6589897e-01  -4.3474903e-01   6.0162775e-01   7.6287317e-01  -5.1182256e-01  -3.8894633e-01  -2.4692649e-01   6.3157845e-01   8.4981630e-01  -4.8349575e-01  -7.8136462e-01   9.0621101e-01  -5.5639931e-01   8.5931268e-01   2.2446247e-01  -6.5109831e-01  -9.3597986e-01  -1.8587664e-01  -8.2089990e-01   1.0734226e-01   8.6397745e-01  -3.6748659e-01  -5.0253337e-01   4.6260130e-01   4.7812370e-01   8.1489128e-01  -6.5825174e-01  -3.1055802e-01   4.0048621e-01   2.6651880e-01   6.1884387e-01   2.6374779e-01   7.9276401e-01  -6.9134238e-01  -9.2234051e-01  -8.7665237e-01   9.1696337e-01  -4.2320801e-01  -5.4128154e-01   5.1897248e-02  -1.1617571e-01  -3.5177160e-01   8.7998590e-01  -9.2893847e-01  -3.6607552e-01  -2.7891068e-01   6.0886791e-02  -5.3038578e-01   8.1018814e-01   2.2873020e-01  -5.5458842e-01  -6.3873958e-01  -6.0044700e-01  -9.4788541e-01   4.4115747e-01   7.6940273e-01  -8.3819168e-01   9.2008831e-01  -6.0400116e-01   9.8377058e-01   2.6792988e-01   1.5592244e-01  -2.8830108e-01   4.5313717e-01   6.1849388e-01   9.5503850e-01  -5.6370709e-02   1.6257529e-01  -1.8120470e-01  -7.8942642e-01  -9.8623003e-01   9.7587661e-01   3.8695656e-01  -6.2571077e-01  -7.5954658e-01  -6.4274399e-01  -1.7012728e-01   3.5274132e-01   1.8646818e-01   3.2198807e-01  -9.0367632e-01  -2.3911062e-01  -7.2340024e-01  -5.0102268e-01  -4.2287300e-01  -1.0509186e-02   3.8634369e-01   2.2251458e-01   8.0390667e-01   7.1851353e-01   4.7853570e-01  -4.3889727e-01  -8.6477811e-01   2.7787832e-01  -5.1923436e-01   1.9128844e-01   3.1795160e-01   1.5371285e-01   8.0112302e-01  -7.2939505e-01   8.8286930e-01  -8.1379557e-01   3.9967676e-01   9.7562008e-03  -7.0284421e-02   1.9047530e-01  -2.1597094e-01  -7.7151702e-01  -8.9253438e-01   9.2130776e-01   1.8069035e-01   1.6658432e-01   3.9796878e-02   1.2274100e-01   2.7954327e-01  -5.1952866e-01   7.3365879e-01   2.4578448e-01  -4.7204953e-01   9.8378810e-01  -2.8365563e-01  -6.7134340e-01  -5.5467146e-01  -3.3953878e-01  -8.8695701e-01   3.9619493e-01  -7.7575943e-01  -9.2671761e-01  -3.0878095e-01   2.6880327e-01  -6.6494999e-01   2.5077300e-01  -4.8284864e-01   8.9941213e-01  -8.7728216e-01   4.4914123e-02  -9.0332822e-01  -9.0205770e-01  -4.4157494e-01   8.8058176e-01  -4.4608432e-01  -9.8299529e-03  -7.9016408e-01   1.6931020e-01  -9.2607632e-01  -6.1674664e-01   3.3630704e-01   9.1180116e-01   4.5432076e-01  -9.9255597e-01  -9.7612551e-01  -7.8668301e-01  -9.0396292e-01   1.1179688e-01   1.9648172e-01   8.4053851e-01   6.7647139e-01   2.7891602e-01   4.2598496e-01  -4.7990079e-01   5.8613394e-01  -5.6185120e-01  -6.3400854e-01  -9.7595672e-01   3.7866217e-01  -5.1868503e-01   6.0539812e-01   8.2376070e-01   6.6148747e-01  -5.5175571e-01   1.0445545e-01   3.4139079e-01   4.8513609e-01   9.4039403e-01   2.8926236e-02  -6.0390847e-01   1.4848563e-01  -3.6422311e-01   4.2348891e-01   3.9460760e-01  -9.1035140e-01  -5.0798379e-01   2.9753610e-01  -8.0433704e-01   7.3751166e-01   3.7423621e-01   8.6469677e-01   3.8468443e-01  -1.9662592e-01  -7.3430277e-01  -3.2052455e-01  -4.7052539e-01  -7.0924348e-01  -9.6409654e-02  -1.3057491e-01   8.6559526e-01  -4.2713802e-01  -3.1933242e-01   4.1553611e-01   9.4123876e-01  -7.5176392e-02   1.8280185e-01  -2.1609644e-01   9.0828713e-01  -6.3082572e-01   3.2970233e-01   1.1976929e-01  -8.4073604e-01   4.4645489e-01  -3.7234192e-01  -9.6339638e-01  -8.4351557e-01  -2.4405064e-01  -5.8042710e-01  -2.6419757e-01  -2.9694974e-01   9.0800561e-01   4.3155750e-01  -2.6333201e-01  -8.3861738e-01   9.7625255e-01   6.8618424e-01   6.3638925e-01   2.6826278e-01  -7.7446091e-01  -5.3554766e-01  -3.2960351e-03  -7.7377980e-01   2.2133477e-01  -9.1894371e-01   2.8675723e-01   4.0202446e-01   9.8666030e-01   7.0474491e-01  -8.7679643e-01   1.0782834e-04   6.7731751e-01   1.1143171e-01   4.7525532e-01   9.1803321e-01   4.2732648e-01   5.2760201e-01   3.5462560e-01  -1.8835517e-01  -8.8440020e-01   5.6104786e-01   1.0519897e-01  -7.3031941e-01  -6.5188852e-01   2.9336324e-01   5.7092929e-01   9.0436729e-02  -5.9387305e-01   2.6789574e-01  -8.5108650e-01  -1.8255420e-01   3.8101603e-01  -1.7810214e-01   2.2797863e-02  -4.7495286e-01   7.1026170e-01  -8.9526458e-01   8.4321142e-01  -7.8863317e-02   8.3363214e-01  -1.4276876e-01  -5.2301523e-01  -4.3597433e-01  -4.5456471e-01  -5.9954379e-02   3.8780430e-01  -5.0625643e-01   4.1331079e-01  -5.4679980e-01  -3.5551049e-01   6.4969758e-01   7.5703154e-01   1.1755848e-01   5.5914342e-01  -3.0715555e-01   8.2035588e-01   3.5579810e-01   3.1768245e-01   1.9819929e-01   2.4495075e-01   2.5135206e-01   5.3928606e-01   4.7316469e-01  -8.2401470e-01  -2.9603042e-01   8.8167147e-01   2.6925932e-01   7.2510364e-01  -9.6290980e-01  -2.3457380e-01  -7.7395475e-01   6.7998879e-01  -5.0337580e-03  -2.8486815e-01  -2.3561103e-01   4.7479689e-01   3.6396899e-01  -8.6406819e-01  -9.0270885e-01  -1.4521031e-01   3.4733912e-01  -8.2636548e-01   6.4645481e-01   7.8876252e-01   5.3876345e-01  -3.9607629e-01  -1.1520282e-01   4.2467523e-01   9.5477218e-01   3.3533375e-01  -6.6813574e-01  -9.2331344e-01  -4.8900298e-01  -9.2557090e-01   8.7745261e-01  -2.1134491e-01   7.3244518e-01  -5.2530202e-01  -3.1382088e-01  -7.3833725e-01  -5.0969871e-01  -6.8105673e-01   4.4605627e-01   3.8051582e-02  -9.6279174e-01   3.8909131e-01  -4.8597074e-01   3.5541183e-01  -5.4781064e-01   3.7711382e-01  -5.3164794e-01  -5.7481583e-01  -1.4407158e-01  -8.3678432e-01  -4.2047376e-01   4.9871438e-01   5.4080035e-02  -1.8019432e-01   7.9413614e-01   8.9743135e-01   8.0226553e-01   8.2183728e-01   1.1586137e-02   1.1033019e-01  -8.2150791e-01   1.6794416e-01   8.8663459e-01  -7.7108931e-01   4.8817662e-01  -1.2091144e-01  -6.8448543e-01  -4.6672147e-01  -2.7301421e-01  -5.7644251e-01   6.9690319e-01  -1.1305610e-01  -1.3629188e-01  -4.2283720e-01   5.6693604e-01   5.1912552e-01  -6.3427965e-01   4.7848218e-01  -5.7256597e-01  -7.7577044e-03   8.3750099e-01   9.3920904e-02  -2.1004412e-01   2.3247526e-01   5.3881468e-01  -2.4531654e-01   1.9032479e-02   8.4876889e-01  -8.5663483e-01   6.0213133e-01  -3.6726621e-01  -1.7063374e-01  -1.8917645e-01  -9.6959020e-01  -3.1422290e-01  -6.4554080e-01  -5.2241032e-01  -6.4028096e-01   7.5456067e-01  -4.9419966e-01  -3.6483422e-01  -5.6406525e-01   1.4719763e-02   9.6108463e-01   5.2322949e-01   9.0217592e-02   3.3990098e-01   8.4102006e-01  -7.9268116e-01  -9.7804459e-01  -5.0817166e-01  -3.7544873e-02   9.0499026e-01   9.2934122e-01  -8.7581982e-01  -6.1547467e-01   1.3590471e-01  -9.2690975e-01   2.7950444e-01   1.4307845e-01   2.9841044e-02  -6.8195799e-01   3.8533089e-01  -3.0999257e-01  -8.4059905e-02  -1.3940905e-01   4.3440994e-01  -3.4224586e-01   5.3231694e-01  -6.8885013e-01   3.1279150e-01  -7.5724503e-01   7.3030338e-01  -1.8389786e-01   9.1596421e-01  -4.3803487e-01  -4.1680843e-01  -5.3971218e-01  -4.0287351e-01   8.3279653e-02   1.8968107e-01   3.8609024e-01  -4.1275509e-01  -6.3025601e-02  -8.1926465e-01   2.0730793e-02  -9.0349245e-02   7.1593003e-01   8.1253060e-01  -4.2673486e-01  -8.1698411e-01   5.4378675e-01   4.1125123e-01  -8.8624151e-01   9.6527551e-02   5.4750528e-01   9.0876088e-03  -2.6565765e-01   7.1595914e-01  -8.4416739e-01   1.6418279e-01   6.1630174e-01  -6.2067037e-03  -9.4929803e-01   6.5150734e-02   4.0613993e-01  -1.4534523e-01  -3.5006318e-01  -9.0685302e-01  -8.9727233e-01   4.5212571e-01   2.8811677e-01  -9.3785592e-01  -1.1615237e-01   9.2104103e-01  -5.3381538e-01  -1.2126633e-01  -5.6124912e-01  -3.8957851e-01   2.7378347e-01   8.1856675e-01   6.7122011e-01  -3.1659289e-01  -2.7698193e-01  -7.4793690e-01  -1.3115941e-01  -1.6871398e-01  -9.7491021e-01   7.1192817e-02   6.6795428e-01  -3.0668706e-01   6.2451943e-02  -1.6652396e-02  -7.0670681e-01   8.9984601e-01  -1.8383530e-01  -2.5223355e-01   2.2164361e-01  -1.0129414e-01   3.9780861e-02   7.7050826e-02  -5.5914423e-01   9.8165540e-01   8.1807611e-01  -6.4667046e-01  -2.5505915e-01   9.6954554e-01   5.7409501e-02   7.4042339e-01   2.4983424e-01   7.4449860e-01   8.5438744e-01   4.3582947e-01  -8.4543766e-01   2.9727930e-01  -1.6678081e-01   2.8533386e-01   2.9872139e-01   4.2174852e-02  -5.1208765e-01  -5.2853443e-01   4.3076350e-01   3.6870937e-01  -4.7125402e-01   4.0328855e-01  -2.5549018e-01   7.9674601e-02   4.6570477e-01  -8.1651957e-01   6.9636118e-01  -1.2203053e-01   3.4516663e-01  -7.9904464e-01   8.5995940e-01   3.3175957e-01   5.5060885e-03   2.6206422e-01   3.8146613e-01   7.0369879e-01  -1.3241704e-01   4.4584499e-01   7.3456824e-01  -9.8781932e-01  -8.2484840e-01   4.5767099e-01  -6.9041276e-01  -3.5513999e-01   3.9604741e-01   4.4809176e-01  -1.3409420e-01   6.9029342e-01  -6.3000843e-01   8.8348976e-02   6.3371134e-01  -3.6439304e-01   5.3461036e-01  -3.3858469e-01   7.4372610e-01
