   8.6771846e-01   4.2326460e-01  -1.4903894e-01   3.7128950e-02   3.6978799e-01  -5.6639469e-01   8.3033885e-01  -9.9028248e-01   3.3140178e-01  -3.0759999e-01   4.3899152e-01  -3.1494054e-01   8.2667631e-02   3.1376512e-01  -5.5195861e-01   9.0470299e-01  -4.4652949e-01  -6.4931514e-01  -7.9524067e-01  -5.4286622e-01  -6.6384242e-01   2.7254326e-01   7.8206486e-01  -9.4976131e-01  -8.6320796e-02  -3.9296075e-01  -1.6695300e-02  -6.3108938e-01  -3.5934844e-01   8.9079397e-01   8.2794043e-01   8.4869495e-01  -5.8201850e-01   1.1094161e-01   8.2677698e-01   8.2981074e-02  -2.6161521e-01   3.8787040e-01  -9.2975628e-01  -6.5659833e-01   5.1141192e-01  -9.4469336e-01   4.1099307e-01   2.1145848e-01  -5.5482258e-01  -9.4859438e-01  -3.0575621e-01  -9.7811770e-02  -2.2389575e-01  -5.8407983e-01   6.4262298e-01  -4.6797054e-01   7.8014294e-01  -8.3882483e-01  -1.7291832e-01   1.1584895e-01  -8.9128806e-02  -5.4116959e-01   8.3503788e-01   5.6178543e-01   7.3925533e-01  -7.5121379e-02  -2.2567950e-01   3.1306835e-01  -9.6439664e-02   6.1972140e-01  -7.4538574e-01  -4.6342562e-01   3.1514517e-01   5.0440151e-01   4.6832896e-01  -1.8218580e-01  -5.9812438e-01  -7.0616878e-01  -7.7540118e-01   8.3983691e-01  -6.0075206e-01  -6.5649594e-01   8.8782888e-01  -4.0683513e-01  -1.4319362e-01  -9.5249353e-01   3.1060422e-01   9.6784999e-01  -8.2632783e-01  -3.3000080e-01   9.9217072e-03   8.4662659e-01   2.1422467e-01   2.5011852e-01   9.5765105e-01   7.2897111e-01   9.1284892e-01  -5.8270788e-01  -9.4496889e-01   3.3510658e-01   9.3217074e-01  -9.0990503e-01  -6.6714765e-01  -1.9008096e-01   2.0774486e-01  -9.4678883e-01  -6.0113144e-01   3.0716641e-01  -5.3993103e-01  -5.9558779e-01  -3.1829892e-01   7.7249802e-01   1.7665170e-01  -5.4027659e-01  -1.7936857e-01  -1.6906500e-02   4.2305492e-01   7.6831091e-01  -7.9411247e-01   9.1517935e-01  -1.3182852e-02   4.6488028e-01  -3.3718585e-02   2.1764463e-01  -7.2067528e-01  -2.9045284e-01   9.1207992e-01   2.5831188e-01   1.2606963e-01   1.9309757e-01   1.9248355e-01   5.3535537e-01   4.9436968e-01   5.9115275e-01  -3.5276771e-01  -6.6392521e-01  -7.9360528e-01  -5.3551884e-01  -4.4613200e-01   9.6195391e-01   7.7873993e-01  -8.7991279e-01  -6.0844437e-01   5.9797531e-01   5.2639451e-01   1.3475556e-01   5.9506661e-01  -9.1838977e-01   4.4558788e-01   1.6875469e-01  -2.8555654e-01  -9.5429832e-01   8.4336937e-01  -4.8973892e-01   6.7604615e-01   6.7377691e-01  -6.7967334e-01  -3.1813934e-01   6.5025030e-01  -7.9509223e-01   7.5022157e-01   2.9796947e-01   3.4944352e-01  -4.8102402e-01  -1.4876480e-01  -8.4254954e-01  -4.9351075e-01   3.4641984e-01   9.8492257e-01   2.3773195e-01   5.4896764e-02  -2.6262501e-01  -4.0340838e-01  -2.5169820e-01   7.9446367e-01   7.9242216e-01   6.3543332e-01   2.3946391e-01   6.8996226e-02   7.3405597e-01   1.0610419e-01  -6.5823629e-01   9.3782286e-02  -3.1768780e-01  -5.6050059e-01   9.3740578e-01  -5.9551404e-01   4.7056722e-01   1.1796498e-01   8.4400611e-01  -6.3848200e-01  -8.0627956e-01   8.6838691e-01  -8.6416764e-01  -2.7531949e-01   3.3682249e-01  -3.8779364e-01   7.8861869e-01  -9.5078044e-01  -8.2837701e-01  -6.6425698e-01   9.6423601e-01   3.3152933e-01   1.2521120e-01  -8.2076464e-02   6.6168385e-01  -4.8093537e-01  -3.9683500e-01   3.0707031e-01  -3.0054205e-01   9.7890649e-01   5.0516979e-02  -4.8523807e-01  -3.2302645e-01   3.6694956e-01  -7.9310854e-01  -9.9066957e-01   5.0475457e-02  -6.4763277e-01  -4.6352987e-01   4.8387026e-01   6.5585926e-01  -6.0968381e-01   3.4001431e-01   6.8699257e-01   8.1089058e-01  -4.3258147e-01  -6.9675112e-01  -9.0275231e-01  -6.2011966e-01  -1.0207041e-02  -8.8692380e-01   6.5842829e-01   2.7926835e-01   6.8047603e-01   5.2933808e-01   5.0491174e-01  -2.4615801e-01  -7.2027042e-01  -5.9529117e-01   1.5926573e-01  -6.3526746e-01   5.2644642e-01   9.9162181e-02   1.2039123e-01  -7.3145522e-01   2.5382531e-01  -8.6680794e-01   5.2656303e-01   1.6459710e-01   8.2449239e-02   7.5373112e-01  -4.8886704e-01  -9.1258731e-01  -6.0382464e-01   3.3985219e-01   9.6379532e-01   3.8997156e-01   7.3541304e-01  -4.5718762e-01  -2.7979979e-01   4.0273823e-01  -9.9451993e-01   9.6837661e-02   9.7548086e-01  -4.9656922e-01   1.7382222e-01   1.6750235e-01  -6.1079450e-01  -9.6466647e-01  -3.2551041e-01  -8.1956555e-01  -3.1060944e-01   3.3454613e-01  -6.3697200e-01  -5.4751397e-01   9.2755472e-01  -1.2293728e-01  -2.4267960e-01  -5.6306750e-01   2.4999873e-01  -9.0233711e-01   5.1632712e-01   8.6127401e-01   3.4994556e-01  -4.3685856e-01  -1.0560225e-01   4.2219806e-01  -7.8707393e-01  -9.1059381e-01   5.0487596e-03  -1.5284409e-01   2.8276822e-01  -1.5781598e-01   8.8888589e-01   7.1492568e-01   4.1102781e-01   5.9794394e-01  -5.8729288e-01  -2.8024371e-01  -2.5986935e-01   7.7521949e-01  -8.8302768e-01  -8.3866433e-02   3.3091667e-01   3.5940948e-01  -6.5578815e-01   3.5022421e-01   4.8537404e-01   5.8444846e-01   9.7910936e-01   6.5263295e-01  -7.7129964e-02   7.9180883e-01  -4.2542817e-01   4.9147733e-01   9.9687138e-01  -5.8989827e-01  -6.2796348e-01   1.9156544e-02   9.7126001e-01   4.3397550e-01   1.8392390e-01  -9.5109012e-01  -3.3700669e-02  -6.3257265e-01   7.3237202e-01  -5.1218173e-01  -7.5517670e-01   2.6040940e-01   7.6907754e-02   4.9621989e-01   4.1219778e-01   5.4825496e-01   9.0828597e-01   9.0937492e-01  -9.8467083e-01  -6.4515948e-01   4.5960407e-01  -3.8843104e-01  -7.2963089e-01  -5.9534974e-01  -6.3161092e-01  -8.3678084e-01  -5.2799086e-01   2.9945052e-01  -6.0588844e-01   3.8260514e-01   2.4858986e-01   8.1108213e-01   8.2439079e-01   1.8877603e-01   4.3939697e-01  -7.0992621e-03  -9.5783424e-02  -8.2320232e-01  -3.6423398e-01  -1.7151539e-02   6.2291986e-01   4.2904559e-01  -7.1739034e-02   1.3836357e-01  -1.1885800e-01  -7.8601951e-01   9.7842436e-01  -4.8235581e-01  -3.2800652e-01  -7.9329505e-01   6.8785094e-01   4.6942705e-01   2.2441533e-02   4.4873135e-01   2.0099067e-01  -3.9238923e-01   6.7658158e-01   9.4446295e-02  -6.0125373e-02  -5.7240873e-01  -5.0816866e-01  -1.3180377e-01   7.9086534e-01  -7.6760621e-01   6.0658045e-01  -8.2149249e-01  -6.6738060e-01  -8.7407096e-02   8.3017017e-01  -9.7559132e-01  -3.1054208e-01  -6.8240131e-01  -1.0033831e-01  -2.0394680e-01   2.6811243e-01   6.4816616e-01  -6.5808839e-01  -6.0820398e-01   9.3561442e-01   8.8875383e-01  -7.2379646e-01   8.0749520e-01   1.3628193e-01   1.4299983e-01  -3.8665850e-02  -5.6839497e-01   5.4662369e-01  -8.9139283e-01  -5.3683843e-01  -6.9426151e-01  -8.4161282e-01  -5.5393926e-01   5.5354851e-01  -3.1420475e-01  -8.7658886e-01   2.1629548e-01  -4.7541258e-01   4.5987304e-01   3.3369077e-01   8.0590135e-01   7.5426012e-02   8.9790685e-01  -7.1575117e-01  -6.6611070e-01  -9.6653671e-01   9.8041917e-01  -6.1843949e-01   6.9643007e-01  -7.1905589e-02  -8.8132919e-01   2.5728174e-01   7.1023265e-01   9.0341953e-01  -8.2722056e-01   3.8168282e-01  -3.5538767e-01  -2.3572665e-01  -6.4959871e-01  -9.3693408e-01   9.6889676e-01  -6.5454035e-01  -2.7361749e-01  -9.9039974e-01  -2.4020277e-01  -7.9248059e-01   5.9871539e-01  -6.7578591e-01   1.7509827e-01  -9.1169938e-01  -4.9987219e-02   8.2972714e-01  -8.1567600e-01  -5.4411555e-01  -4.8178451e-01  -5.0152856e-01  -9.2763930e-01   9.0696978e-02  -1.3942164e-02  -7.2765692e-01   8.7979738e-01   4.0530910e-01   8.0968201e-01  -5.2995673e-01  -2.2303759e-01  -7.6524857e-01  -3.2544149e-01  -4.9263650e-02  -7.6976839e-01  -9.6919895e-01   9.4466015e-01   1.2720583e-01  -4.8894518e-01   1.1921256e-01  -5.0199656e-01   1.9928267e-03   8.9563110e-01   3.1167372e-01   5.9546100e-01  -9.3532745e-01   8.0091041e-01   7.0443761e-01   7.8381785e-01  -7.2762344e-01   7.0384457e-01   7.8417674e-01   5.9447547e-01  -1.3050256e-01   2.2384760e-01  -9.6001399e-01   3.6096164e-02  -6.0121993e-01  -9.1155927e-01   9.8133226e-03  -7.2151512e-01   7.1907432e-01   9.2295305e-01   4.3745095e-01  -7.8953274e-01  -6.5218498e-01   8.3725261e-01   5.3105556e-01  -9.6417968e-01   5.5767970e-01  -5.9772464e-01   9.3148234e-01  -1.0179511e-02  -2.9998940e-01  -7.0778064e-01  -9.9328306e-01   1.9389820e-01   5.1761866e-01   2.8790608e-01  -2.4067871e-01  -2.5486774e-01   7.5213418e-01  -9.4196571e-01   8.6599376e-01  -4.4322346e-01  -9.1642198e-01   8.5059117e-01   3.7006376e-01  -3.8973197e-01   3.5998174e-01   1.2582274e-01  -3.8678468e-01  -5.3865922e-01   8.4582734e-01  -2.5389271e-01   9.9633376e-02  -3.3152534e-02  -8.6959050e-01  -7.8817468e-01  -9.8855362e-01  -2.6573395e-01   1.9100896e-01   6.0270445e-01   7.7237941e-01   5.6091990e-01   7.8886134e-01   6.8217126e-01   7.8278290e-01  -1.7534664e-01   2.1263359e-01   6.8101183e-01   3.8043889e-01  -3.5990661e-01  -4.5505114e-01  -5.0087298e-01   4.9162625e-01  -3.7889875e-01  -9.5704953e-01   8.9121348e-02  -1.7237964e-01  -4.3172315e-01   7.9002877e-01  -3.1978879e-01   4.2282064e-01  -8.0922208e-01   7.6873669e-01  -3.4502868e-01   5.3960760e-01   5.9868835e-01  -8.9939180e-01   3.8779171e-01   1.0422431e-01  -7.0198268e-01  -5.8836836e-01  -7.6651243e-01   8.1484869e-01   2.4295505e-01   1.5663895e-01  -3.9038169e-01  -9.3665218e-01   6.0668318e-01  -7.8725906e-01   5.5070823e-01   4.1858927e-01   6.9127383e-01   7.9085609e-01  -5.6592903e-01  -3.1832355e-01   9.6593886e-01   5.8746510e-01   7.9118809e-01  -2.1974999e-01   6.0468262e-02  -5.1139188e-01   2.6143957e-01   6.8830806e-01   6.4527247e-02  -5.4891927e-01   3.8741599e-01   1.8160618e-01  -3.9183738e-01  -1.7076935e-01  -9.8239732e-01  -5.7218288e-01   2.6043108e-01  -8.1999126e-01  -9.7090410e-01  -3.1338349e-01  -7.4102040e-01   2.0520575e-01  -8.7081845e-01  -9.8656093e-01   3.8875941e-01   1.9997159e-02  -8.4861139e-02  -3.9240985e-01  -9.8946329e-01  -9.6683194e-01   4.8223457e-01   2.3684481e-01   1.7918737e-01  -5.0075765e-01   3.3938059e-01  -6.1990179e-01   5.6350058e-01   9.6874035e-01   8.2891343e-01  -4.9908312e-01  -4.1397104e-01  -1.4149262e-01   8.2094181e-01  -9.5260979e-01  -8.8921938e-01   4.8598960e-01  -1.5849679e-01   9.0309622e-01  -6.4855782e-01  -4.9515985e-01   4.9670569e-01   5.8607684e-01  -1.2166096e-01  -9.9273493e-01   4.5489451e-01  -5.0978919e-01   6.9639293e-01   6.2603869e-01  -6.9417067e-01   2.0171531e-01  -5.1816459e-01   5.1799066e-01  -3.9887165e-02  -7.4070223e-01   9.0466709e-01  -5.3415506e-02  -5.7643651e-01   3.9804248e-02  -3.0916985e-01   8.3151358e-02  -5.5438998e-01   7.5986223e-01   6.3787256e-01  -9.3152773e-01   7.8180967e-02   6.5330322e-01  -2.8239903e-01  -6.7012141e-01  -3.7592501e-03   4.7644899e-01  -6.6740959e-01  -1.7981192e-01  -3.8088109e-01  -5.6614063e-01  -6.9710549e-03   1.8833757e-01   8.9386860e-01  -1.3641680e-01  -5.8423174e-01  -5.5181571e-01   3.1610406e-01  -5.0742113e-01  -5.0063525e-01   9.5852178e-01   2.3940113e-01  -2.7636289e-01  -6.6187213e-01  -6.5559880e-01   6.6510253e-01   9.6921276e-01  -6.1422606e-01   2.2062738e-02   7.9273424e-01  -3.6809151e-01  -5.9958094e-01   5.8004273e-01  -7.2472518e-01  -7.9125504e-01   2.4442147e-01   6.6833193e-01  -1.8274926e-01  -1.8367476e-01  -6.9868347e-01   2.4201524e-01  -6.8898352e-02   6.5383473e-01   5.8320305e-01  -3.6013930e-01   6.4787395e-01   5.6007172e-01  -6.3077290e-01  -6.6753753e-01  -1.9111831e-01   9.0620989e-01   7.5790371e-01  -7.2851799e-01   3.4568093e-01  -8.8446254e-01   4.5318578e-02   4.9990616e-01   5.7000800e-01  -6.5225613e-01  -7.0139045e-01  -2.7108691e-01  -5.2232045e-01   4.2806456e-01  -8.2093017e-01  -6.4348115e-01   5.9022649e-01   6.6125373e-01  -8.4917316e-01   6.8517832e-01  -5.9324346e-01   1.8625656e-01   8.3570102e-01  -2.9271002e-01  -7.9330635e-01  -5.3560283e-01   7.1356996e-01   9.8635271e-01   4.0444422e-01  -7.4321680e-02   1.7435101e-01  -4.1952326e-01   2.4460700e-01  -4.9822021e-01   7.4664962e-01   3.5428107e-01  -6.4004575e-01  -3.1403436e-01  -5.5563709e-01   8.9226054e-01  -4.8099018e-01  -1.8508588e-01  -5.0647625e-02   2.0968362e-01  -1.0171417e-01  -5.1467896e-01   7.4544135e-01   5.2999013e-01  -2.4244572e-02  -7.5144409e-01  -4.5496701e-02  -6.3752991e-02   5.8888260e-01   3.9968168e-02  -3.3767892e-01   3.4566651e-01   1.2556036e-01   1.9046183e-01   7.6278330e-01  -2.0037062e-03  -3.7691648e-01  -8.2844345e-01  -1.4302995e-01  -6.5892716e-01   8.6381498e-01   2.6040762e-01   9.2033115e-01   7.9800757e-01   7.3551629e-01   8.7918611e-01   8.2450918e-02  -9.8535726e-01  -3.3849164e-02   2.4347394e-01  -5.7122677e-01  -5.9187474e-01   2.8304711e-01   9.5018523e-01   5.6844478e-02   8.6136907e-01  -4.6452580e-02  -1.6230408e-02   7.6184015e-02   3.0906717e-01  -3.8010329e-01   1.7831107e-01   4.8421002e-01   7.1675690e-01   8.4513515e-02   4.2334337e-01  -8.6217566e-01  -9.2079182e-01   3.7948189e-01  -9.9609090e-01  -6.0224870e-01  -8.0077366e-01  -5.5227264e-01   2.1641859e-01   4.6665386e-01   1.3943272e-01   4.3870284e-01   6.4109173e-01   8.4277885e-01   5.7923117e-01  -6.5273133e-02  -7.4716848e-01  -5.4936879e-01  -5.7757573e-01   2.5683826e-01   1.5169840e-01  -4.4802460e-02  -6.2797769e-01  -4.0717859e-01  -3.8175351e-01  -6.7161249e-01   6.7951044e-01   7.4740726e-01  -5.3385254e-01  -8.7127611e-01   9.6486543e-01  -8.5639215e-02   9.4350851e-01   3.9112926e-01  -2.9223229e-01   3.3206422e-01  -9.0459094e-01   5.4540347e-01  -4.7848928e-01   2.4238035e-01  -6.6123484e-02   4.9163903e-01  -8.6589140e-01  -9.2528898e-01   7.6835560e-01  -1.9670392e-01   5.2565169e-01   3.1676322e-01  -3.0125779e-01  -9.5028641e-01   9.9497985e-01  -7.4658139e-01  -7.9474763e-01  -7.9577390e-01  -6.5065813e-01  -3.9296291e-01  -9.6773994e-01  -9.7660716e-02  -7.8993403e-01   5.5563549e-01   9.3283192e-01  -9.8605476e-01  -1.7045310e-01   9.4106326e-01   5.0324242e-01  -4.6781762e-01   2.5668426e-01   8.0633324e-01   3.1400650e-01  -2.2124766e-01  -8.6736407e-01  -4.6112907e-01   4.7159981e-01  -4.9563469e-01  -5.8013673e-01  -9.1123721e-01  -8.2820804e-01   5.9763936e-01  -4.2781780e-01  -3.9200965e-01   9.5479716e-02  -7.9260449e-01  -9.3771680e-01   1.1356101e-01   4.6956964e-02  -1.8777527e-01   4.4439143e-01   7.4460719e-01  -3.8755300e-01  -6.3967015e-01  -2.7056101e-01  -9.6780296e-01  -2.3981650e-01  -3.9972591e-01  -8.0972753e-02  -9.5475738e-01  -2.4671928e-01  -6.4753833e-03  -8.9364545e-01   5.8874795e-02  -1.0597313e-01  -6.5783669e-01   6.7202475e-01  -8.3999445e-01  -9.3252933e-01  -6.4433338e-02  -6.6174337e-01   3.3358293e-01   6.6935113e-01   9.5417134e-01   4.0920437e-01   3.2986126e-01   6.5562359e-01   6.0501892e-01  -6.1104691e-01   2.9482226e-01  -8.2366722e-02   4.5757985e-01   1.9401915e-02   5.3984029e-01  -5.8930708e-01   5.5217882e-01  -6.2594254e-01   3.8035743e-01  -2.5590751e-01   4.7508488e-01   1.1357044e-01   4.7665798e-01   1.8522823e-01  -3.8656423e-01  -3.3559962e-01   1.2013804e-02   3.4484921e-01  -2.0362080e-01  -2.6266755e-01   4.6037436e-01  -9.1626201e-01  -7.2218539e-01   2.1629399e-01   6.0436828e-01  -5.2989078e-01  -3.9583360e-01   7.9110733e-01   4.4299682e-01   1.7509926e-01  -4.7103395e-01  -9.8083914e-01  -1.9755777e-01  -3.4339269e-01  -9.8126073e-01  -9.4886453e-01   9.0717087e-01  -8.5934618e-01   3.0667934e-01   7.4286347e-01   1.2841054e-01  -6.7129715e-01  -2.0850537e-01  -1.1898190e-01   2.8570112e-01  -7.3060996e-01  -7.8026821e-01   8.0446821e-01   6.4185075e-01   7.2763378e-01   8.5223258e-01   7.9899965e-01  -8.7915733e-01   1.2811211e-01  -7.8161156e-02   6.5067546e-01  -7.7184967e-01  -1.0889575e-01  -7.9359469e-01   5.5752234e-01   2.7399056e-01   3.2046715e-01  -4.0540855e-01  -8.9139068e-01  -8.9099588e-01   5.5216443e-01  -2.2914106e-02   2.3735461e-02   6.6190745e-01   8.4683106e-01   6.9618667e-01   3.2670326e-01   9.4373373e-01  -3.2655607e-01  -5.5643158e-01  -5.7009680e-01  -8.1876662e-01   4.4959962e-01  -2.7700323e-01   1.2439444e-01   6.3132678e-01   5.7386131e-01  -1.5296060e-01  -7.4827843e-01   8.8265373e-01  -5.3942197e-01   5.0929065e-01   9.7080026e-01   9.7699901e-01  -5.4572967e-01   4.1117372e-01   5.6851796e-01   5.9529709e-01   7.2462924e-01  -5.0501502e-01  -4.9380276e-01  -9.8463810e-02  -3.2568343e-01   3.8218973e-01
