   2.0257578e-02   1.2316335e-01   7.7291630e-01   8.8954711e-01  -8.9049582e-01  -4.5099622e-01  -8.3694378e-01   9.3891461e-01  -6.6498621e-01   9.6085568e-01  -3.0084400e-02   2.8181341e-01  -3.4212383e-01  -7.3105767e-01   4.5032191e-02   2.5313420e-02   7.2707519e-01   3.7362130e-01   6.1051984e-02  -9.0420108e-02   8.0363464e-01  -6.3711823e-01   3.2030118e-01  -1.0534065e-01  -6.2499714e-01   9.2209633e-01   4.1607759e-02  -9.5391942e-01   3.1867675e-01  -8.7421594e-01   2.9132613e-01   3.5370195e-01  -6.7694996e-02  -5.5793290e-01  -9.0144282e-01   4.5560908e-01  -1.4354525e-01  -1.7960707e-01  -2.8382785e-01   7.4136275e-01  -9.4191509e-02   4.2823774e-01   9.8239177e-01  -9.9792065e-01  -7.9822159e-01  -5.8892397e-01  -5.9239990e-01  -2.9921824e-01  -4.0211675e-01  -2.7148933e-01   8.6613073e-01  -9.6139221e-02  -4.6226031e-01   6.4409850e-01  -4.4148927e-01  -1.0538759e-01  -2.7428928e-01   6.1400176e-01  -4.4128416e-01   1.5054667e-01   6.7855436e-01  -7.9195999e-02  -4.0057775e-01   4.9752858e-01  -3.7322242e-01   4.1324923e-01   3.0750668e-01   5.3151901e-01   6.9671043e-01  -2.1054135e-01   8.9991798e-01  -5.9985868e-01  -9.8052622e-01  -2.5960638e-01   4.2796751e-01  -7.8230139e-01  -2.1888343e-01  -2.8121228e-01  -8.0617674e-01  -2.3633077e-01  -2.4982345e-01  -5.8561000e-01   6.2499600e-02   6.2918405e-01  -9.4959994e-01   7.9249690e-02   1.1568547e-01  -3.2921447e-01   9.6781902e-01   5.4864847e-01  -3.7839332e-01   8.2019610e-01  -2.5311707e-01  -5.1110719e-01   8.2979121e-01   1.5822233e-02   2.9664836e-01   8.8721331e-01  -5.4639680e-01  -6.2948239e-01   8.9902513e-01  -5.9262853e-01   1.1213462e-01   7.6259864e-01  -3.1896860e-01  -5.5853696e-01  -7.9160989e-01  -1.3538359e-01  -7.9017326e-01   1.4526510e-01   6.0395481e-01   6.9366168e-01  -3.0457635e-01   2.8217425e-01  -3.8049359e-01   9.3746478e-01   7.4129240e-01  -2.1125878e-01   5.0510661e-01   6.6609689e-01  -8.2080708e-01   4.9943508e-01   8.0264127e-01  -3.3961547e-01   5.4061193e-01  -4.6303225e-01   5.5723463e-01   5.5692398e-02   6.7554295e-01   3.7131515e-01   7.0820442e-02   6.3013147e-01   8.5947371e-01  -7.6133237e-02  -3.6021926e-01  -3.3185352e-01  -9.9149837e-02  -2.9460450e-01   1.2640724e-01  -1.2469589e-01   3.4820740e-01  -3.5374388e-01  -3.5886779e-01  -1.9980004e-01   8.6080965e-01  -3.5808496e-01   5.7959554e-01   7.1522127e-01  -8.1442962e-01  -3.3654406e-01   6.7378440e-01  -3.2060253e-01   6.4610035e-01   7.0589364e-01   8.3266240e-01   3.9373800e-01   4.7955847e-02   7.1353740e-01  -8.4845267e-01  -2.2857873e-01  -7.1926110e-01   6.0954854e-01   7.0662870e-01   7.6478653e-01  -3.7750648e-01   1.2643946e-01  -8.2072708e-02   4.1170339e-01  -1.9662196e-02  -9.8112746e-01  -5.6091030e-01  -3.1956775e-02  -4.0704521e-01   6.7811152e-01  -6.6767154e-01  -1.3281874e-01   8.5584833e-01  -9.9984034e-01   9.9837695e-01   6.2557572e-01  -1.0464208e-01  -9.6766686e-01  -9.3200540e-01  -4.7059111e-01  -5.7285824e-01  -3.7140435e-01  -4.4316449e-01  -3.5964432e-01  -4.4313589e-02   8.7689375e-01   3.2623905e-01  -2.3374946e-01   2.7516700e-01   7.1665241e-01  -4.8961206e-01   3.7825838e-01  -3.1121436e-01  -5.4110485e-01   6.0525404e-01  -4.1665682e-01   3.2454499e-01   1.9269271e-04  -6.4198851e-01  -9.3114694e-01  -6.9178365e-01   1.6968882e-01  -3.4355382e-01   6.2935235e-02   6.2825567e-01  -5.5500686e-01  -2.4169021e-01  -4.1571150e-01   3.1647021e-01  -3.2589314e-01   4.8895941e-01   5.9084859e-01  -6.0067195e-01  -6.4937222e-01   5.7813991e-01   8.1617268e-01   9.8984504e-02   3.2437668e-01   5.1667889e-01  -9.9340323e-01   1.3878726e-01  -3.9975712e-01  -3.8960357e-01  -5.3653678e-01   5.2695750e-01   6.0453205e-01   7.3467430e-01   8.3128173e-01  -7.5173637e-01   8.5577933e-02  -8.9525769e-01  -1.2486417e-01  -6.8050624e-01   3.1330002e-01   3.9075507e-01  -8.2988022e-01  -6.1279893e-01   5.2044863e-01   3.5526815e-01  -3.2373629e-01   1.8657462e-01  -4.3869088e-01  -9.9138146e-01   6.6855330e-01  -1.7739260e-01  -2.5805453e-01   3.6154580e-01  -2.9699013e-01   3.8707374e-01  -2.2168385e-01   8.8013704e-01   3.5365160e-03  -3.3289150e-01   7.6449712e-01  -8.3200401e-01  -1.8943583e-01   7.4828950e-01   5.4672347e-01   1.3374668e-01  -1.3177421e-01   3.4269772e-01  -2.4879498e-01   9.3938487e-01  -5.3277185e-01   3.8985240e-01  -5.8775192e-01  -7.3835607e-01   5.5147085e-02   4.4054403e-01  -5.5359670e-01  -6.5254249e-01   3.7046015e-01   5.5496756e-01  -8.5866974e-01   8.6915216e-01  -9.9250519e-01  -9.9565525e-01   7.4111455e-02   5.8550145e-01  -4.5778522e-01   5.8597117e-01   2.6760913e-01   4.9423086e-02   1.9112699e-01  -1.3883008e-01  -6.9805461e-01  -1.2263491e-01  -7.4440238e-01   3.5591129e-01  -3.5693067e-01   4.8549105e-01   1.1616053e-01   1.6604065e-01  -5.1848108e-01   3.2310011e-01   2.7746442e-02   4.3273435e-01  -4.8780461e-01   7.8984355e-01  -4.5929308e-01  -1.5775205e-03   7.1235287e-01   5.8584541e-01   9.7038643e-01   4.1426569e-01  -4.3080917e-01   7.3350759e-01   6.1325271e-01  -1.8809650e-01  -4.4212684e-01   1.6157182e-02   3.6452652e-01   4.7893773e-01  -5.3250905e-02  -5.4709145e-01  -7.1908132e-01  -5.4750039e-01   8.0616936e-02   3.3938506e-01  -5.1295464e-01  -1.5918249e-01  -7.8678820e-01  -8.4494187e-01   8.2615454e-01   2.6029561e-01  -9.9722430e-01  -1.2930751e-01  -2.6117848e-01  -4.7399723e-01  -2.8942985e-01  -2.2767134e-01  -5.4220528e-01  -7.6469842e-01  -3.5523469e-01  -8.4171384e-01  -9.6520948e-01  -2.1200207e-01  -4.0108145e-02   2.0724502e-01  -5.6545329e-01  -6.1200699e-01  -7.5513300e-01  -1.2602941e-01   5.5746418e-01   1.5559757e-01  -1.0928159e-01  -1.7384482e-01   8.3609910e-01  -6.5898770e-01  -8.1454655e-01   2.6765101e-01  -5.9030361e-01   9.4826422e-01  -6.3496775e-01   8.3084036e-02  -5.5372682e-01  -4.8061259e-01  -7.1369093e-01  -9.4495513e-01  -8.4705251e-01  -1.2426813e-01  -2.7146853e-01  -3.8064272e-01  -4.9238244e-01   9.0323150e-01  -2.4000359e-01   2.7539482e-01   8.4870446e-01   9.8128457e-01  -7.8677257e-01  -3.2242963e-01   7.3085750e-01   6.3313056e-01  -8.2325677e-01   7.4459687e-01  -7.4433759e-01  -9.8302523e-02  -9.1410618e-01   3.4315820e-01  -3.3856138e-01   6.9165689e-01   7.8719630e-01   2.2138151e-01  -2.0247725e-01  -9.9662124e-01   1.7827018e-01  -1.5448733e-01   3.9483710e-01  -7.4001211e-01  -5.4022429e-01  -8.7449317e-01   3.9576917e-01  -9.5903472e-01  -7.8693662e-01  -9.5978139e-01  -4.8281941e-01  -3.7610810e-01  -1.4762969e-01  -2.3128549e-01  -4.6179724e-01   1.3411231e-01   4.4825983e-01   4.0019061e-01   7.0437031e-01  -3.6852995e-01  -6.9725912e-01   7.2592039e-01  -7.6433389e-01   9.9939427e-01  -6.2643797e-01  -5.9885718e-01   7.0938695e-01   7.4665283e-01   1.4133660e-01   7.4864563e-01   4.8918187e-01   8.7927304e-01   8.8004854e-01   2.0718189e-02  -2.6803312e-01   1.3958306e-01  -9.2483678e-01  -5.0482762e-01   8.4163092e-01  -3.5676163e-03  -8.8632244e-01   3.3770715e-01   4.5700604e-01  -4.8249617e-01   4.1633555e-01   8.5187001e-01   9.2014851e-01  -1.5516504e-01   6.9265811e-01  -9.0797061e-01  -3.2283258e-01   2.6592235e-01  -2.8186936e-01  -7.7595642e-01  -1.0441100e-01   9.7788371e-01   4.3910175e-01   7.8917966e-01   8.7900371e-01   2.5365650e-01   2.5003405e-01   4.6987926e-01  -4.0649929e-01   4.0144987e-01   4.5126907e-01   9.8982299e-01  -5.4088895e-01  -4.1982779e-01  -8.1548044e-01  -2.7854911e-02   3.5446666e-01  -2.7696574e-01  -5.7581967e-01  -8.7862124e-01  -9.6830575e-01  -8.7528216e-01   6.5981389e-01  -9.0380660e-02  -9.2139527e-01  -2.7834082e-01   9.2329844e-01  -4.5285786e-01  -6.7928184e-01  -8.4269500e-01   7.0713611e-01  -6.0653667e-01  -3.4255558e-01   8.6526718e-01  -6.7327430e-01  -1.3299476e-01   8.6880817e-01  -1.7485325e-01  -8.9447100e-01   7.2509072e-01  -7.2594963e-01  -2.8038131e-01   8.8636657e-01  -3.3461444e-01  -5.9524961e-01  -8.6858291e-02  -6.6799890e-01   5.8676250e-01   4.6841672e-01   7.1414076e-01   4.0582918e-01   8.6870513e-01  -8.2582357e-01   1.1175520e-01   4.4714164e-03   4.8904708e-01  -1.8561575e-02  -7.2155980e-01  -6.4887119e-01   2.7696529e-01   7.5635115e-01  -3.3706716e-01  -8.3983255e-01   2.0457229e-01   7.8095415e-01   3.0331057e-01  -5.1177460e-01  -5.8569702e-01  -7.7921344e-01   6.8258408e-01   9.9306277e-01  -3.8803815e-01   6.4650183e-01   2.2324682e-01   2.0329712e-01   2.3939806e-01  -7.3015433e-01   5.9067941e-01   3.9745911e-01   2.3349575e-01  -4.3367850e-01  -4.6336601e-01  -7.4311654e-01   4.0926925e-01   7.5831893e-01  -3.9392549e-01  -5.8602893e-01   9.0348754e-01  -4.3962753e-01   5.4163430e-01  -4.7850353e-01   2.0423546e-01  -8.8486435e-01   1.3470602e-01  -6.0792508e-04   3.0954570e-03  -2.2517590e-01  -9.7764319e-02   9.3442811e-01   3.2003741e-01  -6.3539237e-01  -2.0324534e-01  -7.7971433e-02  -5.0815673e-01  -6.1652716e-03  -2.1404805e-01   3.9609314e-03   8.6638499e-01   4.4466697e-01  -7.8092482e-01   9.7952443e-01  -2.6051572e-01   7.7738896e-01  -4.4653967e-01  -7.3740636e-01   7.5485906e-01   2.7548564e-01   5.2150790e-01   7.2317296e-01   7.2728393e-01  -8.1287840e-01  -9.3210898e-01  -4.8333084e-01  -3.6782833e-01  -1.3507419e-01  -5.3133656e-01   7.6337671e-01   9.8718558e-01  -5.8229225e-01   6.9877805e-01  -7.5608330e-01   2.6171074e-01  -1.4130857e-01  -3.8567788e-01  -5.2046530e-01   2.0264735e-01   7.9697309e-01   1.7656477e-01   7.7638661e-01  -8.9874260e-01  -1.0553211e-01  -1.6154824e-01   7.6494312e-01  -3.3851543e-01  -8.7789307e-01  -7.3279197e-01  -4.1240267e-01   6.1878935e-01  -3.6885277e-01  -8.1224923e-01   6.6314579e-02   5.7195952e-01   6.7501747e-01   7.9766623e-01  -5.7262848e-01  -2.5346302e-01   8.5341085e-01   7.0760668e-01   5.9807841e-01  -4.5957014e-01  -6.9322045e-01  -2.4414718e-01  -9.5967746e-01   9.5643457e-01   3.9583391e-01   1.6830530e-01  -5.6974976e-01  -8.2228198e-01  -1.8422022e-01   1.1500014e-01  -7.2739443e-01   5.4255676e-01   5.6760386e-01  -6.8519601e-01  -6.0957578e-01   1.5542383e-01  -9.9130905e-01   3.9198284e-01  -8.7924130e-01   2.8857088e-01   8.0914354e-01  -2.0314360e-02   5.0460010e-01   3.6421823e-01  -9.2388272e-01   6.8075439e-01   6.3257209e-03   7.2668911e-02   8.6634824e-01  -6.5559655e-01  -5.0823025e-01   2.8633463e-01  -2.0028651e-01   4.6918337e-01  -8.7127177e-01  -1.3149138e-01   2.0119554e-02  -7.1133978e-01  -3.6649172e-01  -5.9335279e-01   2.7021914e-01   6.8694219e-01  -7.9426356e-02  -6.3586976e-02   7.1042976e-01  -5.4771398e-01  -3.1728976e-01   1.9996647e-01   6.9288785e-01   3.8001232e-01   7.9887297e-01   3.1446979e-01   1.7090883e-01   2.0664813e-01  -1.9916644e-01  -6.5412732e-01  -4.2713840e-01   3.9237403e-01   5.2210712e-01   5.2676595e-01  -9.5284907e-02   8.9275370e-01  -7.2999251e-01   6.0913327e-01   8.6593126e-01  -3.1894083e-01   3.6410078e-01  -9.3930840e-01   1.6597062e-01   8.5344237e-01  -8.4495114e-01  -7.5468801e-01   9.6819918e-01   7.5608452e-01   5.3530925e-02   9.2761378e-01  -9.9110848e-01  -8.4028818e-01  -2.2517703e-01  -8.9155745e-01   4.5432024e-03  -8.1818700e-01   5.2392685e-01   8.7945485e-01   7.1431099e-01  -3.8963859e-01  -4.4527898e-01   4.5000473e-01   5.4239146e-01  -2.2911711e-01   5.7280556e-02   8.2699277e-02   8.0780714e-01   9.6968709e-01   4.3962236e-01  -5.6778781e-01   7.2094757e-01   9.4935389e-01  -1.9254803e-01   6.0574890e-01  -8.2014155e-01   8.4321491e-01   6.3128243e-01   6.3968019e-01  -3.4161146e-01  -2.4635082e-01   1.1938237e-01  -1.1333322e-01  -1.4354267e-01   1.4418016e-01   4.1920755e-01   1.0980861e-01   3.0585769e-01  -9.1684622e-01  -7.8768668e-01  -4.8702498e-01   7.0671227e-01  -9.1937079e-01  -8.1266095e-01  -5.3590638e-01  -9.3109127e-01  -3.3088625e-01  -2.6272751e-01   5.9910948e-01  -9.8690923e-01   2.1882985e-01  -2.3871405e-01   2.7615984e-02   3.2824604e-01  -3.9953359e-01  -5.8918553e-01  -9.9716165e-01  -9.9241967e-01   6.7157848e-01   7.2511157e-01  -2.3788338e-01   5.0749310e-01  -2.5193589e-01  -2.6491541e-01  -9.5302916e-02  -5.6068856e-01  -4.9313806e-01   3.4258023e-01   5.0315018e-01   4.3206868e-02  -9.8068229e-01   6.9349494e-02   9.7948451e-01   9.8984754e-02  -9.3537693e-01   1.7624032e-01  -5.2658786e-02  -9.1666202e-01  -9.4506571e-01  -2.7094107e-01  -8.7581814e-01   6.2454505e-01  -6.1600512e-01  -4.0494385e-01   4.0494701e-01   8.4755749e-01   3.8350229e-01   4.7652713e-01   2.0043919e-01   4.7335258e-01  -9.2357058e-01   8.2513910e-01  -6.5291724e-01  -2.5056473e-01   1.8470618e-01  -8.8705313e-01  -7.6976380e-01   6.9966858e-01  -9.1929552e-01   7.9145118e-01  -1.7421756e-01   8.2470040e-01  -9.1479061e-01   9.9537578e-01  -5.1728051e-02   5.9427419e-01  -2.7318232e-01   3.3130651e-01   4.0202982e-01   7.7125096e-02  -9.2696057e-01  -6.6089033e-01  -6.4680629e-01   7.9171656e-01  -7.7001417e-01   4.0599649e-01  -5.0851243e-01   5.6095067e-01  -8.1882544e-01  -1.4832936e-01  -7.1147886e-01   5.9343414e-02   3.8773650e-01   7.2751123e-01   9.6502759e-01   7.8841236e-01  -9.0506088e-01   8.5809417e-01   6.6507763e-01  -9.2674503e-02   3.4549276e-01   4.9583401e-01  -6.0979635e-01  -6.1254832e-01  -7.2487495e-01  -7.1421611e-01  -6.7815465e-01   1.3213573e-01   2.7391407e-01  -1.1901601e-01   8.3929221e-01   2.2470265e-01   4.6535588e-02  -4.7063485e-01  -3.0573351e-01   7.5013205e-01  -1.4732343e-01  -2.5401075e-01   7.0771333e-01   8.3247883e-01   7.1515935e-01  -5.1075335e-02   3.8186500e-01  -7.4515840e-01  -8.4104367e-01   3.1005092e-01   9.1349407e-01   9.8186563e-01  -4.3338885e-01  -2.1066636e-01   4.8147346e-01   6.0579018e-01  -1.6394919e-01  -1.7160740e-01   1.3687651e-01  -9.9160555e-01  -6.9711444e-01  -5.9765012e-01   5.2416827e-01   7.7388966e-01  -2.2707613e-01   4.0737670e-01   3.2879545e-01   1.8409494e-01   1.1762069e-01   4.4003418e-01  -5.3505195e-01  -6.3310993e-01   6.4978336e-01   8.4708291e-01  -7.2322684e-01   9.6907335e-01  -6.8782552e-01  -1.3827874e-01   8.7135103e-02   7.3099820e-02   7.6810468e-01  -6.3615291e-01  -7.0530451e-01  -4.8442325e-01   1.0182455e-01  -6.6506946e-01   7.1757884e-02  -8.6293182e-02   7.0252071e-01   9.1627028e-01  -3.5887278e-01  -9.0463367e-01   8.9870290e-02   2.2506725e-01  -9.7045792e-01  -8.6987363e-01   8.2520839e-01  -1.5778850e-01  -8.4514571e-01   9.3308414e-01  -3.8886572e-01   2.6436858e-01  -8.9427856e-01   6.0304033e-01  -5.4424763e-01   8.7036357e-03  -6.5701615e-01   5.0682453e-01  -8.2398164e-02  -5.0092122e-01  -2.7781242e-01  -8.7152031e-01  -8.2951311e-01  -2.8762268e-01   2.7765917e-01  -1.2535269e-01  -2.8100085e-01   2.6764092e-01  -7.7100471e-01  -8.8034792e-01   1.7724749e-01  -5.4963565e-01   7.7359429e-01  -4.1108216e-01   8.7784179e-01   5.7326540e-01  -3.9346865e-01   3.7350095e-01  -4.0467199e-01  -5.5885936e-01   7.9204135e-01  -3.3554370e-01  -3.8809022e-01   7.8662637e-01   9.1021057e-01   1.8554923e-01  -2.7855508e-01   5.8828614e-01   1.2937551e-02   9.7581696e-01  -4.0485992e-01  -8.3659828e-01  -3.3641589e-01  -9.0397945e-02   1.4733709e-01  -7.8881864e-01   2.0999342e-01   6.9123344e-01  -3.7385760e-01  -7.8037683e-01   7.0303741e-01  -7.7075013e-01  -5.0966321e-01   5.1521989e-01   5.0784221e-01   2.9993764e-01  -2.0846033e-01  -8.7093640e-01  -6.3543231e-01   1.7132088e-01  -3.9404535e-01   5.6013228e-01  -7.3967389e-01  -6.0174874e-01  -5.0461486e-01  -2.5275856e-01   3.9992394e-01  -6.3053513e-01   7.0951756e-01   8.9952725e-01  -3.1902221e-01  -7.9658850e-01  -3.3149746e-01  -2.2969341e-01   2.1470301e-01   6.9807423e-01  -7.2388601e-01   9.6585907e-01   2.0624082e-01  -9.5577480e-01  -7.9001223e-01   6.3399412e-01  -1.9877493e-02  -7.2707382e-01   3.3361211e-01   3.0127701e-01  -9.1816730e-01   6.1321296e-01  -5.2034669e-01   8.8634354e-01   3.6853054e-01  -7.9919273e-01  -8.1678258e-01   5.0846037e-01  -6.3908353e-01   3.0201760e-01  -8.5378431e-01  -3.2742623e-01  -8.4251313e-01   5.3729088e-01  -8.1472830e-01   7.4351336e-01  -5.7792410e-01   3.7583642e-01   2.4422037e-01  -2.1791422e-01  -9.8903495e-01  -7.4763825e-01   2.6849075e-01   2.8562776e-01   3.5786443e-01   7.7760749e-01  -4.5887508e-01   7.7631229e-01   8.5372778e-01   7.7850258e-01
