   7.0200868e-01  -1.5310949e-01   5.9564385e-01   2.6469973e-01   3.1922103e-01  -9.9182142e-01  -9.8785759e-01  -7.2077309e-01   7.4896541e-01  -9.1676734e-01   6.0524436e-01  -8.5793883e-01  -4.9129166e-01   4.1761376e-02  -3.6751336e-01  -8.1812183e-02   6.8653674e-01   2.2740660e-01   4.7927114e-01  -6.9821493e-01  -1.1415691e-02   2.3653077e-01   7.5169873e-01  -3.5560541e-01  -9.3730759e-01   4.9576248e-01  -2.9936220e-01   3.4800823e-01   7.5839947e-01   1.1086232e-01  -7.3792482e-01   7.8179177e-01   9.8441975e-01   4.7369404e-01   9.8168812e-01   4.4051046e-01  -5.4204387e-01  -6.1797938e-01   6.0810942e-01   9.2003350e-01  -8.6152666e-01   6.3958862e-01  -7.2069298e-01   9.3994006e-01   1.1456122e-01  -8.1395291e-03  -9.4301174e-01  -3.1697219e-01   2.0056835e-01   5.4102541e-01  -1.1044030e-01  -8.1120132e-01   8.9903025e-01   6.8816495e-02  -1.7210545e-01   6.4079187e-01  -3.1366020e-01  -3.2816743e-01  -2.5670095e-01  -6.1915074e-01   3.0613815e-02   3.0856872e-01   9.6721317e-01   2.6642567e-01  -7.7331036e-01   3.3348982e-01  -3.0780198e-01  -6.6682205e-01   1.9052780e-01  -9.4252868e-02   9.0565439e-01   7.5873840e-01  -3.9724351e-01   1.4554498e-01  -2.9050659e-01   6.9450764e-01  -8.7587568e-01  -1.2280071e-01   1.4572546e-03   4.7999871e-01   9.6188386e-01  -6.6664654e-01  -2.7324181e-01  -6.5756166e-01   3.2148893e-01   9.4650971e-01  -9.6237820e-01   9.3468667e-01  -1.4757374e-01  -6.6355898e-01  -7.5622340e-01   9.9655673e-01   6.8726461e-01  -8.8426960e-02   6.9604591e-01   5.4048990e-01   6.4952547e-01   1.0912818e-01  -3.3052375e-01   7.0138789e-01  -3.8178817e-01  -3.5225593e-01  -6.9602908e-01   2.1956203e-01   1.2677452e-01   9.8692978e-01  -9.6127646e-03   4.5394291e-01  -4.9453644e-01  -6.5189604e-01  -2.7098144e-01   4.3817955e-01  -2.7789686e-01   9.8609422e-01  -5.4507509e-01  -5.6724487e-01   3.1060764e-01  -2.7409709e-01  -8.4773672e-02  -3.9046127e-01   2.7484831e-01   9.8349722e-01  -1.1840251e-02  -7.2048957e-01  -5.1575535e-01   2.8349150e-02  -4.9201801e-01   2.9622172e-01   1.2728086e-01  -8.1009992e-01   1.3219281e-01  -3.5574029e-01  -3.4454646e-01   8.9061779e-01   1.8087097e-01  -8.5289209e-01   7.8720302e-01  -4.8194768e-01   2.8142350e-01   2.7677759e-01  -7.6685840e-01  -8.2418374e-01   8.7963957e-01   8.8933868e-01  -4.7997576e-01   7.7004906e-02  -9.4326751e-01  -7.3093051e-01  -8.4876138e-01  -6.9561268e-01   9.5377776e-01   2.1015422e-01   8.2529208e-01  -6.7662932e-01   9.3597006e-01   6.2615011e-01   8.2388305e-01   1.5785552e-01   9.8018135e-01  -2.8112653e-02   3.6264051e-01   4.3856260e-01  -6.4347789e-01  -7.4461307e-01  -5.4332964e-02   8.0890960e-01   6.6521675e-01   6.3025026e-01   8.7978171e-01   2.8647726e-01   6.3704835e-01  -8.0251152e-01   1.1964544e-01  -2.1553035e-01   7.3619878e-01  -5.1074680e-01   3.1757156e-01   2.9277457e-01  -7.1127959e-01  -7.2892879e-01   5.8246564e-01  -1.9038167e-01  -6.5578444e-01   5.5061457e-02  -1.5644578e-01  -2.2263315e-01  -3.2990179e-01  -3.4734367e-01   1.3512406e-01  -2.7401677e-01   4.7119309e-01  -1.8514054e-01  -3.0449332e-01   1.8466061e-01  -7.6430318e-01  -2.8763253e-01   8.2901975e-01   8.3715205e-01   7.9686693e-01   6.9887561e-01  -3.0192944e-01   2.1268933e-01  -8.5751940e-01  -7.1216253e-01  -5.2917711e-01  -2.1891186e-01  -9.0066048e-01   8.0404822e-03  -6.5205228e-01  -4.0877728e-01   6.3373286e-01   9.8241150e-01   8.0530494e-01   2.2262890e-01   8.2016459e-01  -3.6441697e-01   7.6810016e-01  -4.2826583e-01  -8.9558229e-01   1.8116854e-01   8.6312574e-01   5.5138264e-02  -9.2022960e-01   1.2517941e-01   5.3004009e-01   8.7847579e-01  -7.0374225e-02  -9.3383871e-01   1.0752199e-01   4.2241026e-01   9.7909169e-01   1.1377717e-01   3.7263516e-01   6.0259756e-02   6.5973069e-01  -5.9438662e-01  -9.3187365e-01   8.1959461e-02   4.1207839e-01   4.8084267e-01  -3.0067047e-01  -9.8279166e-01   2.7895669e-01   9.4997952e-01  -5.2055887e-01  -6.8700099e-01   3.0637400e-01   2.0769697e-02  -6.4734671e-01  -7.2108196e-01  -8.9674797e-01   6.9549892e-01  -5.0526083e-01   8.1060948e-01   7.0907034e-01  -6.0801386e-01  -8.5411498e-01  -4.4151677e-02   2.4292208e-02   6.4056940e-02   4.5749351e-01   5.8439930e-03   5.7297059e-01   2.5055817e-01   8.5289058e-01  -3.3169980e-01   6.7892686e-01   9.2772741e-01   3.6790066e-01   4.7337837e-01   6.0510263e-01   6.1693767e-01  -5.1279982e-01  -2.4799758e-03   6.9569447e-01  -4.6966174e-01  -1.2594463e-01   3.6113149e-01  -4.9996687e-01  -8.5094072e-01   1.4615917e-01   6.3540290e-01   3.8909801e-01   1.6699143e-01  -9.1003820e-01   8.2011980e-02  -9.3184158e-01  -2.5256672e-01  -7.8576706e-01  -4.7164651e-01   4.0508414e-01   8.8465681e-01  -2.4980408e-01   3.9799366e-01   4.0812283e-01  -8.5830145e-01   6.1169959e-01  -1.2917890e-01   8.4632393e-01   7.7446496e-01   8.0196980e-01  -7.7947804e-01  -4.7038546e-01   6.1639768e-01  -3.9210059e-01   5.5586009e-01   6.0387691e-01   6.0318793e-01  -1.4663416e-01  -5.8447060e-01  -9.8137559e-01   6.3034153e-01   1.1123925e-01  -5.7864457e-01   6.6343320e-01  -7.5354656e-01   9.9706900e-01  -4.1916871e-01   8.1059551e-01   7.1815470e-01  -7.3220903e-01   5.9948329e-02   6.6314661e-01   5.0212503e-01  -6.3271799e-01   8.7043254e-01  -3.1893603e-01  -6.8862984e-01  -1.5934081e-01  -1.1175466e-01   3.9918316e-02  -9.4158695e-01  -6.5452967e-01  -7.7340226e-01   9.9745152e-01  -2.8160588e-02  -3.1187364e-01   1.9835268e-01  -4.3075246e-01   5.7685616e-01   7.3027998e-01   8.3760039e-01  -6.0261732e-01   4.8569157e-01   5.3798563e-02  -2.6814829e-01   9.0895693e-01  -7.2744932e-02  -1.3728394e-01   5.6191920e-01  -6.3362929e-01   9.0194683e-01   9.5176912e-01   3.9158699e-01   3.6911727e-01   9.4806358e-01  -1.3088210e-02   5.4672917e-01   1.2306199e-01   4.1856193e-01   6.8993692e-01   8.9843155e-01  -5.4394385e-01   1.2725816e-01   8.6082181e-01   8.5604467e-01   6.4897070e-01  -9.7636302e-01  -8.8652706e-01   3.0250630e-01   5.7806146e-01   8.6051753e-01   5.8704647e-01   1.3488901e-01  -9.4639760e-01   8.1154873e-01   2.1916241e-01   2.7137305e-01  -4.2680804e-01  -2.3934615e-01   6.2821977e-01   6.1859372e-01   6.0001257e-01  -4.9246794e-01   6.8296556e-01   7.1898036e-01   4.4862287e-01   7.8117033e-01   9.6596748e-01  -8.6943617e-01  -1.3170472e-01   5.8372223e-01  -8.2061628e-01   6.8053492e-01   3.2284974e-01  -1.2925695e-01  -8.7624274e-02   3.4212753e-01  -2.5320476e-01  -8.0954073e-01   4.5611379e-01  -6.1711313e-01   3.8790785e-01  -8.1332775e-01  -3.7212891e-01   6.9567500e-01   6.7958610e-01  -7.6105119e-01   8.4012504e-01  -6.1274453e-01   6.5507305e-01  -1.9369775e-01   1.1858308e-01  -3.8852883e-01  -6.4722972e-01  -3.0344507e-01   2.4563143e-01   7.4070344e-01   1.5207027e-01  -2.9970615e-01   2.6038800e-01   8.1952678e-01   4.1506246e-01   5.5664061e-01  -1.2104465e-01   3.8935670e-01  -4.2896703e-01  -2.2934815e-01   1.4414805e-01  -6.8915874e-02  -4.4722891e-01  -4.2090026e-01   7.2618884e-01   1.9617689e-02  -1.1739032e-01   5.6577039e-01  -2.2732280e-01  -1.7217443e-01  -4.0826562e-01  -9.5985079e-02   9.9332577e-01   4.8828472e-01   9.0558380e-01  -4.4722269e-01  -2.5290519e-01   1.0308423e-01  -2.2722742e-01   2.2829855e-01   8.8993126e-01  -3.5892085e-01   5.5570167e-01   4.6408746e-01  -1.3435649e-01   6.5673135e-01   9.5267173e-01  -3.1567238e-01   8.9203136e-01  -4.1541735e-01   3.2952830e-01  -4.3743414e-01   6.8376733e-01  -2.9413674e-01  -4.7479566e-01   3.1319024e-01   1.3538662e-01   9.9069543e-01   9.7444643e-01  -8.9048223e-01   3.5083904e-01  -7.2942805e-01  -2.9838662e-01  -3.8474605e-01  -7.7329006e-01   7.1122543e-01   5.6741519e-01  -5.7594101e-01  -7.2199056e-01   6.9400464e-01   5.5888294e-01   8.0849382e-01   9.0632861e-01  -7.7104423e-01   9.0551131e-01   1.6388118e-02   9.8949353e-01   6.1423992e-02  -2.1861270e-01  -4.6044863e-01  -1.2368177e-01   1.6119599e-01   2.6019188e-01  -9.8724626e-02  -5.8806914e-01  -2.4410963e-01   8.7057693e-01   3.5402587e-01   2.2791825e-02  -9.6561707e-01   7.1006106e-01   3.9375843e-01  -5.1976313e-01  -3.5449803e-01   6.5186243e-01  -8.7101867e-01   7.9504531e-01  -3.0680852e-01  -9.6123135e-01  -5.0442697e-02   9.4538884e-01   9.7615046e-01   4.3546462e-02   4.7625803e-01  -2.4072071e-01  -4.0918567e-01  -2.3195812e-01  -6.8576251e-01  -1.4185019e-01   3.5726725e-01   4.2668775e-01  -5.9301662e-01   7.1714609e-01   3.4918078e-01  -2.6208446e-01   3.1143581e-01  -5.3157824e-01  -2.7407786e-01   3.2313559e-01  -3.4295732e-01  -7.8230156e-01   8.7426915e-01  -5.7102892e-01   4.0010688e-01   2.3388650e-01  -3.6741688e-01   8.3919341e-02  -9.0689782e-01   4.7927224e-01   9.9330764e-01  -6.1602155e-01  -5.3723207e-01  -7.3874257e-01   6.4896770e-01  -1.3516256e-01  -4.6041906e-01   3.8432563e-02  -2.5351667e-01   9.1315416e-02  -9.5395056e-01   9.9844296e-01   5.5343871e-01  -7.1681057e-01  -2.2518432e-01  -5.3385299e-01  -3.8217528e-01   1.0183728e-01  -9.2818462e-02   6.0184732e-01   6.2895803e-01  -7.3623037e-01  -8.3083526e-01   9.1652273e-01   2.4529682e-01  -8.4881075e-01   7.9101033e-01  -8.1748958e-02  -3.5206966e-01  -6.8147319e-01  -8.2236116e-01  -2.6950605e-01  -4.7700850e-01   1.2267576e-01  -5.3186939e-01   4.4842209e-01   9.4109911e-01   6.1032415e-01  -4.2616168e-01  -5.7170175e-01  -2.8583725e-01   6.6450786e-01   4.5037209e-01   5.5978172e-01   4.8720259e-01   3.6359482e-01  -3.8060392e-01   2.7743476e-01   6.5351575e-02  -3.7060504e-01  -6.5834268e-01  -9.8955474e-01  -2.4028793e-01  -7.1720648e-01   5.2492079e-01  -9.7114910e-02  -7.0071293e-01  -2.1227731e-01   2.0340930e-01   8.9696520e-02   3.6609102e-01   8.4919084e-01   8.0684828e-01  -7.6249676e-01   6.5693810e-01  -3.6272712e-01   9.1552111e-01  -2.2413329e-01   2.2279700e-01   1.7119358e-01  -6.1549556e-03  -8.3163280e-01  -1.7345841e-02  -7.1126360e-02   8.7210244e-01   2.2949799e-01  -2.4454559e-01   2.6691088e-01  -3.5747268e-01   9.4736271e-01   3.7139315e-01  -4.9869161e-01   2.3316033e-01  -2.4033414e-01  -3.7166351e-01   5.9816062e-01  -2.0885615e-01  -4.7453715e-01  -3.1826269e-01   7.2817740e-01   3.7733421e-01  -6.4886234e-01   1.4457895e-01   4.9157476e-01   6.7043010e-01  -9.4346326e-01  -8.2551931e-01   7.2746225e-01  -3.4312248e-01   6.4735293e-02   5.6614768e-02   5.2481253e-01  -9.5119203e-01   2.2101896e-02  -8.7062077e-01   7.5614106e-01   1.8888050e-01  -2.5350822e-01   2.4699045e-01  -4.7302719e-01  -2.7030881e-01  -3.9210261e-02   1.5826726e-01   6.3316543e-01   4.2870840e-01  -5.8921256e-01  -4.7898396e-01   8.9053761e-01  -6.8648749e-03   9.9754007e-01  -2.1616119e-01   2.4163652e-01   5.7332800e-01  -4.3758393e-01  -5.0877624e-01   3.1800240e-01   5.6177420e-01   5.1148223e-02  -4.8148380e-01   2.6960210e-01  -4.1457345e-01   1.1574152e-01   9.4510334e-01   8.3955418e-01   7.9772692e-01  -5.3273356e-03  -6.8797561e-01  -6.7132673e-01  -5.2447549e-02   8.7396124e-01  -8.7692042e-01  -2.8179560e-01   3.8343483e-01  -2.8152887e-01  -6.7714391e-01   9.7307219e-02  -5.6697857e-01   8.8369627e-01   1.1685182e-01  -9.7830974e-01   4.9313161e-01  -9.9926056e-02   8.5402027e-02  -3.6641317e-02   8.4189636e-01   5.4499787e-01  -9.7685179e-02  -3.7147849e-02  -5.7262548e-01  -7.7576854e-01  -1.8034854e-01   1.3065145e-01  -7.0436786e-01   7.7639717e-01  -4.5148936e-01   4.4471934e-01   9.5765537e-01  -7.0417747e-01  -8.0592900e-01   8.4236065e-01   7.7230051e-01   9.1439438e-02   4.5797425e-01  -6.9397517e-01   6.1205223e-01  -7.4107773e-01  -5.1814377e-02   1.5938487e-01   5.7705200e-01  -4.9950763e-01   3.7106205e-01  -7.0426915e-01   6.5895011e-01  -6.8079680e-01   9.9654461e-01   9.3919114e-01  -8.9368803e-02   6.3012898e-01  -4.0645576e-01  -6.6138485e-01  -2.2931913e-01   7.4398226e-01  -3.1794604e-01  -6.2346588e-01  -9.8605416e-01   5.6664979e-03   5.4263080e-01  -9.5170257e-01  -9.5148138e-01   2.1423061e-01  -6.0822545e-02   8.7415418e-03   7.4756963e-01  -9.5202455e-01  -2.8101435e-02  -5.4117920e-01   4.9925696e-01  -3.9535229e-01   7.1272011e-02  -4.2499072e-01  -9.4389627e-01  -4.8201098e-01  -5.2745252e-01  -9.0959171e-01  -6.4164626e-01   8.1296025e-01   6.9027366e-01  -4.9456623e-02   7.9731882e-01   7.9401131e-01   3.0589613e-01   6.5523974e-01   1.2295233e-01   5.6581064e-01   1.0491020e-01  -8.8775441e-01   3.4149616e-01  -3.6069962e-01   1.8780131e-01   8.4029259e-02  -8.2168653e-01   1.0685051e-01   1.4393662e-01   3.1818363e-01   6.9880412e-01  -4.3695546e-01   9.4146681e-01  -2.9544057e-02  -4.0073204e-01   5.1977052e-01   9.0776850e-02   4.1113430e-03  -5.5489985e-01  -1.5137873e-01  -8.2084655e-01   9.6651575e-01  -9.8218671e-01   6.0399679e-01  -5.0580366e-01   6.7867676e-01  -7.1868823e-01  -5.6398547e-01   3.8063703e-01   2.0807044e-01   3.5579760e-01  -8.8659794e-01   8.2417456e-02   3.9420892e-01  -9.1259827e-01  -1.0598615e-01  -7.4283348e-01   9.6358231e-01   3.4457191e-01   3.8939788e-01   4.5047566e-01   2.6544579e-01   2.0823286e-01   6.7514684e-01   2.8469244e-01  -6.8319035e-01   7.2473516e-01   6.7947603e-01   4.0222709e-01  -1.9052033e-01   1.0141759e-01  -7.5530906e-01   2.4371116e-01   8.3008872e-01   7.5832317e-01   5.6390290e-01  -2.8185676e-01  -5.5655416e-01  -2.4313573e-01  -5.0957491e-01  -2.7668094e-01  -5.3118026e-01   9.7508290e-02  -4.0174299e-01   4.1143440e-01  -3.5877987e-01   4.2009107e-01   8.6774285e-01  -1.6946020e-01  -6.3892688e-01   8.5256964e-01  -3.4086843e-01   8.3972768e-01   9.5941423e-01   2.2970239e-01   3.1465621e-01  -1.9555493e-01  -9.3247970e-01  -6.7107696e-02   2.9272900e-01   7.0897738e-01   7.4622580e-01   4.1211820e-01   4.0606443e-01  -9.0953433e-01  -2.2945553e-01   8.3593775e-01  -2.2962304e-01   4.4282405e-01  -4.2681045e-01  -8.4165751e-01   1.2155564e-01  -4.2271007e-01   7.7969036e-01  -9.7583101e-01  -2.0303928e-01  -1.1729271e-01  -6.2495253e-01  -4.4961200e-01   7.6060980e-01  -5.5242530e-01   5.6404536e-01  -9.2141217e-01  -4.4382058e-01  -5.3202037e-01  -4.3925755e-01   6.2523375e-01  -9.6216682e-01   2.7125404e-01  -5.5615309e-01  -8.8022175e-01  -2.7334726e-01   2.1335250e-01   9.6158519e-02  -4.8547187e-01  -4.8066830e-01   4.2207952e-01   5.2096831e-02  -3.5290743e-01  -1.4499145e-01  -7.6754702e-01  -5.7772668e-01  -6.3486904e-01  -5.1143401e-01   7.0944786e-01  -5.2539092e-01  -1.2496887e-01  -4.9318576e-01   9.3496021e-01   2.2288605e-01   9.4148612e-02   3.0595353e-01   9.4118873e-01  -9.1069215e-01  -8.5181368e-01   7.5486817e-01   5.9750816e-01  -5.3178345e-01   9.7016373e-01  -1.6220639e-01   5.2640056e-01  -8.6914101e-01   8.8806799e-01   7.7713124e-01   3.5792084e-01  -7.2858542e-01  -9.1907687e-01   4.2882437e-01  -3.0687737e-01  -3.3002931e-01   4.3795299e-01  -9.7345342e-01   6.5612005e-01   9.1692927e-01  -7.7987557e-02  -4.7965498e-02   7.4268983e-01   5.3314359e-01   7.3043564e-01  -1.8280733e-01  -9.7992313e-01  -4.9662758e-01   3.0625410e-01  -2.7913318e-01  -2.8092921e-01  -9.5629666e-01  -9.2024324e-01   6.5882063e-01  -6.1051099e-01   6.3306927e-01   1.6521255e-01   1.8536909e-01  -7.3304713e-01  -2.0532929e-01   6.0119632e-01  -8.4418665e-01   1.6219033e-01  -4.9606608e-01   3.5754570e-01  -7.1842108e-01   8.3865077e-03  -6.3423466e-01  -4.3466890e-01   6.0838800e-01  -4.6598234e-01  -2.2874755e-01  -9.0386996e-01   4.2346097e-02  -7.8049345e-01  -8.3708529e-01  -2.4930330e-01  -2.8108684e-01  -1.0527943e-01  -6.6242394e-01   8.9344121e-01  -4.7327232e-01  -2.8262146e-01  -1.5879502e-03  -7.4254202e-01  -5.6654664e-01  -8.4367857e-01  -9.1267911e-01   7.2278739e-01   8.0265956e-01  -2.9732372e-01   4.3434273e-01  -2.7939882e-01   7.4427946e-01   9.4945256e-01  -5.5182448e-01   8.7173315e-01  -6.5646366e-01  -2.3058875e-02  -6.8533211e-01  -3.2056425e-01  -8.4714248e-01   7.3418866e-03  -7.6231141e-01   7.5137375e-01  -6.1777353e-01   1.8311419e-01  -9.2178454e-01  -4.1035059e-01   5.9277037e-02   5.5798880e-01   4.5800390e-01  -4.6963339e-01  -9.2128777e-01   4.8012312e-01   5.1958064e-01  -3.2169948e-02  -4.7140940e-01  -2.2987639e-02  -8.7538505e-01  -7.1425691e-01  -1.2283649e-01   5.6716713e-01   1.5914453e-01  -9.7414880e-02
