   3.1618860e-02   3.4806503e-01  -6.0821877e-01   3.5932814e-01  -3.2920934e-01  -9.0278658e-02  -6.9428747e-01  -9.8954870e-01  -8.0033158e-01   6.0922140e-01   9.0773481e-02  -2.3942344e-01   2.1735633e-01  -4.9553049e-02   4.8233453e-01  -4.4011704e-01   6.1440612e-01  -4.8776656e-01   5.5234008e-01  -1.4260142e-01   3.6354956e-01   5.4116331e-01  -9.0034270e-01  -2.9588307e-01   9.4867088e-01  -9.3522399e-01   9.7351576e-01   7.2316613e-01   1.9165810e-01  -1.3023499e-01   7.1404460e-01   5.5645625e-01  -6.1133795e-01   2.7535842e-01  -6.3489075e-01   5.6969955e-01  -9.0880316e-01  -1.1555047e-01  -3.4769409e-01   8.4953686e-01  -1.7887981e-01  -3.5124511e-01   9.3905471e-01  -5.7839822e-02   3.9737388e-01  -1.5021928e-01   3.7570752e-01   6.1137172e-03   9.6610901e-03   5.7554926e-01   4.6084975e-01   6.0053487e-01  -3.0820864e-01  -3.2319767e-01   5.7465337e-01   6.7595849e-01  -3.7028550e-01  -8.7139905e-01   5.5384185e-01  -8.1752443e-01   5.7717093e-01   7.0338157e-01   6.1051147e-01  -4.9686349e-01   9.5920291e-01  -6.6074585e-01   5.0295896e-01  -6.9660266e-01   9.2695752e-01  -4.8076708e-01   7.5339716e-01   1.1696556e-01   6.3637183e-01   7.7582566e-01   4.8764056e-01   4.5418588e-01  -8.0856114e-01  -5.7657064e-01   7.9905052e-01   2.5118800e-01   8.0191234e-02   5.3525435e-01   7.2319332e-01   2.9441817e-01  -6.4897906e-01   7.1058382e-01   7.1358693e-01   1.3184178e-01   8.8110044e-01  -1.9108566e-02  -7.3951966e-01   9.6038723e-01   2.2341544e-01  -1.2384403e-02  -3.5018290e-01  -7.9492569e-01  -1.7243494e-03   9.4609813e-01   2.8337903e-01   1.9107388e-01   4.9116654e-01   3.5604145e-01  -8.5576945e-01   5.2058931e-01  -8.2353546e-01  -2.8815092e-01   5.4367913e-01  -4.3541931e-01   7.8454137e-01   5.0741495e-02  -2.8457481e-01  -1.0839595e-01  -6.7280058e-01  -3.0904818e-01  -5.6852004e-01   4.5554458e-01  -8.7350430e-01   1.9777869e-01   5.7635690e-01  -8.7653649e-01   3.2039680e-01   7.1525351e-01   6.9961672e-01   2.5977132e-01  -1.5588879e-01  -8.7697916e-01  -2.2360024e-02  -9.5698708e-01  -1.4809250e-02  -4.4007403e-01   8.0995526e-01  -7.2523290e-01  -5.5115574e-01   9.9536195e-01   7.2874833e-01   8.6968397e-01  -8.4450734e-01   7.5077666e-01  -1.0601267e-01   9.3981085e-01  -6.2726561e-03   5.4297685e-02  -4.4422556e-01   9.6362977e-01   7.6588046e-01   5.7965636e-01  -3.1911736e-02  -5.6607551e-01  -1.5130903e-01   7.9270530e-01   3.8782442e-01  -3.9552093e-01   2.6137037e-01   6.7814695e-01   3.2784856e-01   9.7359752e-01  -3.2697119e-01   6.9032712e-01   4.0390805e-01   9.0437132e-01  -1.8580292e-01   1.5557804e-01  -1.6749137e-01  -8.4595195e-01   5.0169565e-01  -3.2733441e-01  -6.9934772e-01  -9.5133796e-01   6.7370970e-01  -8.7793600e-03  -8.9786066e-01  -7.5855925e-01   7.1370059e-01   6.5368052e-01  -5.9804417e-02   6.2329745e-01   7.4200565e-01  -9.5606435e-01  -7.9823485e-02  -9.0215833e-01   9.2250262e-01  -3.3397035e-01   4.2463553e-01  -4.2814276e-01   5.2872312e-01   6.8167378e-01  -3.3723372e-01  -6.7027609e-01  -7.2020045e-01   5.1378588e-01  -4.8913418e-01   4.7897065e-02  -1.3176875e-01  -8.9832113e-01  -6.2289569e-01   1.8139869e-01   4.1177809e-01  -2.6229601e-01  -3.5260739e-01   3.0265828e-01  -4.6477739e-02  -2.4133180e-01  -3.3036803e-01   8.4193844e-01   4.8591012e-01  -2.9549998e-02  -9.2747430e-01  -9.4123493e-01  -5.1876801e-01  -2.6833441e-01   7.2440095e-02  -9.4253180e-01  -7.1190084e-01  -8.7947719e-01   4.8274639e-01   1.7905014e-01  -1.4966558e-01   9.7528363e-01   8.6136904e-01  -5.5550542e-01   7.9862569e-01   4.3642784e-01   6.4617702e-01   2.3630840e-01   9.1911417e-01   9.8909493e-01  -8.0746776e-02   6.5364883e-01   3.9311703e-01  -5.3835311e-01  -8.7176987e-01   8.2726078e-01   7.1495866e-01   3.8824259e-01   5.6000826e-01   3.3938303e-02   3.6452906e-01  -6.6094336e-01   4.1194124e-01  -7.9140428e-01   8.8723427e-01  -4.8218149e-01   6.4220075e-01   5.4071347e-01  -4.4374352e-01  -7.3520577e-01  -9.4450538e-01  -9.1859475e-01  -2.8821155e-01  -9.0242033e-01  -2.6460343e-01   4.4374945e-01  -6.1815476e-01   1.1048421e-01   4.2457650e-01  -7.4987368e-01   8.8152930e-01  -1.5171857e-01  -7.4214449e-01  -3.5114756e-01  -2.3243659e-01   9.9939799e-01  -8.7337027e-01   2.1674596e-01  -4.7046053e-01  -9.7206707e-01  -9.6823259e-01   6.1213037e-01  -3.6352103e-01  -7.3169597e-01   8.4902516e-01  -7.8889434e-01  -7.7735453e-01   6.0859257e-01   8.5392721e-01  -6.0196568e-01   1.8910246e-02   9.9810731e-01  -5.1761746e-01  -4.0864790e-01   7.2307006e-01  -1.7434893e-02   3.8230479e-01   2.3285917e-01   2.8053797e-01   8.9394023e-01   6.0973402e-01  -7.3999546e-01   9.1352287e-02  -2.1019842e-01  -7.8766239e-01  -9.5683501e-02  -5.0586579e-01   6.6356272e-02   8.4918125e-01  -4.1370442e-01  -2.4345929e-01   1.4972036e-02  -5.9972692e-01   4.1380611e-01  -4.3553982e-01  -2.2036644e-01  -5.3957823e-01  -7.9014725e-01  -2.4061205e-01  -3.5694636e-01  -2.0232921e-01  -1.7433041e-01  -5.9861991e-01  -1.6742898e-01   6.4929565e-01   4.0017853e-01   9.2213325e-01   4.3707731e-02   4.3307086e-01   6.6034400e-01  -5.2162475e-01  -4.8622847e-01  -3.7342256e-01  -6.7919433e-02  -1.9198480e-01   9.8303713e-01   3.8923690e-02   7.8506199e-01  -2.9648720e-01  -3.9838197e-01   7.6629747e-01  -6.8073139e-01   6.5722995e-01   5.7848246e-01   5.2009257e-01  -3.4525337e-01  -5.8684584e-01  -3.9446540e-01  -1.6754153e-01   2.3224988e-01   2.2019056e-01  -7.3889476e-01   3.7472758e-01   4.2111183e-01   5.7257622e-01  -5.1492501e-02  -5.2772024e-01   9.4934809e-01  -8.2219402e-01  -4.7772314e-01  -2.0758348e-01   5.3628143e-01  -1.0725597e-01  -7.0033986e-01   8.5529638e-01  -3.0245342e-01   7.4804416e-01   4.1218261e-01   3.1811731e-01  -2.8009625e-01   2.4074437e-01   6.1680244e-01   1.9800647e-01  -3.5150079e-02   2.8136332e-02   4.3177519e-01   7.0535780e-01  -9.4049354e-01  -7.3303043e-02   3.7429126e-02   8.5327400e-01   4.0874508e-01  -1.7367367e-01   2.0906669e-01   6.4958698e-01  -8.6717757e-01   6.1153527e-01  -6.7145707e-02   9.4496795e-01  -6.7763064e-01   7.9614629e-02  -5.8345301e-01   4.9241167e-01  -1.1164908e-02   7.7682973e-02  -9.6817374e-01  -3.6538134e-01   7.4885916e-01  -9.6515359e-01   3.1776317e-02  -6.8924412e-01  -1.3331110e-01   6.1793983e-01   8.5497650e-01  -7.7953196e-01   5.9942816e-01   2.0100089e-01  -1.9289526e-01   5.8822371e-01  -7.3261567e-01   2.7776091e-01   9.9891118e-01   1.6228050e-01  -5.4610411e-01  -5.6629666e-01  -8.3720629e-01  -3.2275323e-01  -9.0404455e-01   7.8411610e-01  -5.1913043e-01  -8.4378002e-01   6.0817815e-01   6.3009902e-01  -2.5900870e-01  -6.7500055e-01  -6.9833168e-01   7.1743542e-01   1.4102771e-01  -2.2071989e-01  -3.5799082e-01  -4.3970446e-01  -3.4278314e-01   5.7560731e-01   7.0033476e-01   4.6518125e-01  -2.3792144e-02   9.4936348e-01  -5.6387754e-01   7.8897035e-01  -4.6670251e-01   2.1256415e-01  -2.9522394e-01   4.9407313e-01   1.9908541e-01   1.3816535e-01  -3.2097737e-01   6.3058173e-01  -8.5002235e-01   1.1358666e-01  -2.2017177e-01   5.2836655e-01   2.5336209e-01  -6.9773631e-01   6.9190307e-01   6.2620945e-01   4.3751969e-01  -6.7421686e-01  -4.1479388e-01   7.4151352e-01   7.1216644e-01  -4.8952445e-01   9.6977124e-01  -1.6808297e-01   6.3177446e-01   5.3951817e-01   4.0319311e-03  -9.3926314e-01  -6.3755112e-01  -8.6616405e-01  -9.1418243e-01   4.2669580e-01   6.7680053e-01  -1.6482111e-02  -9.3498360e-01  -3.1492307e-01   8.4598681e-01  -6.0647152e-02  -2.9488592e-01  -9.2278828e-01  -7.5994614e-01  -9.6831720e-01  -5.2033239e-01   1.3254535e-01  -6.0784642e-01  -8.8636931e-01  -5.5692671e-01   4.5499676e-01   9.5365199e-01  -2.0042463e-01   4.2125483e-01   9.9234138e-01  -7.9706724e-01   5.7439273e-01   1.8910670e-01  -2.9647973e-01  -5.9280272e-01   3.5251654e-01   9.7884644e-01  -5.1267891e-02   4.9773018e-01  -6.6282134e-01   5.3911095e-01  -4.5337443e-01  -7.3845404e-01  -2.0321468e-01  -5.7504051e-01  -7.1352852e-01  -2.3466318e-01  -5.0239456e-01  -3.3731100e-01  -5.6077906e-01  -4.3436872e-01   6.6257113e-01   5.9059229e-01   3.0322429e-01  -4.0614410e-02   5.9829847e-01   5.6621111e-02   4.4591270e-01   2.5587044e-01   8.3008939e-01  -3.2667132e-01  -4.3292016e-01   9.0447844e-01  -8.7669395e-01  -6.1085074e-01  -3.4578625e-01  -4.1551865e-01  -7.1250228e-02  -1.9558940e-01  -4.0574315e-02   1.1061154e-01   1.1742889e-01   8.7541898e-02   1.4115597e-01  -4.6215191e-01   2.4406913e-01  -2.4685190e-01  -9.9314920e-01  -4.6626697e-01  -6.9913063e-01   1.7769312e-01   4.4190443e-01  -4.4511346e-02   5.3754448e-01  -1.6670382e-01   4.5099915e-01   3.5000771e-01  -3.9918673e-02  -2.9977922e-01   7.4433255e-01  -2.4976105e-01  -5.4536102e-01  -7.9749524e-01  -1.8779722e-01  -6.5296722e-01  -4.0618796e-01  -6.3453132e-03   3.6778833e-01  -2.7830570e-01  -8.7504219e-01   3.9903443e-01   5.7617723e-01  -3.3623705e-01  -6.9794256e-01   2.7443286e-01  -7.4325013e-01   5.3834228e-02  -7.2846664e-03   1.0520997e-01  -2.8998088e-01   5.3125113e-01   8.9818328e-01  -7.7578996e-01   4.3894394e-01   2.8692914e-02  -2.6268616e-02  -4.6351218e-01  -9.7682186e-02  -9.0552579e-01   7.2993357e-01   9.6226611e-01   4.5740844e-01   9.2066003e-01   6.5896414e-02  -6.7887776e-01  -7.5749321e-01  -3.6120472e-01   5.7353400e-01   7.2561797e-01  -4.7666552e-01  -1.6514133e-01  -2.2257058e-01   2.2477312e-01   5.0138635e-01  -8.5296207e-01  -8.0993723e-01   2.8782766e-01   2.9915573e-01  -7.1866415e-01   4.0222083e-01  -1.7395597e-01  -9.9613646e-01   1.7882621e-01  -8.8021256e-01  -8.3581272e-01  -8.6736893e-01  -1.0618019e-01   2.5028699e-01  -9.0493317e-01   9.2379269e-01   5.5249000e-01   7.8791513e-02  -2.9884543e-01  -4.9660082e-01  -3.8476402e-01   3.3561540e-01   5.3637513e-01  -9.0746584e-01   8.6996817e-01   3.7094438e-01  -4.7480258e-01   2.2600074e-01  -4.5039098e-01   8.6418634e-01  -3.0130311e-01   6.0662817e-01  -2.3891930e-01  -8.7705001e-01   7.9321215e-01  -2.9275370e-01   2.7614291e-02   2.0733407e-01  -9.2273650e-01   4.8323107e-01   8.5929869e-02   7.4498063e-01   7.3231044e-02   4.9622437e-01  -8.2822107e-01   9.2951919e-01   1.6311349e-01   5.0322418e-01   7.8817290e-01  -7.8472824e-01  -7.3285035e-01   8.5559042e-01   4.5337304e-01   6.1316509e-02   4.1629934e-01   4.8352806e-01   1.2049686e-01  -6.5520196e-01   9.2131886e-01  -9.8142520e-01   6.9854158e-01   2.3179410e-01   7.2644380e-01   9.9251367e-01  -6.2765103e-02  -5.0457598e-01   5.7104089e-01   5.8691258e-01   5.3920643e-01  -6.2198202e-02  -3.4053971e-02   1.2219088e-01   1.8615264e-02  -6.3290480e-01  -7.7369032e-02  -7.7303037e-02  -4.9907184e-01   3.2410386e-01   7.6933748e-01   7.3005531e-01   4.4820348e-02   6.0012815e-01   3.8233328e-01   7.2812408e-01   9.2988862e-01  -2.1192598e-01  -9.3632969e-01  -1.6926740e-01  -1.7951591e-01   1.1373108e-01   9.4554286e-01  -1.7577248e-02  -4.9776200e-01   4.7390724e-02   4.1536902e-01   7.0119180e-01   4.3149103e-02  -7.0466409e-01   4.9586784e-01  -9.3880150e-01  -3.7167279e-02   2.1958849e-01   7.8576959e-01   8.9095180e-01  -3.0716939e-01   8.1346805e-01  -8.2803034e-01  -6.8068589e-02  -1.4568318e-01   3.8911383e-01  -5.2276796e-01  -2.0292407e-01  -9.6094748e-01  -1.4797699e-01   9.7479496e-01  -7.2755053e-03   2.5332086e-01  -2.1798420e-01   3.5997032e-01  -1.3061265e-01   3.1809302e-01  -3.6347233e-01   9.6301686e-01  -2.1664657e-01   7.2886263e-01  -7.2408930e-01  -1.8692898e-01   7.5645930e-01   2.2159344e-01   6.1055197e-01  -9.2631825e-01  -5.7370746e-01   7.2339872e-01   7.2508786e-01   6.1130210e-02   3.6898470e-01  -8.8338996e-01   9.2486834e-01  -6.2570154e-01   3.5016248e-01  -5.4952283e-01  -2.4153144e-01  -7.9951897e-01   1.6327915e-01  -1.2487630e-01  -1.2083908e-01   6.1468810e-01   9.6398042e-01  -5.8387018e-01  -4.7703678e-01  -8.2267887e-01  -8.3959631e-01  -7.1501942e-01   3.7251618e-01   5.9684926e-01  -5.9451753e-01  -6.7698667e-01  -3.2074263e-01   5.1904843e-01   6.1717459e-01  -5.1866558e-01  -1.9663775e-01  -9.2094050e-01  -1.2416307e-01   1.0061620e-01  -9.7132151e-02  -9.3197142e-01  -1.1665532e-01   7.2119014e-01   9.6845609e-01   2.5639050e-01   5.5460734e-01   3.4416665e-01  -2.3527800e-01   7.8378889e-01   9.9576767e-01   2.8164428e-01  -7.9876205e-02  -2.4198312e-01   4.8021191e-01   4.2888908e-01   5.7766313e-01  -6.6337808e-01  -7.4411534e-01   5.4130048e-01  -7.4787985e-01   5.3635080e-01  -4.0118123e-01  -3.8224769e-01   9.1849619e-01   2.7890808e-01  -7.5618890e-01   8.0168847e-01   1.8152294e-01  -2.2339153e-01   1.9373933e-01   6.5612327e-01  -1.8430796e-01   9.1576287e-01  -3.9191297e-01   5.7539797e-01   1.4249796e-01  -8.4727934e-01  -6.1576070e-01  -8.5331913e-01   7.4089685e-01  -7.8961839e-01  -5.4229902e-01   1.4573499e-01   8.0876639e-01  -3.4287592e-01  -7.7783252e-01  -9.1220200e-02  -8.8362347e-02   2.1027803e-01   8.8652984e-01   9.4097969e-01  -6.9824088e-01  -5.8473040e-02   1.2905467e-01   9.8140829e-01   4.0708230e-01   3.1198137e-01   9.9188244e-01  -1.5214224e-01  -2.2183714e-01   7.3988330e-01   4.0397214e-01   4.5792920e-01   6.8302175e-01   8.6451417e-01  -2.3226274e-01  -7.8513090e-01   9.3172184e-01  -8.2075170e-03  -1.2616707e-01   7.8300411e-01  -9.7632548e-01  -3.1534524e-01  -3.9579028e-01   5.0429138e-01  -9.5071934e-01   4.9006076e-01  -4.4689667e-01   1.8183533e-01   4.5354983e-01  -1.5597783e-01  -7.6484100e-01   1.8557870e-01  -4.0368861e-01   9.7870167e-01  -5.3757674e-01  -3.1423798e-01  -6.1144421e-01   1.1874007e-01  -7.6656199e-01  -4.8073023e-01   6.0672181e-01  -3.2006141e-01   8.5981560e-01  -3.7756075e-01   7.3562276e-01   1.2707094e-02  -9.7389699e-01  -1.7449242e-02   2.7998332e-01   7.7006377e-01  -3.2734879e-01  -1.3435626e-01   4.2396638e-01   1.0937250e-01  -2.3305458e-01   3.8065613e-01  -8.0625385e-01  -5.5499547e-01   8.0820214e-01   2.0739422e-01   1.7362253e-01  -8.6202540e-01   2.6210621e-01  -9.0383307e-02  -3.2973537e-01  -5.1705203e-01   1.1720440e-01   7.2395369e-01   3.0497000e-02  -9.1418513e-01  -1.3026366e-01   3.6828307e-01   9.6420738e-02  -9.2634893e-01   8.1557903e-01   6.8442466e-01  -4.0901110e-01   7.1027807e-01  -6.5063385e-01  -3.8427662e-01   5.8184467e-01  -2.9016451e-01  -2.1296560e-01  -6.1265752e-01   1.4243683e-01  -9.8324582e-01  -1.9784584e-01   4.0198783e-02   1.8053106e-01   3.0095715e-01  -7.5070662e-01  -8.3297329e-01   1.4612707e-01  -5.8977278e-01  -2.9848327e-01  -9.9085428e-01  -2.1690562e-01  -2.4403113e-01   8.9612515e-01  -4.6752871e-01   1.6998130e-01   2.6431383e-01  -7.7140820e-01   2.9496264e-01  -3.7098850e-01   7.8342058e-02  -2.1392933e-01   2.4540599e-01  -8.2597184e-02  -2.6184948e-01   3.2054970e-01  -3.6227601e-02  -8.3084676e-01   4.9224198e-02  -1.2067767e-01   9.9295404e-01  -9.7953308e-01   6.4128474e-01   3.9191141e-01   8.1346529e-02  -4.1237268e-01   7.8137407e-02  -2.1784644e-01   1.4677349e-01  -5.3256129e-01   4.1536337e-01  -7.3473287e-02  -6.9792780e-01   2.5987435e-01  -2.1845673e-02   4.9017104e-01  -3.3169734e-01   6.8204041e-01  -8.5060902e-01   1.6603011e-01   6.6196133e-01   8.1012343e-01   2.3512773e-01  -8.8586144e-01   5.3418647e-01   8.6722059e-01  -3.6394332e-01  -5.9525431e-01   4.9323644e-01   1.9104232e-01   3.6547008e-01   1.3673851e-01   4.8584808e-01   8.1522727e-01   8.4470113e-01  -6.5581932e-01   7.6799120e-01  -1.7300598e-01  -1.1412822e-01   9.3593104e-01  -8.9368861e-01  -5.6956303e-01  -7.6307379e-01   9.8111993e-01  -6.4383448e-01  -5.6218062e-01   5.4816259e-01   9.0176852e-01  -6.0988671e-01  -7.7564839e-01   5.5869187e-01  -5.7151904e-01  -5.8586076e-01  -7.1564328e-01  -5.2352343e-01  -7.8058549e-02  -6.3602002e-01  -2.0116451e-01  -1.7133670e-01  -3.0892684e-01  -9.2297684e-01   4.6055090e-01   8.2040054e-01  -9.7254120e-01  -4.2930790e-01  -8.2438965e-01   4.0322858e-01   7.8861932e-01   4.8607081e-01   1.2099229e-04  -5.5391503e-01  -1.2407424e-01   7.3110155e-01   7.5115931e-01   5.9687072e-01  -7.4890298e-01   3.7425542e-01  -5.6673837e-01  -5.0832094e-01   8.4257160e-01  -2.5137152e-01   6.2696711e-01   7.7102685e-01  -2.3576613e-01  -5.1802809e-01   4.6152626e-01   7.5592440e-01
