  -1.2764148e-01   4.4588130e-01   2.3352989e-01   8.6953233e-01  -8.9745842e-01  -1.2279388e-02  -1.8433055e-01   5.3583925e-02  -7.2386580e-01   3.7907440e-01   6.6609913e-01  -4.1564005e-01   9.8972799e-02   2.0669535e-01  -8.8758667e-01  -7.5877592e-01  -3.7951231e-01   1.1859505e-01  -2.2907807e-01   2.7047872e-01   9.9472237e-01  -1.4005451e-02  -2.9278575e-01  -7.8518751e-01   5.0326907e-01   6.7347768e-01   9.8402185e-01  -5.6673378e-01  -2.1516093e-01  -5.3498096e-01  -7.1942479e-01  -3.9032273e-02   2.5373122e-01  -6.5875001e-01  -5.6305358e-01   8.3730019e-01  -2.9363958e-01   3.5939016e-01  -4.0744496e-01   5.0786759e-01  -1.3843795e-01  -2.0987795e-01   9.1226373e-01  -6.2291051e-01  -2.6345581e-01  -9.2220336e-01  -6.3911149e-01  -1.1819498e-02  -3.7623363e-01   9.3996584e-01   1.8622754e-01  -5.6392463e-01   2.1960604e-01  -9.2909081e-03  -3.4457888e-01   3.8951679e-01  -4.9333392e-01   8.5152893e-01   9.8128657e-01   6.3260518e-01  -5.6979536e-01  -4.1314048e-01  -3.0812633e-02  -6.1111829e-01   2.0624172e-01  -4.7797023e-02  -4.7594593e-01   6.9970519e-01   8.7545986e-01  -1.2157243e-01   8.1736890e-01   4.9236173e-01  -7.1702884e-01   2.2068921e-01   4.1055950e-02   4.0498174e-01   1.3125371e-01  -8.4307001e-01   6.5484595e-01  -4.8800275e-01   8.1390669e-02   1.4012885e-01  -4.6761913e-01   9.9943547e-01  -6.7563970e-01  -7.7490755e-01   3.1498969e-01  -2.9810424e-01  -2.7179380e-01   4.7388830e-01   4.6700427e-01   2.2911491e-01   6.2083076e-02  -2.8692644e-01  -8.3828843e-01  -5.4927441e-01  -4.5004894e-01  -4.3596435e-03   8.5987985e-01   6.0936110e-01   4.0954852e-01   5.8107716e-01  -2.9557169e-01  -8.5097916e-01   6.3518512e-01   4.3581162e-01   6.0613424e-01  -1.5774694e-01   4.5449178e-01  -9.2359082e-01   2.0830074e-01  -4.8876146e-01   5.0890829e-01   5.2217510e-01   8.8082256e-02   1.5385054e-01  -7.1866750e-03   9.7186440e-01  -7.0228355e-01   3.7877614e-01  -6.2641777e-01   1.6414731e-01   1.2283349e-01   9.7607208e-01   6.4568697e-01   5.9062618e-01  -3.7734985e-01  -5.8983423e-01  -8.1650888e-01  -1.2319402e-01   2.7077349e-01  -5.8175814e-01  -3.5190235e-01  -6.7345562e-01  -5.1208322e-01  -3.4925880e-01  -3.1866470e-01  -3.0621700e-01  -8.0156921e-02  -8.6040622e-01   5.0854158e-01   4.4346464e-01   7.2643764e-01   5.9643441e-01  -7.7245347e-01   6.8349504e-01   2.9750235e-02   5.3913092e-01  -3.3158103e-01  -5.5386171e-03  -1.4309378e-01  -8.2579647e-01   8.0686931e-01   1.1363088e-01  -2.8239255e-01   6.2913331e-01   7.1943290e-01   3.8376070e-01   9.6131590e-01  -3.6476426e-01  -8.0300374e-01   6.4120120e-01  -2.7512013e-01  -1.1167972e-01   2.0971327e-01   1.0795099e-01   4.4449307e-02   5.4572424e-01  -4.3971191e-01  -6.0266154e-01   3.2693552e-01   6.8978245e-01   3.1076623e-01  -8.2418719e-04  -2.8202418e-01   6.6078326e-02   6.6471958e-01   7.6632615e-01  -3.0014638e-01  -2.1703193e-01  -3.1711126e-01   5.6881142e-01  -4.4595361e-01  -5.3283490e-01   4.7677364e-01   5.6639527e-01   5.5998053e-02   9.0974112e-01  -8.2501918e-01   8.5010895e-01   8.9398498e-01  -4.0089543e-01   9.9239157e-01  -6.8854770e-01   1.1666717e-01  -9.4761702e-01   7.0540023e-01  -9.2820570e-01  -9.4740291e-01  -1.5018347e-01  -7.2228548e-02  -3.3148961e-01   1.8963897e-01  -2.8377052e-01  -6.1333759e-01  -3.8756498e-01   4.4234164e-01   7.8238558e-01   2.4503549e-01  -7.1245661e-01   7.2357233e-01   9.7207077e-01  -1.4131398e-01  -4.6528235e-01   3.1903799e-01  -6.5796130e-01  -5.7956494e-01  -3.2595687e-02   7.5513970e-01   5.8208534e-01   5.3656946e-01   6.1677288e-01  -6.7368012e-01   6.8592751e-01  -7.5514958e-01   9.9770215e-01   7.1602745e-01  -5.5057862e-01   6.2757547e-01  -7.9344558e-01   6.8667219e-01  -6.6631815e-01  -3.9088056e-01  -8.5615418e-01   6.3282575e-01   2.0837540e-01  -5.6935057e-01  -3.6139947e-01   2.0074258e-01  -2.0879015e-01  -7.7211096e-01  -7.3175923e-01  -6.8151136e-01  -5.1819941e-01  -1.1250811e-01  -4.2065924e-01   1.2106516e-01  -7.6038783e-01   6.2393950e-01   2.8612441e-01  -4.0451131e-01   5.2994926e-01   1.9385148e-01   7.6653793e-01   1.2307634e-01   7.2317967e-01   9.8823830e-01   1.4169981e-01   1.0549641e-01   1.8094876e-01   1.8254736e-01  -3.6898338e-02  -3.0126758e-01  -1.6229559e-02  -5.3237542e-01  -5.0910522e-01   2.9919400e-01  -2.8458099e-01  -5.8909105e-01   1.9585181e-01  -7.4408455e-02   3.1996092e-01   5.6562048e-01   7.9293857e-01   6.4075786e-01  -8.6453120e-02  -3.4606181e-01   6.0045493e-01  -5.8198116e-01  -3.5650075e-01   1.5587275e-01   1.7747585e-01   4.1805253e-01  -4.2094037e-01   4.1804034e-01   2.6054541e-01   3.7521069e-01  -9.2259592e-01   6.0411776e-01  -6.9600057e-01   1.2025013e-01  -2.2583161e-01   2.0161648e-01  -1.5206126e-01  -9.9321563e-01   4.7943856e-01  -1.3466433e-01  -4.8126896e-01  -3.3540316e-01   9.5666581e-01   7.4759273e-01   8.3499867e-01   3.8935547e-01   3.5672115e-01  -7.9998432e-01  -9.7404677e-01  -1.7014047e-01   2.2131059e-01  -8.0469809e-01  -1.2815461e-01   4.8699252e-01  -8.2421604e-01  -6.4729656e-01   3.1969753e-01  -4.9060927e-02   8.1087671e-01  -7.7475818e-01   4.7865792e-02  -1.7124748e-01  -1.2750195e-01  -2.1177171e-01   3.5453527e-01   1.6548434e-01   7.8739239e-01  -3.9415052e-01  -3.1354062e-01  -4.7846254e-01  -8.0723877e-01   2.7344581e-01   8.7611510e-01   8.4841006e-01   4.1635339e-01   2.4884597e-01  -9.0780475e-01   4.1159188e-02  -6.1984569e-01   1.5405509e-01   9.5485095e-01   2.0410241e-01   7.3988267e-01   8.3108241e-01   1.8544837e-01  -5.9224580e-01  -9.7020560e-01   5.1294083e-01  -3.4240940e-01   4.3430162e-01   8.5402421e-01  -3.2740328e-01  -8.0193107e-01  -6.7424553e-02  -8.5127216e-01  -7.9721646e-01  -2.6725563e-01  -1.6453800e-01  -6.6927041e-02  -7.3976118e-01   7.0731235e-02   3.7525907e-01   8.2801999e-01  -9.6368079e-01  -9.6887242e-01  -2.3334177e-01   6.4159903e-02   3.6859205e-01   3.2392941e-01  -3.4046808e-01  -8.0456481e-01   1.7180866e-01   3.1295380e-01   7.9372160e-01   6.7130255e-01  -9.6336743e-01   5.7112864e-01   8.6767405e-01  -6.1192191e-01  -1.1432574e-01   4.2317967e-01   8.1066152e-01  -5.7489219e-01  -8.8493432e-01   2.3639382e-01   7.1357521e-01  -4.6928587e-01  -2.1603848e-01  -3.3649286e-01  -8.7135373e-01  -8.0479582e-01  -4.5664229e-01  -4.4010716e-01   9.6898209e-01  -7.3531735e-01  -8.6049448e-01  -6.5112808e-01  -3.8947093e-01  -5.1050864e-01   9.1079639e-01   1.7790826e-01  -4.0167230e-01  -4.3152204e-01   6.5133671e-01  -6.4502127e-01   9.1955126e-01  -3.0662694e-01  -2.5062460e-02  -6.7832400e-01   4.3261699e-01  -7.6772499e-01   6.7118457e-01  -1.9523230e-02  -9.7923361e-01   7.7494504e-01  -2.1138013e-01   7.8593225e-01  -4.3861916e-01  -3.3037320e-01  -2.7262549e-01   4.5762253e-01  -9.8593495e-01   6.0932254e-01   6.6516940e-01   9.7400525e-01   9.0315394e-01   1.0678338e-01   3.1011227e-01   5.4002845e-01   7.1527372e-01   1.0239105e-01  -7.1922352e-02   1.7938394e-01   8.9821834e-01   6.6071454e-01  -3.5316492e-01  -2.2832093e-02  -2.1639741e-01   7.1525403e-01  -2.9096500e-02  -9.5763591e-01   1.6307684e-01  -1.4823832e-01  -2.0387768e-01   6.9986190e-01  -1.0099328e-01   2.5459693e-01  -7.6819320e-01  -7.0451978e-02   7.1123204e-01   1.2023156e-01   8.4841262e-01  -2.4495270e-01  -6.8376235e-01  -9.5141870e-01   1.1840631e-01  -8.3636672e-01   3.1040210e-01  -6.3750270e-01   1.6363625e-01   3.6794137e-01  -8.4081938e-02  -3.8535050e-01   4.9453621e-02   4.4107606e-01  -4.8315570e-01   2.8987950e-01   5.5991763e-01   5.1553349e-01   2.0495969e-01   8.0806685e-01   9.7916735e-02  -3.8916946e-01   6.9326370e-01   8.6216657e-02   5.9078025e-01  -3.5536830e-01   6.1695219e-01  -4.3457805e-01   3.4795220e-01   6.7396438e-01   4.3442207e-01   6.7061805e-01  -6.0577217e-01  -8.6714098e-02   2.5805915e-01  -6.1138150e-01  -6.1394506e-01  -3.0529413e-01  -2.1308036e-01  -9.5417382e-01  -1.0373227e-01   8.6974720e-01   5.9602614e-01  -5.7493480e-01  -3.4985178e-01   6.7763890e-02   3.4952699e-01  -8.0591298e-01   9.6927004e-01   5.6212260e-01   5.0601496e-01   1.6746858e-01   2.1738032e-01   5.8779745e-01  -5.8864864e-01  -6.1504730e-01   2.8666094e-01  -9.5799526e-01   1.8522140e-01   9.2041229e-02  -8.7921539e-01   6.1824730e-01   8.7346467e-01   8.6712772e-01   1.1637642e-01   2.2311648e-02  -1.7158248e-01  -2.0607573e-01  -4.1783783e-01  -9.9372538e-01  -3.7501305e-01   1.9011646e-01  -2.1456922e-01  -2.1504661e-01   3.4318832e-01   3.2788310e-01  -9.6827471e-02  -5.9423775e-01   7.8781642e-01   8.4991515e-01  -5.4286467e-01  -2.9476896e-01   1.5920605e-01   9.7261143e-01  -5.3302383e-01  -2.6245927e-01   2.6231725e-02   2.8824735e-01   2.4278093e-01  -2.3094154e-01  -4.4678446e-01  -4.8865906e-01  -4.9348695e-01  -6.8921718e-02  -4.7698182e-02  -8.8989195e-01   2.7681229e-01   4.6910195e-01  -8.5870857e-01  -9.5936818e-02  -5.7951758e-01   2.9763499e-01   5.8384911e-01   1.0952939e-01   9.7694614e-01  -3.6283860e-01  -5.1537441e-03  -8.2824932e-01  -3.7600329e-01   4.6449782e-01  -2.1848894e-01   5.2096684e-01  -3.4882630e-01  -9.5371903e-01  -3.1077413e-01  -3.9386565e-01  -1.9232429e-01   5.4168948e-01  -4.5465984e-02  -4.1916765e-01   9.7074798e-01   6.2877953e-01   9.7895130e-01   5.8842333e-02  -4.6891025e-01  -5.8678314e-01  -9.0755971e-01  -4.2005882e-01   4.8593719e-01   1.8478161e-01  -1.2490902e-01  -5.4474123e-01   5.0490552e-05  -2.6292718e-01   7.9569176e-02  -1.3485379e-01   4.7256830e-01   2.1856037e-01  -8.2948684e-01  -3.2330176e-01  -9.7282549e-01  -9.9282617e-01   9.7322685e-01  -1.0270329e-01   8.4255613e-02   7.3493991e-01  -2.7732882e-01   7.0550395e-02   8.9316790e-01   2.3895323e-01  -7.5989236e-01  -2.0563676e-01   1.1573227e-02   1.6168401e-01  -2.2736860e-01   7.6004749e-01  -1.1956289e-01   4.4000325e-01   5.8468106e-01   1.5912277e-01   6.5093245e-01  -5.7593908e-01  -8.4995010e-01   6.8821897e-01  -9.2812012e-01   5.8763873e-01   9.0327248e-01   2.6306908e-01   2.0297875e-01  -7.1466100e-01   5.4195485e-01   5.5090172e-01  -7.8374338e-01   4.8181010e-01   3.0221193e-01  -4.9309529e-01   5.1159137e-01  -6.2796748e-01  -5.8357020e-01  -1.1950041e-01  -2.6554229e-02  -4.6970827e-02   2.2409552e-01   6.2199827e-01  -9.3565224e-01  -1.9479515e-01  -8.2766055e-01   9.4669666e-02  -3.1652231e-01  -1.6121435e-01  -4.6818896e-02  -5.0368538e-01  -8.5294412e-02   8.6282656e-01  -4.5876931e-01  -7.4545851e-02  -9.6916044e-01   1.1091539e-01   2.9601991e-01  -7.5199307e-01   8.0914684e-01   2.5686937e-01   1.8404745e-01  -4.4941772e-02  -9.7346087e-01   2.8052366e-01  -8.5788795e-01  -6.8811121e-02  -7.8618633e-01  -6.3814345e-01   1.9415138e-01   5.9623325e-01   1.2425771e-02   1.0821152e-01   9.9829468e-01  -2.3221682e-01   7.2312747e-01   1.0134069e-01   1.1989368e-01  -8.0776153e-01  -9.4118037e-01  -3.5114942e-01  -8.4172864e-01   2.5849302e-01  -2.3696867e-01   2.3658388e-01   7.9993783e-02   9.1145397e-01   3.7408218e-01  -9.0755943e-01   1.9798806e-01   9.0811003e-01  -6.6718004e-01   9.1425031e-01  -6.2566906e-02   5.7201927e-01   6.4192194e-01  -9.2722057e-01  -1.3677999e-01  -9.2651276e-01  -4.2454038e-01   2.6767846e-01  -4.9829831e-01  -8.0326737e-01  -7.9408271e-01  -1.4141068e-01   4.8677254e-02  -3.5740666e-01   4.5446730e-01   4.8897071e-01  -5.3432339e-01  -4.9677463e-01  -7.8738799e-01   2.5322655e-01  -1.5442994e-01  -3.8536035e-01  -2.3400444e-01   6.5409486e-01  -2.6087640e-01   9.2517108e-01   3.7932954e-01   2.9389131e-01   6.5284333e-01  -7.8545932e-01   5.5995908e-01  -8.5636369e-01  -4.3959735e-01  -2.2894573e-01  -2.5203297e-01   1.5126785e-01   6.2663258e-01  -7.1020757e-01  -8.4912574e-01  -8.2134998e-01  -5.1002503e-01  -8.4671166e-01   4.8845117e-01  -5.5791917e-01  -8.4034191e-01  -5.0234725e-01  -2.5851542e-01  -5.0185511e-02  -2.0099992e-02   5.5800493e-01  -4.3942832e-01   6.9394034e-02  -5.7466351e-01   6.7112956e-01   3.0449813e-01  -6.3928037e-01   5.6911802e-01   5.3048251e-01   5.5784737e-01  -1.2882066e-02  -7.8150310e-01   2.9109528e-01   6.5626788e-01  -1.1922068e-02   4.9065726e-01  -8.8379532e-01   5.0658694e-01  -4.9944904e-01  -3.0947412e-01  -4.9264265e-01  -1.2372257e-01   6.0438127e-01  -4.9796161e-01   5.1471833e-02  -2.8652924e-01  -4.9034299e-01  -2.1454760e-01  -6.4505645e-02   5.2400791e-01   8.1997872e-01   5.6068486e-01   5.1413159e-01  -5.1466109e-01   4.8008254e-01  -7.2174145e-01   2.3834340e-01  -1.9991326e-01  -3.2715654e-01  -1.7683273e-01   8.7003807e-01   8.3295838e-01   4.0137221e-01  -3.2228685e-01   2.3194874e-01   2.0647177e-01  -2.6686522e-01   4.4176565e-01  -6.6102168e-01  -2.8675593e-01   1.0581085e-01   6.7182180e-01   8.7266510e-01  -2.8554013e-01   2.0591297e-01  -2.9075226e-01   1.0665559e-01   5.4402903e-01  -6.8269853e-02  -7.4176433e-01  -3.0123861e-01  -9.7710387e-01  -9.3081932e-01  -1.7688714e-01  -3.8974427e-01  -7.4757170e-01  -3.4775257e-01   2.4986678e-01  -3.8056594e-01  -8.7447655e-01  -7.7637670e-01  -4.9165097e-01  -8.2488565e-01  -6.4076573e-01  -1.6026179e-01  -1.5380459e-01   9.6037518e-01   6.2892012e-01   9.6588075e-01   9.1402232e-01   5.7201905e-01   1.6244759e-02   6.3205280e-01  -1.2347331e-01   6.7893046e-01  -3.8742310e-01  -4.0512331e-02   8.0054232e-01   1.1452792e-01   1.6134641e-01  -4.8489471e-02   5.7695407e-01  -2.9420652e-01   2.9218965e-01  -2.7748807e-01   1.6442487e-01   3.1722792e-01  -2.7138834e-01  -4.4277981e-01  -4.1065937e-01  -8.1290529e-01   3.8758968e-01   5.9838286e-01  -8.8424239e-01  -2.6503156e-01   9.5373273e-01  -1.3874567e-01   5.4578109e-01   6.8419720e-01  -9.2044606e-02  -1.0146298e-01   2.7953376e-01   4.5380958e-01   8.5825359e-01   7.4703092e-01   1.8944937e-01   3.7583136e-01  -9.7039128e-01   7.0963444e-01  -4.3708358e-01   1.5089536e-01  -6.6809059e-01  -4.2794931e-01   2.5732018e-01   4.2121891e-01   6.5254980e-01   7.2565345e-01  -6.0921455e-01  -5.4192431e-01   6.8542196e-02  -9.5686799e-01  -8.0845384e-01   1.8872886e-01   8.1115213e-01   3.1326178e-01  -2.6510586e-01   5.2945585e-01   3.5350452e-01  -3.6672128e-01  -3.2085409e-02  -9.1404461e-01  -6.8506051e-01   7.1154230e-01   6.1009588e-01   9.5432597e-01  -4.7211180e-01  -4.0634053e-01  -9.7148562e-01  -1.7170851e-02  -8.8323143e-01  -9.9640486e-01   8.7671980e-01  -2.4421446e-02  -9.8459652e-01   7.4883150e-01  -1.0197063e-01   1.7812035e-01  -9.3871363e-02   8.0702090e-01  -1.7730278e-02   5.1857046e-01   7.0309727e-01   2.7332670e-01  -2.9452357e-01   3.0304771e-01  -8.0927885e-01  -7.5501415e-01  -2.2626657e-01   5.2613205e-03   1.9266701e-01   6.5423115e-01  -9.0942603e-01   7.7598693e-01  -4.5406456e-01  -3.4987764e-01   2.7002932e-02  -8.8183346e-01  -6.4628073e-01   7.8654759e-01  -6.5571274e-01   7.4666203e-01  -3.2742230e-02   3.1610331e-01   9.9499036e-01  -9.9064593e-01   2.1819662e-01  -6.6104009e-01   1.8265921e-01  -4.4922776e-01   2.8023669e-01   3.7791419e-01  -4.1963308e-01   2.3055027e-01   5.5333298e-01   6.5618019e-01  -9.3728193e-01   7.4380985e-01  -9.0184420e-01   5.9768308e-01   4.8946630e-01  -3.7566145e-02  -2.3434788e-01   5.5262823e-01  -8.1727647e-01   4.3856144e-01  -6.0048261e-01   6.1615894e-01   1.5323249e-02   1.1695399e-01  -2.8428809e-01  -5.3347340e-01  -8.7083701e-01  -9.6723015e-01   3.6584257e-01   2.5178689e-01   1.3793503e-01  -7.0198505e-01  -2.2873040e-01  -4.5600833e-01  -4.5624834e-01  -6.9493965e-01   4.0981444e-01  -4.2661267e-01  -5.0964039e-01   8.1515730e-02   9.0147829e-01  -3.7879520e-01  -7.1680828e-01  -7.5904502e-01   7.3228951e-02   1.4251719e-01  -9.1733123e-01  -7.0783648e-01  -4.2742355e-01   3.4907857e-01  -8.9765538e-01   2.5590747e-01   5.6313292e-01   9.8254510e-01   6.1166179e-01  -3.4350414e-01  -1.3012575e-02   1.9876531e-01   1.2070680e-01  -8.2820750e-01   1.0393344e-02  -1.2977646e-02  -3.1694878e-01  -1.2851895e-01  -5.7487393e-01   5.5835445e-01   5.6065728e-01   7.2340123e-01   4.3530034e-01  -8.3230551e-01  -6.7966297e-01  -8.6408089e-01   3.8434398e-01   4.2785632e-01  -5.7580668e-01  -1.6826787e-01   4.1862245e-01  -8.0579252e-01   7.1221196e-01  -3.6203790e-02   5.6295550e-01   8.6933164e-01  -1.3348642e-01  -3.9602220e-01
