   9.0403828e-01  -8.7855015e-01   5.4405608e-01  -7.2520784e-01   7.6246778e-01   4.5500091e-01   9.0308607e-01   4.5730609e-01   7.3386279e-01   1.5972004e-01  -1.5249601e-01  -4.5186142e-01  -9.9538735e-01  -9.9888645e-01  -7.9659222e-01   9.1122443e-01   5.2013797e-01   2.2733231e-01  -9.5620184e-01   2.1693933e-01  -4.3631970e-01  -3.4215667e-01   4.4746944e-02  -4.7160528e-01  -3.7287794e-01   8.1861776e-01   2.0290317e-01  -2.8514807e-01  -1.1610930e-01   3.2053453e-01  -1.9938527e-01   1.6283486e-01   3.0316194e-01   3.4871448e-01  -8.9697787e-01   2.5149620e-01  -6.6431179e-01  -2.8633770e-01  -9.4553728e-01   8.1226130e-01   7.9813471e-01   1.2513367e-01   9.4785050e-01  -6.9200183e-01  -5.7092496e-01   1.7328172e-01  -6.6643643e-02   7.8166315e-01   9.7664680e-01   1.0471520e-01   4.7020298e-01   2.1788743e-01  -9.4635343e-01   7.5176609e-01   6.2345203e-01   1.8470098e-02   4.2691706e-01   1.0237517e-02  -8.1846614e-02   3.9431888e-01  -6.5139498e-01  -7.4291152e-01  -5.6703281e-01  -4.9783910e-01  -1.5703475e-01   2.5399177e-01   7.4971254e-01   4.8605011e-01  -4.3817122e-02  -7.3127361e-01  -9.5732896e-01   8.3803553e-01   9.4673551e-01  -1.3587121e-01  -4.3822281e-01   2.7141229e-01   2.4044593e-02   5.6837813e-01   2.0798989e-01   7.2204536e-01  -5.3627275e-01  -1.0760866e-01   9.8471442e-01  -3.7063552e-01   5.1731342e-01   5.1512065e-01   3.1224293e-01  -1.5127440e-01  -9.4438210e-01  -8.6328862e-01  -6.9368133e-01   5.8275264e-01  -3.0047509e-01   6.7371723e-01   6.0646943e-01   7.4251901e-01   6.0653747e-01   4.3896229e-01  -8.5717503e-01  -5.8175980e-01   9.2244724e-01  -6.6102323e-01   2.3354527e-01   8.3407774e-01   4.2308155e-01   7.6545711e-01  -4.6146654e-01   3.6165700e-01  -9.8212609e-01  -8.4077373e-01   8.6716285e-01   9.1846476e-01   1.8836627e-01   1.2776785e-01  -8.1594479e-01  -6.3632233e-01   2.8086530e-01  -9.2509602e-02  -5.7716070e-01  -3.2917634e-01  -4.4290691e-02  -2.4424131e-02  -9.6229210e-01   5.2328045e-01  -5.7520088e-01  -6.2964714e-01   1.5578545e-02   7.4074280e-01  -7.4338986e-01  -3.7715488e-01  -7.6760207e-01   8.3928933e-01   2.3431905e-01   1.4361266e-01   6.7006550e-01  -5.0529730e-01  -2.0916786e-01   2.8522455e-01  -2.9637485e-01  -3.2120634e-01   9.3185323e-01   3.3952433e-01   8.8209332e-01  -9.5569777e-01   5.5671014e-01   4.0161135e-01   6.8493640e-01  -3.2245802e-01  -4.4321076e-01   2.9577889e-01   6.1791021e-01  -7.7180216e-02   9.9614295e-01  -8.7974793e-01   2.6466475e-01  -5.1676740e-01  -5.7759529e-01  -2.9549632e-01   9.7801867e-01  -2.8221333e-01   7.4191204e-01  -6.5595552e-01  -9.6693858e-01  -5.8175134e-01   4.7981318e-01  -3.5009297e-01   8.3895772e-01   8.6233870e-01  -8.3289627e-01   3.1148196e-01   4.3265505e-01   2.7480248e-02  -9.3950059e-02   3.4394976e-01   3.9715132e-01  -6.7236272e-01   8.4385143e-01  -1.2191844e-01  -5.0875719e-01   8.3871319e-01  -4.7693900e-01  -7.9729610e-01  -3.7901689e-01  -3.6735199e-01   2.7151388e-01   8.1419405e-01   5.0452134e-02   2.7925174e-01   7.4032618e-01  -6.4534543e-01  -4.3990312e-02  -1.8229546e-01   1.9746035e-02   2.7025924e-01  -4.1510593e-01   6.0243066e-01   2.8215125e-01  -6.2468083e-02  -4.0343747e-01  -2.2960974e-01   3.4424382e-01  -5.8177549e-01  -5.4321779e-02   7.1334150e-01  -4.5261677e-02   6.1352059e-01  -3.6538516e-01  -5.5746861e-01  -8.1294400e-01   4.7358076e-01  -6.0916151e-01  -9.8741426e-01  -3.6501130e-01   7.7409188e-01   6.5165241e-01  -6.6751080e-01  -9.3982920e-03   9.9557770e-01   4.7823008e-01   2.8601813e-02   6.0119186e-01  -6.0085585e-01  -2.4477554e-01   8.8469300e-01  -2.4973946e-01  -2.6989085e-01  -2.2563219e-01  -6.2310416e-01  -5.6149754e-01   9.6037030e-01   3.2723018e-01   8.6094342e-01  -1.8176945e-01   2.5096072e-01   7.5312131e-01   6.0446994e-01  -3.4381728e-01  -7.7708447e-01   7.7649767e-01  -1.9357156e-01   1.7757043e-01   2.3243219e-01   6.3921847e-01   1.5240942e-01  -8.4473897e-01  -7.8751928e-01  -1.0812239e-01  -8.9412231e-01  -9.0015779e-02   2.7016073e-01  -9.2553995e-01   9.9354669e-01   5.3462342e-01   4.3939507e-01   2.7019811e-01   8.7890195e-01  -7.7536331e-01   5.5455454e-01  -8.7253756e-01  -3.3503983e-01  -5.9203859e-01   1.0979401e-01   8.3508862e-01   3.2652865e-01  -4.2685978e-02  -6.2310969e-01   7.6480434e-02   5.5181428e-01   6.7644338e-01   3.5536648e-01   6.4191090e-01   8.5339948e-01   7.3578816e-01  -7.3290341e-01  -6.6821634e-01  -4.4161807e-01  -4.6971443e-01   7.1185246e-01  -9.6439249e-01  -8.5665885e-01   4.5420509e-01  -6.4668472e-01   7.6516613e-01  -6.3666632e-01   4.8276272e-01  -4.8453152e-01  -6.5285369e-01  -6.2833814e-01  -9.4492273e-01  -2.4514162e-01  -7.8423156e-01  -3.9202772e-02   1.3151251e-01  -2.4419027e-01   8.1987819e-01  -7.1750212e-02  -9.3765155e-01  -1.3591567e-01   4.3784764e-01  -6.3777573e-01   7.6530723e-01  -2.8684623e-01   2.8570953e-01   1.8377742e-01  -6.7967246e-01  -1.4764827e-01   6.2927052e-01  -7.5384527e-01  -1.0851103e-01   5.2563388e-01  -7.4864374e-01  -9.8415483e-01  -2.8279052e-01  -6.3026279e-02   5.8490319e-01  -3.5380492e-01  -9.4781283e-01  -8.1608638e-01  -7.9068876e-01   9.8929801e-04  -2.2516697e-01   1.0430758e-01   5.1440190e-01  -6.0109033e-01   5.0054260e-01  -7.0841041e-01   1.4020398e-01  -2.3058943e-01  -5.0256825e-01  -2.0565821e-01  -3.3527128e-01   3.0637040e-01  -7.9487078e-02  -7.4761529e-01  -3.3868128e-01   8.0985832e-01  -9.4517646e-01  -5.9583791e-01  -4.5331346e-01   8.6980050e-01   2.0976778e-01  -7.7914213e-01  -7.3861816e-01  -4.7616395e-01  -7.6199922e-01  -2.3602644e-01   5.1578474e-01  -6.7891991e-01   2.6337020e-01   5.6889116e-01  -2.2656021e-01  -7.5455300e-01   1.2111803e-01  -7.5352952e-01   5.5329311e-01  -4.5488995e-01  -3.2083964e-01   8.4826924e-01  -1.4095473e-01  -3.2222697e-01  -8.4227524e-02  -4.0713732e-01   5.2083471e-01  -1.9562127e-01  -3.1982868e-01  -4.1524035e-01  -3.0686016e-01   2.5857837e-01  -6.6750725e-01   3.2307190e-01   3.0713857e-01   7.0128945e-01  -7.0934915e-01  -8.3861181e-01   6.9677539e-01   6.6675452e-02   4.3362597e-01   6.1443069e-01   6.4526426e-01   3.2967220e-01   4.0006383e-01  -9.0465130e-01  -5.1006404e-01  -7.9676051e-01   8.2224727e-02  -9.4855169e-01  -6.2068720e-02   5.5020599e-01   1.3257640e-01   1.2877502e-01   4.9814392e-02  -2.2736482e-01  -6.3083233e-01  -7.8667116e-01   2.2913891e-01  -8.6406576e-01  -9.0911673e-01   7.0981124e-01  -9.1553923e-01   3.2583935e-01   6.0386970e-02  -7.1218465e-01  -5.5942370e-01   1.7048718e-01  -4.2597664e-01   1.5926103e-01   1.3096199e-01  -6.0066072e-01   3.6880278e-01  -4.8654557e-01  -3.0846446e-01   7.6435076e-01  -1.4201573e-01  -6.8291030e-01  -7.0602644e-01   2.3153273e-01   9.0591376e-02   8.9119914e-01  -6.1872583e-01   8.4775805e-01   1.0627114e-01   2.5949367e-01   6.0151199e-01  -7.3606057e-02   6.3676702e-01  -8.7250217e-01  -5.2473136e-01   6.3193033e-01  -9.6339923e-01   2.7635349e-01   4.6213864e-02   1.3458858e-01   6.5254267e-01   1.3287994e-01   1.6221478e-01   4.4276401e-01  -9.8757414e-01   4.8752556e-01   5.8911511e-01   7.4717090e-01   1.5055031e-01  -6.3024031e-01   2.5486212e-01   7.7013366e-01  -3.6971302e-02  -1.4735913e-01   9.5458938e-01   2.9912276e-01  -7.2692004e-01  -2.6634870e-01   4.4104264e-01   1.7672223e-01   6.1801992e-01   8.6133734e-01   8.8071021e-01   6.2283792e-01  -2.1482054e-01   7.2022097e-01   1.5526591e-01   9.1171078e-01  -3.9086371e-01   4.9372395e-01  -7.2106830e-01   2.4294219e-01  -8.0029855e-01  -5.5864988e-02   3.2147281e-01   8.8263731e-02   8.5094188e-01  -2.4337520e-01   4.7487624e-01  -8.7573783e-01   6.8799648e-01  -6.0622017e-01   8.9487033e-01  -5.8730598e-01   4.2822714e-02   8.7649987e-01   6.4426066e-01   3.6960867e-02   2.3104454e-03   8.6732912e-01  -9.1442959e-01   1.0405503e-01   8.2023293e-01   8.4517344e-01   5.0093355e-01  -2.0412156e-01  -8.5773844e-01  -4.2113881e-01   9.8893280e-01   6.6842937e-01   1.3089105e-01   8.3568855e-01  -2.0426944e-01  -2.0839292e-01   2.2036078e-01   9.1712798e-01   3.7003895e-01   5.3760169e-01  -1.8408529e-01  -7.8551022e-01   7.6761180e-01  -8.6288957e-01   6.3819306e-01   9.4115267e-01   5.9366423e-01   5.3288091e-01   7.0258009e-01   3.7384357e-01   9.6426779e-01   8.1979891e-01   4.7971221e-01   9.9574902e-01   2.3856870e-01  -3.6104874e-01  -9.2490432e-01  -4.5279953e-01  -1.5238348e-01  -9.6909251e-01   6.8392869e-01  -5.6363435e-01   3.2784886e-01   7.3639209e-01  -3.2296477e-01   1.9291074e-01  -6.1262636e-01  -5.6531508e-01  -8.9848640e-01   2.5539375e-03   9.7657689e-01  -8.5103347e-01   4.6525804e-01   3.5534774e-01  -7.0233932e-01  -7.3821436e-02  -7.9030187e-01  -7.1164273e-01  -7.8612899e-01   3.7399899e-01  -7.4226287e-01   8.6726275e-01  -9.6296259e-01   4.9947500e-01   3.6295783e-01  -1.1396487e-01  -1.7147229e-01  -9.9492627e-01   3.4433987e-01   2.8401716e-01  -1.8706667e-01  -1.9840386e-01  -9.0486262e-01   5.1699231e-01   3.1522251e-01  -1.8271841e-01   8.2084589e-01   9.3082259e-01   7.1322591e-01  -3.5868682e-01  -6.5019747e-01  -6.1592592e-01  -8.8572415e-01   6.6096227e-01   6.2942726e-01   6.1520824e-01   1.3525518e-01  -9.8585805e-01  -3.3184758e-01   2.4084192e-01   4.5759734e-02  -4.3416523e-01  -1.9265842e-01   1.4282480e-01   1.9095987e-01   5.0036087e-01  -6.9381696e-01  -9.0928621e-01  -7.2263235e-01  -6.7693656e-01  -6.5935659e-01   2.5277635e-01   7.5273769e-01  -3.6663235e-01   5.0334358e-01  -6.9191547e-01   9.0363986e-01   7.8347606e-01   1.5553657e-01   3.9325780e-01   3.6725374e-01  -2.7407970e-01   2.6809943e-01   3.5566081e-01   2.0139602e-01  -7.6210158e-01  -7.3524081e-02  -2.9560666e-02   5.8462527e-01   2.7731958e-01   2.8093363e-01  -3.2219595e-01   7.9201128e-01   8.8635443e-01   8.3386943e-01  -9.4566694e-01  -5.0371247e-01   5.8368316e-02  -7.2651671e-01   6.4589132e-01   2.0759347e-01   7.2326530e-01  -4.0611855e-01  -3.3694648e-01   2.1675273e-01   6.4582599e-02   9.3078480e-01  -3.0571824e-01   7.4047801e-01   1.5310947e-01  -1.8897632e-01  -3.6169318e-01   4.3253972e-02   4.1523948e-01   1.1194437e-01   7.8283852e-01   6.3250791e-01  -5.7395011e-01  -5.3937084e-01  -1.2805652e-01  -9.5470746e-01  -2.3106932e-01  -4.3206998e-01  -8.0232311e-01  -4.3794846e-01  -2.6498238e-01   4.1278836e-01   8.9437183e-01  -6.5944520e-01  -6.2199106e-01  -5.0412916e-01  -9.6866952e-01  -5.6841121e-01  -4.4984575e-01  -6.7351727e-01   5.9190449e-03   2.3662148e-01   6.3991207e-01   9.0434379e-01   5.8282316e-01  -1.6474658e-01  -2.5477789e-01   9.5556396e-02   5.7654844e-01  -6.0440571e-01  -7.0347333e-01   3.5337606e-01   4.7731407e-01   6.2622061e-01  -6.5581959e-01  -9.1357210e-01  -7.2709900e-01  -7.4778641e-01   9.2039726e-01  -8.2441230e-02  -9.9094702e-01   9.9767643e-01  -1.2673478e-01  -3.2678685e-01   2.6865694e-01  -7.3001925e-01  -6.6422631e-01   2.9574417e-01  -3.7394042e-01   5.4342221e-01  -1.1348002e-01  -9.8796225e-01  -5.3049481e-01   1.1816451e-01  -3.9640908e-01  -1.6163225e-01  -9.6844493e-01   9.9761658e-02  -9.6221089e-01  -9.0394342e-01   3.7488656e-01  -5.8732819e-01  -1.0270161e-01   1.6127287e-02   4.0714361e-01  -4.8177341e-01  -4.0178660e-01  -3.5024785e-02  -7.4907725e-01  -1.8031468e-02  -9.6498228e-02  -4.4880705e-01   2.9350776e-01   5.7659148e-02   7.9822580e-02  -2.6809679e-02  -8.4660472e-01  -2.1583534e-01  -5.9524271e-01   6.8804504e-01  -2.6513310e-01   1.6287212e-02   4.4701165e-01   6.7568136e-01   3.9839737e-01  -3.4803426e-01   3.0417734e-04  -3.5681218e-01  -5.4140654e-02   8.5093275e-01   3.8464604e-01   9.8039826e-01   5.0108825e-02  -7.7191049e-01   3.1616265e-01  -5.5152791e-01   3.5363878e-01   1.8195061e-01   1.2132879e-01  -9.6618192e-01  -3.9187720e-01  -2.1874129e-01  -7.9912471e-01   2.5583966e-01  -8.6493347e-01   9.2963674e-01  -1.6973086e-01   2.6883899e-01  -2.2396815e-01   6.4586363e-01  -1.1668311e-01   8.8311484e-01   9.8966203e-01  -3.7502584e-01   8.4149779e-01   1.4414993e-01   1.4162006e-01  -1.7294307e-01   6.7671020e-01  -5.4276712e-01   2.8911447e-01   2.1257708e-02   8.1294543e-01  -3.6409819e-01  -6.8697903e-01  -6.3350663e-01   4.3213722e-01   5.2666690e-01  -3.5019245e-02   7.2740168e-02  -9.9259626e-02   3.8822379e-01   2.2589402e-01  -4.5271113e-02   4.0343183e-01   6.5217643e-01   4.7367299e-01  -8.9450497e-02  -1.7472056e-01  -3.7779702e-01   6.6406380e-01  -4.9675172e-01  -3.7674555e-01   9.4321325e-01  -7.1001830e-01   8.7242882e-01  -1.8286290e-01  -3.0908754e-01  -3.1477309e-01   2.3258407e-01   8.0914209e-01   9.6891686e-01   5.0912326e-01  -7.5430837e-01   4.3917086e-01   8.2570788e-01   8.0040809e-01  -5.2477533e-01  -1.7778532e-02   2.7243082e-01  -6.9265429e-01  -4.6375008e-01   3.0204369e-01   5.3722966e-01  -8.7102859e-01   1.3218388e-01  -7.4027929e-01   8.8450723e-01  -6.1814416e-01   8.5227328e-01  -8.0134290e-01  -1.8339540e-01  -6.9691825e-01   8.4063652e-01   4.9472072e-01   9.8820665e-02  -4.6920292e-01  -9.9026304e-02   3.5859922e-01   8.3658482e-01  -2.4882435e-01  -6.8211917e-01   1.8218004e-01   7.4004715e-01  -6.9148253e-01  -5.2822464e-02   8.4960249e-01   8.3996046e-02   1.0080219e-01  -4.0294125e-01   3.5898092e-01  -1.9106744e-01  -9.1168437e-01  -8.2924760e-01   6.4758109e-01   3.8698924e-01   5.4460454e-01  -9.6295961e-01  -8.3652343e-01   7.4840518e-01   9.7491323e-01   5.8064007e-03  -5.4631916e-01  -5.0433653e-01   4.6965015e-01   1.0069329e-02  -7.6565232e-01  -3.9077874e-02   9.4301919e-01   1.9274473e-01   3.7459338e-01  -3.6343746e-01   7.0081146e-01  -6.8676112e-02  -9.4875306e-01   6.1006254e-01   4.8748767e-01   7.1794067e-01  -9.0151534e-01   4.7688630e-01  -6.6722614e-01   3.4267382e-01   1.7359220e-01   5.7658342e-01  -1.1564908e-01  -3.8553025e-01  -5.0251775e-01   6.8184939e-01  -1.2921787e-01  -4.5820393e-01  -3.1769438e-01   4.1297817e-01   2.1035135e-01  -2.6467864e-01   1.8606541e-02   1.1448707e-01  -5.9925587e-01  -6.2423533e-02   9.4635015e-01   7.9969982e-01  -2.1088593e-01  -7.6467054e-01  -6.8946471e-03  -8.1607657e-01   9.5956043e-01   7.0460577e-01   4.4989255e-01  -3.1214367e-01  -2.0229957e-01   1.5466419e-02  -9.1153673e-01   3.6361403e-01  -3.1331040e-01   7.9230205e-01   7.6584817e-01  -4.7682758e-01  -9.3203845e-01  -2.8874982e-02  -8.5784563e-01   2.9407683e-01   8.3623293e-01   5.2646208e-01  -3.4995676e-01   9.0424238e-01   7.4896650e-01   5.0694995e-01  -5.0842354e-01  -4.7580360e-03   8.4170126e-01   7.1339548e-01  -7.7001794e-01  -1.7372936e-01   8.0518097e-02   2.3844760e-02   2.7528008e-01   8.2605449e-01  -9.6165925e-01  -9.5632305e-01   3.0618393e-01   8.6545919e-01  -8.8536692e-02  -2.7977557e-01  -2.8034417e-01  -6.3706594e-01  -7.8457537e-01   3.2405197e-01  -2.7882541e-01  -6.1822042e-01   2.5830103e-01  -3.3091203e-01  -7.8590049e-02   2.2882051e-02   9.8823440e-01   2.1140505e-01   8.2160505e-02  -4.6947270e-02   1.0265434e-01  -5.0348002e-01   3.2850556e-01  -3.9137595e-01  -9.8271357e-01  -1.7134728e-01   1.4899897e-01  -7.2002949e-01   3.9518907e-01   9.0728762e-01   6.0294664e-01  -8.4816788e-01   9.8715731e-01  -2.2265600e-01  -6.6578036e-01   8.3687760e-01  -5.9294127e-01   8.6688443e-01  -9.3875287e-01   4.5488946e-01   9.3240893e-01  -6.8889817e-01  -8.2057596e-02  -4.6182283e-01   4.9966620e-01   2.9267884e-01   8.0139451e-01   5.2781601e-01   3.5833669e-01  -3.2209592e-01   8.6485122e-01   2.3190658e-02  -9.5504899e-01  -5.0269026e-01  -8.1811062e-01   9.1199358e-01   7.5592622e-02   7.4089514e-01   6.6211317e-01   6.3186020e-01   6.5075929e-01  -4.7549559e-01   6.3165656e-02   2.3473895e-01   2.1320249e-01   7.7249785e-01  -4.3954394e-01  -6.3461848e-01   1.6715961e-01  -8.2597883e-01   1.3398435e-01   2.5711820e-01  -4.4330178e-01   2.6326276e-02  -1.0700118e-01   2.8807513e-02  -3.8725084e-01   1.8794500e-01   3.0303112e-01  -1.9823734e-01   2.2426640e-01  -7.3125591e-01  -7.5886539e-01   5.3096520e-01   2.0272357e-01   9.9904987e-01   5.8445166e-02   9.7094724e-02  -5.1016018e-01   8.2890110e-01   6.8398081e-01  -7.8986381e-01   6.1841730e-01  -1.6092831e-01  -5.2142867e-01   7.1420958e-01   5.8137025e-01  -6.6601964e-01   7.2138160e-01
